{"learner":{"attributes":{"scikit_learn":"{\"_estimator_type\": \"classifier\"}"},"feature_names":[],"feature_types":[],"gradient_booster":{"model":{"cats":{"enc":[],"feature_segments":[],"sorted_idx":[]},"gbtree_model_param":{"num_parallel_tree":"1","num_trees":"500"},"iteration_indptr":[0,1,2,3,4,5,6,7,8,9,10,11,12,13,14,15,16,17,18,19,20,21,22,23,24,25,26,27,28,29,30,31,32,33,34,35,36,37,38,39,40,41,42,43,44,45,46,47,48,49,50,51,52,53,54,55,56,57,58,59,60,61,62,63,64,65,66,67,68,69,70,71,72,73,74,75,76,77,78,79,80,81,82,83,84,85,86,87,88,89,90,91,92,93,94,95,96,97,98,99,100,101,102,103,104,105,106,107,108,109,110,111,112,113,114,115,116,117,118,119,120,121,122,123,124,125,126,127,128,129,130,131,132,133,134,135,136,137,138,139,140,141,142,143,144,145,146,147,148,149,150,151,152,153,154,155,156,157,158,159,160,161,162,163,164,165,166,167,168,169,170,171,172,173,174,175,176,177,178,179,180,181,182,183,184,185,186,187,188,189,190,191,192,193,194,195,196,197,198,199,200,201,202,203,204,205,206,207,208,209,210,211,212,213,214,215,216,217,218,219,220,221,222,223,224,225,226,227,228,229,230,231,232,233,234,235,236,237,238,239,240,241,242,243,244,245,246,247,248,249,250,251,252,253,254,255,256,257,258,259,260,261,262,263,264,265,266,267,268,269,270,271,272,273,274,275,276,277,278,279,280,281,282,283,284,285,286,287,288,289,290,291,292,293,294,295,296,297,298,299,300,301,302,303,304,305,306,307,308,309,310,311,312,313,314,315,316,317,318,319,320,321,322,323,324,325,326,327,328,329,330,331,332,333,334,335,336,337,338,339,340,341,342,343,344,345,346,347,348,349,350,351,352,353,354,355,356,357,358,359,360,361,362,363,364,365,366,367,368,369,370,371,372,373,374,375,376,377,378,379,380,381,382,383,384,385,386,387,388,389,390,391,392,393,394,395,396,397,398,399,400,401,402,403,404,405,406,407,408,409,410,411,412,413,414,415,416,417,418,419,420,421,422,423,424,425,426,427,428,429,430,431,432,433,434,435,436,437,438,439,440,441,442,443,444,445,446,447,448,449,450,451,452,453,454,455,456,457,458,459,460,461,462,463,464,465,466,467,468,469,470,471,472,473,474,475,476,477,478,479,480,481,482,483,484,485,486,487,488,489,490,491,492,493,494,495,496,497,498,499,500],"tree_info":[0,0,0,0,0,0,0,0,0,0,0,0,0,0,0,0,0,0,0,0,0,0,0,0,0,0,0,0,0,0,0,0,0,0,0,0,0,0,0,0,0,0,0,0,0,0,0,0,0,0,0,0,0,0,0,0,0,0,0,0,0,0,0,0,0,0,0,0,0,0,0,0,0,0,0,0,0,0,0,0,0,0,0,0,0,0,0,0,0,0,0,0,0,0,0,0,0,0,0,0,0,0,0,0,0,0,0,0,0,0,0,0,0,0,0,0,0,0,0,0,0,0,0,0,0,0,0,0,0,0,0,0,0,0,0,0,0,0,0,0,0,0,0,0,0,0,0,0,0,0,0,0,0,0,0,0,0,0,0,0,0,0,0,0,0,0,0,0,0,0,0,0,0,0,0,0,0,0,0,0,0,0,0,0,0,0,0,0,0,0,0,0,0,0,0,0,0,0,0,0,0,0,0,0,0,0,0,0,0,0,0,0,0,0,0,0,0,0,0,0,0,0,0,0,0,0,0,0,0,0,0,0,0,0,0,0,0,0,0,0,0,0,0,0,0,0,0,0,0,0,0,0,0,0,0,0,0,0,0,0,0,0,0,0,0,0,0,0,0,0,0,0,0,0,0,0,0,0,0,0,0,0,0,0,0,0,0,0,0,0,0,0,0,0,0,0,0,0,0,0,0,0,0,0,0,0,0,0,0,0,0,0,0,0,0,0,0,0,0,0,0,0,0,0,0,0,0,0,0,0,0,0,0,0,0,0,0,0,0,0,0,0,0,0,0,0,0,0,0,0,0,0,0,0,0,0,0,0,0,0,0,0,0,0,0,0,0,0,0,0,0,0,0,0,0,0,0,0,0,0,0,0,0,0,0,0,0,0,0,0,0,0,0,0,0,0,0,0,0,0,0,0,0,0,0,0,0,0,0,0,0,0,0,0,0,0,0,0,0,0,0,0,0,0,0,0,0,0,0,0,0,0,0,0,0,0,0,0,0,0,0,0,0,0,0,0,0,0,0,0,0,0,0,0,0,0,0,0,0,0,0,0,0,0,0,0,0,0,0,0,0,0,0,0,0,0,0,0,0,0,0,0,0,0,0,0,0,0,0,0,0,0,0,0,0,0,0,0,0,0],"trees":[{"base_weights":[-2.0561058E-2,-3.35144E-1,1.1698223E0,-7.7467453E-1,3.1951877E-1,1.3271627E0,7.673083E-1,-5.4610145E-1,-1.4071484E0,5.7225096E-1,-6.3277495E-1,1.3678191E0,-3.9476657E-1,2.8035715E-1,1.345063E0,-6.4015186E-1,9.7897303E-1,-1.4740423E0,6.752321E-1,1.5155405E-1,9.634967E-1,-1.074242E0,3.9214557E-1,1.4143337E0,1.34173E-1,1.2270599E-2,-4.3196417E-2,6.5810394E-1,-5.9847665E-1,1.5679649E0,3.371009E-1,-7.361291E-1,5.5040556E-1,1.5301065E0,-5.6961554E-1,-1.5274272E0,3.6987418E-1,-5.9394926E-2,7.285732E-2,-2.6821509E-2,1.0244665E0,1.1175925E0,-7.9356384E-1,-1.2672819E0,6.0259724E-1,1.0672662E0,-5.4074377E-1,1.462203E0,3.2753864E-1,-7.727418E-1,1.0111687E0,9.538317E-1,-1.1944263E-1,-7.3927715E-2,-1.2014803E-1,8.1325136E-2,7.4358494E-3,-3.7877172E-2,8.4978247E-1,-4.18595E-2,1.30493585E-2,3.7064977E-2,-6.2087692E-2,8.071063E-2,7.4358494E-3,-4.1954912E-2,3.0990958E-3,-7.909864E-2,7.579047E-3,5.2559983E-2,-3.159235E-2,-7.848206E-3,7.151615E-2,6.411868E-2,-2.7487649E-2,5.997735E-2,1.2497961E-2,-7.844004E-2,2.2498932E-2,-6.937953E-2,3.6646128E-3,5.0558437E-2,-4.7638533E-3,7.7884E-2,-2.1111831E-2,-4.275563E-2,4.1340064E-2,7.426815E-2,-4.7638533E-3,-2.3707103E-2,6.170788E-2,-5.8628257E-2,7.4358494E-3,1.6053572E-2,6.241837E-2,5.3891517E-2,-2.4052791E-2,-4.173958E-2,4.801946E-2,1.6855044E-2,-5.8628257E-2,7.024662E-2,-1.3359246E-2],"categories":[],"categories_nodes":[],"categories_segments":[],"categories_sizes":[],"default_left":[0,0,0,0,0,0,0,0,0,0,0,0,0,0,0,0,0,0,0,0,0,0,0,0,0,0,0,0,0,0,0,0,0,0,0,0,0,0,0,0,0,0,0,0,0,0,0,0,0,0,0,0,0,0,0,0,0,0,0,0,0,0,0,0,0,0,0,0,0,0,0,0,0,0,0,0,0,0,0,0,0,0,0,0,0,0,0,0,0,0,0,0,0,0,0,0,0,0,0,0,0,0,0],"id":0,"left_children":[1,3,5,7,9,11,13,15,17,19,21,23,25,27,29,31,33,35,37,39,41,43,45,47,49,-1,-1,51,53,55,57,59,61,63,65,67,69,-1,-1,71,73,75,77,79,81,83,85,87,89,91,93,95,97,-1,99,-1,-1,-1,101,-1,-1,-1,-1,-1,-1,-1,-1,-1,-1,-1,-1,-1,-1,-1,-1,-1,-1,-1,-1,-1,-1,-1,-1,-1,-1,-1,-1,-1,-1,-1,-1,-1,-1,-1,-1,-1,-1,-1,-1,-1,-1,-1,-1],"loss_changes":[4.8468573E2,2.948141E2,1.6116272E1,8.781955E1,9.950244E1,1.4061707E1,2.168161E1,6.542279E1,2.3566559E1,5.352159E1,3.972666E1,1.0650665E1,1.7831995E0,1.4937736E1,7.469116E0,4.909555E1,2.3604996E1,1.6049713E1,1.00770035E1,2.4676031E1,4.6578278E1,2.0503891E1,1.7509686E1,8.986664E0,7.119647E0,0E0,0E0,7.268875E0,5.586918E0,2.157135E0,4.9763346E0,3.999736E1,1.1991529E1,2.073841E0,1.3660166E0,1.4258789E1,4.2344923E0,0E0,0E0,2.5335535E1,1.1620396E1,1.0761765E1,1.438704E1,8.973885E0,2.0847003E0,1.22968445E1,5.8450675E0,6.417267E0,7.100835E0,1.8265741E0,3.3325815E-1,4.549164E0,8.11104E0,0E0,5.1882954E0,0E0,0E0,0E0,3.9278421E0,0E0,0E0,0E0,0E0,0E0,0E0,0E0,0E0,0E0,0E0,0E0,0E0,0E0,0E0,0E0,0E0,0E0,0E0,0E0,0E0,0E0,0E0,0E0,0E0,0E0,0E0,0E0,0E0,0E0,0E0,0E0,0E0,0E0,0E0,0E0,0E0,0E0,0E0,0E0,0E0,0E0,0E0,0E0,0E0],"parents":[2147483647,0,0,1,1,2,2,3,3,4,4,5,5,6,6,7,7,8,8,9,9,10,10,11,11,12,12,13,13,14,14,15,15,16,16,17,17,18,18,19,19,20,20,21,21,22,22,23,23,24,24,27,27,28,28,29,29,30,30,31,31,32,32,33,33,34,34,35,35,36,36,39,39,40,40,41,41,42,42,43,43,44,44,45,45,46,46,47,47,48,48,49,49,50,50,51,51,52,52,54,54,58,58],"right_children":[2,4,6,8,10,12,14,16,18,20,22,24,26,28,30,32,34,36,38,40,42,44,46,48,50,-1,-1,52,54,56,58,60,62,64,66,68,70,-1,-1,72,74,76,78,80,82,84,86,88,90,92,94,96,98,-1,100,-1,-1,-1,102,-1,-1,-1,-1,-1,-1,-1,-1,-1,-1,-1,-1,-1,-1,-1,-1,-1,-1,-1,-1,-1,-1,-1,-1,-1,-1,-1,-1,-1,-1,-1,-1,-1,-1,-1,-1,-1,-1,-1,-1,-1,-1,-1,-1],"split_conditions":[1E0,1E0,1E0,1E0,1E0,1E0,1E0,1E0,1E0,1E0,1E0,1E0,1E0,1E0,1E0,1E0,1E0,1E0,1E0,1E0,1E0,1E0,1E0,1E0,1E0,1.2270599E-2,-4.3196417E-2,1E0,1E0,1E0,1E0,1E0,1E0,1E0,1E0,1E0,1E0,-5.9394926E-2,7.285732E-2,1E0,1E0,1E0,1E0,1E0,1E0,1E0,1E0,1E0,1E0,1E0,1E0,1E0,1E0,-7.3927715E-2,1E0,8.1325136E-2,7.4358494E-3,-3.7877172E-2,1E0,-4.18595E-2,1.30493585E-2,3.7064977E-2,-6.2087692E-2,8.071063E-2,7.4358494E-3,-4.1954912E-2,3.0990958E-3,-7.909864E-2,7.579047E-3,5.2559983E-2,-3.159235E-2,-7.848206E-3,7.151615E-2,6.411868E-2,-2.7487649E-2,5.997735E-2,1.2497961E-2,-7.844004E-2,2.2498932E-2,-6.937953E-2,3.6646128E-3,5.0558437E-2,-4.7638533E-3,7.7884E-2,-2.1111831E-2,-4.275563E-2,4.1340064E-2,7.426815E-2,-4.7638533E-3,-2.3707103E-2,6.170788E-2,-5.8628257E-2,7.4358494E-3,1.6053572E-2,6.241837E-2,5.3891517E-2,-2.4052791E-2,-4.173958E-2,4.801946E-2,1.6855044E-2,-5.8628257E-2,7.024662E-2,-1.3359246E-2],"split_indices":[70,125,139,116,2084,1685,892,16,1897,2022,1184,248,817,160,1186,1276,19,659,93,1914,117,834,136,1777,125,0,0,89,1362,1750,133,895,1870,2088,1250,1276,1195,0,0,538,62,88,1524,1643,133,65,1127,630,142,883,140,793,97,0,89,0,0,0,36,0,0,0,0,0,0,0,0,0,0,0,0,0,0,0,0,0,0,0,0,0,0,0,0,0,0,0,0,0,0,0,0,0,0,0,0,0,0,0,0,0,0,0,0],"split_type":[0,0,0,0,0,0,0,0,0,0,0,0,0,0,0,0,0,0,0,0,0,0,0,0,0,0,0,0,0,0,0,0,0,0,0,0,0,0,0,0,0,0,0,0,0,0,0,0,0,0,0,0,0,0,0,0,0,0,0,0,0,0,0,0,0,0,0,0,0,0,0,0,0,0,0,0,0,0,0,0,0,0,0,0,0,0,0,0,0,0,0,0,0,0,0,0,0,0,0,0,0,0,0],"sum_hessian":[1.2922628E3,1.02270953E3,2.6955328E2,6.117839E2,4.1092563E2,1.9214693E2,7.740634E1,4.5074884E2,1.6103506E2,3.2505685E2,8.5868774E1,1.8791571E2,4.231215E0,4.2809937E1,3.4596405E1,4.2511264E2,2.5636185E1,1.5630606E2,4.729005E0,1.5730164E2,1.6775522E2,5.9983692E1,2.5885078E1,1.8094666E2,6.96906E0,1.9911599E0,2.2400548E0,3.0116293E1,1.2693645E1,2.787624E1,6.720165E0,3.9375186E2,3.136077E1,1.891602E1,6.720165E0,1.5207484E2,4.231215E0,1.2444749E0,3.48453E0,1.3141655E2,2.5885078E1,1.5456378E2,1.3191435E1,5.4010212E1,5.9734797E0,1.49337E1,1.095138E1,1.7298203E2,7.9646397E0,3.48453E0,3.48453E0,2.1653864E1,8.46243E0,3.733425E0,8.960219E0,2.6631763E1,1.2444749E0,1.9911599E0,4.729005E0,3.576621E2,3.6089775E1,2.8871819E1,2.4889498E0,1.7671545E1,1.2444749E0,4.4801097E0,2.2400548E0,1.4734584E2,4.729005E0,2.4889498E0,1.742265E0,1.21460754E2,9.955799E0,2.2400549E1,3.48453E0,1.4087456E2,1.3689224E1,7.9646397E0,5.2267947E0,4.95301E1,4.4801097E0,3.48453E0,2.4889498E0,1.1200274E1,3.733425E0,9.209115E0,1.742265E0,1.7049307E2,2.4889498E0,4.4801097E0,3.48453E0,2.2400548E0,1.2444749E0,1.4933699E0,1.9911599E0,2.0160494E1,1.4933699E0,5.2267947E0,3.2356348E0,6.720165E0,2.2400548E0,2.9867399E0,1.742265E0],"tree_param":{"num_deleted":"0","num_feature":"2215","num_nodes":"103","size_leaf_vector":"1"}},{"base_weights":[9.69489E-3,-2.9134014E-1,1.1480792E0,-6.665102E-1,2.8712022E-1,1.2180426E0,3.4772968E-1,-7.387239E-1,1.1506857E0,5.4356325E-1,-7.6554495E-1,1.0728543E0,1.5181866E0,8.088309E-1,-6.88252E-1,-9.4971365E-1,-5.7633445E-2,-5.677792E-2,1.4349034E0,-5.5363005E-1,7.0299494E-1,-9.553959E-1,7.98087E-1,5.2892554E-1,1.2506491E0,-3.2275554E-2,1.5750768E0,9.882576E-1,-3.923302E-2,1.4122419E-1,-6.200377E-2,-1.2848265E0,-2.3098733E-1,4.1909721E-1,-5.8183944E-1,1.5534294E0,-1.5323174E-2,-7.605076E-1,6.221124E-2,8.450024E-1,-4.4709063E-1,-1.17810786E-1,-1.2171053E0,1.1338339E0,-3.7482403E-2,1.0874626E-1,1.156397E0,1.2907474E0,-6.527715E-2,1.6098659E0,-6.1438833E-3,1.1269295E0,-1.6394991E-2,3.5585992E-2,-2.4277803E-2,-7.144701E-2,-3.011944E-2,2.6262937E-2,-5.9515517E-2,2.8716609E-2,-4.858112E-2,-4.042286E-2,3.452062E-2,8.3903745E-2,6.0903816E-3,-7.340505E-2,-8.866174E-3,4.9440335E-2,-1.1076248E-2,-3.0169606E-2,5.0684024E-2,-2.1150954E-2,4.9332496E-2,-6.511351E-2,5.461958E-2,7.1202E-2,-3.6875473E-3,2.3037268E-2,-4.488577E-2,7.2075315E-2,-2.0748649E-2,6.84867E-2,4.5854426E-3,8.220031E-2,1.6569858E-2,6.389421E-2,-4.5653507E-3],"categories":[],"categories_nodes":[],"categories_segments":[],"categories_sizes":[],"default_left":[0,0,0,0,0,0,0,0,0,0,0,0,0,0,0,0,0,0,0,0,0,0,0,0,0,0,0,0,0,0,0,0,0,0,0,0,0,0,0,0,0,0,0,0,0,0,0,0,0,0,0,0,0,0,0,0,0,0,0,0,0,0,0,0,0,0,0,0,0,0,0,0,0,0,0,0,0,0,0,0,0,0,0,0,0,0,0],"id":1,"left_children":[1,3,5,7,9,11,13,15,17,19,21,23,25,27,29,31,33,-1,35,37,39,41,43,45,47,-1,49,51,-1,53,-1,55,57,59,61,63,-1,65,-1,67,69,71,73,75,-1,77,79,81,-1,83,-1,85,-1,-1,-1,-1,-1,-1,-1,-1,-1,-1,-1,-1,-1,-1,-1,-1,-1,-1,-1,-1,-1,-1,-1,-1,-1,-1,-1,-1,-1,-1,-1,-1,-1,-1,-1],"loss_changes":[4.4677307E2,2.2395796E2,1.48437195E1,8.296402E1,1.1010693E2,9.28006E0,1.1695377E1,8.651718E1,1.7423897E1,5.7647476E1,2.4515102E1,1.598465E1,1.0766373E1,5.5203705E0,3.7097325E0,1.1046893E2,3.6117554E1,0E0,5.0294304E0,1.660036E1,4.7126358E1,1.5596695E1,5.634885E0,1.1510798E1,1.49066925E1,0E0,4.773819E0,3.1726866E0,0E0,1.769701E0,0E0,2.9964355E1,1.07604866E2,1.6913795E1,2.0391066E1,3.51083E0,0E0,1.5571514E1,0E0,3.9347855E1,7.9436955E0,6.5530825E0,1.2162453E1,2.8962078E0,0E0,1.0169755E1,8.482233E0,1.1949905E1,0E0,2.7716064E0,0E0,2.7133389E0,0E0,0E0,0E0,0E0,0E0,0E0,0E0,0E0,0E0,0E0,0E0,0E0,0E0,0E0,0E0,0E0,0E0,0E0,0E0,0E0,0E0,0E0,0E0,0E0,0E0,0E0,0E0,0E0,0E0,0E0,0E0,0E0,0E0,0E0,0E0],"parents":[2147483647,0,0,1,1,2,2,3,3,4,4,5,5,6,6,7,7,8,8,9,9,10,10,11,11,12,12,13,13,14,14,15,15,16,16,18,18,19,19,20,20,21,21,22,22,23,23,24,24,26,26,27,27,29,29,31,31,32,32,33,33,34,34,35,35,37,37,39,39,40,40,41,41,42,42,43,43,45,45,46,46,47,47,49,49,51,51],"right_children":[2,4,6,8,10,12,14,16,18,20,22,24,26,28,30,32,34,-1,36,38,40,42,44,46,48,-1,50,52,-1,54,-1,56,58,60,62,64,-1,66,-1,68,70,72,74,76,-1,78,80,82,-1,84,-1,86,-1,-1,-1,-1,-1,-1,-1,-1,-1,-1,-1,-1,-1,-1,-1,-1,-1,-1,-1,-1,-1,-1,-1,-1,-1,-1,-1,-1,-1,-1,-1,-1,-1,-1,-1],"split_conditions":[1E0,1E0,1E0,1E0,1E0,1E0,1E0,1E0,1E0,1E0,1E0,1E0,1E0,1E0,1E0,1E0,1E0,-5.677792E-2,1E0,1E0,1E0,1E0,1E0,1E0,1E0,-3.2275554E-2,1E0,1E0,-3.923302E-2,1E0,-6.200377E-2,1E0,1E0,1E0,1E0,1E0,-1.5323174E-2,1E0,6.221124E-2,1E0,1E0,1E0,1E0,1E0,-3.7482403E-2,1E0,1E0,1E0,-6.527715E-2,1E0,-6.1438833E-3,1E0,-1.6394991E-2,3.5585992E-2,-2.4277803E-2,-7.144701E-2,-3.011944E-2,2.6262937E-2,-5.9515517E-2,2.8716609E-2,-4.858112E-2,-4.042286E-2,3.452062E-2,8.3903745E-2,6.0903816E-3,-7.340505E-2,-8.866174E-3,4.9440335E-2,-1.1076248E-2,-3.0169606E-2,5.0684024E-2,-2.1150954E-2,4.9332496E-2,-6.511351E-2,5.461958E-2,7.1202E-2,-3.6875473E-3,2.3037268E-2,-4.488577E-2,7.2075315E-2,-2.0748649E-2,6.84867E-2,4.5854426E-3,8.220031E-2,1.6569858E-2,6.389421E-2,-4.5653507E-3],"split_indices":[70,101,112,22,112,101,139,133,137,145,2151,142,133,669,150,134,154,0,1329,969,62,145,659,154,45,0,903,976,0,51,0,124,163,51,1127,2088,0,135,0,2084,22,205,1678,1647,0,139,314,1769,0,517,0,1506,0,0,0,0,0,0,0,0,0,0,0,0,0,0,0,0,0,0,0,0,0,0,0,0,0,0,0,0,0,0,0,0,0,0,0],"split_type":[0,0,0,0,0,0,0,0,0,0,0,0,0,0,0,0,0,0,0,0,0,0,0,0,0,0,0,0,0,0,0,0,0,0,0,0,0,0,0,0,0,0,0,0,0,0,0,0,0,0,0,0,0,0,0,0,0,0,0,0,0,0,0,0,0,0,0,0,0,0,0,0,0,0,0,0,0,0,0,0,0,0,0,0,0,0,0],"sum_hessian":[1.3017341E3,1.0300825E3,2.716516E2,6.247429E2,4.053396E2,2.4933388E2,2.2317717E1,6.014359E2,2.3307022E1,3.2632596E2,7.901365E1,1.7112851E2,7.8205376E1,1.5595593E1,6.7221236E0,4.588866E2,1.4254933E2,2.2458718E0,2.1061152E1,4.1088238E1,2.8523773E2,7.080565E1,8.207996E0,4.3136276E1,1.2799223E2,1.7385045E0,7.646687E1,1.4358632E1,1.2369612E0,2.982716E0,3.7394078E0,3.1242694E2,1.4645964E2,7.47603E1,6.778903E1,1.9820028E1,1.2411231E0,3.7365604E1,3.7226338E0,2.5412479E2,3.1112936E1,1.7201965E1,5.3603683E1,6.9646034E0,1.2433931E0,2.6538425E1,1.659785E1,1.2650287E2,1.489366E0,7.4982445E1,1.4844258E0,1.312006E1,1.2385725E0,1.4905235E0,1.4921925E0,2.5705048E2,5.5376465E1,8.215126E1,6.430837E1,6.7781425E1,6.978875E0,5.784927E1,9.939759E0,1.807423E1,1.7457983E0,1.6196526E1,2.1169079E1,2.2399544E2,3.012936E1,2.8635855E1,2.4770813E0,1.3960963E1,3.2410028E0,5.2117916E1,1.4857688E0,5.470653E0,1.4939501E0,2.0063608E1,6.4748173E0,1.4118784E1,2.4790676E0,1.1855097E2,7.951895E0,7.275371E1,2.228741E0,1.1629995E1,1.4900646E0],"tree_param":{"num_deleted":"0","num_feature":"2215","num_nodes":"87","size_leaf_vector":"1"}},{"base_weights":[1.4843162E-3,-2.8645936E-1,1.0826725E0,-5.307788E-1,6.834746E-1,1.163856E0,2.0807318E-1,-3.4793204E-1,-1.1514086E0,9.269476E-1,-6.0167277E-1,1.194179E0,-6.6809016E-1,-1.5505755E-1,6.574714E-2,-4.264055E-1,8.8250196E-1,-1.2396084E0,2.4278209E-1,1.0236986E0,-3.904223E-1,-1.102999E0,4.699191E-1,1.210939E0,-5.859896E-2,1.97951E-3,-6.5994576E-2,-5.7376313E-1,6.7925537E-1,-6.2543863E-1,6.0426414E-2,1.3019887E0,-4.7922954E-2,-1.3166834E0,3.9095625E-1,9.1212445E-1,-6.392291E-1,1.0976067E0,-3.7481344E-1,-7.399266E-1,5.7659157E-2,-1.4655896E0,-4.9953467E-1,9.119424E-1,-5.8290076E-1,1.250557E0,1.6918543E-1,-8.1891644E-1,2.7945204E-2,5.7095744E-2,-2.8629836E-2,-3.483006E-2,3.6024015E-2,2.0119403E-2,-2.3924012E-2,7.276737E-2,-6.8772472E-3,-3.4015764E-2,2.5492385E-2,-6.883948E-2,5.9779264E-2,4.2548012E-2,-3.873717E-2,5.9645306E-2,-1.1850869E-2,3.6830235E-2,-6.479462E-2,-2.21528E-3,5.9868872E-2,-4.515859E-2,5.775507E-2,-7.3996805E-2,-2.5431847E-3,-8.370754E-2,-2.2426471E-2,3.8317812E-3,-6.6488974E-2,6.61569E-2,5.8536637E-3,-6.2876455E-2,1.6298605E-2,6.397635E-2,-1.4635375E-3,-2.0529842E-2,6.452052E-2,-7.226743E-3,-7.618398E-2,4.8791897E-2,-4.59582E-2],"categories":[],"categories_nodes":[],"categories_segments":[],"categories_sizes":[],"default_left":[0,0,0,0,0,0,0,0,0,0,0,0,0,0,0,0,0,0,0,0,0,0,0,0,0,0,0,0,0,0,0,0,0,0,0,0,0,0,0,0,0,0,0,0,0,0,0,0,0,0,0,0,0,0,0,0,0,0,0,0,0,0,0,0,0,0,0,0,0,0,0,0,0,0,0,0,0,0,0,0,0,0,0,0,0,0,0,0,0],"id":2,"left_children":[1,3,5,7,9,11,13,15,17,19,21,23,25,27,-1,29,31,33,35,37,39,41,43,45,-1,-1,-1,47,49,51,53,55,57,59,61,63,65,67,69,71,-1,73,75,77,79,81,83,85,-1,-1,87,-1,-1,-1,-1,-1,-1,-1,-1,-1,-1,-1,-1,-1,-1,-1,-1,-1,-1,-1,-1,-1,-1,-1,-1,-1,-1,-1,-1,-1,-1,-1,-1,-1,-1,-1,-1,-1,-1],"loss_changes":[4.0563138E2,2.4418918E2,1.9214142E1,9.293138E1,6.547329E1,1.4714752E1,1.0048527E1,6.1855682E1,2.3262894E1,2.268097E1,1.8596039E1,1.1206757E1,2.2297006E0,7.1447515E0,0E0,5.8099716E1,1.5088707E1,2.260675E1,7.635868E0,1.7272766E1,7.6964207E0,4.349577E0,5.849138E0,9.92337E0,0E0,0E0,0E0,4.183426E0,2.2988987E0,4.1248077E1,3.2405895E1,6.0661354E0,4.90702E0,2.7026703E1,5.3272386E0,2.6072102E0,6.1425376E0,1.7734482E1,8.264803E0,5.509141E0,0E0,2.216713E0,4.997395E0,2.602912E0,2.8556967E0,8.802765E0,7.130036E0,5.2149653E0,0E0,0E0,4.216033E0,0E0,0E0,0E0,0E0,0E0,0E0,0E0,0E0,0E0,0E0,0E0,0E0,0E0,0E0,0E0,0E0,0E0,0E0,0E0,0E0,0E0,0E0,0E0,0E0,0E0,0E0,0E0,0E0,0E0,0E0,0E0,0E0,0E0,0E0,0E0,0E0,0E0,0E0],"parents":[2147483647,0,0,1,1,2,2,3,3,4,4,5,5,6,6,7,7,8,8,9,9,10,10,11,11,12,12,13,13,15,15,16,16,17,17,18,18,19,19,20,20,21,21,22,22,23,23,27,27,28,28,29,29,30,30,31,31,32,32,33,33,34,34,35,35,36,36,37,37,38,38,39,39,41,41,42,42,43,43,44,44,45,45,46,46,47,47,50,50],"right_children":[2,4,6,8,10,12,14,16,18,20,22,24,26,28,-1,30,32,34,36,38,40,42,44,46,-1,-1,-1,48,50,52,54,56,58,60,62,64,66,68,70,72,-1,74,76,78,80,82,84,86,-1,-1,88,-1,-1,-1,-1,-1,-1,-1,-1,-1,-1,-1,-1,-1,-1,-1,-1,-1,-1,-1,-1,-1,-1,-1,-1,-1,-1,-1,-1,-1,-1,-1,-1,-1,-1,-1,-1,-1,-1],"split_conditions":[1E0,1E0,1E0,1E0,1E0,1E0,1E0,1E0,1E0,1E0,1E0,1E0,1E0,1E0,6.574714E-2,1E0,1E0,1E0,1E0,1E0,1E0,1E0,1E0,1E0,-5.859896E-2,1.97951E-3,-6.5994576E-2,1E0,1E0,1E0,1E0,1E0,1E0,1E0,1E0,1E0,1E0,1E0,1E0,1E0,5.7659157E-2,1E0,1E0,1E0,1E0,1E0,1E0,1E0,2.7945204E-2,5.7095744E-2,1E0,-3.483006E-2,3.6024015E-2,2.0119403E-2,-2.3924012E-2,7.276737E-2,-6.8772472E-3,-3.4015764E-2,2.5492385E-2,-6.883948E-2,5.9779264E-2,4.2548012E-2,-3.873717E-2,5.9645306E-2,-1.1850869E-2,3.6830235E-2,-6.479462E-2,-2.21528E-3,5.9868872E-2,-4.515859E-2,5.775507E-2,-7.3996805E-2,-2.5431847E-3,-8.370754E-2,-2.2426471E-2,3.8317812E-3,-6.6488974E-2,6.61569E-2,5.8536637E-3,-6.2876455E-2,1.6298605E-2,6.397635E-2,-1.4635375E-3,-2.0529842E-2,6.452052E-2,-7.226743E-3,-7.618398E-2,4.8791897E-2,-4.59582E-2],"split_indices":[70,2022,112,115,117,1685,2005,16,22,123,1524,1097,1981,126,0,133,2088,1276,481,517,683,79,155,1777,0,0,0,138,142,2151,117,1184,144,2151,141,1329,19,145,912,481,0,1683,146,1769,175,224,80,80,0,0,49,0,0,0,0,0,0,0,0,0,0,0,0,0,0,0,0,0,0,0,0,0,0,0,0,0,0,0,0,0,0,0,0,0,0,0,0,0,0],"split_type":[0,0,0,0,0,0,0,0,0,0,0,0,0,0,0,0,0,0,0,0,0,0,0,0,0,0,0,0,0,0,0,0,0,0,0,0,0,0,0,0,0,0,0,0,0,0,0,0,0,0,0,0,0,0,0,0,0,0,0,0,0,0,0,0,0,0,0,0,0,0,0,0,0,0,0,0,0,0,0,0,0,0,0,0,0,0,0,0,0],"sum_hessian":[1.3009387E3,1.0279172E3,2.7302142E2,8.214521E2,2.0646518E2,2.4952853E2,2.3492899E1,6.3572003E2,1.8573201E2,1.738145E2,3.265068E1,2.4580795E2,3.7205749E0,1.8336994E1,5.1559043E0,5.9822076E2,3.7499294E1,1.7478554E2,1.0946476E1,1.6213019E2,1.1684321E1,2.2224169E1,1.0426511E1,2.445639E2,1.2440603E0,2.2341506E0,1.4864243E0,1.2417487E1,5.919507E0,4.2441925E2,1.7380148E2,2.557109E1,1.1928205E1,1.6708034E2,7.705208E0,6.204131E0,4.742345E0,1.5419643E2,7.9337626E0,9.9517E0,1.732621E0,1.2990324E1,9.233845E0,7.4376464E0,2.9888644E0,2.3541078E2,9.153113E0,1.0435779E1,1.9817077E0,3.2090206E0,2.7104864E0,4.0356415E2,2.0855131E1,1.0648504E2,6.7316444E1,2.309926E1,2.4718306E0,5.4871964E0,6.441008E0,1.6361774E2,3.4625938E0,5.718569E0,1.9866393E0,4.9552736E0,1.2488577E0,1.4928349E0,3.24951E0,1.243454E1,1.4176189E2,6.2016664E0,1.7320961E0,4.2450433E0,5.706657E0,1.0243661E1,2.7466633E0,5.986825E0,3.24702E0,4.4638457E0,2.9738007E0,1.4953202E0,1.4935441E0,2.3020023E2,5.2105618E0,6.451076E0,2.7020369E0,5.948651E0,4.487128E0,1.2287464E0,1.48174E0],"tree_param":{"num_deleted":"0","num_feature":"2215","num_nodes":"89","size_leaf_vector":"1"}},{"base_weights":[2.2707247E-4,-2.8195497E-1,1.057436E0,-5.191365E-1,6.7427576E-1,1.1288372E0,2.3876603E-1,-3.5115644E-1,-1.0912266E0,9.11002E-1,-5.623931E-1,1.1455841E0,-6.252282E-2,-1.2861302E-1,7.050957E-2,-4.2260963E-1,7.9971004E-1,-1.1728972E0,2.9238763E-1,-2.1082725E-1,1.0057905E0,-9.833646E-1,3.9465946E-1,1.166404E0,-4.469338E-1,3.8699415E-1,-7.914262E-1,-6.294813E-1,7.294755E-2,1.2389212E0,-1.3338803E-1,-1.241058E0,3.2455054E-1,1.0936135E0,-7.3533356E-1,-5.0927585E-1,4.7965743E-2,1.0746648E0,-4.2763183E-1,-1.1523758E0,2.806276E-2,7.961756E-1,-4.2531043E-1,1.182497E0,-3.5770833E-2,1.7884545E-2,-6.1083257E-2,7.495176E-1,-4.9659558E-2,-1.0665256E0,1.4947328E-2,-4.3934733E-2,-8.5994005E-3,1.6522553E-2,-2.8498838E-2,6.849813E-2,-3.6980283E-2,2.7150104E-2,-3.7239175E-2,-6.467372E-2,5.5889554E-2,-2.2811748E-2,6.0341477E-2,1.479531E-2,6.324836E-2,3.5778765E-2,-7.275248E-2,-3.894221E-2,2.807116E-2,5.6896266E-2,-6.529392E-3,-4.636226E-2,5.2833807E-2,-6.42246E-2,1.8289382E-2,6.8715303E-3,6.8742536E-2,-6.092098E-2,2.2655677E-2,6.006915E-2,-2.4397446E-2,2.1423519E-2,6.156786E-2,-6.658777E-2,-2.7017302E-3],"categories":[],"categories_nodes":[],"categories_segments":[],"categories_sizes":[],"default_left":[0,0,0,0,0,0,0,0,0,0,0,0,0,0,0,0,0,0,0,0,0,0,0,0,0,0,0,0,0,0,0,0,0,0,0,0,0,0,0,0,0,0,0,0,0,0,0,0,0,0,0,0,0,0,0,0,0,0,0,0,0,0,0,0,0,0,0,0,0,0,0,0,0,0,0,0,0,0,0,0,0,0,0,0,0],"id":3,"left_children":[1,3,5,7,9,11,13,15,17,19,21,23,-1,25,-1,27,29,31,33,35,37,39,41,43,45,47,49,51,53,55,57,59,61,63,65,67,-1,69,71,73,-1,75,77,79,-1,-1,-1,81,-1,83,-1,-1,-1,-1,-1,-1,-1,-1,-1,-1,-1,-1,-1,-1,-1,-1,-1,-1,-1,-1,-1,-1,-1,-1,-1,-1,-1,-1,-1,-1,-1,-1,-1,-1,-1],"loss_changes":[3.8690002E2,2.3251987E2,1.5701935E1,7.8494736E1,6.019937E1,1.1435577E1,1.0159966E1,5.26353E1,2.1341629E1,1.8449509E1,1.3834828E1,8.804047E0,0E0,6.651748E0,0E0,6.149881E1,1.5542929E1,1.8332901E1,9.992045E0,5.443768E0,1.6089676E1,6.7727833E0,3.9303606E0,8.322113E0,2.897257E0,6.305833E0,2.854238E0,4.8077133E1,2.9564049E1,7.6532288E0,5.74404E0,2.2246124E1,6.3651543E0,5.376744E-1,6.769943E0,3.8888812E0,0E0,1.1687836E1,6.892865E0,4.778023E0,0E0,2.7354612E0,3.504551E0,8.32019E0,0E0,0E0,0E0,9.223075E-1,0E0,1.7993746E0,0E0,0E0,0E0,0E0,0E0,0E0,0E0,0E0,0E0,0E0,0E0,0E0,0E0,0E0,0E0,0E0,0E0,0E0,0E0,0E0,0E0,0E0,0E0,0E0,0E0,0E0,0E0,0E0,0E0,0E0,0E0,0E0,0E0,0E0,0E0],"parents":[2147483647,0,0,1,1,2,2,3,3,4,4,5,5,6,6,7,7,8,8,9,9,10,10,11,11,13,13,15,15,16,16,17,17,18,18,19,19,20,20,21,21,22,22,23,23,24,24,25,25,26,26,27,27,28,28,29,29,30,30,31,31,32,32,33,33,34,34,35,35,37,37,38,38,39,39,41,41,42,42,43,43,47,47,49,49],"right_children":[2,4,6,8,10,12,14,16,18,20,22,24,-1,26,-1,28,30,32,34,36,38,40,42,44,46,48,50,52,54,56,58,60,62,64,66,68,-1,70,72,74,-1,76,78,80,-1,-1,-1,82,-1,84,-1,-1,-1,-1,-1,-1,-1,-1,-1,-1,-1,-1,-1,-1,-1,-1,-1,-1,-1,-1,-1,-1,-1,-1,-1,-1,-1,-1,-1,-1,-1,-1,-1,-1,-1],"split_conditions":[1E0,1E0,1E0,1E0,1E0,1E0,1E0,1E0,1E0,1E0,1E0,1E0,-6.252282E-2,1E0,7.050957E-2,1E0,1E0,1E0,1E0,1E0,1E0,1E0,1E0,1E0,1E0,1E0,1E0,1E0,1E0,1E0,1E0,1E0,1E0,1E0,1E0,1E0,4.7965743E-2,1E0,1E0,1E0,2.806276E-2,1E0,1E0,1E0,-3.5770833E-2,1.7884545E-2,-6.1083257E-2,1E0,-4.9659558E-2,1E0,1.4947328E-2,-4.3934733E-2,-8.5994005E-3,1.6522553E-2,-2.8498838E-2,6.849813E-2,-3.6980283E-2,2.7150104E-2,-3.7239175E-2,-6.467372E-2,5.5889554E-2,-2.2811748E-2,6.0341477E-2,1.479531E-2,6.324836E-2,3.5778765E-2,-7.275248E-2,-3.894221E-2,2.807116E-2,5.6896266E-2,-6.529392E-3,-4.636226E-2,5.2833807E-2,-6.42246E-2,1.8289382E-2,6.8715303E-3,6.8742536E-2,-6.092098E-2,2.2655677E-2,6.006915E-2,-2.4397446E-2,2.1423519E-2,6.156786E-2,-6.658777E-2,-2.7017302E-3],"split_indices":[70,2022,112,115,117,2020,2005,16,22,145,1524,1178,0,150,0,133,2088,1276,481,1102,2084,175,155,1523,248,669,138,134,136,1492,98,2151,1048,247,19,113,0,517,745,412,0,158,175,1764,0,0,0,154,0,1366,0,0,0,0,0,0,0,0,0,0,0,0,0,0,0,0,0,0,0,0,0,0,0,0,0,0,0,0,0,0,0,0,0,0,0],"split_type":[0,0,0,0,0,0,0,0,0,0,0,0,0,0,0,0,0,0,0,0,0,0,0,0,0,0,0,0,0,0,0,0,0,0,0,0,0,0,0,0,0,0,0,0,0,0,0,0,0,0,0,0,0,0,0,0,0,0,0,0,0,0,0,0,0,0,0,0,0,0,0,0,0,0,0,0,0,0,0,0,0,0,0,0,0],"sum_hessian":[1.2949067E3,1.02267535E3,2.7223132E2,8.197927E2,2.028826E2,2.5004454E2,2.2186785E1,6.349649E2,1.8482784E2,1.7050705E2,3.2375546E1,2.4881177E2,1.2327712E0,1.7567516E1,4.619267E0,5.9844257E2,3.6522354E1,1.7466988E2,1.0157958E1,1.31890745E1,1.5731798E2,2.2466074E1,9.909473E0,2.4586502E2,2.9467518E0,1.0115067E1,7.4524503E0,4.2200513E2,1.7643744E2,2.4610428E1,1.1911927E1,1.6722917E2,7.440709E0,5.671928E0,4.48603E0,1.0958776E1,2.230298E0,1.5034438E2,6.973606E0,2.0479197E1,1.9868767E0,6.6715984E0,3.2378752E0,2.4414871E2,1.7163093E0,1.7095459E0,1.237206E0,8.372789E0,1.742277E0,5.968482E0,1.4839683E0,2.7259305E2,1.494121E2,1.2632705E2,5.0110386E1,2.3370163E1,1.2402645E0,5.7084746E0,6.203452E0,1.6403575E2,3.1934226E0,4.2035804E0,3.2371285E0,1.4851124E0,4.1868153E0,1.4893447E0,2.9966853E0,8.972394E0,1.9863828E0,1.4289981E2,7.444554E0,5.4982233E0,1.4753828E0,1.898129E1,1.4979061E0,3.6986582E0,2.9729404E0,1.4981645E0,1.7397107E0,2.416969E2,2.4518042E0,6.158591E0,2.2141988E0,4.479672E0,1.4888102E0],"tree_param":{"num_deleted":"0","num_feature":"2215","num_nodes":"85","size_leaf_vector":"1"}},{"base_weights":[1.6794683E-2,-2.4532753E-1,1.0323501E0,-6.2878346E-1,3.1738868E-1,1.1084788E0,2.439059E-1,-4.3224007E-1,-1.1854744E0,-5.2078724E-2,7.600518E-1,9.6382046E-1,1.3883663E0,-1.9737397E-1,9.969787E-1,-5.065275E-1,8.8519365E-1,-1.2463199E0,5.8648443E-1,-1.8613654E-1,8.922796E-1,9.3382925E-1,-4.0173745E-1,1.3515071E0,7.420381E-1,-3.637781E-2,1.4441969E0,2.881867E-1,-1.0309778E0,6.575977E-2,-5.749691E-3,-5.945176E-1,6.0007036E-1,-1.9865562E-1,7.548501E-2,-1.2956756E0,4.9508977E-1,-5.7163443E-2,7.128503E-2,-3.6135083E-1,6.439685E-1,1.1215183E0,-2.736739E-1,1.0164069E0,-2.4142082E-1,-9.777999E-1,5.5877423E-1,1.4122583E0,-2.0738615E-2,9.7210413E-1,8.53783E-2,1.487408E0,7.3004834E-2,-3.144619E-2,5.879545E-2,-6.2502556E-2,-2.2123894E-2,-3.4500152E-2,1.4893668E-2,1.31666465E-2,6.754734E-2,6.1721552E-2,-4.829929E-2,-6.7143075E-2,6.3628913E-3,4.9847953E-2,-1.9973649E-2,-3.0410176E-2,1.9164227E-2,6.17441E-2,-1.3395133E-2,6.375519E-2,-1.29539585E-2,2.8539626E-2,-4.583396E-2,5.2591182E-2,-5.6686044E-2,6.1450977E-2,-3.581054E-2,-1.0085656E-2,-7.539343E-2,4.027515E-2,-3.3246983E-2,7.461637E-2,-2.415151E-3,-1.6304197E-2,5.2490156E-2,2.9511232E-2,-4.7915388E-2,7.55691E-2,-1.4075088E-6,-1.9719144E-2,2.5425022E-2,1.8248353E-2,-2.4125263E-2],"categories":[],"categories_nodes":[],"categories_segments":[],"categories_sizes":[],"default_left":[0,0,0,0,0,0,0,0,0,0,0,0,0,0,0,0,0,0,0,0,0,0,0,0,0,0,0,0,0,0,0,0,0,0,0,0,0,0,0,0,0,0,0,0,0,0,0,0,0,0,0,0,0,0,0,0,0,0,0,0,0,0,0,0,0,0,0,0,0,0,0,0,0,0,0,0,0,0,0,0,0,0,0,0,0,0,0,0,0,0,0,0,0,0,0],"id":4,"left_children":[1,3,5,7,9,11,13,15,17,19,21,23,25,27,29,31,33,35,37,39,41,43,45,47,49,-1,51,53,55,-1,-1,57,59,61,-1,63,65,-1,-1,67,69,71,73,75,77,79,81,83,-1,85,87,89,91,93,-1,-1,-1,-1,-1,-1,-1,-1,-1,-1,-1,-1,-1,-1,-1,-1,-1,-1,-1,-1,-1,-1,-1,-1,-1,-1,-1,-1,-1,-1,-1,-1,-1,-1,-1,-1,-1,-1,-1,-1,-1],"loss_changes":[3.431331E2,2.2128716E2,1.5602386E1,6.619748E1,6.806146E1,8.414459E0,8.360871E0,4.4703125E1,1.7821625E1,2.898416E1,3.8588715E1,1.2932312E1,1.0478348E1,6.9049473E0,3.421568E0,4.2097588E1,1.6883734E1,1.3841019E1,1.0256279E1,2.9345766E1,7.9163513E0,1.6253647E1,1.4560135E1,6.783539E0,1.5826988E1,0E0,4.5182343E0,3.1858861E0,2.497487E-1,0E0,0E0,3.4086075E1,7.7539463E0,1.2013221E1,0E0,1.0216629E1,2.623384E0,0E0,0E0,3.0731428E1,1.9322353E1,5.416786E0,3.4997163E0,1.294342E1,9.004736E0,6.3583374E0,3.594547E0,6.628723E0,0E0,8.199104E0,1.554015E1,2.6977386E0,9.001862E-1,1.8092468E0,0E0,0E0,0E0,0E0,0E0,0E0,0E0,0E0,0E0,0E0,0E0,0E0,0E0,0E0,0E0,0E0,0E0,0E0,0E0,0E0,0E0,0E0,0E0,0E0,0E0,0E0,0E0,0E0,0E0,0E0,0E0,0E0,0E0,0E0,0E0,0E0,0E0,0E0,0E0,0E0,0E0],"parents":[2147483647,0,0,1,1,2,2,3,3,4,4,5,5,6,6,7,7,8,8,9,9,10,10,11,11,12,12,13,13,14,14,15,15,16,16,17,17,18,18,19,19,20,20,21,21,22,22,23,23,24,24,26,26,27,27,28,28,31,31,32,32,33,33,35,35,36,36,39,39,40,40,41,41,42,42,43,43,44,44,45,45,46,46,47,47,49,49,50,50,51,51,52,52,53,53],"right_children":[2,4,6,8,10,12,14,16,18,20,22,24,26,28,30,32,34,36,38,40,42,44,46,48,50,-1,52,54,56,-1,-1,58,60,62,-1,64,66,-1,-1,68,70,72,74,76,78,80,82,84,-1,86,88,90,92,94,-1,-1,-1,-1,-1,-1,-1,-1,-1,-1,-1,-1,-1,-1,-1,-1,-1,-1,-1,-1,-1,-1,-1,-1,-1,-1,-1,-1,-1,-1,-1,-1,-1,-1,-1,-1,-1,-1,-1,-1,-1],"split_conditions":[1E0,1E0,1E0,1E0,1E0,1E0,1E0,1E0,1E0,1E0,1E0,1E0,1E0,1E0,1E0,1E0,1E0,1E0,1E0,1E0,1E0,1E0,1E0,1E0,1E0,-3.637781E-2,1E0,1E0,1E0,6.575977E-2,-5.749691E-3,1E0,1E0,1E0,7.548501E-2,1E0,1E0,-5.7163443E-2,7.128503E-2,1E0,1E0,1E0,1E0,1E0,1E0,1E0,1E0,1E0,-2.0738615E-2,1E0,1E0,1E0,1E0,1E0,5.879545E-2,-6.2502556E-2,-2.2123894E-2,-3.4500152E-2,1.4893668E-2,1.31666465E-2,6.754734E-2,6.1721552E-2,-4.829929E-2,-6.7143075E-2,6.3628913E-3,4.9847953E-2,-1.9973649E-2,-3.0410176E-2,1.9164227E-2,6.17441E-2,-1.3395133E-2,6.375519E-2,-1.29539585E-2,2.8539626E-2,-4.583396E-2,5.2591182E-2,-5.6686044E-2,6.1450977E-2,-3.581054E-2,-1.0085656E-2,-7.539343E-2,4.027515E-2,-3.3246983E-2,7.461637E-2,-2.415151E-3,-1.6304197E-2,5.2490156E-2,2.9511232E-2,-4.7915388E-2,7.55691E-2,-1.4075088E-6,-1.9719144E-2,2.5425022E-2,1.8248353E-2,-2.4125263E-2],"split_indices":[70,125,112,116,2022,101,892,16,1897,2151,117,882,119,80,139,1276,153,659,93,1624,62,123,1524,1945,139,0,1461,154,79,0,0,895,104,101,0,1276,1195,0,0,519,817,95,126,569,98,159,91,674,0,63,89,1979,1206,281,0,0,0,0,0,0,0,0,0,0,0,0,0,0,0,0,0,0,0,0,0,0,0,0,0,0,0,0,0,0,0,0,0,0,0,0,0,0,0,0,0],"split_type":[0,0,0,0,0,0,0,0,0,0,0,0,0,0,0,0,0,0,0,0,0,0,0,0,0,0,0,0,0,0,0,0,0,0,0,0,0,0,0,0,0,0,0,0,0,0,0,0,0,0,0,0,0,0,0,0,0,0,0,0,0,0,0,0,0,0,0,0,0,0,0,0,0,0,0,0,0,0,0,0,0,0,0,0,0,0,0,0,0,0,0,0,0,0,0],"sum_hessian":[1.2870553E3,1.023612E3,2.6344324E2,6.087021E2,4.1490988E2,2.3987598E2,2.3567274E1,4.5118475E2,1.5751735E2,2.2663339E2,1.882765E2,1.6107094E2,7.880503E1,1.5325097E1,8.242176E0,4.2768405E2,2.3500717E1,1.5257487E2,4.9424777E0,1.991637E2,2.7469687E1,1.6394955E2,2.4326935E1,5.6759197E1,1.04311745E2,1.7165879E0,7.708845E1,1.0097662E1,5.227435E0,6.2661986E0,1.975977E0,3.9661066E2,3.1073376E1,8.840198E0,1.4660521E1,1.4861862E2,3.9562492E0,1.4962244E0,3.446253E0,1.6491829E2,3.4245407E1,2.2988098E1,4.4815893E0,1.5331238E2,1.06371765E1,1.5195503E1,9.131432E0,5.5065647E1,1.6935494E0,7.689173E1,2.7420013E1,7.465116E1,2.437281E0,8.133643E0,1.9640194E0,2.990187E0,2.2372482E0,3.5848022E2,3.8130432E1,2.238522E1,8.688158E0,2.8704784E0,5.969719E0,1.4390294E2,4.715687E0,2.4610698E0,1.4951792E0,1.2399587E2,4.092242E1,2.056475E1,1.3680657E1,2.0755545E1,2.2325537E0,1.9858518E0,2.4957373E0,1.5133049E2,1.98189E0,2.2085793E0,8.4285965E0,6.7269497E0,8.4685545E0,7.883661E0,1.2477711E0,5.2183174E1,2.8824751E0,4.1617E0,7.2730034E1,1.8773483E1,8.64653E0,7.34512E1,1.1999589E0,1.2211299E0,1.2161509E0,4.4306407E0,3.7030022E0],"tree_param":{"num_deleted":"0","num_feature":"2215","num_nodes":"95","size_leaf_vector":"1"}},{"base_weights":[3.9628414E-3,-2.4427733E-1,9.561917E-1,-4.589431E-1,6.404668E-1,1.0304613E0,1.6318636E-1,-2.927972E-1,-1.0323328E0,8.2828265E-1,-3.997079E-1,1.0465764E0,-5.8245193E-2,-2.5313827E-1,8.628361E-1,-3.6407638E-1,7.394581E-1,-1.1158793E0,3.4195992E-1,9.227259E-1,-3.923173E-1,-8.1954306E-1,4.967238E-1,1.0719408E0,-3.851836E-1,2.652799E-1,-1.0419173E0,1.2615546E0,-1.3147751E-2,-4.0056938E-1,1.2783962E0,9.326835E-1,-9.576495E-1,-1.2248805E0,-3.2154804E-1,9.5977837E-1,-4.3781766E-1,-1.2115998E-1,1.0048912E0,-6.563171E-1,4.998301E-2,-1.0386457E0,4.4851087E-2,7.954428E-1,-3.399433E-1,1.1940949E0,7.739761E-1,9.1064405E-3,-4.1138336E-2,-7.4940555E-2,5.717179E-2,-1.2075933E0,-9.471325E-3,6.8045594E-2,2.1056594E-2,-2.4621448E-2,1.6369743E-2,7.286578E-2,2.5363537E-3,5.2717995E-2,-6.0515296E-2,1.2205526E-3,-7.091394E-2,-6.366288E-2,1.9085122E-2,1.2270716E-2,-7.430176E-2,6.367111E-2,-1.1188428E-2,-4.66858E-2,2.2571078E-2,-1.8962411E-2,4.1434024E-2,5.354574E-2,-4.906946E-3,-6.994157E-2,1.2641988E-3,-6.2511824E-2,1.4868461E-2,9.073246E-3,6.641175E-2,2.8209293E-2,-5.4426767E-2,6.071141E-2,-4.2293508E-2,1.6665366E-2,6.1051298E-2,-1.5850393E-2,3.174218E-2,-7.114929E-2,-2.0043718E-2],"categories":[],"categories_nodes":[],"categories_segments":[],"categories_sizes":[],"default_left":[0,0,0,0,0,0,0,0,0,0,0,0,0,0,0,0,0,0,0,0,0,0,0,0,0,0,0,0,0,0,0,0,0,0,0,0,0,0,0,0,0,0,0,0,0,0,0,0,0,0,0,0,0,0,0,0,0,0,0,0,0,0,0,0,0,0,0,0,0,0,0,0,0,0,0,0,0,0,0,0,0,0,0,0,0,0,0,0,0,0,0],"id":5,"left_children":[1,3,5,7,9,11,13,15,17,19,21,23,-1,25,27,29,31,33,35,37,39,41,43,45,47,49,51,53,-1,55,57,59,61,63,65,67,69,71,73,75,-1,77,-1,79,81,83,85,-1,-1,87,-1,89,-1,-1,-1,-1,-1,-1,-1,-1,-1,-1,-1,-1,-1,-1,-1,-1,-1,-1,-1,-1,-1,-1,-1,-1,-1,-1,-1,-1,-1,-1,-1,-1,-1,-1,-1,-1,-1,-1,-1],"loss_changes":[3.0424945E2,1.9420056E2,1.55074005E1,7.802583E1,3.935781E1,9.822296E0,7.2035117E0,4.7276855E1,2.1544937E1,1.9906044E1,1.2159856E1,9.1987915E0,0E0,6.7403874E0,4.4492545E0,3.637243E1,1.45335865E1,1.467099E1,5.877905E0,1.36445465E1,5.388361E0,9.072429E0,2.9154174E0,7.7378235E0,1.3779178E0,3.173605E0,6.853404E-1,6.9150925E-3,0E0,3.935003E1,2.8348389E0,1.1145782E1,2.1812162E0,1.2349625E1,1.5121245E1,2.7475696E0,2.9326825E0,3.353207E0,1.0756958E1,5.8191915E0,0E0,5.928955E0,0E0,2.408039E0,2.9728608E0,7.8836823E0,1.3784668E1,0E0,0E0,1.6424271E0,0E0,3.388276E-1,0E0,0E0,0E0,0E0,0E0,0E0,0E0,0E0,0E0,0E0,0E0,0E0,0E0,0E0,0E0,0E0,0E0,0E0,0E0,0E0,0E0,0E0,0E0,0E0,0E0,0E0,0E0,0E0,0E0,0E0,0E0,0E0,0E0,0E0,0E0,0E0,0E0,0E0,0E0],"parents":[2147483647,0,0,1,1,2,2,3,3,4,4,5,5,6,6,7,7,8,8,9,9,10,10,11,11,13,13,14,14,15,15,16,16,17,17,18,18,19,19,20,20,21,21,22,22,23,23,24,24,25,25,26,26,27,27,29,29,30,30,31,31,32,32,33,33,34,34,35,35,36,36,37,37,38,38,39,39,41,41,43,43,44,44,45,45,46,46,49,49,51,51],"right_children":[2,4,6,8,10,12,14,16,18,20,22,24,-1,26,28,30,32,34,36,38,40,42,44,46,48,50,52,54,-1,56,58,60,62,64,66,68,70,72,74,76,-1,78,-1,80,82,84,86,-1,-1,88,-1,90,-1,-1,-1,-1,-1,-1,-1,-1,-1,-1,-1,-1,-1,-1,-1,-1,-1,-1,-1,-1,-1,-1,-1,-1,-1,-1,-1,-1,-1,-1,-1,-1,-1,-1,-1,-1,-1,-1,-1],"split_conditions":[1E0,1E0,1E0,1E0,1E0,1E0,1E0,1E0,1E0,1E0,1E0,1E0,-5.8245193E-2,1E0,1E0,1E0,1E0,1E0,1E0,1E0,1E0,1E0,1E0,1E0,1E0,1E0,1E0,1E0,-1.3147751E-2,1E0,1E0,1E0,1E0,1E0,1E0,1E0,1E0,1E0,1E0,1E0,4.998301E-2,1E0,4.4851087E-2,1E0,1E0,1E0,1E0,9.1064405E-3,-4.1138336E-2,1E0,5.717179E-2,1E0,-9.471325E-3,6.8045594E-2,2.1056594E-2,-2.4621448E-2,1.6369743E-2,7.286578E-2,2.5363537E-3,5.2717995E-2,-6.0515296E-2,1.2205526E-3,-7.091394E-2,-6.366288E-2,1.9085122E-2,1.2270716E-2,-7.430176E-2,6.367111E-2,-1.1188428E-2,-4.66858E-2,2.2571078E-2,-1.8962411E-2,4.1434024E-2,5.354574E-2,-4.906946E-3,-6.994157E-2,1.2641988E-3,-6.2511824E-2,1.4868461E-2,9.073246E-3,6.641175E-2,2.8209293E-2,-5.4426767E-2,6.071141E-2,-4.2293508E-2,1.6665366E-2,6.1051298E-2,-1.5850393E-2,3.174218E-2,-7.114929E-2,-2.0043718E-2],"split_indices":[70,2022,112,115,117,1097,892,1151,22,123,1524,1685,0,80,139,1690,83,134,123,145,683,1614,155,139,817,154,85,610,0,1624,161,1896,145,892,728,1476,688,673,517,481,0,1983,0,158,83,1764,892,0,0,653,0,145,0,0,0,0,0,0,0,0,0,0,0,0,0,0,0,0,0,0,0,0,0,0,0,0,0,0,0,0,0,0,0,0,0,0,0,0,0,0,0],"split_type":[0,0,0,0,0,0,0,0,0,0,0,0,0,0,0,0,0,0,0,0,0,0,0,0,0,0,0,0,0,0,0,0,0,0,0,0,0,0,0,0,0,0,0,0,0,0,0,0,0,0,0,0,0,0,0,0,0,0,0,0,0,0,0,0,0,0,0,0,0,0,0,0,0,0,0,0,0,0,0,0,0,0,0,0,0,0,0,0,0,0,0],"sum_hessian":[1.2851239E3,1.019968E3,2.6515588E2,8.2120105E2,1.9876701E2,2.4217531E2,2.2980572E1,6.378792E2,1.8332181E2,1.6853902E2,3.0228004E1,2.4093005E2,1.2452587E0,1.4807566E1,8.173007E0,5.97283E2,4.0596203E1,1.7299318E2,1.0328641E1,1.5666145E2,1.1877555E1,2.0644926E1,9.583079E0,2.3698308E2,3.946974E0,9.335544E0,5.4720216E0,5.946394E0,2.2266126E0,5.850405E2,1.2242509E1,3.685094E1,3.7452629E0,1.5164223E2,2.1350946E1,5.63399E0,4.6946507E0,1.1396586E1,1.4526488E2,1.0428252E1,1.4493024E0,1.8658304E1,1.9866225E0,7.0980883E0,2.4849904E0,1.6594461E2,7.103846E1,1.972925E0,1.974049E0,7.3879294E0,1.9476143E0,4.2328486E0,1.239173E0,4.763877E0,1.1825175E0,5.197752E2,6.52653E1,1.0521987E1,1.720522E0,3.5351707E1,1.4992326E0,1.4981707E0,2.247092E0,1.474109E2,4.231326E0,1.4890399E1,6.4605465E0,4.393706E0,1.2402841E0,2.981791E0,1.7128597E0,9.433944E0,1.9626427E0,1.3708836E2,8.176509E0,4.4874716E0,5.9407806E0,1.6162743E1,2.495561E0,3.9206316E0,3.1774569E0,1.2371416E0,1.2478487E0,1.6472366E2,1.2209506E0,3.665361E1,3.438485E1,5.921735E0,1.4661949E0,2.7379131E0,1.4949353E0],"tree_param":{"num_deleted":"0","num_feature":"2215","num_nodes":"91","size_leaf_vector":"1"}},{"base_weights":[5.6277853E-3,-2.325373E-1,9.243298E-1,-5.817097E-1,2.8976738E-1,9.882182E-1,1.9293109E-1,-6.5728736E-1,6.158912E-1,4.8612523E-1,-4.1802394E-1,8.591779E-1,1.3111829E0,-3.6036927E-1,9.98931E-1,-7.2943723E-1,6.529506E-1,2.804476E-1,1.3160578E0,6.1968476E-1,-6.135666E-1,-6.03302E-1,1.0392675E0,1.2980335E0,6.634524E-1,1.3506664E0,-2.3998847E-2,1.7714712E-1,-8.9811844E-1,1.2188257E0,-5.4674665E-3,-8.07278E-1,2.6386097E-1,1.2389083E0,-5.5607766E-1,4.404286E-1,-5.525908E-2,7.549109E-2,1.7263522E-2,7.2317743E-1,-2.1452008E-1,-8.078406E-1,5.6157757E-2,-6.90068E-1,5.668926E-2,8.015636E-2,1.736541E-2,1.3819072E0,-3.644248E-1,-3.3383432E-1,8.2211185E-1,1.3905473E0,-1.354902E-2,6.4583105E-1,-4.6474665E-2,-6.6653945E-2,-4.2905487E-2,6.987714E-2,1.766525E-2,-4.2437863E-2,5.2622E-2,4.7659658E-2,-3.479297E-2,6.9164716E-2,-1.1027041E-2,-4.7081906E-2,3.2245878E-2,3.0461002E-2,-4.170926E-2,4.3508172E-2,8.742387E-3,2.2942699E-3,-7.5196244E-2,-4.918805E-2,4.0392708E-2,-4.3949857E-2,9.373583E-3,-3.9717205E-2,5.3567905E-2,7.359736E-2,-1.0304887E-2,-4.783297E-2,1.995012E-2,-3.8668178E-2,6.128153E-2,2.8183503E-2,6.7141965E-2,7.0898145E-2,-2.4176869E-3,4.7547895E-2,-1.5248644E-2,4.8711456E-2,-5.1373627E-2],"categories":[],"categories_nodes":[],"categories_segments":[],"categories_sizes":[],"default_left":[0,0,0,0,0,0,0,0,0,0,0,0,0,0,0,0,0,0,0,0,0,0,0,0,0,0,0,0,0,0,0,0,0,0,0,0,0,0,0,0,0,0,0,0,0,0,0,0,0,0,0,0,0,0,0,0,0,0,0,0,0,0,0,0,0,0,0,0,0,0,0,0,0,0,0,0,0,0,0,0,0,0,0,0,0,0,0,0,0,0,0,0,0],"id":6,"left_children":[1,3,5,7,9,11,13,15,17,19,21,23,25,27,29,31,33,35,37,39,41,43,45,47,49,51,-1,53,55,57,-1,59,61,63,65,67,-1,-1,-1,69,71,73,-1,75,-1,-1,77,79,81,83,85,87,-1,89,-1,-1,91,-1,-1,-1,-1,-1,-1,-1,-1,-1,-1,-1,-1,-1,-1,-1,-1,-1,-1,-1,-1,-1,-1,-1,-1,-1,-1,-1,-1,-1,-1,-1,-1,-1,-1,-1,-1],"loss_changes":[2.804055E2,1.8577658E2,1.2137604E1,5.5643524E1,5.6968212E1,8.975342E0,1.036605E1,5.4790283E1,8.260858E0,4.740921E1,2.4722178E1,1.4264557E1,5.4077454E0,4.2170672E0,2.4236422E0,4.2354492E1,2.2306662E1,6.275363E0,1.6665268E0,2.4848358E1,1.2776927E1,1.2810856E1,5.983961E0,7.931114E0,1.98675E1,4.6522903E0,0E0,4.6750746E0,2.614668E0,7.3202515E-1,0E0,3.9900574E1,2.7365273E1,4.701435E0,5.539489E0,5.6986103E0,0E0,0E0,0E0,2.0374283E1,1.0927371E1,9.953283E0,0E0,1.2869778E1,0E0,0E0,4.8898487E0,7.5838623E0,1.8962054E0,1.3084854E1,1.3659058E1,2.6203308E0,0E0,2.0623202E0,0E0,0E0,4.4607563E0,0E0,0E0,0E0,0E0,0E0,0E0,0E0,0E0,0E0,0E0,0E0,0E0,0E0,0E0,0E0,0E0,0E0,0E0,0E0,0E0,0E0,0E0,0E0,0E0,0E0,0E0,0E0,0E0,0E0,0E0,0E0,0E0,0E0,0E0,0E0,0E0],"parents":[2147483647,0,0,1,1,2,2,3,3,4,4,5,5,6,6,7,7,8,8,9,9,10,10,11,11,12,12,13,13,14,14,15,15,16,16,17,17,18,18,19,19,20,20,21,21,22,22,23,23,24,24,25,25,27,27,28,28,29,29,31,31,32,32,33,33,34,34,35,35,39,39,40,40,41,41,43,43,46,46,47,47,48,48,49,49,50,50,51,51,53,53,56,56],"right_children":[2,4,6,8,10,12,14,16,18,20,22,24,26,28,30,32,34,36,38,40,42,44,46,48,50,52,-1,54,56,58,-1,60,62,64,66,68,-1,-1,-1,70,72,74,-1,76,-1,-1,78,80,82,84,86,88,-1,90,-1,-1,92,-1,-1,-1,-1,-1,-1,-1,-1,-1,-1,-1,-1,-1,-1,-1,-1,-1,-1,-1,-1,-1,-1,-1,-1,-1,-1,-1,-1,-1,-1,-1,-1,-1,-1,-1,-1],"split_conditions":[1E0,1E0,1E0,1E0,1E0,1E0,1E0,1E0,1E0,1E0,1E0,1E0,1E0,1E0,1E0,1E0,1E0,1E0,1E0,1E0,1E0,1E0,1E0,1E0,1E0,1E0,-2.3998847E-2,1E0,1E0,1E0,-5.4674665E-3,1E0,1E0,1E0,1E0,1E0,-5.525908E-2,7.549109E-2,1.7263522E-2,1E0,1E0,1E0,5.6157757E-2,1E0,5.668926E-2,8.015636E-2,1E0,1E0,1E0,1E0,1E0,1E0,-1.354902E-2,1E0,-4.6474665E-2,-6.6653945E-2,1E0,6.987714E-2,1.766525E-2,-4.2437863E-2,5.2622E-2,4.7659658E-2,-3.479297E-2,6.9164716E-2,-1.1027041E-2,-4.7081906E-2,3.2245878E-2,3.0461002E-2,-4.170926E-2,4.3508172E-2,8.742387E-3,2.2942699E-3,-7.5196244E-2,-4.918805E-2,4.0392708E-2,-4.3949857E-2,9.373583E-3,-3.9717205E-2,5.3567905E-2,7.359736E-2,-1.0304887E-2,-4.783297E-2,1.995012E-2,-3.8668178E-2,6.128153E-2,2.8183503E-2,6.7141965E-2,7.0898145E-2,-2.4176869E-3,4.7547895E-2,-1.5248644E-2,4.8711456E-2,-5.1373627E-2],"split_indices":[70,125,112,1276,2084,96,126,16,104,112,1263,882,996,150,883,895,145,114,89,62,917,1013,85,1263,1362,1271,0,669,79,138,0,68,2040,2088,1102,66,0,0,0,247,1850,258,0,1016,0,0,116,674,159,1048,101,246,0,1441,0,0,157,0,0,0,0,0,0,0,0,0,0,0,0,0,0,0,0,0,0,0,0,0,0,0,0,0,0,0,0,0,0,0,0,0,0,0,0],"split_type":[0,0,0,0,0,0,0,0,0,0,0,0,0,0,0,0,0,0,0,0,0,0,0,0,0,0,0,0,0,0,0,0,0,0,0,0,0,0,0,0,0,0,0,0,0,0,0,0,0,0,0,0,0,0,0,0,0,0,0,0,0,0,0,0,0,0,0,0,0,0,0,0,0,0,0,0,0,0,0,0,0,0,0,0,0,0,0,0,0,0,0,0,0],"sum_hessian":[1.2795621E3,1.0167309E3,2.6283127E2,6.092919E2,4.07439E2,2.4139413E2,2.1437136E1,5.7354785E2,3.5744057E1,3.1919894E2,8.824005E1,1.7509526E2,6.629888E1,1.3039033E1,8.398104E0,5.4403326E2,2.9514578E1,2.5113123E1,1.0630933E1,2.8501932E2,3.417961E1,7.880669E1,9.433363E0,5.226804E1,1.2282722E2,6.5109566E1,1.1893189E0,6.8562884E0,6.182744E0,6.9244695E0,1.4736339E0,5.0467148E2,3.9361774E1,1.9863152E1,9.651425E0,2.3125286E1,1.9878377E0,8.399234E0,2.2316988E0,2.5368045E2,3.1338879E1,3.1221897E1,2.9577115E0,7.563169E1,3.174993E0,5.7125535E0,3.7208095E0,4.9918335E1,2.3497066E0,1.6707117E1,1.061201E2,6.368586E1,1.4237058E0,5.1089516E0,1.7473371E0,3.7279463E0,2.4547977E0,5.2298903E0,1.694579E0,4.941926E2,1.0478889E1,2.2911837E1,1.6449936E1,1.8122446E1,1.7407057E0,7.4694343E0,2.1819916E0,2.088201E1,2.243276E0,1.995909E2,5.408955E1,2.687556E1,4.4633183E0,2.8508907E1,2.7129912E0,6.2231873E1,1.3399819E1,2.2411695E0,1.4796401E0,4.7309E1,2.6093361E0,1.1806762E0,1.1690303E0,1.3426884E1,3.2802322E0,7.231298E1,3.3807125E1,6.2509403E1,1.1764554E0,3.8676152E0,1.2413362E0,1.2125938E0,1.242204E0],"tree_param":{"num_deleted":"0","num_feature":"2215","num_nodes":"93","size_leaf_vector":"1"}},{"base_weights":[-3.1070665E-3,-2.0478325E-1,9.3339807E-1,-3.987396E-1,5.8008856E-1,1.0122905E0,-1.2506191E-1,-2.5437468E-1,-9.9833584E-1,7.815415E-1,-2.9180482E-1,1.0691649E0,5.13553E-2,4.151728E-1,-6.427119E-1,-3.335137E-1,4.5295838E-1,-1.0545381E0,7.608968E-1,9.272796E-1,1.336638E-1,-7.676559E-1,5.834305E-1,1.0965767E0,-4.1218083E-2,-2.0727497E-1,5.1501986E-2,7.5422543E-1,-3.0350229E-2,-1.0098215E0,2.2975302E-1,-4.45576E-1,3.3463278E-1,6.461231E-1,-8.3551943E-1,-1.1083248E0,7.618516E-1,-1.5346736E-2,5.647685E-2,-3.4402397E-2,1.0207356E0,-7.0310794E-2,6.873339E-2,-9.282195E-1,3.3535324E-2,8.256146E-1,-2.2079164E-1,1.11319E0,-4.38404E-2,3.8148406E-1,-6.3612187E-1,8.385872E-2,5.4590113E-2,9.585763E-3,-6.6738E-2,4.793413E-2,-2.9570473E-2,-2.9849676E-2,9.490175E-3,8.979064E-3,7.035005E-2,4.418295E-2,-1.7231269E-2,-1.5401969E-2,-7.411467E-2,-6.310425E-2,-1.6058426E-2,6.264461E-2,-9.841629E-4,-3.0407533E-2,1.6299492E-2,5.3387042E-2,-4.1056275E-2,-1.4937905E-2,6.420773E-2,-3.024656E-2,-7.215652E-2,-6.777451E-4,5.2316565E-2,2.41774E-2,-5.2342713E-2,5.649532E-2,-4.3411013E-2,4.1775773E-3,3.2203283E-2,-4.7160447E-2,2.1838626E-2,2.429261E-2,-1.7657911E-2],"categories":[],"categories_nodes":[],"categories_segments":[],"categories_sizes":[],"default_left":[0,0,0,0,0,0,0,0,0,0,0,0,0,0,0,0,0,0,0,0,0,0,0,0,0,0,0,0,0,0,0,0,0,0,0,0,0,0,0,0,0,0,0,0,0,0,0,0,0,0,0,0,0,0,0,0,0,0,0,0,0,0,0,0,0,0,0,0,0,0,0,0,0,0,0,0,0,0,0,0,0,0,0,0,0,0,0,0,0],"id":7,"left_children":[1,3,5,7,9,11,13,15,17,19,21,23,25,27,29,31,33,35,37,39,41,43,45,47,-1,49,-1,51,-1,53,55,57,59,61,63,65,67,-1,-1,69,71,73,-1,75,-1,77,79,81,-1,83,85,87,-1,-1,-1,-1,-1,-1,-1,-1,-1,-1,-1,-1,-1,-1,-1,-1,-1,-1,-1,-1,-1,-1,-1,-1,-1,-1,-1,-1,-1,-1,-1,-1,-1,-1,-1,-1,-1],"loss_changes":[2.4237933E2,1.6097246E2,1.9114853E1,7.3086075E1,3.7049744E1,1.1516617E1,4.92671E0,3.845085E1,1.702443E1,1.5980606E1,1.713801E1,1.1277069E1,3.4740803E0,3.4942107E0,3.083191E0,4.6265984E1,1.7780773E1,1.641829E1,2.574784E0,1.2534225E1,8.3209915E0,6.7177315E0,3.041944E0,7.448532E0,0E0,3.0254774E0,0E0,1.4981828E0,0E0,2.7744741E0,2.632643E0,5.0900215E1,1.4551767E1,1.4614162E1,2.77322E0,1.8382889E1,2.01152E0,0E0,0E0,2.94532E0,1.1853561E1,9.312126E0,0E0,3.1489716E0,0E0,2.1432953E0,2.9423845E0,7.4801025E0,0E0,3.5846037E-1,2.636451E0,7.752043E-1,0E0,0E0,0E0,0E0,0E0,0E0,0E0,0E0,0E0,0E0,0E0,0E0,0E0,0E0,0E0,0E0,0E0,0E0,0E0,0E0,0E0,0E0,0E0,0E0,0E0,0E0,0E0,0E0,0E0,0E0,0E0,0E0,0E0,0E0,0E0,0E0,0E0],"parents":[2147483647,0,0,1,1,2,2,3,3,4,4,5,5,6,6,7,7,8,8,9,9,10,10,11,11,12,12,13,13,14,14,15,15,16,16,17,17,18,18,19,19,20,20,21,21,22,22,23,23,25,25,27,27,29,29,30,30,31,31,32,32,33,33,34,34,35,35,36,36,39,39,40,40,41,41,43,43,45,45,46,46,47,47,49,49,50,50,51,51],"right_children":[2,4,6,8,10,12,14,16,18,20,22,24,26,28,30,32,34,36,38,40,42,44,46,48,-1,50,-1,52,-1,54,56,58,60,62,64,66,68,-1,-1,70,72,74,-1,76,-1,78,80,82,-1,84,86,88,-1,-1,-1,-1,-1,-1,-1,-1,-1,-1,-1,-1,-1,-1,-1,-1,-1,-1,-1,-1,-1,-1,-1,-1,-1,-1,-1,-1,-1,-1,-1,-1,-1,-1,-1,-1,-1],"split_conditions":[1E0,1E0,1E0,1E0,1E0,1E0,1E0,1E0,1E0,1E0,1E0,1E0,1E0,1E0,1E0,1E0,1E0,1E0,1E0,1E0,1E0,1E0,1E0,1E0,-4.1218083E-2,1E0,5.1501986E-2,1E0,-3.0350229E-2,1E0,1E0,1E0,1E0,1E0,1E0,1E0,1E0,-1.5346736E-2,5.647685E-2,1E0,1E0,1E0,6.873339E-2,1E0,3.3535324E-2,1E0,1E0,1E0,-4.38404E-2,1E0,1E0,1E0,5.4590113E-2,9.585763E-3,-6.6738E-2,4.793413E-2,-2.9570473E-2,-2.9849676E-2,9.490175E-3,8.979064E-3,7.035005E-2,4.418295E-2,-1.7231269E-2,-1.5401969E-2,-7.411467E-2,-6.310425E-2,-1.6058426E-2,6.264461E-2,-9.841629E-4,-3.0407533E-2,1.6299492E-2,5.3387042E-2,-4.1056275E-2,-1.4937905E-2,6.420773E-2,-3.024656E-2,-7.215652E-2,-6.777451E-4,5.2316565E-2,2.41774E-2,-5.2342713E-2,5.649532E-2,-4.3411013E-2,4.1775773E-3,3.2203283E-2,-4.7160447E-2,2.1838626E-2,2.429261E-2,-1.7657911E-2],"split_indices":[63,2022,112,108,117,1921,150,1624,2151,817,1524,1178,110,69,79,57,123,659,98,145,490,1614,155,1190,0,157,0,136,0,136,66,94,1690,112,1614,92,126,0,0,135,517,912,0,136,0,160,83,50,0,1850,118,2040,0,0,0,0,0,0,0,0,0,0,0,0,0,0,0,0,0,0,0,0,0,0,0,0,0,0,0,0,0,0,0,0,0,0,0,0,0],"split_type":[0,0,0,0,0,0,0,0,0,0,0,0,0,0,0,0,0,0,0,0,0,0,0,0,0,0,0,0,0,0,0,0,0,0,0,0,0,0,0,0,0,0,0,0,0,0,0,0,0,0,0,0,0,0,0,0,0,0,0,0,0,0,0,0,0,0,0,0,0,0,0,0,0,0,0,0,0,0,0,0,0,0,0,0,0,0,0,0,0],"sum_hessian":[1.2812957E3,1.0549037E3,2.2639195E2,8.4626733E2,2.0863637E2,2.1072887E2,1.5663087E1,6.831979E2,1.6306946E2,1.6956226E2,3.9074116E1,1.9884718E2,1.1881686E1,7.7612176E0,7.901869E0,6.1492615E2,6.827169E1,1.5840932E2,4.660143E0,1.3807211E2,3.1490147E1,2.5391882E1,1.3682235E1,1.964245E2,2.4226801E0,1.0021565E1,1.8601205E0,6.0249133E0,1.7363043E0,5.4508595E0,2.4510093E0,5.2688885E2,8.803731E1,5.980452E1,8.4671755E0,1.5423204E2,4.177276E0,1.2388839E0,3.4212592E0,1.2285343E1,1.25786766E2,2.7855146E1,3.6349998E0,2.3161093E1,2.2307901E0,1.0495125E1,3.18711E0,1.9521692E2,1.2075832E0,4.269904E0,5.7516613E0,2.435956E0,3.5889573E0,1.2475914E0,4.203268E0,1.2097067E0,1.2413026E0,4.2553897E2,1.0134989E2,7.793614E1,1.0101164E1,4.8326206E1,1.1478311E1,5.4768066E0,2.990369E0,1.2852342E2,2.570862E1,2.195021E0,1.9822553E0,4.47447E0,7.8108735E0,1.23066345E2,2.7204187E0,2.4502008E1,3.3531384E0,1.5564011E1,7.597082E0,2.3810215E0,8.114103E0,1.9441078E0,1.243002E0,1.9400989E2,1.2070372E0,2.617831E0,1.652073E0,4.565721E0,1.1859403E0,1.2106152E0,1.2253408E0],"tree_param":{"num_deleted":"0","num_feature":"2215","num_nodes":"89","size_leaf_vector":"1"}},{"base_weights":[-7.3050717E-3,-2.299305E-1,8.625527E-1,-5.3166413E-1,2.217014E-1,1.0176775E0,5.7824767E-1,-6.05084E-1,5.8165306E-1,4.1137394E-1,-4.4058257E-1,1.0422107E0,-6.304999E-2,7.088137E-1,-5.4568034E-1,-6.778289E-1,4.4802046E-1,2.3333988E-1,1.2706428E0,5.385269E-1,-5.584878E-1,-6.2249684E-1,9.58679E-1,8.481543E-2,1.1008288E0,5.213415E-1,1.3191333E0,-1.103882E0,4.2178888E-2,-7.5982416E-1,3.0777764E-1,9.4883174E-1,-5.5961263E-1,5.825969E-1,-1.0664065E0,7.312064E-2,-4.804656E-3,6.9918567E-1,-4.4019327E-2,-8.866517E-1,7.8670913E-1,-6.980587E-1,5.291605E-2,-4.2601556E-2,1.3403479E0,8.744196E-1,-4.6973148E-1,1.1212268E0,-2.5107047E-2,7.156205E-1,-2.4983357E-1,1.4090877E0,1.5068032E-2,-1.4374214E0,4.1479985E-3,-4.4421237E-2,-8.968822E-3,4.7875248E-2,-3.8980316E-2,5.4479606E-2,-9.274917E-3,-3.9326385E-2,4.6162914E-2,4.4945274E-2,-3.647708E-2,-7.063568E-2,-8.2852226E-4,3.9055984E-2,-2.6946578E-2,-9.997195E-3,5.394503E-2,-4.9798757E-2,4.7705166E-2,5.1036604E-2,-1.2415122E-2,-4.376394E-2,9.433E-3,-4.3941144E-2,5.0085325E-2,7.58536E-2,2.2584822E-2,5.780981E-2,6.571805E-4,-5.4707783E-3,-5.8412522E-2,5.7001617E-2,-2.537719E-2,1.3281696E-2,4.699064E-2,4.1372873E-2,-2.7770877E-2,7.255474E-2,2.1751687E-2,-2.6600325E-2,-8.330413E-2],"categories":[],"categories_nodes":[],"categories_segments":[],"categories_sizes":[],"default_left":[0,0,0,0,0,0,0,0,0,0,0,0,0,0,0,0,0,0,0,0,0,0,0,0,0,0,0,0,0,0,0,0,0,0,0,0,0,0,0,0,0,0,0,0,0,0,0,0,0,0,0,0,0,0,0,0,0,0,0,0,0,0,0,0,0,0,0,0,0,0,0,0,0,0,0,0,0,0,0,0,0,0,0,0,0,0,0,0,0,0,0,0,0,0,0],"id":8,"left_children":[1,3,5,7,9,11,13,15,17,19,21,23,-1,25,27,29,31,33,35,37,39,41,43,45,47,49,51,53,-1,55,57,59,61,63,65,-1,-1,67,69,71,73,75,-1,77,79,81,83,85,-1,87,89,91,-1,93,-1,-1,-1,-1,-1,-1,-1,-1,-1,-1,-1,-1,-1,-1,-1,-1,-1,-1,-1,-1,-1,-1,-1,-1,-1,-1,-1,-1,-1,-1,-1,-1,-1,-1,-1,-1,-1,-1,-1,-1,-1],"loss_changes":[2.4692647E2,1.3846666E2,1.0871246E1,5.0124313E1,5.134787E1,1.0638748E1,1.4187359E1,4.410295E1,8.866473E0,3.9412735E1,2.3802599E1,9.198441E0,0E0,9.002396E0,8.9597645E0,4.3485138E1,1.9476768E1,1.2689705E1,3.441908E0,2.6320969E1,1.7142218E1,1.1062227E1,4.2158556E0,5.067874E0,5.6615753E0,1.0133427E1,1.3375511E0,3.214322E0,0E0,3.674356E1,3.0289536E1,4.2656746E0,5.1320076E0,9.621292E0,2.1522045E0,0E0,0E0,2.2763046E1,1.101251E1,7.0712185E0,2.1513052E0,1.2483524E1,0E0,4.3494086E0,5.5694485E-1,1.1345124E0,1.6084185E0,5.304291E0,0E0,5.1305847E0,5.105139E0,8.1207275E-2,0E0,3.8853455E-1,0E0,0E0,0E0,0E0,0E0,0E0,0E0,0E0,0E0,0E0,0E0,0E0,0E0,0E0,0E0,0E0,0E0,0E0,0E0,0E0,0E0,0E0,0E0,0E0,0E0,0E0,0E0,0E0,0E0,0E0,0E0,0E0,0E0,0E0,0E0,0E0,0E0,0E0,0E0,0E0,0E0],"parents":[2147483647,0,0,1,1,2,2,3,3,4,4,5,5,6,6,7,7,8,8,9,9,10,10,11,11,13,13,14,14,15,15,16,16,17,17,18,18,19,19,20,20,21,21,22,22,23,23,24,24,25,25,26,26,27,27,29,29,30,30,31,31,32,32,33,33,34,34,37,37,38,38,39,39,40,40,41,41,43,43,44,44,45,45,46,46,47,47,49,49,50,50,51,51,53,53],"right_children":[2,4,6,8,10,12,14,16,18,20,22,24,-1,26,28,30,32,34,36,38,40,42,44,46,48,50,52,54,-1,56,58,60,62,64,66,-1,-1,68,70,72,74,76,-1,78,80,82,84,86,-1,88,90,92,-1,94,-1,-1,-1,-1,-1,-1,-1,-1,-1,-1,-1,-1,-1,-1,-1,-1,-1,-1,-1,-1,-1,-1,-1,-1,-1,-1,-1,-1,-1,-1,-1,-1,-1,-1,-1,-1,-1,-1,-1,-1,-1],"split_conditions":[1E0,1E0,1E0,1E0,1E0,1E0,1E0,1E0,1E0,1E0,1E0,1E0,-6.304999E-2,1E0,1E0,1E0,1E0,1E0,1E0,1E0,1E0,1E0,1E0,1E0,1E0,1E0,1E0,1E0,4.2178888E-2,1E0,1E0,1E0,1E0,1E0,1E0,7.312064E-2,-4.804656E-3,1E0,1E0,1E0,1E0,1E0,5.291605E-2,1E0,1E0,1E0,1E0,1E0,-2.5107047E-2,1E0,1E0,1E0,1.5068032E-2,1E0,4.1479985E-3,-4.4421237E-2,-8.968822E-3,4.7875248E-2,-3.8980316E-2,5.4479606E-2,-9.274917E-3,-3.9326385E-2,4.6162914E-2,4.4945274E-2,-3.647708E-2,-7.063568E-2,-8.2852226E-4,3.9055984E-2,-2.6946578E-2,-9.997195E-3,5.394503E-2,-4.9798757E-2,4.7705166E-2,5.1036604E-2,-1.2415122E-2,-4.376394E-2,9.433E-3,-4.3941144E-2,5.0085325E-2,7.58536E-2,2.2584822E-2,5.780981E-2,6.571805E-4,-5.4707783E-3,-5.8412522E-2,5.7001617E-2,-2.537719E-2,1.3281696E-2,4.699064E-2,4.1372873E-2,-2.7770877E-2,7.255474E-2,2.1751687E-2,-2.6600325E-2,-8.330413E-2],"split_indices":[70,125,150,1276,2084,2020,141,22,156,112,1263,158,0,77,1048,895,145,112,389,155,2151,1013,124,49,1945,89,903,65,0,124,163,1476,598,162,129,0,0,92,1303,627,1134,1016,0,116,85,65,115,669,0,1042,139,1227,0,974,0,0,0,0,0,0,0,0,0,0,0,0,0,0,0,0,0,0,0,0,0,0,0,0,0,0,0,0,0,0,0,0,0,0,0,0,0,0,0,0,0],"split_type":[0,0,0,0,0,0,0,0,0,0,0,0,0,0,0,0,0,0,0,0,0,0,0,0,0,0,0,0,0,0,0,0,0,0,0,0,0,0,0,0,0,0,0,0,0,0,0,0,0,0,0,0,0,0,0,0,0,0,0,0,0,0,0,0,0,0,0,0,0,0,0,0,0,0,0,0,0,0,0,0,0,0,0,0,0,0,0,0,0,0,0,0,0,0,0],"sum_hessian":[1.2730769E3,1.01423596E3,2.5884094E2,6.079138E2,4.0632217E2,1.6579756E2,9.304339E1,5.7073224E2,3.7181538E1,3.161565E2,9.016569E1,1.6456837E2,1.2291843E0,8.369045E1,9.352932E0,5.3418866E2,3.6543625E1,2.558561E1,1.1595927E1,2.7990457E2,3.6251926E1,8.028339E1,9.882302E0,9.635816E0,1.5493256E2,6.544262E1,1.8247839E1,6.8186326E0,2.5342991E0,4.9337274E2,4.08159E1,2.4449936E1,1.209369E1,2.0601505E1,4.9841037E0,1.010769E1,1.4882379E0,2.192406E2,6.0663963E1,2.9416563E1,6.8353643E0,7.738902E1,2.8943663E0,2.9725122E0,6.90979E0,3.7374065E0,5.898409E0,1.5328256E2,1.6500007E0,5.2331093E1,1.3111524E1,1.641274E1,1.8350985E0,5.157955E0,1.6606776E0,4.03455E2,8.991774E1,2.56244E1,1.51915E1,2.1785934E1,2.6640012E0,1.089594E1,1.1977507E0,1.685364E1,3.7478652E0,3.4879053E0,1.4961985E0,2.0597879E2,1.3261812E1,5.3989166E1,6.6747956E0,2.8200644E1,1.2159196E0,5.5861053E0,1.2492586E0,6.45091E1,1.2879921E1,1.7387145E0,1.2337978E0,5.1737385E0,1.7360516E0,2.5580788E0,1.1793278E0,4.6542525E0,1.2441562E0,1.5182962E2,1.4529414E0,1.8128796E1,3.4202297E1,2.5199661E0,1.05915575E1,1.5264688E1,1.1480535E0,1.7107242E0,3.447231E0],"tree_param":{"num_deleted":"0","num_feature":"2215","num_nodes":"95","size_leaf_vector":"1"}},{"base_weights":[1.5132853E-3,-2.0412394E-1,8.212833E-1,-3.84453E-1,5.422674E-1,8.922837E-1,1.0367939E-1,-2.5835642E-1,-9.0044045E-1,8.12504E-1,2.4475934E-2,9.084881E-1,-5.7982843E-2,-1.9313687E-1,1.080233E0,-1.6234395E-1,-8.224978E-1,-1.0166615E0,-1.0458004E-1,-2.1121304E-1,9.291245E-1,-5.126037E-1,4.7740453E-1,7.699955E-1,1.1872361E0,2.7769783E-1,-7.1849823E-1,5.9499837E-2,1.6734963E-2,-3.122725E-1,5.678E-1,1.3462313E0,-9.8880386E-1,-1.1085072E0,1.1430057E-1,4.7180527E-1,-8.6915463E-1,-8.411954E-1,2.5497827E-1,9.619289E-1,-4.9347624E-2,-8.312472E-1,6.741344E-2,5.766992E-1,-6.982309E-2,2.478367E-1,9.5281625E-1,-2.0577362E-2,1.23015E0,5.455393E-1,-4.249471E-2,-1.0080749E0,1.2560345E-2,-2.5982266E-2,1.0016511E-2,3.81735E-2,-4.3408584E-2,1.015318E-2,7.756924E-2,-5.3936042E-2,2.930412E-2,-5.7269115E-2,6.049955E-2,2.2040393E-2,-5.4448605E-2,3.5286028E-2,-4.8137467E-2,1.1737095E-2,-5.70323E-2,-5.553497E-2,2.9508927E-4,2.5919978E-2,-3.7885513E-2,4.9563922E-2,-4.8315093E-2,-5.224672E-2,1.8865477E-2,4.063439E-2,-8.708285E-3,-2.059499E-2,2.634246E-2,5.0043162E-2,-6.929872E-2,6.267721E-2,-6.540499E-3,3.6181245E-2,-1.7377932E-2,-1.9244494E-2,-6.942509E-2],"categories":[],"categories_nodes":[],"categories_segments":[],"categories_sizes":[],"default_left":[0,0,0,0,0,0,0,0,0,0,0,0,0,0,0,0,0,0,0,0,0,0,0,0,0,0,0,0,0,0,0,0,0,0,0,0,0,0,0,0,0,0,0,0,0,0,0,0,0,0,0,0,0,0,0,0,0,0,0,0,0,0,0,0,0,0,0,0,0,0,0,0,0,0,0,0,0,0,0,0,0,0,0,0,0,0,0,0,0],"id":9,"left_children":[1,3,5,7,9,11,13,15,17,19,21,23,-1,25,27,29,31,33,35,37,39,41,43,45,47,49,51,-1,-1,53,55,57,59,61,63,65,67,69,71,73,-1,75,-1,77,-1,79,81,-1,83,85,-1,87,-1,-1,-1,-1,-1,-1,-1,-1,-1,-1,-1,-1,-1,-1,-1,-1,-1,-1,-1,-1,-1,-1,-1,-1,-1,-1,-1,-1,-1,-1,-1,-1,-1,-1,-1,-1,-1],"loss_changes":[2.1251076E2,1.3585782E2,1.2788132E1,5.2619034E1,2.7479263E1,8.698364E0,7.1340656E0,3.5299736E1,1.4611801E1,1.5609116E1,1.6889769E1,7.913727E0,0E0,4.9417963E0,6.98657E-2,6.151082E1,3.5558044E1,1.45372925E1,9.836707E0,4.3313785E0,8.245865E0,1.9968872E1,7.8085413E0,1.4619354E1,5.587349E0,3.735013E0,2.8759203E0,0E0,0E0,4.9584183E1,2.7581423E1,1.3693857E0,1.3195076E1,1.2363846E1,4.930035E0,4.9895716E0,3.1287355E0,1.4206643E0,2.7465887E0,7.445404E0,0E0,7.5629025E0,0E0,6.600705E0,0E0,7.894313E0,1.429982E1,0E0,2.4682236E0,1.7404675E0,0E0,1.2179642E0,0E0,0E0,0E0,0E0,0E0,0E0,0E0,0E0,0E0,0E0,0E0,0E0,0E0,0E0,0E0,0E0,0E0,0E0,0E0,0E0,0E0,0E0,0E0,0E0,0E0,0E0,0E0,0E0,0E0,0E0,0E0,0E0,0E0,0E0,0E0,0E0,0E0],"parents":[2147483647,0,0,1,1,2,2,3,3,4,4,5,5,6,6,7,7,8,8,9,9,10,10,11,11,13,13,14,14,15,15,16,16,17,17,18,18,19,19,20,20,21,21,22,22,23,23,24,24,25,25,26,26,29,29,30,30,31,31,32,32,33,33,34,34,35,35,36,36,37,37,38,38,39,39,41,41,43,43,45,45,46,46,48,48,49,49,51,51],"right_children":[2,4,6,8,10,12,14,16,18,20,22,24,-1,26,28,30,32,34,36,38,40,42,44,46,48,50,52,-1,-1,54,56,58,60,62,64,66,68,70,72,74,-1,76,-1,78,-1,80,82,-1,84,86,-1,88,-1,-1,-1,-1,-1,-1,-1,-1,-1,-1,-1,-1,-1,-1,-1,-1,-1,-1,-1,-1,-1,-1,-1,-1,-1,-1,-1,-1,-1,-1,-1,-1,-1,-1,-1,-1,-1],"split_conditions":[1E0,1E0,1E0,1E0,1E0,1E0,1E0,1E0,1E0,1E0,1E0,1E0,-5.7982843E-2,1E0,1E0,1E0,1E0,1E0,1E0,1E0,1E0,1E0,1E0,1E0,1E0,1E0,1E0,5.9499837E-2,1.6734963E-2,1E0,1E0,1E0,1E0,1E0,1E0,1E0,1E0,1E0,1E0,1E0,-4.9347624E-2,1E0,6.741344E-2,1E0,-6.982309E-2,1E0,1E0,-2.0577362E-2,1E0,1E0,-4.249471E-2,1E0,1.2560345E-2,-2.5982266E-2,1.0016511E-2,3.81735E-2,-4.3408584E-2,1.015318E-2,7.756924E-2,-5.3936042E-2,2.930412E-2,-5.7269115E-2,6.049955E-2,2.2040393E-2,-5.4448605E-2,3.5286028E-2,-4.8137467E-2,1.1737095E-2,-5.70323E-2,-5.553497E-2,2.9508927E-4,2.5919978E-2,-3.7885513E-2,4.9563922E-2,-4.8315093E-2,-5.224672E-2,1.8865477E-2,4.063439E-2,-8.708285E-3,-2.059499E-2,2.634246E-2,5.0043162E-2,-6.929872E-2,6.267721E-2,-6.540499E-3,3.6181245E-2,-1.7377932E-2,-1.9244494E-2,-6.942509E-2],"split_indices":[70,2022,112,108,159,1097,2005,87,88,145,1524,101,0,150,610,134,163,22,128,133,1647,490,872,142,133,65,145,0,0,135,42,57,1055,1279,1476,1107,114,87,628,539,0,1558,0,140,0,1917,45,0,2047,793,0,139,0,0,0,0,0,0,0,0,0,0,0,0,0,0,0,0,0,0,0,0,0,0,0,0,0,0,0,0,0,0,0,0,0,0,0,0,0],"split_type":[0,0,0,0,0,0,0,0,0,0,0,0,0,0,0,0,0,0,0,0,0,0,0,0,0,0,0,0,0,0,0,0,0,0,0,0,0,0,0,0,0,0,0,0,0,0,0,0,0,0,0,0,0,0,0,0,0,0,0,0,0,0,0,0,0,0,0,0,0,0,0,0,0,0,0,0,0,0,0,0,0,0,0,0,0,0,0,0,0],"sum_hessian":[1.2586342E3,1.00682556E3,2.5180862E2,8.112995E2,1.9552605E2,2.2891605E2,2.2892582E1,6.531773E2,1.5812221E2,1.2810077E2,6.742528E1,2.2767532E2,1.2407209E0,1.8171665E1,4.720917E0,5.5927997E2,9.389733E1,1.3773155E2,2.0390648E1,1.3017703E1,1.1508306E2,3.0786776E1,3.66385E1,1.5461774E2,7.3057594E1,9.831754E0,8.339912E0,3.5954046E0,1.1255128E0,4.6447626E2,9.480373E1,6.18225E0,8.771508E1,1.2740485E2,1.0326712E1,1.1844457E1,8.546192E0,5.1941915E0,7.8235116E0,1.1363552E2,1.4475415E0,2.6758184E1,4.028592E0,3.5452164E1,1.1863401E0,4.0707535E1,1.13910194E2,1.6851761E0,7.137241E1,8.361745E0,1.4700081E0,6.391648E0,1.9482639E0,3.3068445E2,1.3379178E2,8.384682E1,1.0956905E1,1.2434179E0,4.9388323E0,8.327557E1,4.439508E0,1.2590829E2,1.4965565E0,8.621054E0,1.7056583E0,1.0620722E1,1.2237351E0,1.7136741E0,6.832518E0,3.7044404E0,1.489751E0,6.595882E0,1.2276297E0,1.1241044E2,1.2250824E0,2.2852905E1,3.9052784E0,2.6911757E1,8.540405E0,1.1957427E1,2.8750107E1,1.12177734E2,1.7324628E0,7.024388E1,1.128536E0,7.1298056E0,1.2319394E0,3.1853669E0,3.2062812E0],"tree_param":{"num_deleted":"0","num_feature":"2215","num_nodes":"89","size_leaf_vector":"1"}},{"base_weights":[-1.0112382E-2,-2.1087213E-1,8.0855054E-1,-4.9793422E-1,2.2211224E-1,8.808641E-1,8.78387E-2,-3.362397E-1,-9.7441643E-1,3.877115E-1,-3.6565787E-1,8.982731E-1,-6.2202867E-2,7.096376E-1,-4.3756068E-1,-3.8034955E-1,1.2325785E0,-1.0199088E0,6.820708E-1,5.035995E-1,-5.6333363E-1,-5.576682E-1,1.0268303E0,9.147801E-1,-5.6332346E-2,1.0809591E0,-1.0634989E-1,-7.077149E-1,3.4227008E-1,-4.499692E-1,5.210926E-1,7.0904754E-2,-1.4495753E-2,-1.0677935E0,4.570742E-1,-2.8295605E-2,7.05104E-2,5.986606E-1,-2.735179E-1,-8.0685127E-1,5.882607E-1,-6.333267E-1,5.6507207E-2,-2.1810181E-2,1.2983958E0,9.4136345E-1,-4.493913E-1,1.1589899E0,1.6339146E-2,2.2356365E-2,-3.5592884E-2,-2.621285E-1,-6.1813153E-2,-1.8640434E-2,3.8457222E-2,-2.638768E-2,1.5468619E-2,1.0044894E-2,5.90305E-2,-3.3734806E-2,-6.5061375E-2,5.0306674E-2,-2.2250049E-2,3.327411E-2,-3.19304E-2,-2.517793E-2,6.344093E-2,-5.7673067E-2,-9.679437E-3,5.071482E-2,-3.4207214E-2,-4.4878457E-2,2.3628836E-3,7.662211E-2,2.2195203E-2,4.9061734E-2,-1.1955528E-3,-3.9090104E-2,1.0022628E-2,6.3197315E-2,1.6839493E-2,3.7474856E-2,-4.0146478E-2],"categories":[],"categories_nodes":[],"categories_segments":[],"categories_sizes":[],"default_left":[0,0,0,0,0,0,0,0,0,0,0,0,0,0,0,0,0,0,0,0,0,0,0,0,0,0,0,0,0,0,0,0,0,0,0,0,0,0,0,0,0,0,0,0,0,0,0,0,0,0,0,0,0,0,0,0,0,0,0,0,0,0,0,0,0,0,0,0,0,0,0,0,0,0,0,0,0,0,0,0,0,0,0],"id":10,"left_children":[1,3,5,7,9,11,13,15,17,19,21,23,-1,25,27,29,31,33,35,37,39,41,43,45,-1,47,49,51,53,55,57,-1,-1,59,61,-1,-1,63,65,67,69,71,-1,-1,73,75,77,79,-1,-1,-1,81,-1,-1,-1,-1,-1,-1,-1,-1,-1,-1,-1,-1,-1,-1,-1,-1,-1,-1,-1,-1,-1,-1,-1,-1,-1,-1,-1,-1,-1,-1,-1],"loss_changes":[2.0501062E2,1.2461255E2,1.2725357E1,4.6102966E1,3.9078613E1,9.372131E0,7.991406E0,3.1711441E1,1.216243E1,3.4735264E1,2.4220707E1,8.448013E0,0E0,3.4930763E0,3.0572507E0,2.7841618E1,3.9651012E0,1.0990646E1,5.038502E0,2.07864E1,1.0128401E1,1.0724211E1,4.96455E0,8.425354E0,0E0,7.745361E-2,1.7919556E0,2.0899515E0,1.5419153E0,2.4314697E1,6.5207167E0,0E0,0E0,1.2348221E1,3.1042278E0,0E0,0E0,2.1015373E1,1.1677795E1,5.9064407E0,4.2647505E0,1.3648087E1,0E0,0E0,1.2373142E0,8.3663025E0,1.2140586E0,1.4665794E-1,0E0,0E0,0E0,4.3387036E0,0E0,0E0,0E0,0E0,0E0,0E0,0E0,0E0,0E0,0E0,0E0,0E0,0E0,0E0,0E0,0E0,0E0,0E0,0E0,0E0,0E0,0E0,0E0,0E0,0E0,0E0,0E0,0E0,0E0,0E0,0E0],"parents":[2147483647,0,0,1,1,2,2,3,3,4,4,5,5,6,6,7,7,8,8,9,9,10,10,11,11,13,13,14,14,15,15,16,16,17,17,18,18,19,19,20,20,21,21,22,22,23,23,25,25,26,26,27,27,28,28,29,29,30,30,33,33,34,34,37,37,38,38,39,39,40,40,41,41,44,44,45,45,46,46,47,47,51,51],"right_children":[2,4,6,8,10,12,14,16,18,20,22,24,-1,26,28,30,32,34,36,38,40,42,44,46,-1,48,50,52,54,56,58,-1,-1,60,62,-1,-1,64,66,68,70,72,-1,-1,74,76,78,80,-1,-1,-1,82,-1,-1,-1,-1,-1,-1,-1,-1,-1,-1,-1,-1,-1,-1,-1,-1,-1,-1,-1,-1,-1,-1,-1,-1,-1,-1,-1,-1,-1,-1,-1],"split_conditions":[1E0,1E0,1E0,1E0,1E0,1E0,1E0,1E0,1E0,1E0,1E0,1E0,-6.2202867E-2,1E0,1E0,1E0,1E0,1E0,1E0,1E0,1E0,1E0,1E0,1E0,-5.6332346E-2,1E0,1E0,1E0,1E0,1E0,1E0,7.0904754E-2,-1.4495753E-2,1E0,1E0,-2.8295605E-2,7.05104E-2,1E0,1E0,1E0,1E0,1E0,5.6507207E-2,-2.1810181E-2,1E0,1E0,1E0,1E0,1.6339146E-2,2.2356365E-2,-3.5592884E-2,1E0,-6.1813153E-2,-1.8640434E-2,3.8457222E-2,-2.638768E-2,1.5468619E-2,1.0044894E-2,5.90305E-2,-3.3734806E-2,-6.5061375E-2,5.0306674E-2,-2.2250049E-2,3.327411E-2,-3.19304E-2,-2.517793E-2,6.344093E-2,-5.7673067E-2,-9.679437E-3,5.071482E-2,-3.4207214E-2,-4.4878457E-2,2.3628836E-3,7.662211E-2,2.2195203E-2,4.9061734E-2,-1.1955528E-3,-3.9090104E-2,1.0022628E-2,6.3197315E-2,1.6839493E-2,3.7474856E-2,-4.0146478E-2],"split_indices":[70,125,112,116,2084,2020,2130,2090,1314,112,1263,1097,0,139,1981,1276,1227,659,93,111,2151,1484,1127,1685,0,610,127,66,125,895,156,0,0,129,1195,0,0,1975,2151,1366,1134,1184,0,0,93,1777,419,232,0,0,0,163,0,0,0,0,0,0,0,0,0,0,0,0,0,0,0,0,0,0,0,0,0,0,0,0,0,0,0,0,0,0,0],"split_type":[0,0,0,0,0,0,0,0,0,0,0,0,0,0,0,0,0,0,0,0,0,0,0,0,0,0,0,0,0,0,0,0,0,0,0,0,0,0,0,0,0,0,0,0,0,0,0,0,0,0,0,0,0,0,0,0,0,0,0,0,0,0,0,0,0,0,0,0,0,0,0,0,0,0,0,0,0,0,0,0,0,0,0],"sum_hessian":[1.2453306E3,1.000678E3,2.4465266E2,6.016459E2,3.990321E2,2.2214159E2,2.251107E1,4.5048062E2,1.5116522E2,3.1158582E2,8.7446304E1,2.20909E2,1.2325915E0,1.014913E1,1.236194E1,4.3889786E2,1.1582768E1,1.4749873E2,3.6664865E0,2.7816138E2,3.342442E1,7.737638E1,1.0069921E1,2.1966653E2,1.2424651E0,6.7519E0,3.39723E0,9.249977E0,3.1119633E0,4.078963E2,3.1001574E1,1.0385822E1,1.1969464E0,1.4313524E2,4.3634896E0,1.433076E0,2.2334106E0,2.4804846E2,3.0112934E1,2.7837275E1,5.587146E0,7.465465E1,2.721733E0,1.4816127E0,8.588308E0,2.1577176E2,3.8947697E0,5.6323824E0,1.1195178E0,1.9115258E0,1.4857042E0,5.830544E0,3.4194329E0,1.2106302E0,1.9013331E0,3.7027188E2,3.7624405E1,2.1747707E1,9.253866E0,5.477899E1,8.835625E1,2.6407874E0,1.7227024E0,2.357769E2,1.2271549E1,2.6790606E1,3.3223295E0,1.722245E1,1.0614824E1,4.337638E0,1.2495079E0,5.3546116E1,2.1108532E1,6.118929E0,2.4693797E0,2.0719684E2,8.574918E0,2.4423747E0,1.452395E0,4.51833E0,1.1140519E0,1.8966875E0,3.9338565E0],"tree_param":{"num_deleted":"0","num_feature":"2215","num_nodes":"83","size_leaf_vector":"1"}},{"base_weights":[-5.157146E-3,-1.9716913E-1,7.612047E-1,-3.5562715E-1,4.6365184E-1,8.993448E-1,4.2833248E-1,-4.9371395E-1,7.5897686E-2,6.4123094E-1,-4.1061884E-1,9.368477E-1,-5.199235E-1,-4.6580136E-2,9.680022E-1,-5.6918955E-1,6.4364964E-1,3.6145648E-1,-3.344312E-1,7.1648437E-1,-3.5359195E-1,-7.8945744E-1,3.8412678E-1,9.848499E-1,-2.2777578E-1,-8.525008E-1,9.735972E-3,2.9339552E-1,-7.6116467E-1,1.0820422E0,-3.464339E-2,-7.5044703E-1,-1.2263309E-1,1.1441847E0,-3.3186543E-1,6.524096E-1,-8.267862E-2,-5.573701E-1,8.775165E-1,-2.4305359E-1,8.01849E-1,-6.762057E-1,4.7318232E-1,-1.2116338E0,-1.570802E-1,7.302439E-1,-3.8161415E-1,1.008176E0,-3.358009E-2,-9.682906E-1,4.9185878E-1,-8.905362E-3,-6.0743254E-2,4.8966092E-1,-7.3332536E-1,-1.186841E0,2.1536364E-1,1.214141E0,4.7000864E-1,-4.0587544E-2,3.6108E-2,2.4569986E-2,-4.6977717E-2,6.232802E-2,-8.708437E-3,2.215356E-2,-5.0598174E-2,3.6957327E-2,-6.816017E-2,1.7060872E-2,-2.1355828E-2,-3.1166166E-2,6.2781736E-2,-1.7444778E-2,6.36385E-2,-2.2734225E-2,4.934568E-2,4.3466877E-2,-1.3910455E-2,2.982266E-2,-4.9506683E-2,-1.7520636E-2,5.5487134E-2,-6.590636E-2,-9.754493E-3,2.1112256E-2,-6.13795E-2,4.5446223E-3,6.3750915E-2,-5.4122504E-2,1.9886708E-2,5.2470155E-2,7.57708E-3,-6.645075E-2,-1.7609661E-2,-7.21284E-3,4.745467E-2,3.514543E-2,-1.2312877E-2,1.0939972E-2,-5.9709977E-2,-1.4273475E-2,-7.104854E-2,-2.139788E-2,4.7897503E-2,6.213047E-2,1.3982815E-2,4.1841544E-2,-3.261533E-2],"categories":[],"categories_nodes":[],"categories_segments":[],"categories_sizes":[],"default_left":[0,0,0,0,0,0,0,0,0,0,0,0,0,0,0,0,0,0,0,0,0,0,0,0,0,0,0,0,0,0,0,0,0,0,0,0,0,0,0,0,0,0,0,0,0,0,0,0,0,0,0,0,0,0,0,0,0,0,0,0,0,0,0,0,0,0,0,0,0,0,0,0,0,0,0,0,0,0,0,0,0,0,0,0,0,0,0,0,0,0,0,0,0,0,0,0,0,0,0,0,0,0,0,0,0,0,0,0,0],"id":11,"left_children":[1,3,5,7,9,11,13,15,17,19,21,23,25,27,29,31,33,35,37,39,41,43,45,47,49,51,-1,53,55,57,-1,59,61,63,65,67,69,71,73,75,77,79,81,83,85,87,89,91,-1,93,95,-1,-1,97,99,101,103,105,107,-1,-1,-1,-1,-1,-1,-1,-1,-1,-1,-1,-1,-1,-1,-1,-1,-1,-1,-1,-1,-1,-1,-1,-1,-1,-1,-1,-1,-1,-1,-1,-1,-1,-1,-1,-1,-1,-1,-1,-1,-1,-1,-1,-1,-1,-1,-1,-1,-1,-1],"loss_changes":[1.8292256E2,1.0425097E2,1.10672455E1,4.784665E1,3.0178661E1,9.807312E0,1.92555E1,5.255562E1,2.3012959E1,1.2272606E1,1.0281179E1,9.781342E0,1.3902469E0,1.0140947E1,7.4037056E0,4.6097946E1,1.9082283E1,1.5002405E1,2.2290703E1,1.2447762E1,3.5100923E0,5.888646E0,3.2922838E0,7.0282745E0,4.515324E0,6.880715E-1,0E0,6.0787535E0,5.842005E0,2.1187057E0,0E0,3.721193E1,8.3705444E1,3.6640549E0,7.702389E0,1.324654E1,6.960491E0,9.005075E0,6.7094946E0,3.829547E0,1.02717285E1,4.192207E0,2.4572825E0,1.2048645E0,6.884146E0,2.731196E0,2.7225778E0,5.579605E0,0E0,4.369769E-1,1.4478035E0,0E0,0E0,4.006751E0,2.4358006E0,1.6019268E0,2.7633061E0,3.6353683E-1,3.648646E0,0E0,0E0,0E0,0E0,0E0,0E0,0E0,0E0,0E0,0E0,0E0,0E0,0E0,0E0,0E0,0E0,0E0,0E0,0E0,0E0,0E0,0E0,0E0,0E0,0E0,0E0,0E0,0E0,0E0,0E0,0E0,0E0,0E0,0E0,0E0,0E0,0E0,0E0,0E0,0E0,0E0,0E0,0E0,0E0,0E0,0E0,0E0,0E0,0E0,0E0],"parents":[2147483647,0,0,1,1,2,2,3,3,4,4,5,5,6,6,7,7,8,8,9,9,10,10,11,11,12,12,13,13,14,14,15,15,16,16,17,17,18,18,19,19,20,20,21,21,22,22,23,23,24,24,25,25,27,27,28,28,29,29,31,31,32,32,33,33,34,34,35,35,36,36,37,37,38,38,39,39,40,40,41,41,42,42,43,43,44,44,45,45,46,46,47,47,49,49,50,50,53,53,54,54,55,55,56,56,57,57,58,58],"right_children":[2,4,6,8,10,12,14,16,18,20,22,24,26,28,30,32,34,36,38,40,42,44,46,48,50,52,-1,54,56,58,-1,60,62,64,66,68,70,72,74,76,78,80,82,84,86,88,90,92,-1,94,96,-1,-1,98,100,102,104,106,108,-1,-1,-1,-1,-1,-1,-1,-1,-1,-1,-1,-1,-1,-1,-1,-1,-1,-1,-1,-1,-1,-1,-1,-1,-1,-1,-1,-1,-1,-1,-1,-1,-1,-1,-1,-1,-1,-1,-1,-1,-1,-1,-1,-1,-1,-1,-1,-1,-1,-1],"split_conditions":[1E0,1E0,1E0,1E0,1E0,1E0,1E0,1E0,1E0,1E0,1E0,1E0,1E0,1E0,1E0,1E0,1E0,1E0,1E0,1E0,1E0,1E0,1E0,1E0,1E0,1E0,9.735972E-3,1E0,1E0,1E0,-3.464339E-2,1E0,1E0,1E0,1E0,1E0,1E0,1E0,1E0,1E0,1E0,1E0,1E0,1E0,1E0,1E0,1E0,1E0,-3.358009E-2,1E0,1E0,-8.905362E-3,-6.0743254E-2,1E0,1E0,1E0,1E0,1E0,1E0,-4.0587544E-2,3.6108E-2,2.4569986E-2,-4.6977717E-2,6.232802E-2,-8.708437E-3,2.215356E-2,-5.0598174E-2,3.6957327E-2,-6.816017E-2,1.7060872E-2,-2.1355828E-2,-3.1166166E-2,6.2781736E-2,-1.7444778E-2,6.36385E-2,-2.2734225E-2,4.934568E-2,4.3466877E-2,-1.3910455E-2,2.982266E-2,-4.9506683E-2,-1.7520636E-2,5.5487134E-2,-6.590636E-2,-9.754493E-3,2.1112256E-2,-6.13795E-2,4.5446223E-3,6.3750915E-2,-5.4122504E-2,1.9886708E-2,5.2470155E-2,7.57708E-3,-6.645075E-2,-1.7609661E-2,-7.21284E-3,4.745467E-2,3.514543E-2,-1.2312877E-2,1.0939972E-2,-5.9709977E-2,-1.4273475E-2,-7.104854E-2,-2.139788E-2,4.7897503E-2,6.213047E-2,1.3982815E-2,4.1841544E-2,-3.261533E-2],"split_indices":[70,2022,139,133,117,1685,892,16,2084,123,1524,248,419,89,1750,134,2088,148,1127,145,1093,79,155,372,1917,817,0,78,97,1186,0,2072,87,1329,98,968,159,1814,145,62,517,98,83,621,146,158,175,1777,0,80,140,0,0,69,160,152,136,772,168,0,0,0,0,0,0,0,0,0,0,0,0,0,0,0,0,0,0,0,0,0,0,0,0,0,0,0,0,0,0,0,0,0,0,0,0,0,0,0,0,0,0,0,0,0,0,0,0,0,0],"split_type":[0,0,0,0,0,0,0,0,0,0,0,0,0,0,0,0,0,0,0,0,0,0,0,0,0,0,0,0,0,0,0,0,0,0,0,0,0,0,0,0,0,0,0,0,0,0,0,0,0,0,0,0,0,0,0,0,0,0,0,0,0,0,0,0,0,0,0,0,0,0,0,0,0,0,0,0,0,0,0,0,0,0,0,0,0,0,0,0,0,0,0,0,0,0,0,0,0,0,0,0,0,0,0,0,0,0,0,0,0],"sum_hessian":[1.2410771E3,9.93019E2,2.4805821E2,8.0133014E2,1.9168881E2,1.7410417E2,7.395403E1,6.069603E2,1.9436983E2,1.595484E2,3.214041E1,1.6995322E2,4.150955E0,3.9823124E1,3.4130905E1,5.6965735E2,3.7302994E1,1.1468004E2,7.968979E1,1.4858823E2,1.096018E1,2.1769838E1,1.0370573E1,1.6337383E2,6.579398E0,2.7010489E0,1.4499065E0,2.7384096E1,1.2439029E1,3.2264072E1,1.8668334E0,4.0470633E2,1.64951E2,2.4539114E1,1.276388E1,6.900553E1,4.5674507E1,6.776454E1,1.1925249E1,1.1988186E1,1.3660004E2,8.014842E0,2.945338E0,1.2505287E1,9.264552E0,7.1741796E0,3.196394E0,1.6149107E2,1.8827516E0,3.0723612E0,3.5070372E0,1.4653713E0,1.2356776E0,2.3428621E1,3.9554744E0,8.512845E0,3.926184E0,2.5727394E1,6.5366783E0,3.889628E2,1.574354E1,9.439681E1,7.055419E1,2.2821394E1,1.7177192E0,6.1288686E0,6.6350117E0,6.6765724E1,2.2398088E0,2.0479704E1,2.5194801E1,6.6019104E1,1.7454377E0,2.9351637E0,8.990086E0,1.0766078E1,1.2221078E0,1.2875006E2,7.849979E0,1.4077753E0,6.6070666E0,1.480002E0,1.4653358E0,1.1050916E1,1.454371E0,6.4043117E0,2.8602407E0,3.8374097E0,3.3367696E0,1.4781961E0,1.7181978E0,1.5386119E2,7.629887E0,1.2079544E0,1.864407E0,1.7528845E0,1.7541525E0,1.8199726E1,5.228895E0,1.4614667E0,2.4940078E0,2.212864E0,6.299981E0,2.3307178E0,1.5954661E0,2.464682E1,1.0805736E0,5.1181965E0,1.4184818E0],"tree_param":{"num_deleted":"0","num_feature":"2215","num_nodes":"109","size_leaf_vector":"1"}},{"base_weights":[1.3388759E-3,-1.7909849E-1,7.394348E-1,-4.34195E-1,2.2677149E-1,8.067287E-1,6.963854E-2,-4.8618042E-1,1.1559554E0,3.1024866E-2,8.5489964E-1,8.3416545E-1,-4.9817425E-1,-1.9081575E-1,9.9007666E-1,-6.3589925E-1,-2.5276858E-2,1.2703699E0,-1.5738217E-2,2.023921E-1,-6.0590535E-1,9.184944E-1,-3.7049258E-1,6.493231E-1,1.0583059E0,6.964318E-3,-4.6495464E-2,2.6189363E-1,-7.179068E-1,5.5067725E-2,1.4721426E-2,-8.791892E-1,-1.3418965E-1,1.9841322E-1,-6.376886E-1,6.961068E-2,1.1874755E-2,5.7525285E-2,8.485825E-1,-7.5038874E-1,7.7281153E-1,9.688799E-1,-4.6001816E-1,-7.693871E-2,3.9202467E-2,1.0849363E0,3.515181E-1,1.1077037E0,-5.4701436E-1,5.1226526E-1,-3.9720863E-2,-1.0588195E0,4.009103E-3,-5.0723024E-2,-1.3959566E-2,2.502541E-2,-4.6764173E-2,4.00026E-3,5.9135616E-2,-4.0626023E-2,2.4187094E-2,6.374696E-3,-7.662011E-2,4.7935467E-2,-2.395183E-2,-4.7716938E-2,1.3439207E-2,6.843706E-2,-4.8836146E-2,5.0335057E-2,-2.5892977E-2,-6.385209E-2,3.249901E-2,5.860281E-2,-3.641626E-2,2.7115026E-2,-3.829948E-2,5.6733698E-2,-2.1832643E-2,-6.849549E-2,2.2669062E-2,1.0972861E-2,4.4819508E-2,-1.2001963E-2,-6.088934E-2,3.1313516E-2,-3.0658891E-2],"categories":[],"categories_nodes":[],"categories_segments":[],"categories_sizes":[],"default_left":[0,0,0,0,0,0,0,0,0,0,0,0,0,0,0,0,0,0,0,0,0,0,0,0,0,0,0,0,0,0,0,0,0,0,0,0,0,0,0,0,0,0,0,0,0,0,0,0,0,0,0,0,0,0,0,0,0,0,0,0,0,0,0,0,0,0,0,0,0,0,0,0,0,0,0,0,0,0,0,0,0,0,0,0,0,0,0],"id":12,"left_children":[1,3,5,7,9,11,13,15,17,19,21,23,25,27,29,31,33,35,-1,37,39,41,43,45,47,-1,-1,49,51,-1,-1,53,55,57,59,-1,-1,61,63,65,67,69,71,-1,-1,73,75,77,79,81,-1,83,85,-1,-1,-1,-1,-1,-1,-1,-1,-1,-1,-1,-1,-1,-1,-1,-1,-1,-1,-1,-1,-1,-1,-1,-1,-1,-1,-1,-1,-1,-1,-1,-1,-1,-1],"loss_changes":[1.6439084E2,1.0279371E2,1.0873001E1,5.093879E1,4.712233E1,8.300827E0,5.7583227E0,4.0754257E1,3.696022E0,3.214651E1,7.437355E0,8.265274E0,1.5500596E0,4.708952E0,8.4882736E-2,5.431111E1,2.0114214E1,1.9815865E0,0E0,2.1663704E1,1.3020718E1,6.4791336E0,8.228163E0,1.5317059E1,8.224411E0,0E0,0E0,3.2962873E0,2.2244706E0,0E0,0E0,2.4075012E1,7.510933E1,1.2449876E1,8.092949E0,0E0,0E0,2.1391966E1,6.658867E0,1.2112175E1,8.026889E0,5.2516937E0,4.2228355E0,0E0,0E0,8.54007E0,1.6054401E1,4.3913345E0,3.5331898E0,8.650019E-1,0E0,5.057392E-1,1.8779322E0,0E0,0E0,0E0,0E0,0E0,0E0,0E0,0E0,0E0,0E0,0E0,0E0,0E0,0E0,0E0,0E0,0E0,0E0,0E0,0E0,0E0,0E0,0E0,0E0,0E0,0E0,0E0,0E0,0E0,0E0,0E0,0E0,0E0,0E0],"parents":[2147483647,0,0,1,1,2,2,3,3,4,4,5,5,6,6,7,7,8,8,9,9,10,10,11,11,12,12,13,13,14,14,15,15,16,16,17,17,19,19,20,20,21,21,22,22,23,23,24,24,27,27,28,28,31,31,32,32,33,33,34,34,37,37,38,38,39,39,40,40,41,41,42,42,45,45,46,46,47,47,48,48,49,49,51,51,52,52],"right_children":[2,4,6,8,10,12,14,16,18,20,22,24,26,28,30,32,34,36,-1,38,40,42,44,46,48,-1,-1,50,52,-1,-1,54,56,58,60,-1,-1,62,64,66,68,70,72,-1,-1,74,76,78,80,82,-1,84,86,-1,-1,-1,-1,-1,-1,-1,-1,-1,-1,-1,-1,-1,-1,-1,-1,-1,-1,-1,-1,-1,-1,-1,-1,-1,-1,-1,-1,-1,-1,-1,-1,-1,-1],"split_conditions":[1E0,1E0,1E0,1E0,1E0,1E0,1E0,1E0,1E0,1E0,1E0,1E0,1E0,1E0,1E0,1E0,1E0,1E0,-1.5738217E-2,1E0,1E0,1E0,1E0,1E0,1E0,6.964318E-3,-4.6495464E-2,1E0,1E0,5.5067725E-2,1.4721426E-2,1E0,1E0,1E0,1E0,6.961068E-2,1.1874755E-2,1E0,1E0,1E0,1E0,1E0,1E0,-7.693871E-2,3.9202467E-2,1E0,1E0,1E0,1E0,1E0,-3.9720863E-2,1E0,1E0,-5.0723024E-2,-1.3959566E-2,2.502541E-2,-4.6764173E-2,4.00026E-3,5.9135616E-2,-4.0626023E-2,2.4187094E-2,6.374696E-3,-7.662011E-2,4.7935467E-2,-2.395183E-2,-4.7716938E-2,1.3439207E-2,6.843706E-2,-4.8836146E-2,5.0335057E-2,-2.5892977E-2,-6.385209E-2,3.249901E-2,5.860281E-2,-3.641626E-2,2.7115026E-2,-3.829948E-2,5.6733698E-2,-2.1832643E-2,-6.849549E-2,2.2669062E-2,1.0972861E-2,4.4819508E-2,-1.2001963E-2,-6.088934E-2,3.1313516E-2,-3.0658891E-2],"split_indices":[70,101,112,16,2151,1685,2005,133,1329,132,1619,125,817,150,1128,134,136,1446,0,1624,1643,639,545,882,517,0,0,669,79,0,0,124,163,489,71,0,0,1975,119,124,96,1134,692,0,0,1945,114,2047,140,117,0,136,127,0,0,0,0,0,0,0,0,0,0,0,0,0,0,0,0,0,0,0,0,0,0,0,0,0,0,0,0,0,0,0,0,0,0],"split_type":[0,0,0,0,0,0,0,0,0,0,0,0,0,0,0,0,0,0,0,0,0,0,0,0,0,0,0,0,0,0,0,0,0,0,0,0,0,0,0,0,0,0,0,0,0,0,0,0,0,0,0,0,0,0,0,0,0,0,0,0,0,0,0,0,0,0,0,0,0,0,0,0,0,0,0,0,0,0,0,0,0,0,0,0,0,0,0],"sum_hessian":[1.2323556E3,9.9087933E2,2.4147629E2,6.0841187E2,3.824675E2,2.1924452E2,2.2231773E1,5.898235E2,1.8588324E1,2.923961E2,9.007142E1,2.1508295E2,4.161567E0,1.7946253E1,4.28552E0,4.449178E2,1.4490573E2,1.7373018E1,1.215306E0,2.3094275E2,6.1453335E1,8.5865654E1,4.205761E0,1.2001056E2,9.5072395E1,1.953939E0,2.2076283E0,9.924988E0,8.021265E0,3.1917522E0,1.0937678E0,2.9911703E2,1.4580077E2,1.06632904E2,3.8272823E1,1.5228661E1,2.144358E0,1.8953966E2,4.1403107E1,5.6036674E1,5.4166603E0,8.312456E1,2.7410996E0,1.9250256E0,2.2807353E0,4.7657146E1,7.235341E1,9.253495E1,2.5374446E0,8.4396305E0,1.4853568E0,5.131378E0,2.8898876E0,2.4352322E2,5.5593796E1,8.1558266E1,6.424251E1,9.61479E1,1.0485002E1,3.334913E1,4.9236956E0,1.8243114E2,7.1085157E0,3.8488346E1,2.9147599E0,4.6745827E1,9.290845E0,4.2027617E0,1.2138988E0,8.137727E1,1.7472829E0,1.4922366E0,1.2488629E0,4.5809788E1,1.8473568E0,6.224208E1,1.0111329E1,9.120741E1,1.3275414E0,1.1895711E0,1.3478736E0,5.680702E0,2.7589285E0,1.2423735E0,3.8890045E0,1.4316998E0,1.4581878E0],"tree_param":{"num_deleted":"0","num_feature":"2215","num_nodes":"87","size_leaf_vector":"1"}},{"base_weights":[-1.8155187E-2,-1.9288482E-1,7.072437E-1,-3.4502542E-1,4.664067E-1,5.357126E-1,9.25471E-1,-2.1735676E-1,-7.6589316E-1,6.458669E-1,-3.7663788E-1,1.0059763E0,2.1184616E-1,2.3516314E-1,1.03602E0,-2.744892E-1,7.4232566E-1,-8.323668E-1,7.359929E-1,-1.7997897E-1,7.180494E-1,-6.825574E-1,3.4892854E-1,1.078799E0,-3.5015073E-2,4.2639884E-1,-4.436101E-1,-5.751822E-1,1.1098931E0,1.0783625E0,9.0585575E-2,-3.5964864E-1,3.9642075E-1,1.1824926E0,-1.412917E-1,-8.797409E-1,7.352221E-1,-4.379576E-2,6.410754E-2,-4.546931E-1,4.1596826E-2,7.4523354E-1,-7.0338E-2,-1.1091878E0,-8.3427206E-2,5.760549E-1,-3.864241E-2,1.1436155E0,-3.300075E-2,6.3969034E-1,-4.33551E-1,-8.66884E-2,-1.1306436E0,-8.716706E-1,3.9671157E-2,5.9990175E-2,1.4377231E-2,1.1120123E0,-4.2983502E-2,-4.0423054E-1,4.5082238E-2,-1.985373E-2,5.1568594E-2,3.8887337E-2,-1.1501781E-2,6.338292E-2,6.820137E-3,-1.9212592E-2,5.0716072E-2,-4.6796255E-2,1.7311808E-2,7.317761E-2,-4.5913465E-2,-3.8327124E-2,4.832554E-2,4.4873785E-2,1.7188966E-2,-6.045542E-2,-1.075182E-3,3.357669E-2,-3.2400083E-2,4.931134E-2,-2.5956525E-2,6.1141115E-2,-1.5974348E-2,3.5549413E-2,-5.2853018E-2,-4.0765118E-2,3.936783E-2,-2.2877987E-2,3.335435E-2,-2.2073146E-3,-8.389641E-2,-5.7509303E-2,1.6257318E-2,5.708478E-2,-5.1309927E-3,4.0969543E-2,-4.6945598E-2,7.2443495E-3,-3.9040156E-2],"categories":[],"categories_nodes":[],"categories_segments":[],"categories_sizes":[],"default_left":[0,0,0,0,0,0,0,0,0,0,0,0,0,0,0,0,0,0,0,0,0,0,0,0,0,0,0,0,0,0,0,0,0,0,0,0,0,0,0,0,0,0,0,0,0,0,0,0,0,0,0,0,0,0,0,0,0,0,0,0,0,0,0,0,0,0,0,0,0,0,0,0,0,0,0,0,0,0,0,0,0,0,0,0,0,0,0,0,0,0,0,0,0,0,0,0,0,0,0,0,0],"id":13,"left_children":[1,3,5,7,9,11,13,15,17,19,21,23,25,27,29,31,33,35,37,39,41,43,45,47,-1,49,51,53,55,57,59,61,63,65,67,69,71,-1,-1,73,-1,75,-1,77,79,81,-1,83,-1,85,87,89,91,93,-1,-1,-1,95,97,99,-1,-1,-1,-1,-1,-1,-1,-1,-1,-1,-1,-1,-1,-1,-1,-1,-1,-1,-1,-1,-1,-1,-1,-1,-1,-1,-1,-1,-1,-1,-1,-1,-1,-1,-1,-1,-1,-1,-1,-1,-1],"loss_changes":[1.55762E2,9.9490204E1,8.434021E0,4.3096878E1,2.8398518E1,2.049134E1,7.663368E0,3.415229E1,1.9282265E1,9.297752E0,7.6282053E0,7.611191E0,1.1688274E1,1.1693495E1,3.465828E0,3.3572525E1,1.3803171E1,1.3980492E1,8.567977E0,4.0371985E0,9.229736E0,5.9801016E0,3.1296237E0,6.762985E0,0E0,1.1670212E1,4.9669623E0,4.244054E0,2.3478508E-1,3.2592392E0,2.3339896E0,2.7466904E1,1.603589E1,1.921524E0,3.9136314E0,1.2359909E1,8.342835E0,0E0,0E0,5.6154084E0,0E0,8.278969E0,0E0,1.4732857E0,5.107739E0,4.705364E0,0E0,6.388962E0,0E0,6.8212776E0,6.673157E0,4.4080353E0,4.07568E0,2.931417E0,0E0,0E0,0E0,3.0976562E0,3.4289968E0,8.8617414E-1,0E0,0E0,0E0,0E0,0E0,0E0,0E0,0E0,0E0,0E0,0E0,0E0,0E0,0E0,0E0,0E0,0E0,0E0,0E0,0E0,0E0,0E0,0E0,0E0,0E0,0E0,0E0,0E0,0E0,0E0,0E0,0E0,0E0,0E0,0E0,0E0,0E0,0E0,0E0,0E0,0E0],"parents":[2147483647,0,0,1,1,2,2,3,3,4,4,5,5,6,6,7,7,8,8,9,9,10,10,11,11,12,12,13,13,14,14,15,15,16,16,17,17,18,18,19,19,20,20,21,21,22,22,23,23,25,25,26,26,27,27,28,28,29,29,30,30,31,31,32,32,33,33,34,34,35,35,36,36,39,39,41,41,43,43,44,44,45,45,47,47,49,49,50,50,51,51,52,52,53,53,57,57,58,58,59,59],"right_children":[2,4,6,8,10,12,14,16,18,20,22,24,26,28,30,32,34,36,38,40,42,44,46,48,-1,50,52,54,56,58,60,62,64,66,68,70,72,-1,-1,74,-1,76,-1,78,80,82,-1,84,-1,86,88,90,92,94,-1,-1,-1,96,98,100,-1,-1,-1,-1,-1,-1,-1,-1,-1,-1,-1,-1,-1,-1,-1,-1,-1,-1,-1,-1,-1,-1,-1,-1,-1,-1,-1,-1,-1,-1,-1,-1,-1,-1,-1,-1,-1,-1,-1,-1,-1],"split_conditions":[1E0,1E0,1E0,1E0,1E0,1E0,1E0,1E0,1E0,1E0,1E0,1E0,1E0,1E0,1E0,1E0,1E0,1E0,1E0,1E0,1E0,1E0,1E0,1E0,-3.5015073E-2,1E0,1E0,1E0,1E0,1E0,1E0,1E0,1E0,1E0,1E0,1E0,1E0,-4.379576E-2,6.410754E-2,1E0,4.1596826E-2,1E0,-7.0338E-2,1E0,1E0,1E0,-3.864241E-2,1E0,-3.300075E-2,1E0,1E0,1E0,1E0,1E0,3.9671157E-2,5.9990175E-2,1.4377231E-2,1E0,1E0,1E0,4.5082238E-2,-1.985373E-2,5.1568594E-2,3.8887337E-2,-1.1501781E-2,6.338292E-2,6.820137E-3,-1.9212592E-2,5.0716072E-2,-4.6796255E-2,1.7311808E-2,7.317761E-2,-4.5913465E-2,-3.8327124E-2,4.832554E-2,4.4873785E-2,1.7188966E-2,-6.045542E-2,-1.075182E-3,3.357669E-2,-3.2400083E-2,4.931134E-2,-2.5956525E-2,6.1141115E-2,-1.5974348E-2,3.5549413E-2,-5.2853018E-2,-4.0765118E-2,3.936783E-2,-2.2877987E-2,3.335435E-2,-2.2073146E-3,-8.389641E-2,-5.7509303E-2,1.6257318E-2,5.708478E-2,-5.1309927E-3,4.0969543E-2,-4.6945598E-2,7.2443495E-3,-3.9040156E-2],"split_indices":[70,2022,125,116,117,1005,56,16,2151,145,1524,1945,1255,907,517,1624,2088,1897,98,113,758,79,1702,477,0,89,155,1008,1141,1520,521,68,817,1195,109,519,1093,0,0,75,0,159,0,1010,135,155,0,36,0,66,137,154,974,599,0,0,0,1691,154,144,0,0,0,0,0,0,0,0,0,0,0,0,0,0,0,0,0,0,0,0,0,0,0,0,0,0,0,0,0,0,0,0,0,0,0,0,0,0,0,0,0],"split_type":[0,0,0,0,0,0,0,0,0,0,0,0,0,0,0,0,0,0,0,0,0,0,0,0,0,0,0,0,0,0,0,0,0,0,0,0,0,0,0,0,0,0,0,0,0,0,0,0,0,0,0,0,0,0,0,0,0,0,0,0,0,0,0,0,0,0,0,0,0,0,0,0,0,0,0,0,0,0,0,0,0,0,0,0,0,0,0,0,0,0,0,0,0,0,0,0,0,0,0,0,0],"sum_hessian":[1.2268281E3,9.892724E2,2.3755577E2,8.041747E2,1.8509772E2,1.3494284E2,1.0261293E2,6.181712E2,1.8600348E2,1.52804E2,3.2293728E1,5.417418E1,8.076867E1,1.4596198E1,8.801673E1,5.8411145E2,3.4059715E1,1.7854677E2,7.4567146E0,1.2162185E1,1.4064182E2,2.2757706E1,9.536023E0,5.23094E1,1.8647777E0,6.1113605E1,1.965506E1,7.7547154E0,6.841483E0,8.410919E1,3.9075358E0,5.1873206E2,6.5379395E1,2.2508863E1,1.1550853E1,1.7373512E2,4.811652E0,1.7343243E0,5.7223907E0,9.998468E0,2.1637163E0,1.3950629E2,1.135527E0,1.279516E1,9.962545E0,8.334929E0,1.2010944E0,5.075957E1,1.5498271E0,4.9173374E1,1.1940233E1,1.3676264E1,5.978796E0,6.6723447E0,1.0823706E0,5.7534413E0,1.0880415E0,8.1666824E1,2.4423668E0,2.738448E0,1.1690879E0,5.0583688E2,1.2895189E1,4.0490932E1,2.488846E1,2.0618437E1,1.8904254E0,1.0095773E1,1.4550797E0,1.6634828E2,7.386836E0,3.4200568E0,1.3915954E0,8.577073E0,1.4213954E0,1.0025236E2,3.925392E1,1.1616382E1,1.1787783E0,4.1815014E0,5.781044E0,6.1362514E0,2.198678E0,4.830856E1,2.4510138E0,4.774796E1,1.425413E0,9.349167E0,2.5910656E0,9.429669E0,4.2465944E0,2.3647792E0,3.6140168E0,5.4443364E0,1.2280083E0,7.977726E1,1.8895637E0,1.2880168E0,1.1543502E0,1.3642901E0,1.3741577E0],"tree_param":{"num_deleted":"0","num_feature":"2215","num_nodes":"101","size_leaf_vector":"1"}},{"base_weights":[6.5197246E-3,-1.5809616E-1,7.012759E-1,-3.9218372E-1,1.8815315E-1,5.957874E-1,1.1227175E0,-2.547619E-1,-8.0539334E-1,3.3846375E-2,7.512619E-1,6.542663E-1,-3.381545E-1,1.210868E0,-1.3196991E-1,-1.574788E-1,-8.079085E-1,-8.5785E-1,8.102305E-1,3.310153E-1,-2.755544E-1,8.563145E-1,-1.535735E-1,6.911663E-1,-6.515416E-1,-7.214578E-1,4.8475485E-2,1.2529569E0,-5.8982237E-3,3.512114E-2,-3.3490013E-2,-3.7212932E-1,5.3251266E-1,7.542446E-2,-1.0925002E0,-8.925727E-1,7.567586E-2,5.46765E-2,-2.9464476E-3,4.2634752E-1,-1.0956501E0,7.723614E-2,-7.425567E-1,9.9307E-1,4.713401E-2,-4.9303392E-1,5.2690383E-2,5.6373006E-1,1.1268257E0,-8.7717474E-1,9.2468684E-4,-9.140448E-1,1.2371071E-2,1.2972276E0,4.9578305E-3,-2.6235396E-2,1.2658072E-2,4.3137174E-2,-2.759078E-2,-5.820618E-2,5.242164E-2,-4.772776E-2,1.1761988E-2,1.0235998E-2,4.6421707E-2,-7.6184504E-2,6.4752097E-3,-1.8554626E-2,2.5505057E-2,-4.1095316E-2,5.725139E-2,5.3376116E-2,-7.6785036E-3,1.8900966E-2,-6.4940654E-2,-3.9853197E-2,1.8238796E-2,4.9929366E-2,1.6091472E-2,-2.9485373E-2,6.0457587E-2,-5.167609E-2,-1.6598085E-2,-5.5526752E-2,7.2196745E-3,6.59992E-2,1.0994353E-2],"categories":[],"categories_nodes":[],"categories_segments":[],"categories_sizes":[],"default_left":[0,0,0,0,0,0,0,0,0,0,0,0,0,0,0,0,0,0,0,0,0,0,0,0,0,0,0,0,0,0,0,0,0,0,0,0,0,0,0,0,0,0,0,0,0,0,0,0,0,0,0,0,0,0,0,0,0,0,0,0,0,0,0,0,0,0,0,0,0,0,0,0,0,0,0,0,0,0,0,0,0,0,0,0,0,0,0],"id":14,"left_children":[1,3,5,7,9,11,13,15,17,19,21,23,25,27,29,31,33,35,37,39,41,43,45,47,49,51,-1,53,-1,-1,-1,55,57,-1,59,61,-1,-1,-1,63,65,67,69,71,73,75,-1,77,79,81,-1,83,-1,85,-1,-1,-1,-1,-1,-1,-1,-1,-1,-1,-1,-1,-1,-1,-1,-1,-1,-1,-1,-1,-1,-1,-1,-1,-1,-1,-1,-1,-1,-1,-1,-1,-1],"loss_changes":[1.3932677E2,7.990322E1,9.705437E0,3.3181267E1,3.455333E1,1.0531059E1,5.201645E0,2.3694239E1,1.3091827E1,2.8907091E1,8.263241E0,9.026497E0,6.605282E0,2.5355072E0,2.218049E0,5.6140034E1,4.513632E1,1.30563965E1,1.3237236E0,2.2271421E1,2.544407E1,8.451931E0,4.514415E0,9.00177E0,8.335364E-1,2.0333328E0,0E0,1.9894867E0,0E0,0E0,0E0,2.7674515E1,3.2715225E1,0E0,1.0318283E1,1.0062729E1,0E0,0E0,0E0,1.6612127E1,5.6102276E0,1.7399778E1,1.0887169E1,5.768265E0,5.9033666E0,2.4525683E0,0E0,1.4016144E1,6.122963E0,3.4124851E-3,0E0,1.8849082E0,0E0,6.867752E-1,0E0,0E0,0E0,0E0,0E0,0E0,0E0,0E0,0E0,0E0,0E0,0E0,0E0,0E0,0E0,0E0,0E0,0E0,0E0,0E0,0E0,0E0,0E0,0E0,0E0,0E0,0E0,0E0,0E0,0E0,0E0,0E0,0E0],"parents":[2147483647,0,0,1,1,2,2,3,3,4,4,5,5,6,6,7,7,8,8,9,9,10,10,11,11,12,12,13,13,14,14,15,15,16,16,17,17,18,18,19,19,20,20,21,21,22,22,23,23,24,24,25,25,27,27,31,31,32,32,34,34,35,35,39,39,40,40,41,41,42,42,43,43,44,44,45,45,47,47,48,48,49,49,51,51,53,53],"right_children":[2,4,6,8,10,12,14,16,18,20,22,24,26,28,30,32,34,36,38,40,42,44,46,48,50,52,-1,54,-1,-1,-1,56,58,-1,60,62,-1,-1,-1,64,66,68,70,72,74,76,-1,78,80,82,-1,84,-1,86,-1,-1,-1,-1,-1,-1,-1,-1,-1,-1,-1,-1,-1,-1,-1,-1,-1,-1,-1,-1,-1,-1,-1,-1,-1,-1,-1,-1,-1,-1,-1,-1,-1],"split_conditions":[1E0,1E0,1E0,1E0,1E0,1E0,1E0,1E0,1E0,1E0,1E0,1E0,1E0,1E0,1E0,1E0,1E0,1E0,1E0,1E0,1E0,1E0,1E0,1E0,1E0,1E0,4.8475485E-2,1E0,-5.8982237E-3,3.512114E-2,-3.3490013E-2,1E0,1E0,7.542446E-2,1E0,1E0,7.567586E-2,5.46765E-2,-2.9464476E-3,1E0,1E0,1E0,1E0,1E0,1E0,1E0,5.2690383E-2,1E0,1E0,1E0,9.2468684E-4,1E0,1.2371071E-2,1E0,4.9578305E-3,-2.6235396E-2,1.2658072E-2,4.3137174E-2,-2.759078E-2,-5.820618E-2,5.242164E-2,-4.772776E-2,1.1761988E-2,1.0235998E-2,4.6421707E-2,-7.6184504E-2,6.4752097E-3,-1.8554626E-2,2.5505057E-2,-4.1095316E-2,5.725139E-2,5.3376116E-2,-7.6785036E-3,1.8900966E-2,-6.4940654E-2,-3.9853197E-2,1.8238796E-2,4.9929366E-2,1.6091472E-2,-2.9485373E-2,6.0457587E-2,-5.167609E-2,-1.6598085E-2,-5.5526752E-2,7.2196745E-3,6.59992E-2,1.0994353E-2],"split_indices":[70,125,1524,115,2151,369,912,87,659,974,53,1998,100,1196,109,134,163,1275,1195,59,121,939,300,96,147,126,0,489,0,0,0,135,281,0,2108,1276,0,0,0,1338,283,101,68,82,114,1338,0,882,119,1774,0,1077,0,1483,0,0,0,0,0,0,0,0,0,0,0,0,0,0,0,0,0,0,0,0,0,0,0,0,0,0,0,0,0,0,0,0,0],"split_type":[0,0,0,0,0,0,0,0,0,0,0,0,0,0,0,0,0,0,0,0,0,0,0,0,0,0,0,0,0,0,0,0,0,0,0,0,0,0,0,0,0,0,0,0,0,0,0,0,0,0,0,0,0,0,0,0,0,0,0,0,0,0,0,0,0,0,0,0,0,0,0,0,0,0,0,0,0,0,0,0,0,0,0,0,0,0,0],"sum_hessian":[1.2162637E3,9.839083E2,2.3235533E2,5.869551E2,3.9695328E2,1.8776956E2,4.4585762E1,4.4168103E2,1.4527405E2,3.1240585E2,8.454741E1,1.7698695E2,1.0782609E1,4.1691566E1,2.8941963E0,3.7671246E2,6.496855E1,1.4115984E2,4.1142035E0,1.5931721E2,1.5308864E2,7.58005E1,8.746916E0,1.7258081E2,4.4061527E0,8.685109E0,2.0974994E0,4.046693E1,1.2246326E0,1.014408E0,1.8797882E0,2.876787E2,8.9033745E1,6.6380935E0,5.8330456E1,1.3973734E2,1.4224952E0,2.908154E0,1.2060493E0,1.4999542E2,9.3217945E0,8.7683754E1,6.540488E1,6.464749E1,1.1153003E1,7.2891817E0,1.4577347E0,1.3529822E2,3.7282585E1,3.0649047E0,1.3412479E0,7.2922106E0,1.3928987E0,3.8851894E1,1.6150383E0,2.3138002E2,5.6298702E1,6.840534E1,2.0628407E1,5.688371E1,1.4467486E0,1.3260333E2,7.134012E0,1.0503802E2,4.495741E1,6.727643E0,2.5941513E0,4.314262E1,4.4541138E1,6.330813E1,2.0967526E0,6.0770607E1,3.8768861E0,9.529443E0,1.6235595E0,5.434034E0,1.8551476E0,4.7242947E1,8.8055275E1,1.4242067E0,3.585838E1,1.6858388E0,1.379066E0,6.10892E0,1.1832905E0,3.7827644E1,1.0242503E0],"tree_param":{"num_deleted":"0","num_feature":"2215","num_nodes":"87","size_leaf_vector":"1"}},{"base_weights":[1.2897049E-2,-1.6175352E-1,5.855486E-1,-2.6464126E-1,7.80738E-1,7.066533E-1,4.0589307E-2,-1.4218274E-1,-7.3135716E-1,8.623421E-1,-4.5388064E-1,7.5216645E-1,-3.5442737E-1,2.8558323E-1,-1.3759531E0,-1.8303551E-1,1.1015269E0,-7.710465E-1,9.580923E-1,9.0352315E-1,-5.4008175E-2,-7.013493E-2,3.855483E-2,6.080575E-1,1.116669E0,-6.5426394E-2,3.3978638E-1,-1.2596342E-1,1.2600483E0,-7.447248E-2,-1.8829806E-2,-2.750182E-1,3.863673E-1,1.3483701E0,-2.5042596E-1,-7.9866886E-1,7.277409E-2,6.2242247E-2,5.938036E-3,9.431162E-1,-3.9229415E-2,9.415294E-1,3.6797568E-1,1.2033142E0,5.3014472E-2,-3.6446345E-1,8.582871E-1,-3.752838E-1,5.6675005E-1,1.3949783E0,3.1415222E-3,-1.6432358E-2,2.9912839E-2,2.6844177E-2,-4.214192E-2,7.212923E-2,4.221882E-3,-4.0781878E-2,1.84745E-2,-4.2971812E-2,1.1344313E-2,5.0579883E-2,7.718252E-5,5.096218E-2,-5.307885E-2,2.5520695E-2,-2.0788824E-2,6.141712E-2,-2.18171E-3,-4.4145837E-2,5.233067E-2,-5.552193E-2,2.129738E-2,4.937399E-2,1.2098159E-2,-2.4925314E-2,5.4480292E-2,-8.173409E-3,6.04041E-2,7.331257E-2,1.5721893E-2],"categories":[],"categories_nodes":[],"categories_segments":[],"categories_sizes":[],"default_left":[0,0,0,0,0,0,0,0,0,0,0,0,0,0,0,0,0,0,0,0,0,0,0,0,0,0,0,0,0,0,0,0,0,0,0,0,0,0,0,0,0,0,0,0,0,0,0,0,0,0,0,0,0,0,0,0,0,0,0,0,0,0,0,0,0,0,0,0,0,0,0,0,0,0,0,0,0,0,0,0,0],"id":15,"left_children":[1,3,5,7,9,11,13,15,17,19,21,23,25,27,29,31,33,35,37,39,-1,-1,-1,41,43,-1,45,47,49,-1,-1,51,53,55,57,59,-1,-1,-1,61,-1,63,65,67,69,71,73,75,77,79,-1,-1,-1,-1,-1,-1,-1,-1,-1,-1,-1,-1,-1,-1,-1,-1,-1,-1,-1,-1,-1,-1,-1,-1,-1,-1,-1,-1,-1,-1,-1],"loss_changes":[1.2125317E2,9.0300415E1,1.867057E1,4.7812626E1,9.6296425E0,1.1458847E1,1.8639559E1,3.4008465E1,1.2407005E1,7.883835E0,8.450611E0,1.1010902E1,7.208302E0,1.8467213E1,3.3789062E-1,3.3891838E1,7.4469833E0,1.1653168E1,9.208145E-1,6.4282455E0,0E0,0E0,0E0,1.2598156E1,5.637245E0,0E0,2.7610655E0,5.913127E0,2.1168156E0,0E0,0E0,2.6232822E1,1.7127792E1,2.041977E0,1.7493081E0,1.073526E1,0E0,0E0,0E0,5.389656E0,0E0,1.1517742E1,1.0889958E1,1.837326E0,6.22996E0,2.563232E0,9.2279434E-2,5.032826E0,4.47499E0,4.7983932E-1,0E0,0E0,0E0,0E0,0E0,0E0,0E0,0E0,0E0,0E0,0E0,0E0,0E0,0E0,0E0,0E0,0E0,0E0,0E0,0E0,0E0,0E0,0E0,0E0,0E0,0E0,0E0,0E0,0E0,0E0,0E0],"parents":[2147483647,0,0,1,1,2,2,3,3,4,4,5,5,6,6,7,7,8,8,9,9,10,10,11,11,12,12,13,13,14,14,15,15,16,16,17,17,18,18,19,19,23,23,24,24,26,26,27,27,28,28,31,31,32,32,33,33,34,34,35,35,39,39,41,41,42,42,43,43,44,44,45,45,46,46,47,47,48,48,49,49],"right_children":[2,4,6,8,10,12,14,16,18,20,22,24,26,28,30,32,34,36,38,40,-1,-1,-1,42,44,-1,46,48,50,-1,-1,52,54,56,58,60,-1,-1,-1,62,-1,64,66,68,70,72,74,76,78,80,-1,-1,-1,-1,-1,-1,-1,-1,-1,-1,-1,-1,-1,-1,-1,-1,-1,-1,-1,-1,-1,-1,-1,-1,-1,-1,-1,-1,-1,-1,-1],"split_conditions":[1E0,1E0,1E0,1E0,1E0,1E0,1E0,1E0,1E0,1E0,1E0,1E0,1E0,1E0,1E0,1E0,1E0,1E0,1E0,1E0,-5.4008175E-2,-7.013493E-2,3.855483E-2,1E0,1E0,-6.5426394E-2,1E0,1E0,1E0,-7.447248E-2,-1.8829806E-2,1E0,1E0,1E0,1E0,1E0,7.277409E-2,6.2242247E-2,5.938036E-3,1E0,-3.9229415E-2,1E0,1E0,1E0,1E0,1E0,1E0,1E0,1E0,1E0,3.1415222E-3,-1.6432358E-2,2.9912839E-2,2.6844177E-2,-4.214192E-2,7.212923E-2,4.221882E-3,-4.0781878E-2,1.84745E-2,-4.2971812E-2,1.1344313E-2,5.0579883E-2,7.718252E-5,5.096218E-2,-5.307885E-2,2.5520695E-2,-2.0788824E-2,6.141712E-2,-2.18171E-3,-4.4145837E-2,5.233067E-2,-5.552193E-2,2.129738E-2,4.937399E-2,1.2098159E-2,-2.4925314E-2,5.4480292E-2,-8.173409E-3,6.04041E-2,7.331257E-2,1.5721893E-2],"split_indices":[119,2151,78,115,1619,248,62,2090,1484,288,545,101,1917,52,113,1624,139,1275,96,1134,0,0,0,882,48,0,140,1042,286,0,0,1276,123,100,96,22,0,0,0,369,0,1854,89,59,62,2151,1254,1244,120,1330,0,0,0,0,0,0,0,0,0,0,0,0,0,0,0,0,0,0,0,0,0,0,0,0,0,0,0,0,0,0,0],"split_type":[0,0,0,0,0,0,0,0,0,0,0,0,0,0,0,0,0,0,0,0,0,0,0,0,0,0,0,0,0,0,0,0,0,0,0,0,0,0,0,0,0,0,0,0,0,0,0,0,0,0,0,0,0,0,0,0,0,0,0,0,0,0,0,0,0,0,0,0,0,0,0,0,0,0,0,0,0,0,0,0,0],"sum_hessian":[1.2104159E3,9.280817E2,2.823342E2,8.37387E2,9.069471E1,2.3075702E2,5.157718E1,6.643716E2,1.7301543E2,8.535459E1,5.340119E0,2.2154536E2,9.211649E0,4.4652782E1,6.9243965E0,6.4406836E2,2.0303211E1,1.6957529E2,3.440129E0,8.410641E1,1.2481842E0,2.9275079E0,2.412611E0,1.6068535E2,6.086001E1,3.5069401E0,5.704709E0,3.200628E1,1.2646504E1,5.7778068E0,1.1465901E0,5.549392E2,8.912917E1,1.7170774E1,3.132436E0,1.6813075E2,1.4445397E0,2.2040052E0,1.2361238E0,8.261018E1,1.4962233E0,6.603772E1,9.464763E1,5.6154385E1,4.705622E0,2.5450268E0,3.159682E0,2.3872402E1,8.133878E0,1.1217118E1,1.429386E0,5.23419E2,3.1520197E1,7.990771E1,9.221471E0,1.58481E1,1.3226752E0,1.4733651E0,1.659071E0,1.5887868E2,9.252076E0,7.6939896E1,5.6702814E0,6.404418E1,1.9935416E0,8.0386955E1,1.42606735E1,5.5064083E1,1.0903044E0,2.4804916E0,2.2251308E0,1.1010185E0,1.4440081E0,2.1142812E0,1.045401E0,2.262864E1,1.2437618E0,4.151783E0,3.9820945E0,1.0188141E1,1.0289768E0],"tree_param":{"num_deleted":"0","num_feature":"2215","num_nodes":"81","size_leaf_vector":"1"}},{"base_weights":[1.0797107E-2,-1.402214E-1,6.4960885E-1,-2.2703889E-1,7.219891E-1,7.8390455E-1,3.3215865E-1,-3.6010793E-1,1.2275939E-1,8.03624E-1,-5.1207393E-1,6.628223E-1,1.1998588E0,-7.347137E-2,8.4034E-1,-4.3504924E-1,6.72753E-1,4.1098192E-1,-3.5338962E-1,8.4452385E-1,-5.257669E-2,-6.842363E-2,3.54367E-2,7.1262366E-1,-7.613834E-1,1.2525434E0,-1.32775325E-2,3.0615395E-1,-8.13351E-1,9.371286E-1,-2.4153052E-2,-4.914166E-1,4.1997302E-1,1.0794209E0,-1.9087009E-1,5.2256095E-1,-4.0636078E-1,-5.25119E-1,8.4641206E-1,8.837083E-1,-3.8075034E-2,5.792424E-1,1.1699913E0,-6.684077E-2,2.0750342E-2,1.2759352E0,1.3615212E-2,9.512184E-2,1.0391233E0,-1.07169E0,2.0373008E-1,1.0237398E0,-6.8179057E-3,-1.1706403E-2,-3.5204466E-2,4.7085486E-2,-1.1130107E-2,5.958083E-2,-7.5077238E-3,-2.7227584E-2,4.359572E-2,2.8636888E-2,-5.7751592E-2,-3.8184147E-2,4.5911856E-2,-3.2495808E-2,3.1980548E-2,-2.4438487E-2,6.254995E-2,5.6256056E-2,3.0546239E-2,3.1522434E-2,-2.6572738E-2,6.1785083E-2,1.12293055E-2,6.5159656E-2,1.0519483E-2,-1.1800584E-2,3.8356207E-2,5.7390776E-2,1.4567058E-2,-7.121001E-2,-1.1318974E-3,-1.4452539E-2,3.6403824E-2,5.4079033E-2,-1.0380678E-2],"categories":[],"categories_nodes":[],"categories_segments":[],"categories_sizes":[],"default_left":[0,0,0,0,0,0,0,0,0,0,0,0,0,0,0,0,0,0,0,0,0,0,0,0,0,0,0,0,0,0,0,0,0,0,0,0,0,0,0,0,0,0,0,0,0,0,0,0,0,0,0,0,0,0,0,0,0,0,0,0,0,0,0,0,0,0,0,0,0,0,0,0,0,0,0,0,0,0,0,0,0,0,0,0,0,0,0],"id":16,"left_children":[1,3,5,7,9,11,13,15,17,19,21,23,25,27,29,31,33,35,37,39,-1,-1,-1,41,43,45,-1,47,49,51,-1,53,55,57,59,61,63,65,67,69,-1,71,73,-1,-1,75,-1,77,79,81,83,85,-1,-1,-1,-1,-1,-1,-1,-1,-1,-1,-1,-1,-1,-1,-1,-1,-1,-1,-1,-1,-1,-1,-1,-1,-1,-1,-1,-1,-1,-1,-1,-1,-1,-1,-1],"loss_changes":[1.151358E2,7.2423164E1,9.46788E0,4.090233E1,9.332001E0,7.243843E0,1.44029E1,4.9531807E1,3.344496E1,7.2193184E0,7.352525E0,9.46983E0,3.0157814E0,1.1374407E1,4.4186974E0,2.8820251E1,1.5457636E1,1.4039135E1,1.940681E1,5.8457108E0,0E0,0E0,0E0,6.772663E0,3.7607198E0,4.2580414E-1,0E0,4.062731E0,3.8193731E0,2.8538094E0,0E0,3.0337677E1,1.2700741E1,4.2725563E0,6.019927E0,1.1927563E1,9.587E0,1.2207701E1,7.043131E0,4.627159E0,0E0,5.8254204E0,1.3745804E0,0E0,0E0,6.745796E-1,0E0,5.0744677E0,1.4625072E-1,4.068427E0,1.1448488E0,2.156868E0,0E0,0E0,0E0,0E0,0E0,0E0,0E0,0E0,0E0,0E0,0E0,0E0,0E0,0E0,0E0,0E0,0E0,0E0,0E0,0E0,0E0,0E0,0E0,0E0,0E0,0E0,0E0,0E0,0E0,0E0,0E0,0E0,0E0,0E0,0E0],"parents":[2147483647,0,0,1,1,2,2,3,3,4,4,5,5,6,6,7,7,8,8,9,9,10,10,11,11,12,12,13,13,14,14,15,15,16,16,17,17,18,18,19,19,23,23,24,24,25,25,27,27,28,28,29,29,31,31,32,32,33,33,34,34,35,35,36,36,37,37,38,38,39,39,41,41,42,42,45,45,47,47,48,48,49,49,50,50,51,51],"right_children":[2,4,6,8,10,12,14,16,18,20,22,24,26,28,30,32,34,36,38,40,-1,-1,-1,42,44,46,-1,48,50,52,-1,54,56,58,60,62,64,66,68,70,-1,72,74,-1,-1,76,-1,78,80,82,84,86,-1,-1,-1,-1,-1,-1,-1,-1,-1,-1,-1,-1,-1,-1,-1,-1,-1,-1,-1,-1,-1,-1,-1,-1,-1,-1,-1,-1,-1,-1,-1,-1,-1,-1,-1],"split_conditions":[1E0,1E0,1E0,1E0,1E0,1E0,1E0,1E0,1E0,1E0,1E0,1E0,1E0,1E0,1E0,1E0,1E0,1E0,1E0,1E0,-5.257669E-2,-6.842363E-2,3.54367E-2,1E0,1E0,1E0,-1.32775325E-2,1E0,1E0,1E0,-2.4153052E-2,1E0,1E0,1E0,1E0,1E0,1E0,1E0,1E0,1E0,-3.8075034E-2,1E0,1E0,-6.684077E-2,2.0750342E-2,1E0,1.3615212E-2,1E0,1E0,1E0,1E0,1E0,-6.8179057E-3,-1.1706403E-2,-3.5204466E-2,4.7085486E-2,-1.1130107E-2,5.958083E-2,-7.5077238E-3,-2.7227584E-2,4.359572E-2,2.8636888E-2,-5.7751592E-2,-3.8184147E-2,4.5911856E-2,-3.2495808E-2,3.1980548E-2,-2.4438487E-2,6.254995E-2,5.6256056E-2,3.0546239E-2,3.1522434E-2,-2.6572738E-2,6.1785083E-2,1.12293055E-2,6.5159656E-2,1.0519483E-2,-1.1800584E-2,3.8356207E-2,5.7390776E-2,1.4567058E-2,-7.121001E-2,-1.1318974E-3,-1.4452539E-2,3.6403824E-2,5.4079033E-2,-1.0380678E-2],"split_indices":[70,2151,139,133,1619,95,892,16,117,288,545,912,891,89,36,1254,2088,123,1127,1134,0,0,0,1524,936,1684,0,623,121,1654,0,163,65,1195,1254,769,892,1276,145,1366,0,281,1093,0,0,1742,0,104,1515,1774,1441,912,0,0,0,0,0,0,0,0,0,0,0,0,0,0,0,0,0,0,0,0,0,0,0,0,0,0,0,0,0,0,0,0,0,0,0],"split_type":[0,0,0,0,0,0,0,0,0,0,0,0,0,0,0,0,0,0,0,0,0,0,0,0,0,0,0,0,0,0,0,0,0,0,0,0,0,0,0,0,0,0,0,0,0,0,0,0,0,0,0,0,0,0,0,0,0,0,0,0,0,0,0,0,0,0,0,0,0,0,0,0,0,0,0,0,0,0,0,0,0,0,0,0,0,0,0],"sum_hessian":[1.1915143E3,9.6432355E2,2.2719072E2,8.7677606E2,8.754744E1,1.5861859E2,6.857214E1,6.3513196E2,2.4164415E2,8.244256E1,5.1048813E0,1.2486462E2,3.375397E1,3.8609493E1,2.9962648E1,5.9270575E2,4.2426174E1,1.5061234E2,9.103181E1,8.1197205E1,1.2453514E0,2.9291332E0,2.1757479E0,1.2112865E2,3.7359698E0,3.2722775E1,1.0311943E0,2.5904398E1,1.2705094E1,2.8192625E1,1.7700232E0,5.564472E2,3.6258545E1,2.8674078E1,1.3752094E1,1.3283862E2,1.7773726E1,8.012564E1,1.0906172E1,7.970235E1,1.4948564E0,9.553455E1,2.5594095E1,2.4172163E0,1.3187535E0,3.1665476E1,1.0572988E0,2.0990667E1,4.9137306E0,1.0088834E1,2.6162603E0,2.6130686E1,2.0619392E0,2.5276114E2,3.036861E2,1.9753904E1,1.6504639E1,2.630471E1,2.3693686E0,1.0684156E1,3.0679374E0,1.2962027E2,3.2183464E0,1.4331213E1,3.4425128E0,7.2770515E1,7.3551254E0,2.4878662E0,8.418305E0,4.0624855E1,3.907749E1,9.173758E1,3.7969725E0,2.364368E1,1.9504157E0,3.0658175E1,1.0073023E0,1.4496309E1,6.494358E0,3.8230765E0,1.0906544E0,7.283704E0,2.80513E0,1.5800601E0,1.0362002E0,2.5074484E1,1.056201E0],"tree_param":{"num_deleted":"0","num_feature":"2215","num_nodes":"87","size_leaf_vector":"1"}},{"base_weights":[-2.3509503E-5,-1.519507E-1,5.851023E-1,-3.803966E-1,2.0464006E-1,6.8183744E-1,-3.103063E-1,-4.2710337E-1,1.0684327E0,4.5241293E-2,7.479256E-1,7.180691E-1,-8.981924E-1,-4.6463332E-1,5.5804785E-2,-6.0054487E-1,-5.0214663E-2,1.1826798E0,-1.4228925E-2,2.4462733E-1,-3.7042654E-1,8.068421E-1,-7.240353E-1,5.780932E-1,1.0707207E0,-7.393862E-2,1.0478494E-2,-6.623301E-1,5.6665736E-1,-7.179816E-1,4.037081E-1,6.2840366E-1,-7.209757E-1,6.559726E-2,4.4004824E-3,3.1979316E-1,-1.0999207E0,5.639581E-2,-6.8688637E-1,8.7191993E-1,-2.7667227E-1,-4.5486387E-2,-9.797453E-3,8.8038003E-1,3.637976E-1,1.1359512E0,-3.6582103E-1,-8.518782E-1,3.744294E-2,5.1363062E-2,-1.5909402E-2,-4.1014772E-2,2.2897802E-3,4.2602245E-2,-1.4439516E-2,4.1747466E-2,-5.405155E-2,5.1891813E-3,-4.9200293E-2,-1.9652162E-2,2.444434E-2,-6.506331E-2,1.1930445E-2,1.1241015E-2,-4.2291056E-2,-3.8804963E-2,6.871315E-2,4.5820046E-2,-2.4439115E-2,-7.097184E-2,4.938259E-2,5.058996E-2,-4.4382284E-3,9.574965E-3,6.06545E-2,5.953793E-2,-4.322504E-3,-3.1553213E-2,2.1143693E-3,-5.608141E-2,5.216158E-3],"categories":[],"categories_nodes":[],"categories_segments":[],"categories_sizes":[],"default_left":[0,0,0,0,0,0,0,0,0,0,0,0,0,0,0,0,0,0,0,0,0,0,0,0,0,0,0,0,0,0,0,0,0,0,0,0,0,0,0,0,0,0,0,0,0,0,0,0,0,0,0,0,0,0,0,0,0,0,0,0,0,0,0,0,0,0,0,0,0,0,0,0,0,0,0,0,0,0,0,0,0],"id":17,"left_children":[1,3,5,7,9,11,13,15,17,19,21,23,25,27,-1,29,31,33,-1,35,37,39,41,43,45,-1,-1,47,49,51,53,55,57,-1,-1,59,61,63,65,67,69,-1,-1,71,73,75,77,79,-1,-1,-1,-1,-1,-1,-1,-1,-1,-1,-1,-1,-1,-1,-1,-1,-1,-1,-1,-1,-1,-1,-1,-1,-1,-1,-1,-1,-1,-1,-1,-1,-1],"loss_changes":[1.0512862E2,7.655647E1,2.1325966E1,3.920314E1,3.1769274E1,1.3257141E1,5.9018435E0,3.6276344E1,3.144907E0,2.3711193E1,7.8032074E0,1.0039833E1,3.7719436E0,5.0183864E0,0E0,4.5138657E1,8.0628334E1,2.2826061E0,0E0,1.9878738E1,1.2571948E1,5.91835E0,1.8757534E-1,9.83363E0,6.0548553E0,0E0,0E0,5.872943E0,2.0395494E0,2.6671448E1,1.2805925E1,3.2004837E1,1.9419514E1,0E0,0E0,2.2341764E1,3.1281433E0,6.3337116E0,1.0878284E1,5.059414E0,9.089569E0,0E0,0E0,8.281864E0,1.343912E1,3.9760513E0,3.9152488E-1,4.687972E0,0E0,0E0,0E0,0E0,0E0,0E0,0E0,0E0,0E0,0E0,0E0,0E0,0E0,0E0,0E0,0E0,0E0,0E0,0E0,0E0,0E0,0E0,0E0,0E0,0E0,0E0,0E0,0E0,0E0,0E0,0E0,0E0,0E0],"parents":[2147483647,0,0,1,1,2,2,3,3,4,4,5,5,6,6,7,7,8,8,9,9,10,10,11,11,12,12,13,13,15,15,16,16,17,17,19,19,20,20,21,21,22,22,23,23,24,24,27,27,28,28,29,29,30,30,31,31,32,32,35,35,36,36,37,37,38,38,39,39,40,40,43,43,44,44,45,45,46,46,47,47],"right_children":[2,4,6,8,10,12,14,16,18,20,22,24,26,28,-1,30,32,34,-1,36,38,40,42,44,46,-1,-1,48,50,52,