{"learner":{"attributes":{"scikit_learn":"{\"_estimator_type\": \"classifier\"}"},"feature_names":[],"feature_types":[],"gradient_booster":{"model":{"cats":{"enc":[],"feature_segments":[],"sorted_idx":[]},"gbtree_model_param":{"num_parallel_tree":"1","num_trees":"500"},"iteration_indptr":[0,1,2,3,4,5,6,7,8,9,10,11,12,13,14,15,16,17,18,19,20,21,22,23,24,25,26,27,28,29,30,31,32,33,34,35,36,37,38,39,40,41,42,43,44,45,46,47,48,49,50,51,52,53,54,55,56,57,58,59,60,61,62,63,64,65,66,67,68,69,70,71,72,73,74,75,76,77,78,79,80,81,82,83,84,85,86,87,88,89,90,91,92,93,94,95,96,97,98,99,100,101,102,103,104,105,106,107,108,109,110,111,112,113,114,115,116,117,118,119,120,121,122,123,124,125,126,127,128,129,130,131,132,133,134,135,136,137,138,139,140,141,142,143,144,145,146,147,148,149,150,151,152,153,154,155,156,157,158,159,160,161,162,163,164,165,166,167,168,169,170,171,172,173,174,175,176,177,178,179,180,181,182,183,184,185,186,187,188,189,190,191,192,193,194,195,196,197,198,199,200,201,202,203,204,205,206,207,208,209,210,211,212,213,214,215,216,217,218,219,220,221,222,223,224,225,226,227,228,229,230,231,232,233,234,235,236,237,238,239,240,241,242,243,244,245,246,247,248,249,250,251,252,253,254,255,256,257,258,259,260,261,262,263,264,265,266,267,268,269,270,271,272,273,274,275,276,277,278,279,280,281,282,283,284,285,286,287,288,289,290,291,292,293,294,295,296,297,298,299,300,301,302,303,304,305,306,307,308,309,310,311,312,313,314,315,316,317,318,319,320,321,322,323,324,325,326,327,328,329,330,331,332,333,334,335,336,337,338,339,340,341,342,343,344,345,346,347,348,349,350,351,352,353,354,355,356,357,358,359,360,361,362,363,364,365,366,367,368,369,370,371,372,373,374,375,376,377,378,379,380,381,382,383,384,385,386,387,388,389,390,391,392,393,394,395,396,397,398,399,400,401,402,403,404,405,406,407,408,409,410,411,412,413,414,415,416,417,418,419,420,421,422,423,424,425,426,427,428,429,430,431,432,433,434,435,436,437,438,439,440,441,442,443,444,445,446,447,448,449,450,451,452,453,454,455,456,457,458,459,460,461,462,463,464,465,466,467,468,469,470,471,472,473,474,475,476,477,478,479,480,481,482,483,484,485,486,487,488,489,490,491,492,493,494,495,496,497,498,499,500],"tree_info":[0,0,0,0,0,0,0,0,0,0,0,0,0,0,0,0,0,0,0,0,0,0,0,0,0,0,0,0,0,0,0,0,0,0,0,0,0,0,0,0,0,0,0,0,0,0,0,0,0,0,0,0,0,0,0,0,0,0,0,0,0,0,0,0,0,0,0,0,0,0,0,0,0,0,0,0,0,0,0,0,0,0,0,0,0,0,0,0,0,0,0,0,0,0,0,0,0,0,0,0,0,0,0,0,0,0,0,0,0,0,0,0,0,0,0,0,0,0,0,0,0,0,0,0,0,0,0,0,0,0,0,0,0,0,0,0,0,0,0,0,0,0,0,0,0,0,0,0,0,0,0,0,0,0,0,0,0,0,0,0,0,0,0,0,0,0,0,0,0,0,0,0,0,0,0,0,0,0,0,0,0,0,0,0,0,0,0,0,0,0,0,0,0,0,0,0,0,0,0,0,0,0,0,0,0,0,0,0,0,0,0,0,0,0,0,0,0,0,0,0,0,0,0,0,0,0,0,0,0,0,0,0,0,0,0,0,0,0,0,0,0,0,0,0,0,0,0,0,0,0,0,0,0,0,0,0,0,0,0,0,0,0,0,0,0,0,0,0,0,0,0,0,0,0,0,0,0,0,0,0,0,0,0,0,0,0,0,0,0,0,0,0,0,0,0,0,0,0,0,0,0,0,0,0,0,0,0,0,0,0,0,0,0,0,0,0,0,0,0,0,0,0,0,0,0,0,0,0,0,0,0,0,0,0,0,0,0,0,0,0,0,0,0,0,0,0,0,0,0,0,0,0,0,0,0,0,0,0,0,0,0,0,0,0,0,0,0,0,0,0,0,0,0,0,0,0,0,0,0,0,0,0,0,0,0,0,0,0,0,0,0,0,0,0,0,0,0,0,0,0,0,0,0,0,0,0,0,0,0,0,0,0,0,0,0,0,0,0,0,0,0,0,0,0,0,0,0,0,0,0,0,0,0,0,0,0,0,0,0,0,0,0,0,0,0,0,0,0,0,0,0,0,0,0,0,0,0,0,0,0,0,0,0,0,0,0,0,0,0,0,0,0,0,0,0,0,0,0,0,0,0,0,0,0,0,0,0,0,0,0,0,0,0,0,0,0,0,0,0,0],"trees":[{"base_weights":[-4.012039E-3,1.3034002E0,-3.2960024E-1,9.2830276E-1,3.6272564E0,-4.5118818E-1,1.2477385E0,1.3882374E0,-2.4468826E-1,-2.3640184E-1,3.8547664E0,-4.9249154E-1,1.4366797E0,1.5838184E0,6.70397E-2,-6.100711E-1,1.7688901E0,-3.4637743E-1,1.2246575E0,-3.273535E-2,1.4702345E-2,4.0650177E0,8.9656365E-1,-2.6716688E-1,-8.09394E-1,2.1167421E0,-3.9370984E-1,1.8074849E0,-6.2639713E-1,-2.3727727E-1,9.715622E-2,-7.546484E-1,7.5512275E-2,-4.3444914E-1,2.1026134E0,-4.0515545E-1,8.58589E-2,-9.208007E-3,1.1440071E-1,1.0073575E0,4.236663E0,8.71385E-2,-1.5970971E-2,-3.410803E-1,9.962308E-1,-9.0733707E-1,-1.9224799E-1,-1.8808912E-2,2.3862484E0,3.854778E-1,-8.0660945E-1,8.2614774E-1,2.4367266E0,-8.549578E-1,1.4702345E-2,-4.4342276E-1,5.862351E-2,-4.6428215E-2,2.8121034E-2,-3.7595887E-2,6.858041E-2,6.3309304E-2,1.346945E-1,-9.275369E-3,-4.8392195E-2,1.4702345E-2,6.2140044E-2,2.1775249E-1,4.589471E-2,-3.0308697E-2,-3.616221E-3,-1.6295819E-3,1.4708184E-1,-4.6612795E-2,1.6193507E-2,-3.0165076E-2,2.3637658E-2,1.5444696E-1,3.2909766E-2,3.8421195E-2,-9.016503E-3,-4.6099443E-2,-1.2736603E-2,2.8303325E-2,1.316452E-1,1.3149437E-1,5.8592004E-3,-9.016503E-3,-4.8858833E-2,-4.235744E-2,1.2432839E-2],"categories":[],"categories_nodes":[],"categories_segments":[],"categories_sizes":[],"default_left":[0,0,0,0,0,0,0,0,0,0,0,0,0,0,0,0,0,0,0,0,0,0,0,0,0,0,0,0,0,0,0,0,0,0,0,0,0,0,0,0,0,0,0,0,0,0,0,0,0,0,0,0,0,0,0,0,0,0,0,0,0,0,0,0,0,0,0,0,0,0,0,0,0,0,0,0,0,0,0,0,0,0,0,0,0,0,0,0,0,0,0],"id":0,"left_children":[1,3,5,7,9,11,13,15,17,19,21,23,25,27,29,31,33,35,37,-1,-1,39,41,43,45,47,49,51,53,55,-1,57,-1,59,61,63,-1,-1,-1,65,67,-1,-1,69,71,73,75,-1,77,79,81,83,85,87,-1,89,-1,-1,-1,-1,-1,-1,-1,-1,-1,-1,-1,-1,-1,-1,-1,-1,-1,-1,-1,-1,-1,-1,-1,-1,-1,-1,-1,-1,-1,-1,-1,-1,-1,-1,-1],"loss_changes":[6.33423E2,2.5524509E2,2.2904431E2,1.38881E2,3.6853638E1,8.7011475E1,3.3831604E1,1.4150952E2,1.1358513E1,9.061235E-1,2.0408691E1,7.7177795E1,3.0648346E1,3.4022354E1,1.187656E1,1.042313E1,1.1513043E2,9.091884E0,7.847688E0,0E0,0E0,1.4533569E1,4.517411E0,5.9632755E1,2.7020447E1,1.2736069E1,2.669695E0,3.5453735E1,1.693896E0,5.778629E0,0E0,7.1689167E0,0E0,1.3221728E1,6.3389893E1,8.239004E0,0E0,0E0,0E0,1.7467618E-1,9.206909E0,0E0,0E0,4.27463E1,7.0845825E1,1.2206451E1,1.7476612E1,0E0,1.744104E1,8.3540535E-1,9.0873E-2,1.0359779E1,1.6026154E1,2.9777765E-1,0E0,4.8243856E0,0E0,0E0,0E0,0E0,0E0,0E0,0E0,0E0,0E0,0E0,0E0,0E0,0E0,0E0,0E0,0E0,0E0,0E0,0E0,0E0,0E0,0E0,0E0,0E0,0E0,0E0,0E0,0E0,0E0,0E0,0E0,0E0,0E0,0E0,0E0],"parents":[2147483647,0,0,1,1,2,2,3,3,4,4,5,5,6,6,7,7,8,8,9,9,10,10,11,11,12,12,13,13,14,14,15,15,16,16,17,17,18,18,21,21,22,22,23,23,24,24,25,25,26,26,27,27,28,28,29,29,31,31,33,33,34,34,35,35,39,39,40,40,43,43,44,44,45,45,46,46,48,48,49,49,50,50,51,51,52,52,53,53,55,55],"right_children":[2,4,6,8,10,12,14,16,18,20,22,24,26,28,30,32,34,36,38,-1,-1,40,42,44,46,48,50,52,54,56,-1,58,-1,60,62,64,-1,-1,-1,66,68,-1,-1,70,72,74,76,-1,78,80,82,84,86,88,-1,90,-1,-1,-1,-1,-1,-1,-1,-1,-1,-1,-1,-1,-1,-1,-1,-1,-1,-1,-1,-1,-1,-1,-1,-1,-1,-1,-1,-1,-1,-1,-1,-1,-1,-1,-1],"split_conditions":[1E0,1E0,1E0,1E0,1E0,1E0,1E0,1E0,1E0,1E0,1E0,1E0,1E0,1E0,1E0,1E0,1E0,1E0,1E0,-3.273535E-2,1.4702345E-2,1E0,1E0,1E0,1E0,1E0,1E0,1E0,1E0,1E0,9.715622E-2,1E0,7.5512275E-2,1E0,1E0,1E0,8.58589E-2,-9.208007E-3,1.1440071E-1,1E0,1E0,8.71385E-2,-1.5970971E-2,1E0,1E0,1E0,1E0,-1.8808912E-2,1E0,1E0,1E0,1E0,1E0,1E0,1.4702345E-2,1E0,5.862351E-2,-4.6428215E-2,2.8121034E-2,-3.7595887E-2,6.858041E-2,6.3309304E-2,1.346945E-1,-9.275369E-3,-4.8392195E-2,1.4702345E-2,6.2140044E-2,2.1775249E-1,4.589471E-2,-3.0308697E-2,-3.616221E-3,-1.6295819E-3,1.4708184E-1,-4.6612795E-2,1.6193507E-2,-3.0165076E-2,2.3637658E-2,1.5444696E-1,3.2909766E-2,3.8421195E-2,-9.016503E-3,-4.6099443E-2,-1.2736603E-2,2.8303325E-2,1.316452E-1,1.3149437E-1,5.8592004E-3,-9.016503E-3,-4.8858833E-2,-4.235744E-2,1.2432839E-2],"split_indices":[817,1516,1958,94,158,2030,89,1917,550,65,94,481,139,38,728,1423,158,274,153,0,0,125,85,1748,82,28,118,1255,1814,1516,0,78,0,1950,155,1619,0,0,0,28,84,0,0,100,66,1068,1366,0,653,481,1184,358,2087,151,0,1366,0,0,0,0,0,0,0,0,0,0,0,0,0,0,0,0,0,0,0,0,0,0,0,0,0,0,0,0,0,0,0,0,0,0,0],"split_type":[0,0,0,0,0,0,0,0,0,0,0,0,0,0,0,0,0,0,0,0,0,0,0,0,0,0,0,0,0,0,0,0,0,0,0,0,0,0,0,0,0,0,0,0,0,0,0,0,0,0,0,0,0,0,0,0,0,0,0,0,0,0,0,0,0,0,0,0,0,0,0,0,0,0,0,0,0,0,0,0,0,0,0,0,0,0,0,0,0,0,0],"sum_hessian":[1.486024E3,2.956852E2,1.1903387E3,2.557962E2,3.988901E1,1.105812E3,8.452672E1,1.8361609E2,7.2180115E1,2.2160563E0,3.7672955E1,1.0828601E3,2.2952011E1,6.553195E1,1.8994768E1,2.92836E1,1.5433249E2,6.822288E1,3.9572432E0,1.1080282E0,1.1080282E0,3.4823742E1,2.849215E0,6.339504E2,4.4890967E2,1.6620422E1,6.331589E0,5.967523E1,5.85672E0,1.7095291E1,1.8994768E0,2.8017282E1,1.2663178E0,2.0261086E1,1.340714E2,6.7114845E1,1.1080282E0,2.0577664E0,1.8994768E0,2.2160563E0,3.2607685E1,1.4246075E0,1.4246075E0,5.996015E2,3.4348873E1,3.870184E2,6.1891285E1,1.5828973E0,1.5037524E1,2.2160563E0,4.115533E0,2.4218328E1,3.54569E1,4.748692E0,1.1080282E0,1.5512394E1,1.5828973E0,2.5009777E1,3.007505E0,1.772845E1,2.5326357E0,5.682601E1,7.724539E1,4.9228107E1,1.788674E1,1.1080282E0,1.1080282E0,3.1183077E1,1.4246075E0,3.0122537E2,2.9837613E2,2.31103E1,1.1238571E1,3.7957877E2,7.439617E0,3.8306114E1,2.358517E1,1.0130543E1,4.9069815E0,1.1080282E0,1.1080282E0,2.849215E0,1.2663178E0,2.2318851E1,1.8994768E0,3.2607685E1,2.849215E0,1.1080282E0,3.6406639E0,9.655674E0,5.85672E0],"tree_param":{"num_deleted":"0","num_feature":"2215","num_nodes":"91","size_leaf_vector":"1"}},{"base_weights":[-4.951742E-3,1.1818881E0,-3.156249E-1,2.1059087E-1,1.7862993E0,-6.40966E-1,-4.60977E-2,-3.4659874E-1,7.7662843E-1,6.227895E-1,2.3204098E0,-6.8067145E-1,1.1246568E0,1.357635E-1,-7.426291E-1,-7.093544E-1,5.0940335E-1,-8.8189936E-1,1.0506505E0,-1.4852609E-1,1.5537968E0,2.6112225E0,2.6541287E-1,-7.7932376E-1,-8.9439526E-2,-3.5978413E-1,1.5658038E0,6.379424E-2,1.6368781E0,-9.0374154E-1,4.8823664E-1,-8.19123E-1,6.4087623E-1,-7.2394496E-1,1.0329365E0,-5.4012805E-2,1.00681195E-2,4.7411332E-1,2.2034929E0,-4.1339082E-1,1.3435506E0,1.1020868E0,1.4913604E-1,1.1140939E0,3.0194688E0,1.9955605E-2,9.168387E-2,-7.9602814E-1,1.1663711E0,-2.399869E-1,1.3765303E0,-3.7659567E-2,1.3197834E-2,2.193105E0,3.555815E-1,3.186469E-1,-3.5919723E-1,1.9537497E0,-4.3519285E-2,-2.4672522E-1,-1.1034195E0,9.0390563E-1,-4.7238853E-2,-4.610182E-2,2.6884673E-2,-2.0898705E-2,8.48993E-2,-5.0027438E-2,1.4163369E-2,8.97048E-2,1.0512538E-2,1.6009135E-2,1.1908493E-1,1.3672589E-1,-9.824438E-4,-3.0002926E-2,7.133304E-2,-1.5795805E-3,1.24072336E-1,1.05806045E-1,1.199519E-2,2.8244672E-2,1.3860798E-1,1.5788785E-1,6.5860935E-3,-1.40733E-2,4.5521196E-2,-4.1101266E-2,1.3784841E-2,-3.222058E-2,9.947473E-2,-1.917033E-2,5.8543142E-2,8.51645E-2,-1.02287615E-2,1.2809087E-1,1.4183371E-2,-2.86937E-2,7.953496E-2,3.5107926E-2,-7.214088E-3,-2.3987211E-2,7.318912E-2,1.1508679E-1,1.34958895E-2,-2.396086E-2,7.02234E-2,-5.6731474E-2,3.692874E-2,-8.595068E-3,7.757952E-2],"categories":[],"categories_nodes":[],"categories_segments":[],"categories_sizes":[],"default_left":[0,0,0,0,0,0,0,0,0,0,0,0,0,0,0,0,0,0,0,0,0,0,0,0,0,0,0,0,0,0,0,0,0,0,0,0,0,0,0,0,0,0,0,0,0,0,0,0,0,0,0,0,0,0,0,0,0,0,0,0,0,0,0,0,0,0,0,0,0,0,0,0,0,0,0,0,0,0,0,0,0,0,0,0,0,0,0,0,0,0,0,0,0,0,0,0,0,0,0,0,0,0,0,0,0,0,0,0,0,0,0],"id":1,"left_children":[1,3,5,7,9,11,13,15,17,19,21,23,25,27,29,31,33,35,37,39,41,43,45,47,49,51,53,55,57,59,61,63,65,67,69,-1,-1,71,73,75,77,79,-1,81,83,85,-1,87,89,91,93,-1,-1,95,97,99,101,103,-1,105,107,109,-1,-1,-1,-1,-1,-1,-1,-1,-1,-1,-1,-1,-1,-1,-1,-1,-1,-1,-1,-1,-1,-1,-1,-1,-1,-1,-1,-1,-1,-1,-1,-1,-1,-1,-1,-1,-1,-1,-1,-1,-1,-1,-1,-1,-1,-1,-1,-1,-1],"loss_changes":[5.5409814E2,1.8264865E2,1.0440624E2,3.8343117E1,1.17898926E2,3.8590195E1,8.274733E1,1.9466667E1,2.8282734E1,4.4600876E1,7.774756E1,3.0744217E1,8.581084E0,5.5879818E1,2.7259552E1,6.9917526E0,1.2948355E1,2.1682673E0,3.359354E1,1.4270753E1,1.4839355E1,6.684442E1,6.6556253E0,1.5639496E1,1.7252542E1,1.0866361E0,6.5275135E0,5.353405E1,2.0504055E1,1.546209E1,1.0564378E1,6.191511E0,5.0095387E0,2.015889E0,8.187032E0,0E0,0E0,9.812666E0,2.0240639E1,1.1242093E1,8.633259E0,1.9534323E1,0E0,2.2289146E1,3.539435E1,4.562361E0,0E0,1.2746826E1,7.6293044E0,1.4691179E1,4.1144247E0,0E0,0E0,3.6002312E0,6.0552273E0,5.509562E1,4.174833E1,1.1871391E1,0E0,1.1898789E1,6.10923E0,9.427718E0,0E0,0E0,0E0,0E0,0E0,0E0,0E0,0E0,0E0,0E0,0E0,0E0,0E0,0E0,0E0,0E0,0E0,0E0,0E0,0E0,0E0,0E0,0E0,0E0,0E0,0E0,0E0,0E0,0E0,0E0,0E0,0E0,0E0,0E0,0E0,0E0,0E0,0E0,0E0,0E0,0E0,0E0,0E0,0E0,0E0,0E0,0E0,0E0,0E0],"parents":[2147483647,0,0,1,1,2,2,3,3,4,4,5,5,6,6,7,7,8,8,9,9,10,10,11,11,12,12,13,13,14,14,15,15,16,16,17,17,18,18,19,19,20,20,21,21,22,22,23,23,24,24,25,25,26,26,27,27,28,28,29,29,30,30,31,31,32,32,33,33,34,34,37,37,38,38,39,39,40,40,41,41,43,43,44,44,45,45,47,47,48,48,49,49,50,50,53,53,54,54,55,55,56,56,57,57,59,59,60,60,61,61],"right_children":[2,4,6,8,10,12,14,16,18,20,22,24,26,28,30,32,34,36,38,40,42,44,46,48,50,52,54,56,58,60,62,64,66,68,70,-1,-1,72,74,76,78,80,-1,82,84,86,-1,88,90,92,94,-1,-1,96,98,100,102,104,-1,106,108,110,-1,-1,-1,-1,-1,-1,-1,-1,-1,-1,-1,-1,-1,-1,-1,-1,-1,-1,-1,-1,-1,-1,-1,-1,-1,-1,-1,-1,-1,-1,-1,-1,-1,-1,-1,-1,-1,-1,-1,-1,-1,-1,-1,-1,-1,-1,-1,-1,-1],"split_conditions":[1E0,1E0,1E0,1E0,1E0,1E0,1E0,1E0,1E0,1E0,1E0,1E0,1E0,1E0,1E0,1E0,1E0,1E0,1E0,1E0,1E0,1E0,1E0,1E0,1E0,1E0,1E0,1E0,1E0,1E0,1E0,1E0,1E0,1E0,1E0,-5.4012805E-2,1.00681195E-2,1E0,1E0,1E0,1E0,1E0,1.4913604E-1,1E0,1E0,1E0,9.168387E-2,1E0,1E0,1E0,1E0,-3.7659567E-2,1.3197834E-2,1E0,1E0,1E0,1E0,1E0,-4.3519285E-2,1E0,1E0,1E0,-4.7238853E-2,-4.610182E-2,2.6884673E-2,-2.0898705E-2,8.48993E-2,-5.0027438E-2,1.4163369E-2,8.97048E-2,1.0512538E-2,1.6009135E-2,1.1908493E-1,1.3672589E-1,-9.824438E-4,-3.0002926E-2,7.133304E-2,-1.5795805E-3,1.24072336E-1,1.05806045E-1,1.199519E-2,2.8244672E-2,1.3860798E-1,1.5788785E-1,6.5860935E-3,-1.40733E-2,4.5521196E-2,-4.1101266E-2,1.3784841E-2,-3.222058E-2,9.947473E-2,-1.917033E-2,5.8543142E-2,8.51645E-2,-1.02287615E-2,1.2809087E-1,1.4183371E-2,-2.86937E-2,7.953496E-2,3.5107926E-2,-7.214088E-3,-2.3987211E-2,7.318912E-2,1.1508679E-1,1.34958895E-2,-2.396086E-2,7.02234E-2,-5.6731474E-2,3.692874E-2,-8.595068E-3,7.757952E-2],"split_indices":[817,100,100,135,1255,28,1702,151,1917,1042,94,358,145,166,1583,1770,145,69,85,477,948,155,550,386,1748,94,124,140,44,127,338,1128,1366,842,80,0,0,2072,94,1057,1319,149,0,1195,891,1524,0,790,110,1770,83,0,0,139,87,77,2030,1338,0,976,608,1255,0,0,0,0,0,0,0,0,0,0,0,0,0,0,0,0,0,0,0,0,0,0,0,0,0,0,0,0,0,0,0,0,0,0,0,0,0,0,0,0,0,0,0,0,0,0,0,0,0],"split_type":[0,0,0,0,0,0,0,0,0,0,0,0,0,0,0,0,0,0,0,0,0,0,0,0,0,0,0,0,0,0,0,0,0,0,0,0,0,0,0,0,0,0,0,0,0,0,0,0,0,0,0,0,0,0,0,0,0,0,0,0,0,0,0,0,0,0,0,0,0,0,0,0,0,0,0,0,0,0,0,0,0,0,0,0,0,0,0,0,0,0,0,0,0,0,0,0,0,0,0,0,0,0,0,0,0,0,0,0,0,0,0],"sum_hessian":[1.5007527E3,3.107635E2,1.1899893E3,1.1972007E2,1.9104341E2,5.3854443E2,6.5144476E2,6.052693E1,5.919314E1,6.078815E1,1.3025525E2,5.2730096E2,1.1243494E1,5.172089E2,1.3423582E2,4.2631794E1,1.7895138E1,8.078627E0,5.1114513E1,3.370494E1,2.708321E1,1.1387025E2,1.6385006E1,4.5162512E2,7.5675835E1,2.6181078E0,8.625386E0,4.9454123E2,2.2667725E1,1.1893391E2,1.5301917E1,3.9790337E1,2.8414583E0,5.218499E0,1.2676639E1,6.8306384E0,1.2479877E0,3.501483E1,1.6099682E1,2.9237766E1,4.467175E0,2.1923914E1,5.1592956E0,2.5196842E1,8.867341E1,1.5043235E1,1.3417705E0,4.4836664E2,3.2584774E0,6.9386505E1,6.2893333E0,1.4782217E0,1.139886E0,5.145922E0,3.4794643E0,3.0875986E2,1.8578136E2,2.0320374E1,2.3473525E0,2.824215E1,9.069176E1,1.214755E1,3.1543674E0,3.7282906E1,2.5074334E0,1.7216151E0,1.1198432E0,4.0993414E0,1.119158E0,5.9712143E0,6.7054243E0,3.3480965E1,1.5338651E0,1.2809865E1,3.289818E0,2.7156693E1,2.081074E0,2.4629493E0,2.0042257E0,9.406421E0,1.2517493E1,1.9934605E1,5.2622375E0,8.453185E1,4.141555E0,1.1749849E1,3.2933862E0,4.379755E2,1.0391132E1,1.0861591E0,2.1723182E0,6.364493E1,5.741572E0,5.148118E0,1.1412154E0,4.0267043E0,1.1192179E0,2.2908866E0,1.1885777E0,1.6858195E2,1.4017789E2,1.7494943E2,1.0831934E1,1.6536022E1,3.7843506E0,2.5378563E1,2.8635876E0,8.955834E1,1.1334147E0,4.8410826E0,7.3064666E0],"tree_param":{"num_deleted":"0","num_feature":"2215","num_nodes":"111","size_leaf_vector":"1"}},{"base_weights":[-3.0826759E-3,1.1180949E0,-3.0638328E-1,7.986206E-1,2.8495803E0,-4.2684343E-1,1.193592E0,1.1729254E0,-2.1666838E-1,3.1748044E-1,2.970648E0,-1.999993E-1,-7.585231E-1,1.4034505E0,-3.4641823E-1,-5.111428E-1,1.4592235E0,-4.0823293E-1,6.2014294E-1,-3.410678E-2,6.0897168E-2,3.0434608E0,-7.5322664E-3,-2.3850879E-1,2.0937366E0,-8.171964E-1,4.052076E-1,-4.782193E-1,1.6015172E0,4.920385E-2,-7.00448E-1,1.5433331E-1,-8.9893055E-1,-3.3511263E-1,1.7069317E0,-7.4155974E-1,2.670979E-1,8.2282615E-1,-3.58725E-2,3.1226242E0,2.1614209E-2,-2.95796E-1,9.423303E-1,2.7055128E0,-3.8550597E-2,-8.407115E-1,8.214601E-1,1.5582131E-1,1.3332061E-1,-9.2496246E-1,6.093923E-2,8.981197E-1,2.020334E0,-9.7370386E-1,2.4340652E-2,-1.1900089E-2,8.781513E-2,-5.1887114E-2,1.0592234E-2,-3.9765574E-2,5.391494E-2,5.4897267E-2,1.0599112E-1,-4.0017378E-2,2.6632046E-2,-3.4954965E-2,3.9812107E-2,8.974933E-2,1.9037241E-2,1.6012248E-1,2.2459155E-2,-1.6616536E-2,8.211487E-2,8.049688E-2,-5.3787272E-2,1.545512E-1,2.214309E-2,-4.363326E-2,2.0662284E-2,-1.798985E-2,8.890229E-2,-3.0240461E-2,5.0012965E-2,-5.1881816E-2,-7.85757E-3,2.9589852E-2,1.1882626E-1,1.2248273E-1,4.924865E-2,-5.366989E-2,-6.757898E-3],"categories":[],"categories_nodes":[],"categories_segments":[],"categories_sizes":[],"default_left":[0,0,0,0,0,0,0,0,0,0,0,0,0,0,0,0,0,0,0,0,0,0,0,0,0,0,0,0,0,0,0,0,0,0,0,0,0,0,0,0,0,0,0,0,0,0,0,0,0,0,0,0,0,0,0,0,0,0,0,0,0,0,0,0,0,0,0,0,0,0,0,0,0,0,0,0,0,0,0,0,0,0,0,0,0,0,0,0,0,0,0],"id":2,"left_children":[1,3,5,7,9,11,13,15,17,19,21,23,25,27,29,31,33,35,37,-1,-1,39,-1,41,43,45,47,49,51,-1,53,55,57,59,61,63,65,67,-1,69,-1,71,73,75,-1,77,79,81,-1,83,-1,85,87,89,-1,-1,-1,-1,-1,-1,-1,-1,-1,-1,-1,-1,-1,-1,-1,-1,-1,-1,-1,-1,-1,-1,-1,-1,-1,-1,-1,-1,-1,-1,-1,-1,-1,-1,-1,-1,-1],"loss_changes":[5.0706345E2,1.7334982E2,2.1256894E2,1.02643555E2,1.4098267E1,8.164264E1,2.8767616E1,9.573279E1,1.2022234E1,3.8539383E0,1.1073608E1,5.7644325E1,3.0454514E1,2.954245E1,6.0104756E0,7.7171197E0,7.552881E1,1.3781951E1,4.4056563E0,0E0,0E0,8.0946045E0,0E0,4.338066E1,2.0986652E1,1.6887238E1,1.1902718E1,7.2859154E0,1.883319E1,0E0,3.5582552E0,7.7498703E0,3.103301E0,1.4707554E1,3.4974243E1,3.4725895E0,1.1127904E1,4.7691193E0,0E0,7.990906E0,0E0,4.3628044E1,4.1772865E1,6.5762024E0,0E0,1.6984222E1,7.930654E0,1.392403E1,0E0,4.4244146E-1,0E0,1.1254763E1,1.6758835E1,5.2884007E-1,0E0,0E0,0E0,0E0,0E0,0E0,0E0,0E0,0E0,0E0,0E0,0E0,0E0,0E0,0E0,0E0,0E0,0E0,0E0,0E0,0E0,0E0,0E0,0E0,0E0,0E0,0E0,0E0,0E0,0E0,0E0,0E0,0E0,0E0,0E0,0E0,0E0],"parents":[2147483647,0,0,1,1,2,2,3,3,4,4,5,5,6,6,7,7,8,8,9,9,10,10,11,11,12,12,13,13,14,14,15,15,16,16,17,17,18,18,21,21,23,23,24,24,25,25,26,26,27,27,28,28,30,30,31,31,32,32,33,33,34,34,35,35,36,36,37,37,39,39,41,41,42,42,43,43,45,45,46,46,47,47,49,49,51,51,52,52,53,53],"right_children":[2,4,6,8,10,12,14,16,18,20,22,24,26,28,30,32,34,36,38,-1,-1,40,-1,42,44,46,48,50,52,-1,54,56,58,60,62,64,66,68,-1,70,-1,72,74,76,-1,78,80,82,-1,84,-1,86,88,90,-1,-1,-1,-1,-1,-1,-1,-1,-1,-1,-1,-1,-1,-1,-1,-1,-1,-1,-1,-1,-1,-1,-1,-1,-1,-1,-1,-1,-1,-1,-1,-1,-1,-1,-1,-1,-1],"split_conditions":[1E0,1E0,1E0,1E0,1E0,1E0,1E0,1E0,1E0,1E0,1E0,1E0,1E0,1E0,1E0,1E0,1E0,1E0,1E0,-3.410678E-2,6.0897168E-2,1E0,-7.5322664E-3,1E0,1E0,1E0,1E0,1E0,1E0,4.920385E-2,1E0,1E0,1E0,1E0,1E0,1E0,1E0,1E0,-3.58725E-2,1E0,2.1614209E-2,1E0,1E0,1E0,-3.8550597E-2,1E0,1E0,1E0,1.3332061E-1,1E0,6.093923E-2,1E0,1E0,1E0,2.4340652E-2,-1.1900089E-2,8.781513E-2,-5.1887114E-2,1.0592234E-2,-3.9765574E-2,5.391494E-2,5.4897267E-2,1.0599112E-1,-4.0017378E-2,2.6632046E-2,-3.4954965E-2,3.9812107E-2,8.974933E-2,1.9037241E-2,1.6012248E-1,2.2459155E-2,-1.6616536E-2,8.211487E-2,8.049688E-2,-5.3787272E-2,1.545512E-1,2.214309E-2,-4.363326E-2,2.0662284E-2,-1.798985E-2,8.890229E-2,-3.0240461E-2,5.0012965E-2,-5.1881816E-2,-7.85757E-3,2.9589852E-2,1.1882626E-1,1.2248273E-1,4.924865E-2,-5.366989E-2,-6.757898E-3],"split_indices":[817,1516,1958,94,158,481,2016,1917,1921,98,576,1488,2072,86,92,164,158,78,72,0,0,102,0,166,114,1159,585,69,1255,0,175,114,1608,286,155,1268,145,77,0,1683,0,1481,44,127,0,1525,90,1967,0,2164,0,87,241,1731,0,0,0,0,0,0,0,0,0,0,0,0,0,0,0,0,0,0,0,0,0,0,0,0,0,0,0,0,0,0,0,0,0,0,0,0,0],"split_type":[0,0,0,0,0,0,0,0,0,0,0,0,0,0,0,0,0,0,0,0,0,0,0,0,0,0,0,0,0,0,0,0,0,0,0,0,0,0,0,0,0,0,0,0,0,0,0,0,0,0,0,0,0,0,0,0,0,0,0,0,0,0,0,0,0,0,0,0,0,0,0,0,0,0,0,0,0,0,0,0,0,0,0,0,0,0,0,0,0,0,0],"sum_hessian":[1.4891194E3,3.1649207E2,1.1726273E3,2.684263E2,4.8065784E1,1.0861187E3,8.6508675E1,1.960088E2,7.241749E1,2.3586025E0,4.570718E1,6.4594415E2,4.4017456E2,7.621189E1,1.0296786E1,2.836636E1,1.6764244E2,5.9344402E1,1.3073085E1,1.2326652E0,1.1259373E0,4.468961E1,1.0175711E0,6.3615967E2,9.784454E0,4.193304E2,2.084414E1,7.1234446E0,6.908845E1,1.790013E0,8.506773E0,1.0665497E1,1.7700863E1,2.0292898E1,1.4734955E2,3.9667446E1,1.9676954E1,1.16870165E1,1.3860685E0,4.3184513E1,1.5050966E0,6.074399E2,2.8719824E1,8.108453E0,1.6760015E0,4.138781E2,5.4522905E0,1.9736345E1,1.1077936E0,5.9991007E0,1.1243439E0,2.6957722E1,4.2130722E1,7.061416E0,1.4453573E0,9.251229E0,1.414268E0,1.5792988E1,1.907874E0,1.5638425E1,4.654473E0,6.1015244E1,8.6334305E1,3.8273506E1,1.3939401E0,6.849266E0,1.2827687E1,2.6966436E0,8.990373E0,4.1740326E1,1.4441862E0,5.9701416E2,1.0425709E1,2.1732616E1,6.987207E0,6.615239E0,1.4932137E0,4.0389014E2,9.98798E0,2.7188022E0,2.733488E0,1.0532726E1,9.203618E0,4.9249573E0,1.0741434E0,2.3490774E1,3.4669473E0,2.881597E1,1.3314754E1,6.0607853E0,1.000631E0],"tree_param":{"num_deleted":"0","num_feature":"2215","num_nodes":"91","size_leaf_vector":"1"}},{"base_weights":[-9.426347E-3,1.0168447E0,-2.959981E-1,7.253391E-1,2.5056381E0,-5.0491866E-2,-6.8147343E-1,-5.667018E-1,9.6060026E-1,-8.6358055E-2,2.6453805E0,-4.8295346E-1,3.080341E-1,-7.501891E-1,6.7605346E-1,-6.717591E-1,7.628793E-1,1.3132226E0,-1.06307685E-1,-3.835055E-2,4.306377E-2,2.706072E0,-7.35844E-3,-6.2195766E-1,1.0442913E-1,-2.5925025E-1,5.282981E-1,-7.9435587E-1,4.0020296E-1,1.1097365E-1,1.7125462E0,-8.240683E-1,5.180102E-2,8.992249E-2,-1.810648E-2,-2.9286617E-1,1.5296454E0,-4.00939E-1,6.1483604E-1,2.7761798E0,4.834868E-3,-7.053338E-1,9.132428E-2,-7.652284E-2,1.4997649E0,-4.305261E-1,1.9564598E0,-2.603043E-1,7.5845635E-1,-8.309619E-1,4.5471704E-1,9.944531E-1,-4.1888884E-1,-6.062786E-1,8.516673E-1,-1.6189246E-2,2.2197924E0,-4.5083992E-2,2.9314062E-2,-4.169436E-2,2.5969798E-2,-2.805517E-2,8.586905E-2,4.9664717E-2,9.399552E-2,-2.7008587E-2,5.237059E-2,-5.884148E-4,6.4274654E-2,1.446275E-1,3.89005E-2,-3.7146855E-2,2.98968E-2,-3.4335882E-3,9.778445E-2,-2.3912767E-2,2.7280068E-2,8.93306E-2,-6.995433E-3,-2.5556577E-2,1.756828E-2,-1.3341399E-2,1.2093518E-1,-2.221684E-2,1.0106492E-1,4.3358553E-2,-4.3320075E-2,-3.5314247E-2,-5.7883907E-2,4.7165852E-2,-4.557341E-2,7.819981E-2,-4.136136E-2,2.5559604E-2,-4.179496E-2,1.9878127E-2,-5.1409837E-2,8.556769E-2,-2.2447132E-2,1.3120149E-2,1.4647117E-1],"categories":[],"categories_nodes":[],"categories_segments":[],"categories_sizes":[],"default_left":[0,0,0,0,0,0,0,0,0,0,0,0,0,0,0,0,0,0,0,0,0,0,0,0,0,0,0,0,0,0,0,0,0,0,0,0,0,0,0,0,0,0,0,0,0,0,0,0,0,0,0,0,0,0,0,0,0,0,0,0,0,0,0,0,0,0,0,0,0,0,0,0,0,0,0,0,0,0,0,0,0,0,0,0,0,0,0,0,0,0,0,0,0,0,0,0,0,0,0,0,0],"id":3,"left_children":[1,3,5,7,9,11,13,15,17,19,21,23,25,27,29,31,33,35,37,-1,-1,39,-1,41,43,45,47,49,51,53,55,57,59,-1,-1,61,63,65,67,69,-1,71,73,75,77,79,81,83,85,87,89,91,93,95,97,-1,99,-1,-1,-1,-1,-1,-1,-1,-1,-1,-1,-1,-1,-1,-1,-1,-1,-1,-1,-1,-1,-1,-1,-1,-1,-1,-1,-1,-1,-1,-1,-1,-1,-1,-1,-1,-1,-1,-1,-1,-1,-1,-1,-1,-1],"loss_changes":[4.3720584E2,1.3901257E2,1.09939445E2,8.345848E1,1.9326447E1,1.103886E2,4.267717E1,6.4693823E0,8.709328E1,3.0249465E0,8.88269E0,2.6409752E1,4.878598E1,2.220427E1,1.287471E1,4.4569416E0,4.8350945E0,6.0855835E1,1.2641868E1,0E0,0E0,8.704132E0,0E0,1.5589752E1,1.592102E1,4.2421146E1,5.1159576E1,1.9360718E1,8.492395E0,8.753719E0,8.776508E0,4.1570797E0,3.7074223E0,0E0,0E0,1.2544323E1,2.693454E1,9.039982E0,7.292048E0,8.847595E0,0E0,1.1904648E1,8.548218E0,1.4348551E1,3.6528416E0,6.6409454E0,8.910084E0,2.7845695E1,3.91895E1,1.5626617E1,9.181725E0,1.1577584E1,3.4058769E0,3.9925106E0,9.7622175E0,0E0,8.082962E0,0E0,0E0,0E0,0E0,0E0,0E0,0E0,0E0,0E0,0E0,0E0,0E0,0E0,0E0,0E0,0E0,0E0,0E0,0E0,0E0,0E0,0E0,0E0,0E0,0E0,0E0,0E0,0E0,0E0,0E0,0E0,0E0,0E0,0E0,0E0,0E0,0E0,0E0,0E0,0E0,0E0,0E0,0E0,0E0],"parents":[2147483647,0,0,1,1,2,2,3,3,4,4,5,5,6,6,7,7,8,8,9,9,10,10,11,11,12,12,13,13,14,14,15,15,16,16,17,17,18,18,21,21,23,23,24,24,25,25,26,26,27,27,28,28,29,29,30,30,31,31,32,32,35,35,36,36,37,37,38,38,39,39,41,41,42,42,43,43,44,44,45,45,46,46,47,47,48,48,49,49,50,50,51,51,52,52,53,53,54,54,56,56],"right_children":[2,4,6,8,10,12,14,16,18,20,22,24,26,28,30,32,34,36,38,-1,-1,40,-1,42,44,46,48,50,52,54,56,58,60,-1,-1,62,64,66,68,70,-1,72,74,76,78,80,82,84,86,88,90,92,94,96,98,-1,100,-1,-1,-1,-1,-1,-1,-1,-1,-1,-1,-1,-1,-1,-1,-1,-1,-1,-1,-1,-1,-1,-1,-1,-1,-1,-1,-1,-1,-1,-1,-1,-1,-1,-1,-1,-1,-1,-1,-1,-1,-1,-1,-1,-1],"split_conditions":[1E0,1E0,1E0,1E0,1E0,1E0,1E0,1E0,1E0,1E0,1E0,1E0,1E0,1E0,1E0,1E0,1E0,1E0,1E0,-3.835055E-2,4.306377E-2,1E0,-7.35844E-3,1E0,1E0,1E0,1E0,1E0,1E0,1E0,1E0,1E0,1E0,8.992249E-2,-1.810648E-2,1E0,1E0,1E0,1E0,1E0,4.834868E-3,1E0,1E0,1E0,1E0,1E0,1E0,1E0,1E0,1E0,1E0,1E0,1E0,1E0,1E0,-1.6189246E-2,1E0,-4.5083992E-2,2.9314062E-2,-4.169436E-2,2.5969798E-2,-2.805517E-2,8.586905E-2,4.9664717E-2,9.399552E-2,-2.7008587E-2,5.237059E-2,-5.884148E-4,6.4274654E-2,1.446275E-1,3.89005E-2,-3.7146855E-2,2.98968E-2,-3.4335882E-3,9.778445E-2,-2.3912767E-2,2.7280068E-2,8.93306E-2,-6.995433E-3,-2.5556577E-2,1.756828E-2,-1.3341399E-2,1.2093518E-1,-2.221684E-2,1.0106492E-1,4.3358553E-2,-4.3320075E-2,-3.5314247E-2,-5.7883907E-2,4.7165852E-2,-4.557341E-2,7.819981E-2,-4.136136E-2,2.5559604E-2,-4.179496E-2,1.9878127E-2,-5.1409837E-2,8.556769E-2,-2.2447132E-2,1.3120149E-2,1.4647117E-1],"split_indices":[817,1516,481,1917,158,100,2072,1423,94,98,576,358,155,834,86,78,79,158,69,0,0,53,0,383,1748,1432,145,1473,140,28,98,26,118,0,0,111,155,353,1042,94,0,2030,1132,80,83,550,105,1423,1251,1702,338,141,98,97,139,0,90,0,0,0,0,0,0,0,0,0,0,0,0,0,0,0,0,0,0,0,0,0,0,0,0,0,0,0,0,0,0,0,0,0,0,0,0,0,0,0,0,0,0,0,0],"split_type":[0,0,0,0,0,0,0,0,0,0,0,0,0,0,0,0,0,0,0,0,0,0,0,0,0,0,0,0,0,0,0,0,0,0,0,0,0,0,0,0,0,0,0,0,0,0,0,0,0,0,0,0,0,0,0,0,0,0,0,0,0,0,0,0,0,0,0,0,0,0,0,0,0,0,0,0,0,0,0,0,0,0,0,0,0,0,0,0,0,0,0,0,0,0,0,0,0,0,0,0,0],"sum_hessian":[1.484564E3,3.234994E2,1.1610646E3,2.7177338E2,5.1726006E1,7.100013E2,4.5106332E2,4.1646164E1,2.3012721E2,2.6655877E0,4.9060417E1,3.2166052E2,3.8834076E2,4.2975714E2,2.1306187E1,3.9054977E1,2.5911837E0,1.727883E2,5.733891E1,1.6622522E0,1.0033355E0,4.8047157E1,1.0132616E0,2.6005872E2,6.1601807E1,1.0856285E2,2.7977792E2,4.1416565E2,1.5591489E1,1.4505228E1,6.8009586E0,3.2148766E1,6.906212E0,1.037529E0,1.5536547E0,2.0476627E1,1.5231168E2,4.1022663E1,1.6316244E1,4.6727768E1,1.3193903E0,2.3285164E2,2.720708E1,5.5366806E1,6.235001E0,1.0152091E2,7.0419393E0,6.3177795E1,2.1660013E2,4.026987E2,1.1466959E1,8.911856E0,6.679633E0,7.4614186E0,7.0438094E0,1.42839E0,5.3725686E0,3.0813755E1,1.3350111E0,2.1156087E0,4.790603E0,1.8702005E1,1.7746229E0,6.168734E1,9.062434E1,3.7996986E1,3.0256793E0,8.943065E0,7.373179E0,4.3733215E1,2.994551E0,2.2673946E2,6.1121793E0,2.5943802E1,1.2632788E0,3.378295E1,2.1583857E1,5.2303767E0,1.0046245E0,9.234711E1,9.173802E0,1.2848512E0,5.7570877E0,5.920742E1,3.9703772E0,2.034539E2,1.3146229E1,2.9375986E2,1.0893883E2,8.674243E0,2.792716E0,6.896986E0,2.0148692E0,1.9978559E0,4.681777E0,2.225104E0,5.236315E0,4.0506034E0,2.9932055E0,1.7939777E0,3.5785906E0],"tree_param":{"num_deleted":"0","num_feature":"2215","num_nodes":"101","size_leaf_vector":"1"}},{"base_weights":[-8.505762E-3,9.4292176E-1,-2.806036E-1,1.2683018E0,-1.6606061E-1,-4.0320182E-1,1.1025012E0,-3.7499508E-1,1.4952708E0,-2.4092637E-1,1.5543746E0,-4.440661E-1,1.1939099E0,1.3864858E0,-4.520907E-3,1.3385355E-1,-9.4001454E-1,-2.816146E-1,1.6840756E0,-3.0461338E-1,9.03783E-2,-7.544968E-3,1.2202121E-1,-2.4678488E-1,-7.413075E-1,1.8073902E0,-4.7234288E-1,1.5742629E0,-2.8397897E-1,4.4024915E-1,-5.2076507E-2,-3.5333025E-1,1.1839426E0,-1.0501838E0,-2.460077E-3,-5.384433E-1,8.721864E-2,1.0370958E0,1.9941168E0,3.9664593E-1,-4.76979E-1,-3.230583E-1,9.4072795E-1,-8.447408E-1,-1.3617547E-1,1.9951981E0,-3.346394E-2,2.5514168E-1,-4.222599E-2,1.6933815E0,-3.5090724E-1,-5.3438246E-1,3.352486E-2,1.870938E0,-1.7261139E-1,-3.4296036E-2,7.724144E-2,-6.2936055E-3,9.241954E-2,-5.5832278E-2,-6.407282E-3,-4.3488104E-2,5.868221E-2,5.9025016E-2,-5.184276E-2,1.05202675E-1,-7.2616297E-3,-3.3032876E-2,4.7734346E-2,-3.2848362E-2,1.334613E-2,-1.9261396E-2,2.5543204E-2,-3.7882738E-3,1.1430067E-1,-4.322634E-2,5.7659265E-2,-2.728757E-2,2.3810593E-2,-1.4377226E-2,1.0965053E-1,-3.3388384E-2,4.9539253E-2,8.894212E-2,-4.154801E-2,-4.225036E-2,1.9255884E-2,-5.087964E-2,2.4188325E-2,1.1507857E-1,1.4406969E-2,-2.2357747E-2,6.402756E-2],"categories":[],"categories_nodes":[],"categories_segments":[],"categories_sizes":[],"default_left":[0,0,0,0,0,0,0,0,0,0,0,0,0,0,0,0,0,0,0,0,0,0,0,0,0,0,0,0,0,0,0,0,0,0,0,0,0,0,0,0,0,0,0,0,0,0,0,0,0,0,0,0,0,0,0,0,0,0,0,0,0,0,0,0,0,0,0,0,0,0,0,0,0,0,0,0,0,0,0,0,0,0,0,0,0,0,0,0,0,0,0,0,0],"id":4,"left_children":[1,3,5,7,9,11,13,15,17,19,21,23,25,27,29,31,33,35,37,39,-1,-1,-1,41,43,45,47,49,51,53,-1,55,57,59,-1,61,-1,63,65,67,69,71,73,75,77,79,-1,81,-1,83,85,87,-1,89,91,-1,-1,-1,-1,-1,-1,-1,-1,-1,-1,-1,-1,-1,-1,-1,-1,-1,-1,-1,-1,-1,-1,-1,-1,-1,-1,-1,-1,-1,-1,-1,-1,-1,-1,-1,-1,-1,-1],"loss_changes":[3.8348364E2,1.1908176E2,1.9576102E2,9.560077E1,1.0113683E1,6.963292E1,2.957508E1,9.246454E0,7.565344E1,1.0116954E1,5.335332E0,6.0399292E1,2.813272E1,2.3927612E1,9.774856E0,9.405087E0,1.4357843E0,1.2584659E1,3.859381E1,8.88858E0,0E0,0E0,0E0,5.6684803E1,2.5650208E1,1.0504189E1,2.3744888E0,1.6060959E1,2.368682E0,1.3333845E1,0E0,9.121176E0,5.277733E0,6.8046284E-1,0E0,1.2721346E1,0E0,2.1375244E1,3.2281433E1,9.3310585E0,7.9713707E0,3.0559551E1,5.1896244E1,1.4886612E1,1.5630707E1,9.017715E0,0E0,3.0153341E0,0E0,1.5217377E1,2.0558758E0,4.0443034E0,0E0,2.4276638E0,5.0824943E0,0E0,0E0,0E0,0E0,0E0,0E0,0E0,0E0,0E0,0E0,0E0,0E0,0E0,0E0,0E0,0E0,0E0,0E0,0E0,0E0,0E0,0E0,0E0,0E0,0E0,0E0,0E0,0E0,0E0,0E0,0E0,0E0,0E0,0E0,0E0,0E0,0E0,0E0],"parents":[2147483647,0,0,1,1,2,2,3,3,4,4,5,5,6,6,7,7,8,8,9,9,10,10,11,11,12,12,13,13,14,14,15,15,16,16,17,17,18,18,19,19,23,23,24,24,25,25,26,26,27,27,28,28,29,29,31,31,32,32,33,33,35,35,37,37,38,38,39,39,40,40,41,41,42,42,43,43,44,44,45,45,47,47,49,49,50,50,51,51,53,53,54,54],"right_children":[2,4,6,8,10,12,14,16,18,20,22,24,26,28,30,32,34,36,38,40,-1,-1,-1,42,44,46,48,50,52,54,-1,56,58,60,-1,62,-1,64,66,68,70,72,74,76,78,80,-1,82,-1,84,86,88,-1,90,92,-1,-1,-1,-1,-1,-1,-1,-1,-1,-1,-1,-1,-1,-1,-1,-1,-1,-1,-1,-1,-1,-1,-1,-1,-1,-1,-1,-1,-1,-1,-1,-1,-1,-1,-1,-1,-1,-1],"split_conditions":[1E0,1E0,1E0,1E0,1E0,1E0,1E0,1E0,1E0,1E0,1E0,1E0,1E0,1E0,1E0,1E0,1E0,1E0,1E0,1E0,9.03783E-2,-7.544968E-3,1.2202121E-1,1E0,1E0,1E0,1E0,1E0,1E0,1E0,-5.2076507E-2,1E0,1E0,1E0,-2.460077E-3,1E0,8.721864E-2,1E0,1E0,1E0,1E0,1E0,1E0,1E0,1E0,1E0,-3.346394E-2,1E0,-4.222599E-2,1E0,1E0,1E0,3.352486E-2,1E0,1E0,-3.4296036E-2,7.724144E-2,-6.2936055E-3,9.241954E-2,-5.5832278E-2,-6.407282E-3,-4.3488104E-2,5.868221E-2,5.9025016E-2,-5.184276E-2,1.05202675E-1,-7.2616297E-3,-3.3032876E-2,4.7734346E-2,-3.2848362E-2,1.334613E-2,-1.9261396E-2,2.5543204E-2,-3.7882738E-3,1.1430067E-1,-4.322634E-2,5.7659265E-2,-2.728757E-2,2.3810593E-2,-1.4377226E-2,1.0965053E-1,-3.3388384E-2,4.9539253E-2,8.894212E-2,-4.154801E-2,-4.225036E-2,1.9255884E-2,-5.087964E-2,2.4188325E-2,1.1507857E-1,1.4406969E-2,-2.2357747E-2,6.402756E-2],"split_indices":[817,94,1958,1917,408,2030,89,132,158,540,153,481,139,690,99,1195,1608,1770,155,83,0,0,0,1748,82,1091,118,38,1864,92,0,28,133,1948,0,1950,0,690,110,78,1921,834,66,708,1366,28,0,1224,0,1021,157,2078,0,90,1516,0,0,0,0,0,0,0,0,0,0,0,0,0,0,0,0,0,0,0,0,0,0,0,0,0,0,0,0,0,0,0,0,0,0,0,0,0,0],"split_type":[0,0,0,0,0,0,0,0,0,0,0,0,0,0,0,0,0,0,0,0,0,0,0,0,0,0,0,0,0,0,0,0,0,0,0,0,0,0,0,0,0,0,0,0,0,0,0,0,0,0,0,0,0,0,0,0,0,0,0,0,0,0,0,0,0,0,0,0,0,0,0,0,0,0,0,0,0,0,0,0,0,0,0,0,0,0,0,0,0,0,0,0,0],"sum_hessian":[1.4792883E3,3.2842828E2,1.15086E3,2.538144E2,7.461386E1,1.0578048E3,9.30552E1,3.0722897E1,2.230915E2,7.232649E1,2.2873685E0,1.0321187E3,2.568622E1,7.385636E1,1.9198837E1,1.6566467E1,1.4156429E1,2.1380745E1,2.0171077E2,7.097131E1,1.3551778E0,1.0658152E0,1.2215532E0,6.2147284E2,4.1064575E2,1.8712101E1,6.974119E0,6.644488E1,7.4114842E0,1.3838858E1,5.3599806E0,1.176956E1,4.7969074E0,1.2439143E1,1.7172862E0,1.9626926E1,1.7538188E0,6.6754845E1,1.3495592E2,1.3745871E1,5.7225445E1,5.8464905E2,3.6823795E1,3.5036328E2,6.0282475E1,1.7573864E1,1.1382382E0,2.4667966E0,4.5073223E0,6.268658E1,3.7582946E0,6.2198563E0,1.1916277E0,3.5346403E0,1.0304217E1,1.0558216E1,1.2113439E0,1.8872222E0,2.9096854E0,1.1405925E1,1.0332184E0,1.6856825E1,2.7701013E0,6.2840496E1,3.9143453E0,1.2837547E2,6.580451E0,4.6851573E0,9.060713E0,4.6171127E1,1.1054318E1,5.4458765E2,4.0061398E1,2.1512613E1,1.5311181E1,3.4748932E2,2.8739731E0,3.6188053E1,2.4094423E1,1.3652576E0,1.6208605E1,1.1350609E0,1.3317357E0,6.09195E1,1.7670838E0,2.160119E0,1.5981756E0,4.2183747E0,2.0014813E0,2.4216616E0,1.1129788E0,9.24909E0,1.0551265E0],"tree_param":{"num_deleted":"0","num_feature":"2215","num_nodes":"93","size_leaf_vector":"1"}},{"base_weights":[8.465305E-3,8.8380325E-1,-2.5320536E-1,6.355058E-1,2.1264124E0,-3.6680457E-1,9.89687E-1,9.0996885E-1,-1.91084E-1,2.189124E0,-3.112208E-2,-1.6986182E-1,-6.7178214E-1,5.9584665E-1,1.6929896E0,-4.373637E-1,1.0988882E0,-2.9571903E-1,1.1191127E0,2.2480896E0,-1.2583323E-2,-2.062426E-1,1.8803264E0,-7.330105E-1,4.0177956E-1,3.4493893E-1,2.537153E0,1.9007343E0,3.6772355E-2,-7.409077E-1,3.205656E-1,-3.47411E-1,1.280651E0,-3.9522094E-1,5.873236E-1,1.4898086E-1,1.0077627E-1,2.3041222E0,-1.1695101E-2,-2.451558E-1,1.2355332E0,2.3954203E0,1.5939671E-1,-7.704795E-1,4.8073736E-1,1.478459E-1,1.2014897E-1,1.181975E-1,1.8749398E0,1.4098E-1,4.2702854E-2,2.1471822E0,1.819269E-1,-3.9227013E-2,7.48904E-1,-4.320581E-2,1.9470362E-2,4.457503E-2,-2.302796E-2,-3.930618E-2,4.9759332E-2,7.0403956E-2,-3.0443815E-3,-2.722903E-2,1.2711003E-2,-2.2124136E-2,5.08008E-2,4.353641E-2,-3.501521E-2,1.1804147E-1,1.2818708E-2,-1.3983962E-2,6.605648E-2,-1.3085673E-2,8.100068E-2,1.3551871E-1,1.0007672E-2,-3.36982E-2,3.9891947E-2,-3.205316E-2,-5.6113012E-2,-6.5950355E-3,8.757284E-2,-3.130512E-2,4.165542E-2,-3.310473E-3,9.6773766E-2,1.1602024E-1,2.0853588E-3,-3.2779727E-2,1.1443096E-1,-2.9859705E-2,5.2561212E-2,-8.376916E-3,6.477907E-2],"categories":[],"categories_nodes":[],"categories_segments":[],"categories_sizes":[],"default_left":[0,0,0,0,0,0,0,0,0,0,0,0,0,0,0,0,0,0,0,0,0,0,0,0,0,0,0,0,0,0,0,0,0,0,0,0,0,0,0,0,0,0,0,0,0,0,0,0,0,0,0,0,0,0,0,0,0,0,0,0,0,0,0,0,0,0,0,0,0,0,0,0,0,0,0,0,0,0,0,0,0,0,0,0,0,0,0,0,0,0,0,0,0,0,0],"id":5,"left_children":[1,3,5,7,9,11,13,15,17,19,-1,21,23,25,27,29,31,33,35,37,-1,39,41,43,45,47,49,51,53,55,57,59,61,63,65,67,-1,69,-1,71,73,75,77,79,81,83,-1,85,87,-1,-1,89,91,-1,93,-1,-1,-1,-1,-1,-1,-1,-1,-1,-1,-1,-1,-1,-1,-1,-1,-1,-1,-1,-1,-1,-1,-1,-1,-1,-1,-1,-1,-1,-1,-1,-1,-1,-1,-1,-1,-1,-1,-1,-1],"loss_changes":[3.3935532E2,1.0384949E2,1.6141064E2,6.496936E1,1.1078033E1,6.270224E1,2.5524689E1,5.510106E1,1.0204472E1,8.528046E0,0E0,4.788604E1,2.7246536E1,2.9786592E1,1.1574623E1,6.47319E0,4.999405E1,6.161704E0,4.513505E0,8.065338E0,0E0,3.545833E1,9.548187E0,1.8027527E1,1.1215393E1,1.951838E1,9.4213486E-1,1.2339195E1,3.390122E0,3.073763E0,4.1785097E0,1.3640273E1,2.8746063E1,6.079623E0,3.6442595E0,2.9011743E0,0E0,5.5510864E0,0E0,3.340722E1,9.999075E0,5.3692513E0,2.4806767E0,1.6444595E1,9.761746E0,1.1802787E1,0E0,1.7093407E1,5.845888E0,0E0,0E0,1.1882759E1,3.9201741E0,0E0,1.7591566E0,0E0,0E0,0E0,0E0,0E0,0E0,0E0,0E0,0E0,0E0,0E0,0E0,0E0,0E0,0E0,0E0,0E0,0E0,0E0,0E0,0E0,0E0,0E0,0E0,0E0,0E0,0E0,0E0,0E0,0E0,0E0,0E0,0E0,0E0,0E0,0E0,0E0,0E0,0E0,0E0],"parents":[2147483647,0,0,1,1,2,2,3,3,4,4,5,5,6,6,7,7,8,8,9,9,11,11,12,12,13,13,14,14,15,15,16,16,17,17,18,18,19,19,21,21,22,22,23,23,24,24,25,25,26,26,27,27,28,28,29,29,30,30,31,31,32,32,33,33,34,34,35,35,37,37,39,39,40,40,41,41,42,42,43,43,44,44,45,45,47,47,48,48,51,51,52,52,54,54],"right_children":[2,4,6,8,10,12,14,16,18,20,-1,22,24,26,28,30,32,34,36,38,-1,40,42,44,46,48,50,52,54,56,58,60,62,64,66,68,-1,70,-1,72,74,76,78,80,82,84,-1,86,88,-1,-1,90,92,-1,94,-1,-1,-1,-1,-1,-1,-1,-1,-1,-1,-1,-1,-1,-1,-1,-1,-1,-1,-1,-1,-1,-1,-1,-1,-1,-1,-1,-1,-1,-1,-1,-1,-1,-1,-1,-1,-1,-1,-1,-1],"split_conditions":[1E0,1E0,1E0,1E0,1E0,1E0,1E0,1E0,1E0,1E0,-3.112208E-2,1E0,1E0,1E0,1E0,1E0,1E0,1E0,1E0,1E0,-1.2583323E-2,1E0,1E0,1E0,1E0,1E0,1E0,1E0,1E0,1E0,1E0,1E0,1E0,1E0,1E0,1E0,1.0077627E-1,1E0,-1.1695101E-2,1E0,1E0,1E0,1E0,1E0,1E0,1E0,1.2014897E-1,1E0,1E0,1.4098E-1,4.2702854E-2,1E0,1E0,-3.9227013E-2,1E0,-4.320581E-2,1.9470362E-2,4.457503E-2,-2.302796E-2,-3.930618E-2,4.9759332E-2,7.0403956E-2,-3.0443815E-3,-2.722903E-2,1.2711003E-2,-2.2124136E-2,5.08008E-2,4.353641E-2,-3.501521E-2,1.1804147E-1,1.2818708E-2,-1.3983962E-2,6.605648E-2,-1.3085673E-2,8.100068E-2,1.3551871E-1,1.0007672E-2,-3.36982E-2,3.9891947E-2,-3.205316E-2,-5.6113012E-2,-6.5950355E-3,8.757284E-2,-3.130512E-2,4.165542E-2,-3.310473E-3,9.6773766E-2,1.1602024E-1,2.0853588E-3,-3.2779727E-2,1.1443096E-1,-2.9859705E-2,5.2561212E-2,-8.376916E-3,6.477907E-2],"split_indices":[817,1516,1958,94,1625,481,1195,1917,550,576,0,1488,2072,1428,481,1195,158,1558,111,1654,0,2030,144,1473,585,866,123,1325,1917,36,132,286,41,1921,75,1331,0,1901,0,1481,145,127,124,1702,1296,1516,0,911,149,0,0,1547,1868,0,2165,0,0,0,0,0,0,0,0,0,0,0,0,0,0,0,0,0,0,0,0,0,0,0,0,0,0,0,0,0,0,0,0,0,0,0,0,0,0,0,0],"split_type":[0,0,0,0,0,0,0,0,0,0,0,0,0,0,0,0,0,0,0,0,0,0,0,0,0,0,0,0,0,0,0,0,0,0,0,0,0,0,0,0,0,0,0,0,0,0,0,0,0,0,0,0,0,0,0,0,0,0,0,0,0,0,0,0,0,0,0,0,0,0,0,0,0,0,0,0,0,0,0,0,0,0,0,0,0,0,0,0,0,0,0,0,0,0,0],"sum_hessian":[1.4795988E3,3.3996707E2,1.1396317E3,2.8460825E2,5.535882E1,1.0448392E3,9.479245E1,2.135873E2,7.102095E1,5.432313E1,1.0356915E0,6.3581287E2,4.0902643E2,6.1949013E1,3.284344E1,2.6104008E1,1.8748329E2,6.648557E1,4.535381E0,5.3118813E1,1.2043158E0,6.256107E2,1.0202116E1,3.8725723E2,2.1769188E1,5.5901592E1,6.0474195E0,2.905175E1,3.7916903E0,1.8655216E1,7.4487915E0,2.0829573E1,1.6665372E2,6.024909E1,6.236481E0,2.738197E0,1.7971839E0,5.201618E1,1.1026372E0,6.0997754E2,1.5633188E1,7.5502934E0,2.6518226E0,3.7601468E2,1.1242563E1,2.027088E1,1.4983076E0,4.962463E1,6.276964E0,4.6001964E0,1.4472234E0,2.519061E1,3.8611376E0,1.7136418E0,2.0780487E0,1.7033962E1,1.621254E0,4.2217507E0,3.2270405E0,1.6011927E1,4.8176455E0,1.5215175E2,1.4501965E1,4.9114994E1,1.1134094E1,1.8236159E0,4.412865E0,1.466594E0,1.271603E0,5.0465767E1,1.5504099E0,5.9762634E2,1.2351202E1,3.2594643E0,1.2373724E1,6.3977647E0,1.1525289E0,1.126179E0,1.5256435E0,2.7695007E2,9.906459E1,8.190141E0,3.0524228E0,9.559985E0,1.0710895E1,4.5927715E1,3.696915E0,4.83608E0,1.4408842E0,1.0354946E0,2.4155117E1,2.2012496E0,1.6598881E0,1.035569E0,1.0424796E0],"tree_param":{"num_deleted":"0","num_feature":"2215","num_nodes":"95","size_leaf_vector":"1"}},{"base_weights":[2.424215E-2,8.622948E-1,-2.3505214E-1,1.1203939E0,-8.57358E-2,-3.454468E-1,9.2305404E-1,-4.3184566E-1,1.2836909E0,-1.8831657E-1,1.2018714E0,-1.3590969E-1,-6.759587E-1,1.1123806E0,-4.3982494E-1,-7.4211216E-1,8.336435E-1,-2.1277548E-1,1.4563544E0,-2.6759842E-1,1.4590995E0,6.9238446E-3,8.826309E-2,-1.884577E-1,1.1374894E0,-7.74079E-1,-1.2686746E-1,-4.6535543E-1,1.2567533E0,3.829925E-1,-7.828263E-1,-8.569252E-1,3.3883788E-2,1.1847671E0,-2.1232998E-3,-6.086531E-1,6.054783E-1,1.6124167E0,2.8732768E-1,-3.3302346E-1,7.7089235E-2,1.0560992E-2,1.0358538E-1,-2.2098342E-1,1.5269657E0,7.0520866E-1,1.283071E-1,-8.1024235E-1,4.6148387E-1,-2.5907028E-1,2.074346E0,-9.14655E-1,6.416081E-2,1.0068177E0,2.1451821E0,4.545972E-2,-1.8036729E-2,-1.0213927E-1,-5.226999E-2,-4.6893544E-2,1.4391484E-2,9.278013E-2,1.127127E-2,-4.5686442E-2,2.192547E-2,5.144268E-2,-3.9286133E-2,8.6417705E-2,8.061716E-3,2.6619283E-3,9.7570054E-2,-4.5993004E-2,-3.186037E-3,-1.4220926E-2,3.2977197E-2,9.4197236E-2,-3.4578457E-2,9.264558E-3,7.630401E-2,-4.1735962E-2,3.136264E-2,6.726716E-2,-3.198317E-2,-1.9532477E-2,6.7420535E-2,3.480137E-2,1.20803356E-1,-5.1510345E-2,-6.3368664E-3,1.6897272E-2,7.019332E-2,1.1787871E-1,-1.6434569E-4,-3.7553426E-2,3.545178E-2],"categories":[],"categories_nodes":[],"categories_segments":[],"categories_sizes":[],"default_left":[0,0,0,0,0,0,0,0,0,0,0,0,0,0,0,0,0,0,0,0,0,0,0,0,0,0,0,0,0,0,0,0,0,0,0,0,0,0,0,0,0,0,0,0,0,0,0,0,0,0,0,0,0,0,0,0,0,0,0,0,0,0,0,0,0,0,0,0,0,0,0,0,0,0,0,0,0,0,0,0,0,0,0,0,0,0,0,0,0,0,0,0,0,0,0],"id":6,"left_children":[1,3,5,7,9,11,13,15,17,19,21,23,25,27,29,31,33,35,37,39,41,-1,-1,43,45,47,49,51,53,55,57,59,-1,61,-1,63,65,67,69,71,-1,-1,-1,73,75,77,-1,79,81,83,85,87,-1,89,91,-1,-1,93,-1,-1,-1,-1,-1,-1,-1,-1,-1,-1,-1,-1,-1,-1,-1,-1,-1,-1,-1,-1,-1,-1,-1,-1,-1,-1,-1,-1,-1,-1,-1,-1,-1,-1,-1,-1,-1],"loss_changes":[3.2068167E2,8.541788E1,1.444182E2,7.004547E1,1.0204854E1,7.1222725E1,2.5869492E1,1.115868E1,6.4469055E1,9.64248E0,3.1764517E0,4.246825E1,2.1414124E1,2.0321663E1,3.8880854E0,4.181205E0,1.8211589E0,8.971685E0,4.0175385E1,8.614059E0,2.167297E0,0E0,0E0,3.4221558E1,1.3733086E1,1.5501312E1,1.8501148E1,7.453955E0,1.5527336E1,2.0546799E0,1.5557637E0,2.2044344E0,0E0,2.248711E0,0E0,6.2781096E0,6.2042437E0,3.2747803E1,1.0589478E1,1.0508329E1,0E0,0E0,0E0,3.3526352E1,1.03526325E1,8.551702E0,0E0,1.2109863E1,1.0850545E1,1.3031563E1,1.7910004E-2,5.0161505E-1,0E0,1.6535576E1,7.584503E0,0E0,0E0,2.4789562E0,0E0,0E0,0E0,0E0,0E0,0E0,0E0,0E0,0E0,0E0,0E0,0E0,0E0,0E0,0E0,0E0,0E0,0E0,0E0,0E0,0E0,0E0,0E0,0E0,0E0,0E0,0E0,0E0,0E0,0E0,0E0,0E0,0E0,0E0,0E0,0E0,0E0],"parents":[2147483647,0,0,1,1,2,2,3,3,4,4,5,5,6,6,7,7,8,8,9,9,10,10,11,11,12,12,13,13,14,14,15,15,16,16,17,17,18,18,19,19,20,20,23,23,24,24,25,25,26,26,27,27,28,28,29,29,30,30,31,31,33,33,35,35,36,36,37,37,38,38,39,39,43,43,44,44,45,45,47,47,48,48,49,49,50,50,51,51,53,53,54,54,57,57],"right_children":[2,4,6,8,10,12,14,16,18,20,22,24,26,28,30,32,34,36,38,40,42,-1,-1,44,46,48,50,52,54,56,58,60,-1,62,-1,64,66,68,70,72,-1,-1,-1,74,76,78,-1,80,82,84,86,88,-1,90,92,-1,-1,94,-1,-1,-1,-1,-1,-1,-1,-1,-1,-1,-1,-1,-1,-1,-1,-1,-1,-1,-1,-1,-1,-1,-1,-1,-1,-1,-1,-1,-1,-1,-1,-1,-1,-1,-1,-1,-1],"split_conditions":[1E0,1E0,1E0,1E0,1E0,1E0,1E0,1E0,1E0,1E0,1E0,1E0,1E0,1E0,1E0,1E0,1E0,1E0,1E0,1E0,1E0,6.9238446E-3,8.826309E-2,1E0,1E0,1E0,1E0,1E0,1E0,1E0,1E0,1E0,3.3883788E-2,1E0,-2.1232998E-3,1E0,1E0,1E0,1E0,1E0,7.7089235E-2,1.0560992E-2,1.0358538E-1,1E0,1E0,1E0,1.283071E-1,1E0,1E0,1E0,1E0,1E0,6.416081E-2,1E0,1E0,4.545972E-2,-1.8036729E-2,1E0,-5.226999E-2,-4.6893544E-2,1.4391484E-2,9.278013E-2,1.127127E-2,-4.5686442E-2,2.192547E-2,5.144268E-2,-3.9286133E-2,8.6417705E-2,8.061716E-3,2.6619283E-3,9.7570054E-2,-4.5993004E-2,-3.186037E-3,-1.4220926E-2,3.2977197E-2,9.4197236E-2,-3.4578457E-2,9.264558E-3,7.630401E-2,-4.1735962E-2,3.136264E-2,6.726716E-2,-3.198317E-2,-1.9532477E-2,6.7420535E-2,3.480137E-2,1.20803356E-1,-5.1510345E-2,-6.3368664E-3,1.6897272E-2,7.019332E-2,1.1787871E-1,-1.6434569E-4,-3.7553426E-2,3.545178E-2],"split_indices":[817,94,1958,158,550,481,2016,286,1917,286,153,905,82,86,160,550,556,1195,47,827,1264,0,0,1488,82,2030,1814,69,87,481,83,1128,0,1042,0,1042,1958,41,1133,145,0,0,0,834,114,1366,0,1159,139,1212,86,349,0,1255,842,0,0,152,0,0,0,0,0,0,0,0,0,0,0,0,0,0,0,0,0,0,0,0,0,0,0,0,0,0,0,0,0,0,0,0,0,0,0,0,0],"split_type":[0,0,0,0,0,0,0,0,0,0,0,0,0,0,0,0,0,0,0,0,0,0,0,0,0,0,0,0,0,0,0,0,0,0,0,0,0,0,0,0,0,0,0,0,0,0,0,0,0,0,0,0,0,0,0,0,0,0,0,0,0,0,0,0,0,0,0,0,0,0,0,0,0,0,0,0,0,0,0,0,0,0,0,0,0,0,0,0,0,0,0,0,0,0,0],"sum_hessian":[1.4738075E3,3.476994E2,1.1261082E3,2.7315247E2,7.454694E1,1.0287462E3,9.73619E1,2.584406E1,2.473084E2,6.983694E1,4.7100053E0,6.3046E2,3.982862E2,8.56478E1,1.1714101E1,2.1087505E1,4.756555E0,2.5558832E1,2.2174957E2,6.742946E1,2.407476E0,2.0626202E0,2.6473851E0,6.062928E2,2.416723E1,3.3755652E2,6.0729675E1,6.993883E0,7.8653915E1,3.412161E0,8.30194E0,1.9876598E1,1.2109065E0,3.1441505E0,1.6124046E0,1.7397797E1,8.161036E0,1.952984E2,2.6451166E1,6.586385E1,1.5656087E0,1.2355182E0,1.1719577E0,5.958659E2,1.0426887E1,1.9700027E1,4.467204E0,3.2829208E2,9.264458E0,5.8121273E1,2.6084034E0,5.943579E0,1.0503039E0,6.30498E1,1.5604116E1,1.8680172E0,1.5441438E0,2.697645E0,5.604295E0,1.8732729E1,1.1438688E0,1.3005054E0,1.8436452E0,1.3571391E1,3.826405E0,6.4565973E0,1.7044382E0,1.8067313E2,1.4625277E1,2.4093824E1,2.357342E0,1.9957918E1,4.5905933E1,5.5645465E2,3.941123E1,9.111581E0,1.3153057E0,1.2811377E1,6.8886504E0,3.2320798E2,5.08408E0,5.0162735E0,4.2481837E0,5.442346E1,3.697814E0,1.1215407E0,1.4868628E0,4.9152317E0,1.0283477E0,2.4175184E1,3.887462E1,1.411174E1,1.4923766E0,1.5398684E0,1.1577766E0],"tree_param":{"num_deleted":"0","num_feature":"2215","num_nodes":"95","size_leaf_vector":"1"}},{"base_weights":[9.2303456E-4,7.6780033E-1,-2.421864E-1,5.4090095E-1,1.8791182E0,-3.4765396E-1,8.4055245E-1,7.747859E-1,-1.9182017E-1,1.07394546E-1,1.9661049E0,-1.5008067E-1,-6.666213E-1,9.7408426E-1,-7.3122245E-1,9.011077E-1,-8.962058E-1,-3.7604037E-1,5.1769537E-1,-3.7145633E-2,5.1366806E-2,2.0097632E0,-9.005932E-3,-2.1664935E-1,8.3916456E-1,-7.2799677E-1,3.6533955E-1,1.175753E0,-4.1312776E-3,-9.166774E-1,7.941096E-3,7.732451E-1,2.2403326E0,-1.1143409E0,2.9102398E-2,-6.442317E-1,1.6322708E-1,8.927844E-1,-5.4339147E-1,2.0892797E0,5.203234E-1,-2.7277172E-1,9.6190774E-1,1.228E0,-8.3310825E-1,-7.697821E-1,5.239429E-1,1.3492905E-1,9.622096E-2,1.2970605E0,-3.6005834E-1,8.9683396E-1,-5.288908E-1,-5.1512636E-2,-6.3431496E-3,1.4525327E-2,5.6363918E-2,1.2094789E-1,1.23083E-2,-5.8308095E-2,-1.44982925E-2,-3.6434297E-2,4.7958028E-2,-2.1923129E-3,8.373852E-2,5.50537E-2,-1.6943567E-2,-4.4658776E-2,1.5232511E-2,1.06432036E-1,1.7688911E-2,-1.6706152E-2,4.716085E-2,-1.5725676E-2,4.701438E-2,7.55759E-2,-5.091278E-2,-1.0838818E-2,7.5120464E-2,-5.1199105E-2,-1.2612869E-2,-3.9858304E-2,3.976726E-2,5.0111085E-2,-4.4548362E-2,-5.7985005E-3,7.460495E-2,7.193712E-2,-8.255314E-3,-3.385053E-2,2.2630516E-2,8.823349E-2,-3.9955776E-2,-4.0645212E-2,3.5921123E-2],"categories":[],"categories_nodes":[],"categories_segments":[],"categories_sizes":[],"default_left":[0,0,0,0,0,0,0,0,0,0,0,0,0,0,0,0,0,0,0,0,0,0,0,0,0,0,0,0,0,0,0,0,0,0,0,0,0,0,0,0,0,0,0,0,0,0,0,0,0,0,0,0,0,0,0,0,0,0,0,0,0,0,0,0,0,0,0,0,0,0,0,0,0,0,0,0,0,0,0,0,0,0,0,0,0,0,0,0,0,0,0,0,0,0,0],"id":7,"left_children":[1,3,5,7,9,11,13,15,17,19,21,23,25,27,29,31,33,35,37,-1,-1,39,-1,41,43,45,47,49,51,53,-1,55,57,59,-1,61,63,65,67,69,71,73,75,77,79,81,83,85,-1,87,89,91,93,-1,-1,-1,-1,-1,-1,-1,-1,-1,-1,-1,-1,-1,-1,-1,-1,-1,-1,-1,-1,-1,-1,-1,-1,-1,-1,-1,-1,-1,-1,-1,-1,-1,-1,-1,-1,-1,-1,-1,-1,-1,-1],"loss_changes":[2.741274E2,8.822826E1,1.2778299E2,5.0758247E1,8.97493E0,6.4057E1,2.157248E1,4.810298E1,9.639384E0,3.7726717E0,5.6802063E0,4.166539E1,2.4910858E1,1.8161377E1,1.5244975E0,3.4023956E1,5.8883038E0,8.485356E0,6.5805182E0,0E0,0E0,5.510742E0,0E0,3.935457E1,2.6982533E1,1.9633408E1,7.826122E0,1.4683746E1,8.382963E0,5.0269413E-1,0E0,3.2510307E1,5.699356E0,2.8141212E-1,0E0,5.9665356E0,6.3470173E0,3.37298E0,1.6429832E0,2.836914E0,1.8165175E0,2.8901398E1,3.1017086E1,1.3327812E1,6.427722E-1,1.58975525E1,9.330236E0,7.216876E0,0E0,1.4933655E1,1.9468834E0,1.1017833E1,4.551573E0,0E0,0E0,0E0,0E0,0E0,0E0,0E0,0E0,0E0,0E0,0E0,0E0,0E0,0E0,0E0,0E0,0E0,0E0,0E0,0E0,0E0,0E0,0E0,0E0,0E0,0E0,0E0,0E0,0E0,0E0,0E0,0E0,0E0,0E0,0E0,0E0,0E0,0E0,0E0,0E0,0E0,0E0],"parents":[2147483647,0,0,1,1,2,2,3,3,4,4,5,5,6,6,7,7,8,8,9,9,10,10,11,11,12,12,13,13,14,14,15,15,16,16,17,17,18,18,21,21,23,23,24,24,25,25,26,26,27,27,28,28,29,29,31,31,32,32,33,33,35,35,36,36,37,37,38,38,39,39,40,40,41,41,42,42,43,43,44,44,45,45,46,46,47,47,49,49,50,50,51,51,52,52],"right_children":[2,4,6,8,10,12,14,16,18,20,22,24,26,28,30,32,34,36,38,-1,-1,40,-1,42,44,46,48,50,52,54,-1,56,58,60,-1,62,64,66,68,70,72,74,76,78,80,82,84,86,-1,88,90,92,94,-1,-1,-1,-1,-1,-1,-1,-1,-1,-1,-1,-1,-1,-1,-1,-1,-1,-1,-1,-1,-1,-1,-1,-1,-1,-1,-1,-1,-1,-1,-1,-1,-1,-1,-1,-1,-1,-1,-1,-1,-1,-1],"split_conditions":[1E0,1E0,1E0,1E0,1E0,1E0,1E0,1E0,1E0,1E0,1E0,1E0,1E0,1E0,1E0,1E0,1E0,1E0,1E0,-3.7145633E-2,5.1366806E-2,1E0,-9.005932E-3,1E0,1E0,1E0,1E0,1E0,1E0,1E0,7.941096E-3,1E0,1E0,1E0,2.9102398E-2,1E0,1E0,1E0,1E0,1E0,1E0,1E0,1E0,1E0,1E0,1E0,1E0,1E0,9.622096E-2,1E0,1E0,1E0,1E0,-5.1512636E-2,-6.3431496E-3,1.4525327E-2,5.6363918E-2,1.2094789E-1,1.23083E-2,-5.8308095E-2,-1.44982925E-2,-3.6434297E-2,4.7958028E-2,-2.1923129E-3,8.373852E-2,5.50537E-2,-1.6943567E-2,-4.4658776E-2,1.5232511E-2,1.06432036E-1,1.7688911E-2,-1.6706152E-2,4.716085E-2,-1.5725676E-2,4.701438E-2,7.55759E-2,-5.091278E-2,-1.0838818E-2,7.5120464E-2,-5.1199105E-2,-1.2612869E-2,-3.9858304E-2,3.976726E-2,5.0111085E-2,-4.4548362E-2,-5.7985005E-3,7.460495E-2,7.193712E-2,-8.255314E-3,-3.385053E-2,2.2630516E-2,8.823349E-2,-3.9955776E-2,-4.0645212E-2,3.5921123E-2],"split_indices":[817,1516,1958,94,158,481,38,89,1921,98,576,1748,2072,89,1462,1268,1558,78,74,0,0,472,0,166,1459,1473,1946,721,110,114,0,155,568,1905,0,2093,550,2087,95,1235,1327,1967,44,556,209,790,338,1577,0,948,1232,99,87,0,0,0,0,0,0,0,0,0,0,0,0,0,0,0,0,0,0,0,0,0,0,0,0,0,0,0,0,0,0,0,0,0,0,0,0,0,0,0,0,0,0],"split_type":[0,0,0,0,0,0,0,0,0,0,0,0,0,0,0,0,0,0,0,0,0,0,0,0,0,0,0,0,0,0,0,0,0,0,0,0,0,0,0,0,0,0,0,0,0,0,0,0,0,0,0,0,0,0,0,0,0,0,0,0,0,0,0,0,0,0,0,0,0,0,0,0,0,0,0,0,0,0,0,0,0,0,0,0,0,0,0,0,0,0,0,0,0,0,0],"sum_hessian":[1.4683665E3,3.529245E2,1.115442E3,2.9431955E2,5.8604927E1,1.01705176E3,9.839019E1,2.2306097E2,7.125858E1,2.8472564E0,5.575767E1,6.2894446E2,3.8810733E2,9.103636E1,7.3538246E0,2.0781178E2,1.52492E1,5.6943615E1,1.4314963E1,1.5796303E0,1.2676263E0,5.470838E1,1.049292E0,5.900215E2,3.8922966E1,3.665986E2,2.1508753E1,7.530878E1,1.5727585E1,6.0609956E0,1.2928288E0,1.9114005E2,1.6671738E1,1.3502859E1,1.7463411E0,3.7900234E1,1.9043383E1,1.0693482E1,3.6214814E0,5.155338E1,3.1549993E0,5.6393567E2,2.608581E1,3.1795559E1,7.1274076E0,3.551307E2,1.146789E1,1.968598E1,1.8227724E0,6.9939964E1,5.3688164E0,5.527803E0,1.0199782E1,5.032849E0,1.0281469E0,8.16405E1,1.09499535E2,1.510565E1,1.5660881E0,1.23141775E1,1.1886816E0,3.6522068E1,1.3781637E0,1.7602877E1,1.4405074E0,9.237345E0,1.4561377E0,2.5262716E0,1.0952098E0,5.0188576E1,1.3648044E0,1.1140333E0,2.040966E0,5.458921E2,1.8043602E1,2.0603746E1,5.4820647E0,5.108597E0,2.6686962E1,4.790348E0,2.3370595E0,3.4950632E2,5.6243896E0,8.788728E0,2.679162E0,1.7386332E1,2.2996488E0,6.377616E1,6.1638007E0,3.9825106E0,1.3863059E0,3.6298492E0,1.8979537E0,8.591722E0,1.6080607E0],"tree_param":{"num_deleted":"0","num_feature":"2215","num_nodes":"95","size_leaf_vector":"1"}},{"base_weights":[-2.6423736E-2,6.1293447E-1,-3.0166748E-1,4.0805376E-1,1.7605832E0,-8.716071E-2,-6.2399834E-1,-4.8905954E-2,7.2992074E-1,1.1582582E0,2.1377814E0,-4.0458775E-1,2.0759028E-1,-6.869517E-1,4.0677074E-1,-2.179227E-1,1.3953873E0,8.633388E-2,1.0296959E0,1.3092942E0,-2.837711E-2,2.1908445E0,3.473103E-2,-5.440498E-1,1.5118729E-1,-3.5134283E-1,4.2029607E-1,-7.3252314E-1,3.2251748E-1,6.930402E-1,-8.1040955E-1,-1.1678957E-2,-8.032946E-1,4.3575287E-1,2.1980855E0,-4.106127E-2,1.6187661E0,1.3636748E0,4.6837717E-1,-1.286894E-1,1.4878066E0,1.1121793E-1,3.0655622E-2,-5.804572E-1,1.4506319E0,-1.6284195E-1,6.9002444E-1,-5.0377005E-1,1.3401657E0,7.584616E-1,-8.468475E-2,-7.482597E-1,1.206894E0,1.4056854E0,-2.3097372E-1,9.4905746E-1,-4.8157674E-1,-4.7258567E-2,-6.968066E-3,-8.457583E-3,5.816212E-2,-4.578592E-2,1.7176745E-2,3.8288433E-2,-3.812688E-2,1.20628215E-1,2.8244337E-2,-6.3929274E-3,1.0199421E-1,1.0464896E-1,-9.42397E-3,7.968171E-2,1.1310868E-2,3.1476337E-2,-4.3743934E-2,-3.779621E-2,3.6773823E-2,8.030524E-2,-6.6874335E-3,-1.802606E-2,-4.3094054E-2,9.726024E-2,-6.2149297E-3,-2.0625077E-2,5.6460936E-2,-3.343022E-3,7.868923E-2,-2.7560148E-2,5.687763E-2,-1.2469855E-2,8.464371E-2,4.973628E-2,5.068259E-3,4.3480773E-2,-1.930364E-2,-3.9009154E-2,1.36927515E-2,-9.500466E-3,1.0319074E-1,-2.146773E-2,1.100229E-1,-3.2169692E-2,3.512787E-2,-5.0492375E-3,6.708568E-2,-4.1911952E-2,1.1437788E-2],"categories":[],"categories_nodes":[],"categories_segments":[],"categories_sizes":[],"default_left":[0,0,0,0,0,0,0,0,0,0,0,0,0,0,0,0,0,0,0,0,0,0,0,0,0,0,0,0,0,0,0,0,0,0,0,0,0,0,0,0,0,0,0,0,0,0,0,0,0,0,0,0,0,0,0,0,0,0,0,0,0,0,0,0,0,0,0,0,0,0,0,0,0,0,0,0,0,0,0,0,0,0,0,0,0,0,0,0,0,0,0,0,0,0,0,0,0,0,0,0,0,0,0,0,0,0,0],"id":8,"left_children":[1,3,5,7,9,11,13,15,17,19,21,23,25,27,29,31,33,35,37,39,-1,41,-1,43,45,47,49,51,53,55,57,59,61,63,65,67,69,71,73,75,77,-1,-1,79,81,83,85,87,89,91,93,95,97,99,101,103,105,-1,-1,-1,-1,-1,-1,-1,-1,-1,-1,-1,-1,-1,-1,-1,-1,-1,-1,-1,-1,-1,-1,-1,-1,-1,-1,-1,-1,-1,-1,-1,-1,-1,-1,-1,-1,-1,-1,-1,-1,-1,-1,-1,-1,-1,-1,-1,-1,-1,-1],"loss_changes":[2.580725E2,1.03055664E2,7.082304E1,5.5307343E1,1.2644501E1,5.777956E1,2.684816E1,3.844417E1,4.246228E1,7.992241E0,1.5216064E0,2.3121677E1,3.8240685E1,1.80047E1,8.992186E0,1.6981821E1,1.1754826E1,1.3961891E1,2.7551727E1,6.8336067E0,0E0,6.3856506E-1,0E0,1.811406E1,1.0334225E1,2.3587936E1,3.977491E1,1.2191376E1,1.0743089E1,6.5097065E0,3.2657766E-1,1.963949E1,5.0402126E0,4.04978E0,1.6984482E0,1.2306203E1,5.097543E0,2.4163132E1,1.3023103E1,2.6036894E0,4.645546E0,0E0,0E0,1.4190598E1,3.7851114E0,1.3038262E1,1.5111324E1,7.0302353E0,4.6939898E0,2.1537056E1,2.7419512E1,1.2205185E1,4.413812E0,9.7216835E0,5.2106285E0,7.0877457E0,1.272335E0,0E0,0E0,0E0,0E0,0E0,0E0,0E0,0E0,0E0,0E0,0E0,0E0,0E0,0E0,0E0,0E0,0E0,0E0,0E0,0E0,0E0,0E0,0E0,0E0,0E0,0E0,0E0,0E0,0E0,0E0,0E0,0E0,0E0,0E0,0E0,0E0,0E0,0E0,0E0,0E0,0E0,0E0,0E0,0E0,0E0,0E0,0E0,0E0,0E0,0E0],"parents":[2147483647,0,0,1,1,2,2,3,3,4,4,5,5,6,6,7,7,8,8,9,9,10,10,11,11,12,12,13,13,14,14,15,15,16,16,17,17,18,18,19,19,21,21,23,23,24,24,25,25,26,26,27,27,28,28,29,29,30,30,31,31,32,32,33,33,34,34,35,35,36,36,37,37,38,38,39,39,40,40,43,43,44,44,45,45,46,46,47,47,48,48,49,49,50,50,51,51,52,52,53,53,54,54,55,55,56,56],"right_children":[2,4,6,8,10,12,14,16,18,20,22,24,26,28,30,32,34,36,38,40,-1,42,-1,44,46,48,50,52,54,56,58,60,62,64,66,68,70,72,74,76,78,-1,-1,80,82,84,86,88,90,92,94,96,98,100,102,104,106,-1,-1,-1,-1,-1,-1,-1,-1,-1,-1,-1,-1,-1,-1,-1,-1,-1,-1,-1,-1,-1,-1,-1,-1,-1,-1,-1,-1,-1,-1,-1,-1,-1,-1,-1,-1,-1,-1,-1,-1,-1,-1,-1,-1,-1,-1,-1,-1,-1,-1],"split_conditions":[1E0,1E0,1E0,1E0,1E0,1E0,1E0,1E0,1E0,1E0,1E0,1E0,1E0,1E0,1E0,1E0,1E0,1E0,1E0,1E0,-2.837711E-2,1E0,3.473103E-2,1E0,1E0,1E0,1E0,1E0,1E0,1E0,1E0,1E0,1E0,1E0,1E0,1E0,1E0,1E0,1E0,1E0,1E0,1.1121793E-1,3.0655622E-2,1E0,1E0,1E0,1E0,1E0,1E0,1E0,1E0,1E0,1E0,1E0,1E0,1E0,1E0,-4.7258567E-2,-6.968066E-3,-8.457583E-3,5.816212E-2,-4.578592E-2,1.7176745E-2,3.8288433E-2,-3.812688E-2,1.20628215E-1,2.8244337E-2,-6.3929274E-3,1.0199421E-1,1.0464896E-1,-9.42397E-3,7.968171E-2,1.1310868E-2,3.1476337E-2,-4.3743934E-2,-3.779621E-2,3.6773823E-2,8.030524E-2,-6.6874335E-3,-1.802606E-2,-4.3094054E-2,9.726024E-2,-6.2149297E-3,-2.0625077E-2,5.6460936E-2,-3.343022E-3,7.868923E-2,-2.7560148E-2,5.687763E-2,-1.2469855E-2,8.464371E-2,4.973628E-2,5.068259E-3,4.3480773E-2,-1.930364E-2,-3.9009154E-2,1.36927515E-2,-9.500466E-3,1.0319074E-1,-2.146773E-2,1.100229E-1,-3.2169692E-2,3.512787E-2,-5.0492375E-3,6.708568E-2,-4.1911952E-2,1.1437788E-2],"split_indices":[154,1516,481,100,1319,138,2072,1010,1255,892,41,358,155,834,76,146,122,1057,79,158,0,1863,0,363,134,1432,140,1721,146,1654,1970,1921,1981,1055,73,833,95,109,891,98,903,0,0,136,52,116,80,1057,105,47,110,1473,91,125,1921,96,1490,0,0,0,0,0,0,0,0,0,0,0,0,0,0,0,0,0,0,0,0,0,0,0,0,0,0,0,0,0,0,0,0,0,0,0,0,0,0,0,0,0,0,0,0,0,0,0,0,0,0],"split_type":[0,0,0,0,0,0,0,0,0,0,0,0,0,0,0,0,0,0,0,0,0,0,0,0,0,0,0,0,0,0,0,0,0,0,0,0,0,0,0,0,0,0,0,0,0,0,0,0,0,0,0,0,0,0,0,0,0,0,0,0,0,0,0,0,0,0,0,0,0,0,0,0,0,0,0,0,0,0,0,0,0,0,0,0,0,0,0,0,0,0,0,0,0,0,0,0,0,0,0,0,0,0,0,0,0,0,0],"sum_hessian":[1.4644426E3,4.4034564E2,1.0240969E3,3.7479245E2,6.555319E1,6.156565E2,4.084405E2,1.5524158E2,2.1955087E2,2.6811005E1,3.8742188E1,2.962464E2,3.194101E2,3.852455E2,2.3194984E1,1.3973802E2,1.5503566E1,7.017665E1,1.493742E2,2.4875341E1,1.9356622E0,3.6868492E1,1.8736931E0,2.368373E2,5.9409096E1,8.786719E1,2.3154292E2,3.688677E2,1.6377808E1,1.912709E1,4.067895E0,1.0408556E2,3.5652454E1,7.7642193E0,7.739347E0,6.568896E1,4.4876924E0,9.275595E1,5.6618267E1,2.7778475E0,2.2097494E1,3.5700302E1,1.1681908E0,2.3328825E2,3.5490355E0,3.7975258E1,2.1433836E1,8.124786E1,6.6193275E0,1.3837604E2,9.316688E1,3.66508E2,2.3596897E0,5.0180135E0,1.1359794E1,1.5861891E1,3.2651992E0,3.0474067E0,1.0204883E0,9.253878E1,1.1546784E1,3.2653E1,2.9994533E0,6.3706546E0,1.3935646E0,6.4191537E0,1.3201933E0,6.3959724E1,1.729235E0,3.4296603E0,1.0580322E0,7.682352E1,1.5932429E1,5.1027832E1,5.5904336E0,1.682152E0,1.0956955E0,2.0603895E1,1.4935993E0,1.3223003E2,1.01058235E2,2.5219626E0,1.0270729E0,3.2396214E1,5.579046E0,1.2043598E1,9.390237E0,7.9611336E1,1.6365298E0,1.2552334E0,5.3640943E0,1.0140226E2,3.6973774E1,2.1909227E1,7.125765E1,3.556372E2,1.0870784E1,1.193074E0,1.1666157E0,1.6554781E0,3.3625355E0,8.094542E0,3.2652524E0,4.5192685E0,1.1342623E1,2.053872E0,1.2113273E0],"tree_param":{"num_deleted":"0","num_feature":"2215","num_nodes":"107","size_leaf_vector":"1"}},{"base_weights":[-4.137825E-3,5.808136E-1,-2.6303127E-1,-1.2258062E-2,9.249862E-1,-3.6235845E-1,7.0721376E-1,-1.696765E-1,1.367109E0,7.1232015E-1,1.722679E0,-4.0744942E-1,7.61277E-1,8.4878224E-1,-4.1613975E-1,-5.117591E-1,1.060762E-1,2.1818457E0,3.369291E-1,1.329021E-1,9.783648E-1,1.7909745E0,1.9139698E-1,-4.5510286E-1,5.246519E-1,-5.647225E-1,9.9999243E-1,1.0263128E0,-1.6018445E-2,-6.9303817E-1,3.9575867E-2,-6.217224E-1,1.0884292E0,-1.8001996E-2,1.6392941E0,1.2721246E-1,-1.0560004E-2,-8.042883E-2,8.136578E-2,-9.9365585E-2,1.2955939E0,8.62713E-1,1.1815957E-1,1.8392189E0,6.052531E-3,2.6302373E-2,-9.171932E-3,-5.2329683E-1,1.8989399E-1,-1.5627235E-1,1.6001506E0,-4.6841383E-2,3.3949755E-2,5.3919995E-1,1.7805263E0,1.1145611E0,-4.7264803E-2,3.495563E-1,-4.7704935E-2,3.701032E-1,-5.3231716E-2,-3.6030125E-2,4.6692032E-2,9.254674E-3,8.083338E-2,-8.486644E-3,6.41953E-2,1.0343976E-1,3.7888929E-3,-3.0649735E-2,3.342941E-2,-4.814791E-2,4.0154E-3,8.874462E-2,-2.807336E-3,7.0780836E-2,2.6174013E-2,9.44876E-2,8.500186E-3,-2.8366094E-2,1.2173113E-2,-1.0066579E-2,4.7324825E-2,-2.5415951E-2,9.482841E-2,9.1170296E-2,-3.339487E-2,1.2553533E-2,-1.00454595E-2,-1.4039363E-2,4.753569E-2,1.1472314E-1,-3.8076937E-2,6.278048E-2,-4.6760812E-3,9.681227E-2,-3.6975879E-3,5.5142816E-2,-3.0737361E-2],"categories":[],"categories_nodes":[],"categories_segments":[],"categories_sizes":[],"default_left":[0,0,0,0,0,0,0,0,0,0,0,0,0,0,0,0,0,0,0,0,0,0,0,0,0,0,0,0,0,0,0,0,0,0,0,0,0,0,0,0,0,0,0,0,0,0,0,0,0,0,0,0,0,0,0,0,0,0,0,0,0,0,0,0,0,0,0,0,0,0,0,0,0,0,0,0,0,0,0,0,0,0,0,0,0,0,0,0,0,0,0,0,0,0,0,0,0,0,0],"id":9,"left_children":[1,3,5,7,9,11,13,15,17,19,21,23,25,27,29,31,33,35,37,39,41,43,45,47,49,51,53,55,57,59,-1,61,63,65,67,-1,-1,69,-1,71,73,75,-1,77,-1,-1,-1,79,81,83,85,-1,87,89,91,93,-1,95,-1,97,-1,-1,-1,-1,-1,-1,-1,-1,-1,-1,-1,-1,-1,-1,-1,-1,-1,-1,-1,-1,-1,-1,-1,-1,-1,-1,-1,-1,-1,-1,-1,-1,-1,-1,-1,-1,-1,-1,-1],"loss_changes":[2.1910997E2,9.0619095E1,9.6911026E1,3.584117E1,4.6425903E1,4.6439354E1,1.5219124E1,1.4023148E1,1.3456909E1,3.4319984E1,5.7668457E0,3.9148087E1,1.1793953E1,1.2812267E1,4.2713857E0,1.2336815E1,1.578505E1,8.567272E0,4.7892466E0,1.9432604E1,2.2465515E1,4.2734375E0,5.4983354E-1,3.677896E1,3.1792177E1,1.3798391E0,9.982382E0,1.3087654E1,5.5393133E0,4.1824822E0,0E0,1.030794E1,1.907424E0,1.5548648E1,4.014385E0,0E0,0E0,3.39711E0,0E0,9.466023E0,7.856926E0,2.6039803E1,0E0,4.2479706E0,0E0,0E0,0E0,2.560556E1,2.401016E1,2.0682259E1,9.717751E0,0E0,2.1792899E-1,7.20623E0,1.5934616E1,1.147628E1,0E0,7.9750905E0,0E0,3.00584E0,0E0,0E0,0E0,0E0,0E0,0E0,0E0,0E0,0E0,0E0,0E0,0E0,0E0,0E0,0E0,0E0,0E0,0E0,0E0,0E0,0E0,0E0,0E0,0E0,0E0,0E0,0E0,0E0,0E0,0E0,0E0,0E0,0E0,0E0,0E0,0E0,0E0,0E0,0E0],"parents":[2147483647,0,0,1,1,2,2,3,3,4,4,5,5,6,6,7,7,8,8,9,9,10,10,11,11,12,12,13,13,14,14,15,15,16,16,17,17,18,18,19,19,20,20,21,21,22,22,23,23,24,24,25,25,26,26,27,27,28,28,29,29,31,31,32,32,33,33,34,34,37,37,39,39,40,40,41,41,43,43,47,47,48,48,49,49,50,50,52,52,53,53,54,54,55,55,57,57,59,59],"right_children":[2,4,6,8,10,12,14,16,18,20,22,24,26,28,30,32,34,36,38,40,42,44,46,48,50,52,54,56,58,60,-1,62,64,66,68,-1,-1,70,-1,72,74,76,-1,78,-1,-1,-1,80,82,84,86,-1,88,90,92,94,-1,96,-1,98,-1,-1,-1,-1,-1,-1,-1,-1,-1,-1,-1,-1,-1,-1,-1,-1,-1,-1,-1,-1,-1,-1,-1,-1,-1,-1,-1,-1,-1,-1,-1,-1,-1,-1,-1,-1,-1,-1,-1],"split_conditions":[1E0,1E0,1E0,1E0,1E0,1E0,1E0,1E0,1E0,1E0,1E0,1E0,1E0,1E0,1E0,1E0,1E0,1E0,1E0,1E0,1E0,1E0,1E0,1E0,1E0,1E0,1E0,1E0,1E0,1E0,3.9575867E-2,1E0,1E0,1E0,1E0,1.2721246E-1,-1.0560004E-2,1E0,8.136578E-2,1E0,1E0,1E0,1.1815957E-1,1E0,6.052531E-3,2.6302373E-2,-9.171932E-3,1E0,1E0,1E0,1E0,-4.6841383E-2,1E0,1E0,1E0,1E0,-4.7264803E-2,1E0,-4.7704935E-2,1E0,-5.3231716E-2,-3.6030125E-2,4.6692032E-2,9.254674E-3,8.083338E-2,-8.486644E-3,6.41953E-2,1.0343976E-1,3.7888929E-3,-3.0649735E-2,3.342941E-2,-4.814791E-2,4.0154E-3,8.874462E-2,-2.807336E-3,7.0780836E-2,2.6174013E-2,9.44876E-2,8.500186E-3,-2.8366094E-2,1.2173113E-2,-1.0066579E-2,4.7324825E-2,-2.5415951E-2,9.482841E-2,9.1170296E-2,-3.339487E-2,1.2553533E-2,-1.00454595E-2,-1.4039363E-2,4.753569E-2,1.1472314E-1,-3.8076937E-2,6.278048E-2,-4.6760812E-3,9.681227E-2,-3.6975879E-3,5.5142816E-2,-3.0737361E-2],"split_indices":[154,100,1958,1770,1516,905,2016,151,1702,1255,1303,1748,125,89,653,1867,508,81,1281,1921,550,1584,101,1048,66,94,1921,1021,99,1312,0,46,1366,519,241,0,0,85,0,118,62,545,0,1966,0,0,0,834,104,208,2110,0,141,123,1654,201,0,120,0,136,0,0,0,0,0,0,0,0,0,0,0,0,0,0,0,0,0,0,0,0,0,0,0,0,0,0,0,0,0,0,0,0,0,0,0,0,0,0,0],"split_type":[0,0,0,0,0,0,0,0,0,0,0,0,0,0,0,0,0,0,0,0,0,0,0,0,0,0,0,0,0,0,0,0,0,0,0,0,0,0,0,0,0,0,0,0,0,0,0,0,0,0,0,0,0,0,0,0,0,0,0,0,0,0,0,0,0,0,0,0,0,0,0,0,0,0,0,0,0,0,0,0,0,0,0,0,0,0,0,0,0,0,0,0,0,0,0,0,0,0,0],"sum_hessian":[1.4448339E3,4.4289667E2,1.0019372E3,1.6299359E2,2.7990308E2,9.0945935E2,9.247781E1,1.4708473E2,1.590886E1,2.2248204E2,5.7421047E1,8.74984E2,3.447533E1,8.234488E1,1.0132934E1,6.526498E1,8.1819756E1,8.259085E0,7.649776E0,7.048106E1,1.5200098E2,5.480705E1,2.6139984E0,8.329133E2,4.2070724E1,5.0512624E0,2.9424067E1,6.8164894E1,1.417999E1,8.589594E0,1.5433402E0,6.1640568E1,3.624406E0,7.660835E1,5.211399E0,7.1179547E0,1.1411303E0,6.488749E0,1.161027E0,5.950787E1,1.0973183E1,1.4178314E2,1.0217839E1,5.3169594E1,1.6374553E0,1.1678987E0,1.4460996E0,7.534423E2,7.947101E1,2.6284237E1,1.5786489E1,2.7667465E0,2.2845159E0,1.956473E1,9.859338E0,6.566065E1,2.5042427E0,1.0655037E1,3.5249524E0,2.2257402E0,6.3638535E0,5.8461212E1,3.1793568E0,1.8356591E0,1.788747E0,6.939082E1,7.2175274E0,3.8348026E0,1.3765967E0,3.898465E0,2.5902839E0,9.497775E0,5.0010098E1,7.869709E0,3.1034737E0,5.270618E1,8.9076965E1,5.1479015E1,1.6905762E0,7.1277686E2,4.0665455E1,5.2867878E1,2.660313E1,2.3078783E1,3.205454E0,1.4550278E1,1.2362103E0,1.1512178E0,1.1332979E0,6.64383E0,1.2920899E1,8.282286E0,1.5770515E0,5.8760754E1,6.899895E0,1.4922698E0,9.162767E0,1.2075052E0,1.0182348E0],"tree_param":{"num_deleted":"0","num_feature":"2215","num_nodes":"99","size_leaf_vector":"1"}},{"base_weights":[7.822513E-3,6.648604E-1,-2.0913649E-1,4.846537E-1,1.5539634E0,-3.0982295E-1,7.341049E-1,-5.096245E-1,6.3024616E-1,7.627615E-1,1.7266971E0,-4.1079023E-1,1.4133978E-1,8.4730476E-1,-6.284932E-1,-8.247455E-1,2.632243E-1,-3.2910147E-1,7.8006643E-1,9.924816E-1,-2.9673344E-2,1.7886059E0,-8.981535E-3,-2.3302391E-1,-6.868055E-1,-1.6541529E-1,8.0946326E-1,-7.8851074E-1,9.290388E-1,-7.941838E-1,1.1365538E-2,-8.851306E-1,1.951163E-2,-7.101398E-1,7.296528E-1,-6.422573E-1,8.0206656E-1,9.541453E-1,5.419726E-2,3.3529866E-1,7.014383E-2,1.9356638E0,8.3138233E-1,-2.9659772E-1,7.43344E-1,-7.108955E-1,1.3933018E0,-8.365492E-1,4.6071805E-2,4.2694157E-1,2.033166E0,-4.5220327E-2,-9.819339E-3,1.0276407E0,-5.3420424E-1,-5.0709557E-2,-1.124201E-3,-4.7472507E-2,1.535659E-2,-7.676672E-3,-4.1984487E-2,5.3132083E-2,-3.4350656E-2,-3.8779538E-2,2.91349E-2,5.788454E-2,-3.4101147E-2,5.264656E-2,-7.1001737E-3,-4.0467475E-3,5.4734077E-2,-1.39692845E-2,7.1073405E-2,1.4787964E-2,9.864865E-2,6.0126252E-2,-2.2388158E-2,-1.8899538E-2,2.187323E-2,3.8190738E-3,6.466418E-2,-2.9154746E-2,-5.347244E-2,-6.8023666E-3,1.0105964E-1,-4.96916E-2,7.082014E-2,-8.953775E-3,3.795333E-2,1.0500885E-2,9.794084E-2,1.1523829E-1,4.046861E-4,5.7730764E-2,-5.169356E-3,-4.369509E-2,1.6602548E-2],"categories":[],"categories_nodes":[],"categories_segments":[],"categories_sizes":[],"default_left":[0,0,0,0,0,0,0,0,0,0,0,0,0,0,0,0,0,0,0,0,0,0,0,0,0,0,0,0,0,0,0,0,0,0,0,0,0,0,0,0,0,0,0,0,0,0,0,0,0,0,0,0,0,0,0,0,0,0,0,0,0,0,0,0,0,0,0,0,0,0,0,0,0,0,0,0,0,0,0,0,0,0,0,0,0,0,0,0,0,0,0,0,0,0,0,0,0],"id":10,"left_children":[1,3,5,7,9,11,13,15,17,19,21,23,25,27,29,31,33,35,37,39,-1,41,-1,43,45,47,49,51,53,55,-1,57,-1,59,61,63,65,67,69,71,-1,73,75,77,79,81,83,85,87,89,91,-1,-1,93,95,-1,-1,-1,-1,-1,-1,-1,-1,-1,-1,-1,-1,-1,-1,-1,-1,-1,-1,-1,-1,-1,-1,-1,-1,-1,-1,-1,-1,-1,-1,-1,-1,-1,-1,-1,-1,-1,-1,-1,-1,-1,-1],"loss_changes":[2.04851E2,5.6402267E1,1.02829346E2,4.3468346E1,6.8371124E0,4.455607E1,1.6650528E1,9.623475E0,3.7689377E1,4.478099E0,6.0075684E0,3.9017776E1,3.6897617E1,1.3689079E1,1.3984883E0,2.3760796E0,5.941242E0,1.3225603E1,2.8449203E1,2.5095873E0,0E0,4.9726257E0,0E0,3.046084E1,1.6638885E1,1.7605387E1,2.5632076E1,1.759708E-1,1.3931313E1,1.2367353E0,0E0,2.3371143E0,0E0,1.86656E-1,4.772137E0,5.132457E0,5.130285E0,1.9842697E1,6.372142E0,4.1102824E0,0E0,1.8502045E0,4.3267055E0,2.7536827E1,1.0929802E1,1.3552734E1,4.032515E0,1.1934719E1,1.5395445E1,1.4341556E1,7.250572E0,0E0,0E0,1.2648064E1,2.2069182E0,0E0,0E0,0E0,0E0,0E0,0E0,0E0,0E0,0E0,0E0,0E0,0E0,0E0,0E0,0E0,0E0,0E0,0E0,0E0,0E0,0E0,0E0,0E0,0E0,0E0,0E0,0E0,0E0,0E0,0E0,0E0,0E0,0E0,0E0,0E0,0E0,0E0,0E0,0E0,0E0,0E0,0E0],"parents":[2147483647,0,0,1,1,2,2,3,3,4,4,5,5,6,6,7,7,8,8,9,9,10,10,11,11,12,12,13,13,14,14,15,15,16,16,17,17,18,18,19,19,21,21,23,23,24,24,25,25,26,26,27,27,28,28,29,29,31,31,33,33,34,34,35,35,36,36,37,37,38,38,39,39,41,41,42,42,43,43,44,44,45,45,46,46,47,47,48,48,49,49,50,50,53,53,54,54],"right_children":[2,4,6,8,10,12,14,16,18,20,22,24,26,28,30,32,34,36,38,40,-1,42,-1,44,46,48,50,52,54,56,-1,58,-1,60,62,64,66,68,70,72,-1,74,76,78,80,82,84,86,88,90,92,-1,-1,94,96,-1,-1,-1,-1,-1,-1,-1,-1,-1,-1,-1,-1,-1,-1,-1,-1,-1,-1,-1,-1,-1,-1,-1,-1,-1,-1,-1,-1,-1,-1,-1,-1,-1,-1,-1,-1,-1,-1,-1,-1,-1,-1],"split_conditions":[1E0,1E0,1E0,1E0,1E0,1E0,1E0,1E0,1E0,1E0,1E0,1E0,1E0,1E0,1E0,1E0,1E0,1E0,1E0,1E0,-2.9673344E-2,1E0,-8.981535E-3,1E0,1E0,1E0,1E0,1E0,1E0,1E0,1.1365538E-2,1E0,1.951163E-2,1E0,1E0,1E0,1E0,1E0,1E0,1E0,7.014383E-2,1E0,1E0,1E0,1E0,1E0,1E0,1E0,1E0,1E0,1E0,-4.5220327E-2,-9.819339E-3,1E0,1E0,-5.0709557E-2,-1.124201E-3,-4.7472507E-2,1.535659E-2,-7.676672E-3,-4.1984487E-2,5.3132083E-2,-3.4350656E-2,-3.8779538E-2,2.91349E-2,5.788454E-2,-3.4101147E-2,5.264656E-2,-7.1001737E-3,-4.0467475E-3,5.4734077E-2,-1.39692845E-2,7.1073405E-2,1.4787964E-2,9.864865E-2,6.0126252E-2,-2.2388158E-2,-1.8899538E-2,2.187323E-2,3.8190738E-3,6.466418E-2,-2.9154746E-2,-5.347244E-2,-6.8023666E-3,1.0105964E-1,-4.96916E-2,7.082014E-2,-8.953775E-3,3.795333E-2,1.0500885E-2,9.794084E-2,1.1523829E-1,4.046861E-4,5.7730764E-2,-5.169356E-3,-4.369509E-2,1.6602548E-2],"split_indices":[817,1516,1958,1917,65,82,38,1195,158,42,1254,481,1921,100,1462,758,100,151,94,1366,0,1889,0,1748,708,1917,116,83,721,1889,0,26,0,1186,1958,550,95,1147,1622,1299,0,158,95,1048,111,1702,24,1857,108,1202,500,0,0,2016,1589,0,0,0,0,0,0,0,0,0,0,0,0,0,0,0,0,0,0,0,0,0,0,0,0,0,0,0,0,0,0,0,0,0,0,0,0,0,0,0,0,0,0],"split_type":[0,0,0,0,0,0,0,0,0,0,0,0,0,0,0,0,0,0,0,0,0,0,0,0,0,0,0,0,0,0,0,0,0,0,0,0,0,0,0,0,0,0,0,0,0,0,0,0,0,0,0,0,0,0,0,0,0,0,0,0,0,0,0,0,0,0,0,0,0,0,0,0,0,0,0,0,0,0,0,0,0,0,0,0,0,0,0,0,0,0,0,0,0,0,0,0,0],"sum_hessian":[1.4350682E3,3.557256E2,1.0793427E3,2.970612E2,5.866437E1,9.758472E2,1.03495445E2,3.7623425E1,2.5943777E2,1.1482931E1,4.718144E1,7.9746844E2,1.7837877E2,9.5906075E1,7.589372E0,2.6678427E1,1.0944999E1,3.4881783E1,2.2455598E2,1.0049018E1,1.433914E0,4.575721E1,1.4242316E0,4.8618655E2,3.112819E2,1.2276581E2,5.5612957E1,4.152438E0,9.175364E1,6.4186687E0,1.1707035E0,2.5673903E1,1.0045245E0,3.3764224E0,7.568576E0,2.765728E1,7.224503E0,1.80866E2,4.3689995E1,4.561503E0,5.4875145E0,3.877765E1,6.9795575E0,4.5711862E2,2.9067932E1,3.0836887E2,2.9130232E0,2.870804E1,9.405777E1,4.339641E1,1.2216548E1,3.0316608E0,1.1207772E0,8.623998E1,5.5136533E0,4.7501864E0,1.6684825E0,2.4552988E1,1.120915E0,1.0500503E0,2.3263721E0,6.3304877E0,1.2380883E0,2.5273195E1,2.384085E0,6.0053954E0,1.2191077E0,1.6594987E2,1.4916117E1,3.9484222E1,4.205774E0,3.3873277E0,1.1741754E0,1.0611844E0,3.7716465E1,5.456314E0,1.5232438E0,4.119289E2,4.518972E1,1.3650996E1,1.5416936E1,2.2927403E2,7.909483E1,1.0758675E0,1.8371556E0,2.7357069E1,1.3509712E0,7.205371E1,2.2004059E1,3.90095E1,4.3869104E0,1.0650062E1,1.5664862E0,7.751672E1,8.723257E0,3.9542053E0,1.5594482E0],"tree_param":{"num_deleted":"0","num_feature":"2215","num_nodes":"97","size_leaf_vector":"1"}},{"base_weights":[-2.2502937E-3,5.223899E-1,-2.4368446E-1,3.4259173E-1,1.543906E0,-3.3260646E-1,6.0959566E-1,-1.3205943E-1,5.7926416E-1,1.6035436E0,-7.699172E-2,-3.8184738E-1,8.4938246E-1,7.312993E-1,-8.084846E-1,-2.4223797E-1,1.0522121E0,1.711959E-1,9.1508937E-1,1.6364505E0,-1.2138141E-2,-1.8212246E-2,1.48688005E-2,-2.0958972E-1,-6.3154584E-1,1.0232751E0,-5.456124E-1,9.25321E-1,-1.3523124E-1,-4.98057E-2,-2.3960115E-1,-3.687048E-1,6.239778E-1,1.4449947E0,-1.8846782E-2,-2.2062345E-1,6.5373343E-1,1.0307841E0,-9.1523695E-1,1.6836838E0,1.6972902E-1,-2.8303754E-1,7.1494484E-1,-7.341E-1,-9.768977E-2,5.8060765E-1,1.8705821E0,-4.178942E-2,1.7095074E-3,1.0706469E0,-4.338879E-1,-3.51217E-1,7.397666E-2,1.2449509E-2,-3.193266E-2,-3.7129465E-2,-6.8266033E-3,5.352355E-2,-2.4258448E-2,9.242686E-2,-6.6919844E-3,-2.5552869E-2,2.9980918E-2,1.885736E-2,9.5984325E-2,6.1791636E-2,2.1418227E-2,-5.5264372E-2,1.3190757E-2,8.642178E-2,2.3986382E-2,2.7323259E-2,-1.5412929E-2,-1.5865752E-2,6.027014E-2,2.5829628E-2,1.4225264E-1,-3.8094986E-2,4.320083E-2,-4.3972827E-2,1.17855845E-2,-1.1717214E-2,4.9188115E-2,3.267353E-2,1.0945727E-1,2.427694E-2,7.1006045E-2,-4.479291E-2,6.3004844E-2,-2.934897E-2,4.842478E-2],"categories":[],"categories_nodes":[],"categories_segments":[],"categories_sizes":[],"default_left":[0,0,0,0,0,0,0,0,0,0,0,0,0,0,0,0,0,0,0,0,0,0,0,0,0,0,0,0,0,0,0,0,0,0,0,0,0,0,0,0,0,0,0,0,0,0,0,0,0,0,0,0,0,0,0,0,0,0,0,0,0,0,0,0,0,0,0,0,0,0,0,0,0,0,0,0,0,0,0,0,0,0,0,0,0,0,0,0,0,0,0],"id":11,"left_children":[1,3,5,7,9,11,13,15,17,19,21,23,25,27,29,31,33,35,37,39,-1,-1,-1,41,43,45,47,49,51,-1,53,55,57,59,-1,61,63,65,67,69,71,73,75,77,79,81,83,-1,-1,85,87,89,-1,-1,-1,-1,-1,-1,-1,-1,-1,-1,-1,-1,-1,-1,-1,-1,-1,-1,-1,-1,-1,-1,-1,-1,-1,-1,-1,-1,-1,-1,-1,-1,-1,-1,-1,-1,-1,-1,-1],"loss_changes":[1.814671E2,8.239831E1,7.4646164E1,4.3350674E1,6.6282654E0,5.2076508E1,1.6632835E1,1.708496E1,3.509453E1,4.3433228E0,4.677288E-1,3.6613503E1,9.259954E0,1.460532E1,5.961962E-1,1.3246367E1,6.8125286E0,2.2332497E1,3.0775421E1,4.143936E0,0E0,0E0,0E0,3.4633286E1,1.8995377E1,1.1007545E1,8.0723643E-1,1.4389923E1,6.319246E0,0E0,7.939702E-1,8.953318E0,8.199739E0,5.959566E0,0E0,1.5913565E1,1.7778492E1,1.5896042E1,2.287043E0,2.502411E0,7.2794205E-1,2.4384586E1,1.4416821E1,1.3630508E1,1.513536E1,7.665235E0,2.6849747E0,0E0,0E0,1.2392494E1,7.014713E0,5.383439E0,0E0,0E0,0E0,0E0,0E0,0E0,0E0,0E0,0E0,0E0,0E0,0E0,0E0,0E0,0E0,0E0,0E0,0E0,0E0,0E0,0E0,0E0,0E0,0E0,0E0,0E0,0E0,0E0,0E0,0E0,0E0,0E0,0E0,0E0,0E0,0E0,0E0,0E0,0E0],"parents":[2147483647,0,0,1,1,2,2,3,3,4,4,5,5,6,6,7,7,8,8,9,9,10,10,11,11,12,12,13,13,14,14,15,15,16,16,17,17,18,18,19,19,23,23,24,24,25,25,26,26,27,27,28,28,30,30,31,31,32,32,33,33,35,35,36,36,37,37,38,38,39,39,40,40,41,41,42,42,43,43,44,44,45,45,46,46,49,49,50,50,51,51],"right_children":[2,4,6,8,10,12,14,16,18,20,22,24,26,28,30,32,34,36,38,40,-1,-1,-1,42,44,46,48,50,52,-1,54,56,58,60,-1,62,64,66,68,70,72,74,76,78,80,82,84,-1,-1,86,88,90,-1,-1,-1,-1,-1,-1,-1,-1,-1,-1,-1,-1,-1,-1,-1,-1,-1,-1,-1,-1,-1,-1,-1,-1,-1,-1,-1,-1,-1,-1,-1,-1,-1,-1,-1,-1,-1,-1,-1],"split_conditions":[1E0,1E0,1E0,1E0,1E0,1E0,1E0,1E0,1E0,1E0,1E0,1E0,1E0,1E0,1E0,1E0,1E0,1E0,1E0,1E0,-1.2138141E-2,-1.8212246E-2,1.48688005E-2,1E0,1E0,1E0,1E0,1E0,1E0,-4.98057E-2,1E0,1E0,1E0,1E0,-1.8846782E-2,1E0,1E0,1E0,1E0,1E0,1E0,1E0,1E0,1E0,1E0,1E0,1E0,-4.178942E-2,1.7095074E-3,1E0,1E0,1E0,7.397666E-2,1.2449509E-2,-3.193266E-2,-3.7129465E-2,-6.8266033E-3,5.352355E-2,-2.4258448E-2,9.242686E-2,-6.6919844E-3,-2.5552869E-2,2.9980918E-2,1.885736E-2,9.5984325E-2,6.1791636E-2,2.1418227E-2,-5.5264372E-2,1.3190757E-2,8.642178E-2,2.3986382E-2,2.7323259E-2,-1.5412929E-2,-1.5865752E-2,6.027014E-2,2.5829628E-2,1.4225264E-1,-3.8094986E-2,4.320083E-2,-4.3972827E-2,1.17855845E-2,-1.1717214E-2,4.9188115E-2,3.267353E-2,1.0945727E-1,2.427694E-2,7.1006045E-2,-4.479291E-2,6.3004844E-2,-2.934897E-2,4.842478E-2],"split_indices":[154,1516,1958,1255,892,905,38,1010,155,1654,79,481,1424,89,1889,1921,1008,85,891,816,0,0,0,550,82,1921,116,957,484,0,135,145,62,57,0,78,1770,109,91,1597,91,1481,674,790,1319,1516,1319,0,0,1255,108,1516,0,0,0,0,0,0,0,0,0,0,0,0,0,0,0,0,0,0,0,0,0,0,0,0,0,0,0,0,0,0,0,0,0,0,0,0,0,0,0],"split_type":[0,0,0,0,0,0,0,0,0,0,0,0,0,0,0,0,0,0,0,0,0,0,0,0,0,0,0,0,0,0,0,0,0,0,0,0,0,0,0,0,0,0,0,0,0,0,0,0,0,0,0,0,0,0,0,0,0,0,0,0,0,0,0,0,0,0,0,0,0,0,0,0,0,0,0,0,0,0,0,0,0,0,0,0,0,0,0,0,0,0,0],"sum_hessian":[1.4306367E3,4.505093E2,9.8012744E2,3.8421805E2,6.629127E1,8.8817883E2,9.194866E1,1.2798455E2,2.562335E2,6.39491E1,2.3421674E0,8.533075E2,3.4871315E1,8.512712E1,6.821545E0,1.1781875E2,1.0165797E1,1.1635629E2,1.398772E2,6.294096E1,1.0081407E0,1.3405784E0,1.0015891E0,5.0604514E2,3.4726236E2,3.124317E1,3.6281428E0,6.9498184E1,1.5628933E1,4.564937E0,2.256608E0,1.0330993E2,1.450882E1,7.9654965E0,2.2003012E0,6.451392E1,5.184237E1,1.3197209E2,7.9051123E0,6.083398E1,2.1069775E0,4.694449E2,3.660027E1,2.909882E2,5.627416E1,2.16287E1,9.6144705E0,2.1237545E0,1.5043885E0,6.2977016E1,6.5211687E0,1.4475264E1,1.153669E0,1.1835449E0,1.073063E0,3.8734512E1,6.457542E1,1.036942E1,4.1393995E0,6.20795E0,1.7575464E0,4.792236E1,1.6591564E1,4.3611923E1,8.230446E0,9.767464E1,3.429745E1,6.8616514E0,1.0434611E0,5.8233765E1,2.6002147E0,1.0981694E0,1.0088079E0,4.5964642E2,9.798442E0,3.4619114E1,1.9811573E0,2.8652722E2,4.4609723E0,1.6334604E1,3.9939552E1,7.2969975E0,1.4331702E1,2.6274126E0,6.987058E0,2.4442839E1,3.853418E1,5.4940324E0,1.0271363E0,1.2752324E1,1.7229396E0],"tree_param":{"num_deleted":"0","num_feature":"2215","num_nodes":"91","size_leaf_vector":"1"}},{"base_weights":[-4.893367E-4,5.10958E-1,-2.3927106E-1,-1.0229307E-2,8.000054E-1,-3.349117E-1,6.411624E-1,-1.4610276E-1,1.1690598E0,6.1569285E-1,1.5070761E0,-3.7603506E-1,6.503476E-1,9.1501904E-1,1.0267822E-1,-2.2301134E-1,1.1922047E0,1.7906321E0,3.3688647E-1,7.9239585E-2,8.4355605E-1,1.5521104E0,-1.7066725E-2,-4.0461385E-1,9.527451E-1,-2.6747754E-1,9.0539443E-1,2.903636E-1,1.2396641E0,-1.6813688E-1,1.4793694E0,-6.608234E-1,-7.5307214E-3,1.530308E0,-3.0559123E-2,-6.7497673E-4,2.1404006E0,-4.5384582E-2,6.661993E-2,-2.2843243E-1,7.3487663E-1,9.2385083E-1,-7.675277E-1,1.5891112E0,-1.2287746E-2,-8.7748593E-1,-3.271389E-1,-5.1535986E-2,1.08515635E-1,-6.324243E-1,4.836656E-2,1.2528694E0,-2.9168424E-1,4.549331E-2,1.508627E0,1.3240623E0,-3.5741016E-2,-3.8922662E-1,1.1659197E0,8.820275E-2,9.9697E-3,-3.840205E-2,5.2627157E-2,-3.8179264E-3,9.079804E-2,9.201613E-2,-8.372841E-3,1.1628964E-1,3.6240038E-2,-1.4704374E-2,3.4062207E-2,-1.8808356E-2,4.990232E-2,5.495106E-2,-4.2350758E-2,5.4959994E-2,4.157965E-3,-5.1368058E-2,-2.481893E-3,8.171218E-2,1.0044315E-2,-4.567228E-2,2.5818026E-2,-2.3871494E-2,1.644272E-3,-4.326627E-2,4.293263E-2,-4.826916E-2,3.6591613E-3,-1.36788385E-2,7.192409E-2,3.0263538E-2,-2.861321E-2,-7.6455087E-3,5.3187877E-2,1.1516173E-2,9.538036E-2,7.0373096E-2,-4.088323E-2,-2.891909E-2,2.899659E-2,8.811616E-2,-1.3305646E-2],"categories":[],"categories_nodes":[],"categories_segments":[],"categories_sizes":[],"default_left":[0,0,0,0,0,0,0,0,0,0,0,0,0,0,0,0,0,0,0,0,0,0,0,0,0,0,0,0,0,0,0,0,0,0,0,0,0,0,0,0,0,0,0,0,0,0,0,0,0,0,0,0,0,0,0,0,0,0,0,0,0,0,0,0,0,0,0,0,0,0,0,0,0,0,0,0,0,0,0,0,0,0,0,0,0,0,0,0,0,0,0,0,0,0,0,0,0,0,0,0,0,0,0],"id":12,"left_children":[1,3,5,7,9,11,13,15,17,19,21,23,25,27,29,31,33,35,37,39,41,43,-1,45,47,49,51,53,55,57,59,61,63,65,-1,-1,67,69,-1,71,73,75,77,79,-1,81,83,85,-1,87,-1,89,91,93,95,97,-1,99,101,-1,-1,-1,-1,-1,-1,-1,-1,-1,-1,-1,-1,-1,-1,-1,-1,-1,-1,-1,-1,-1,-1,-1,-1,-1,-1,-1,-1,-1,-1,-1,-1,-1,-1,-1,-1,-1,-1,-1,-1,-1,-1,-1,-1],"loss_changes":[1.7469931E2,6.8598E1,8.233203E1,2.635515E1,3.724156E1,3.5912056E1,1.4047958E1,1.5439356E1,8.186903E0,2.853881E1,5.5134583E0,3.249971E1,8.584374E0,1.2505695E1,1.2722004E1,1.3226247E1,5.916157E0,6.0212E0,3.2943199E0,1.4463878E1,2.1943275E1,4.2904816E0,0E0,3.0068039E1,2.2248314E1,4.4518356E0,1.2060257E1,6.793322E0,7.7822914E0,8.964267E0,1.6893797E0,9.304363E0,1.2062078E1,4.0791397E0,0E0,0E0,4.0337372E-1,1.484693E0,0E0,9.253503E0,1.4106244E1,2.3024261E1,1.5044394E0,3.2791595E0,0E0,6.2881775E0,3.8623055E1,8.814753E0,0E0,1.7580006E0,0E0,6.62088E0,2.1423392E0,4.2403135E0,1.5081692E0,8.30912E0,0E0,5.010461E0,4.186224E0,0E0,0E0,0E0,0E0,0E0,0E0,0E0,0E0,0E0,0E0,0E0,0E0,0E0,0E0,0E0,0E0,0E0,0E0,0E0,0E0,0E0,0E0,0E0,0E0,0E0,0E0,0E0,0E0,0E0,0E0,0E0,0E0,0E0,0E0,0E0,0E0,0E0,0E0,0E0,0E0,0E0,0E0,0E0,0E0],"parents":[2147483647,0,0,1,1,2,2,3,3,4,4,5,5,6,6,7,7,8,8,9,9,10,10,11,11,12,12,13,13,14,14,15,15,16,16,17,17,18,18,19,19,20,20,21,21,23,23,24,24,25,25,26,26,27,27,28,28,29,29,30,30,31,31,32,32,33,33,36,36,37,37,39,39,40,40,41,41,42,42,43,43,45,45,46,46,47,47,49,49,51,51,52,52,53,53,54,54,55,55,57,57,58,58],"right_children":[2,4,6,8,10,12,14,16,18,20,22,24,26,28,30,32,34,36,38,40,42,44,-1,46,48,50,52,54,56,58,60,62,64,66,-1,-1,68,70,-1,72,74,76,78,80,-1,82,84,86,-1,88,-1,90,92,94,96,98,-1,100,102,-1,-1,-1,-1,-1,-1,-1,-1,-1,-1,-1,-1,-1,-1,-1,-1,-1,-1,-1,-1,-1,-1,-1,-1,-1,-1,-1,-1,-1,-1,-1,-1,-1,-1,-1,-1,-1,-1,-1,-1,-1,-1,-1,-1],"split_conditions":[1E0,1E0,1E0,1E0,1E0,1E0,1E0,1E0,1E0,1E0,1E0,1E0,1E0,1E0,1E0,1E0,1E0,1E0,1E0,1E0,1E0,1E0,-1.7066725E-2,1E0,1E0,1E0,1E0,1E0,1E0,1E0,1E0,1E0,1E0,1E0,-3.0559123E-2,-6.7497673E-4,1E0,1E0,6.661993E-2,1E0,1E0,1E0,1E0,1E0,-1.2287746E-2,1E0,1E0,1E0,1.08515635E-1,1E0,4.836656E-2,1E0,1E0,1E0,1E0,1E0,-3.5741016E-2,1E0,1E0,8.820275E-2,9.9697E-3,-3.840205E-2,5.2627157E-2,-3.8179264E-3,9.079804E-2,9.201613E-2,-8.372841E-3,1.1628964E-1,3.6240038E-2,-1.4704374E-2,3.4062207E-2,-1.8808356E-2,4.990232E-2,5.495106E-2,-4.2350758E-2,5.4959994E-2,4.157965E-3,-5.1368058E-2,-2.481893E-3,8.171218E-2,1.0044315E-2,-4.567228E-2,2.5818026E-2,-2.3871494E-2,1.644272E-3,-4.326627E-2,4.293263E-2,-4.826916E-2,3.6591613E-3,-1.36788385E-2,7.192409E-2,3.0263538E-2,-2.861321E-2,-7.6455087E-3,5.3187877E-2,1.1516173E-2,9.538036E-2,7.0373096E-2,-4.088323E-2,-2.891909E-2,2.899659E-2,8.811616E-2,-1.3305646E-2],"split_indices":[154,100,1958,1770,1516,905,149,510,1702,1255,1184,1481,123,1255,2089,158,89,145,1281,134,891,30,0,1917,314,103,78,728,1295,1516,93,847,1705,556,0,0,1089,1000,0,489,2022,574,101,41,0,711,104,351,0,1366,0,125,150,1642,144,1598,0,51,115,0,0,0,0,0,0,0,0,0,0,0,0,0,0,0,0,0,0,0,0,0,0,0,0,0,0,0,0,0,0,0,0,0,0,0,0,0,0,0,0,0,0,0,0],"split_type":[0,0,0,0,0,0,0,0,0,0,0,0,0,0,0,0,0,0,0,0,0,0,0,0,0,0,0,0,0,0,0,0,0,0,0,0,0,0,0,0,0,0,0,0,0,0,0,0,0,0,0,0,0,0,0,0,0,0,0,0,0,0,0,0,0,0,0,0,0,0,0,0,0,0,0,0,0,0,0,0,0,0,0,0,0,0,0,0,0,0,0,0,0,0,0,0,0,0,0,0,0,0,0],"sum_hessian":[1.4285033E3,4.5429898E2,9.7420435E2,1.6241313E2,2.9188583E2,8.793058E2,9.4898544E1,1.4641933E2,1.5993798E1,2.3301616E2,5.8869694E1,8.446688E2,3.4636974E1,6.2442795E1,3.2455753E1,1.3925038E2,7.1689463E0,8.49609E0,7.497709E0,6.987014E1,1.6314601E2,5.7626003E1,1.2436906E0,8.275654E2,1.7103394E1,7.521384E0,2.711559E1,2.2002258E1,4.0440536E1,2.785428E1,4.6014714E0,4.5248352E1,9.400203E1,6.164615E0,1.0043311E0,1.5357883E0,6.9603014E0,6.107048E0,1.3906611E0,4.799774E1,2.1872402E1,1.558073E2,7.3387146E0,5.6577724E1,1.048279E0,1.1504663E2,7.125188E2,9.89742E0,7.205973E0,6.182104E0,1.3392799E0,2.0979332E1,6.136257E0,1.918369E1,2.8185682E0,3.9075726E1,1.3648105E0,2.4501884E1,3.3523955E0,3.454864E0,1.1466075E0,4.3102833E1,2.1455178E0,9.150625E1,2.4957838E0,5.1417546E0,1.0228604E0,5.5857925E0,1.3745087E0,4.9932737E0,1.1137742E0,4.3456512E1,4.54123E0,1.8027742E1,3.8446586E0,1.2866353E2,2.7143774E1,5.0719023E0,2.2668123E0,5.4624615E1,1.9531099E0,1.124892E2,2.5574288E0,5.0244763E2,2.1007117E2,5.2514486E0,4.6459713E0,3.9500253E0,2.2320786E0,2.2230897E0,1.8756243E1,1.1863937E0,4.9498634E0,1.6766632E1,2.417058E0,1.0456524E0,1.7729158E0,3.7941124E1,1.1346016E0,2.083804E1,3.6638446E0,2.2038896E0,1.148506E0],"tree_param":{"num_deleted":"0","num_feature":"2215","num_nodes":"103","size_leaf_vector":"1"}},{"base_weights":[1.0074309E-2,4.9132848E-1,-2.1742469E-1,2.1056984E-2,7.4853414E-1,-3.0362928E-1,5.6659245E-1,-6.1523687E-2,1.6892648E0,2.0215578E-1,9.2421913E-1,-3.4557015E-1,6.6488737E-1,6.9746864E-1,-5.667617E-1,1.2053302E-1,-6.3054943E-1,9.385292E-2,1.1533319E-2,-6.485488E-2,9.030174E-1,-1.1797309E-1,1.0837085E0,-3.748516E-1,1.0100987E0,4.3071046E-1,9.498644E-2,-8.3360904E-1,7.9858696E-1,3.668829E-2,-7.9662347E-1,-6.276728E-1,3.1581888E-1,-7.167583E-1,5.47744E-2,1.3323699E-1,-8.978419E-1,3.423541E-1,1.9238515E0,3.8688466E-1,-7.1710885E-1,1.1600001E0,-4.839069E-1,5.7112742E-2,-4.6224046E-1,-3.0879881E-2,2.062668E0,9.2423433E-1,-1.2513009E-1,-4.7563743E-2,-7.559118E-3,9.198319E-1,-2.2648898E-1,-5.2420896E-2,-1.7047565E-1,-3.779528E-2,9.888685E-3,5.16019E-3,5.1478714E-2,-4.4141807E-2,1.1496196E-2,-5.104754E-4,7.646682E-2,-5.337456E-2,1.5541233E-2,-6.018224E-3,5.8461804E-2,2.531768E-3,1.17036775E-1,4.7804724E-2,-2.3203643E-2,-4.931347E-2,4.1361365E-2,6.058645E-2,-2.9221727E-2,-4.7673088E-2,2.9943883E-2,-9.8850895E-3,4.2281445E-2,-1.9182306E-2,-4.550508E-2,-4.277843E-2,5.1422622E-2,1.0982608E-1,3.276516E-2,8.4162466E-2,1.2171101E-2,-1.7876586E-2,7.449426E-2,5.109469E-2,-2.2339268E-2,9.41214E-3,-4.1261934E-2,3.445662E-2,-3.8553756E-2],"categories":[],"categories_nodes":[],"categories_segments":[],"categories_sizes":[],"default_left":[0,0,0,0,0,0,0,0,0,0,0,0,0,0,0,0,0,0,0,0,0,0,0,0,0,0,0,0,0,0,0,0,0,0,0,0,0,0,0,0,0,0,0,0,0,0,0,0,0,0,0,0,0,0,0,0,0,0,0,0,0,0,0,0,0,0,0,0,0,0,0,0,0,0,0,0,0,0,0,0,0,0,0,0,0,0,0,0,0,0,0,0,0,0,0],"id":13,"left_children":[1,3,5,7,9,11,13,15,17,19,21,23,25,27,29,31,33,-1,-1,35,37,39,41,43,45,47,-1,49,51,-1,53,55,57,59,-1,61,63,65,67,69,71,73,75,77,79,81,83,85,87,-1,-1,89,91,-1,93,-1,-1,-1,-1,-1,-1,-1,-1,-1,-1,-1,-1,-1,-1,-1,-1,-1,-1,-1,-1,-1,-1,-1,-1,-1,-1,-1,-1,-1,-1,-1,-1,-1,-1,-1,-1,-1,-1,-1,-1],"loss_changes":[1.5581238E2,5.5237198E1,6.548467E1,2.2494963E1,2.8155853E1,3.562185E1,1.4646387E1,1.6219511E1,1.67659E0,1.3742243E1,3.7218643E1,3.3555786E1,9.738361E0,1.4069965E1,3.7227867E0,1.7571154E1,6.429655E0,0E0,0E0,9.0105505E0,1.0925135E1,9.5084715E0,2.3718277E1,3.0936668E1,1.9721966E1,8.888441E0,0E0,3.2617664E-1,1.036573E1,0E0,1.3033695E0,2.789894E0,1.430364E1,5.9782887E0,0E0,8.907556E0,2.480935E0,5.6046762E0,5.315542E0,8.780554E0,6.7626576E0,1.7396286E1,5.4984756E0,2.8029886E1,2.3627533E1,9.620947E0,2.4393082E-1,8.405363E0,6.5084276E0,0E0,0E0,1.0677631E1,2.501114E0,0E0,2.5398405E0,0E0,0E0,0E0,0E0,0E0,0E0,0E0,0E0,0E0,0E0,0E0,0E0,0E0,0E0,0E0,0E0,0E0,0E0,0E0,0E0,0E0,0E0,0E0,0E0,0E0,0E0,0E0,0E0,0E0,0E0,0E0,0E0,0E0,0E0,0E0,0E0,0E0,0E0,0E0,0E0],"parents":[2147483647,0,0,1,1,2,2,3,3,4,4,5,5,6,6,7,7,8,8,9,9,10,10,11,11,12,12,13,13,14,14,15,15,16,16,19,19,20,20,21,21,22,22,23,23,24,24,25,25,27,27,28,28,30,30,31,31,32,32,33,33,35,35,36,36,37,37,38,38,39,39,40,40,41,41,42,42,43,43,44,44,45,45,46,46,47,47,48,48,51,51,52,52,54,54],"right_children":[2,4,6,8,10,12,14,16,18,20,22,24,26,28,30,32,34,-1,-1,36,38,40,42,44,46,48,-1,50,52,-1,54,56,58,60,-1,62,64,66,68,70,72,74,76,78,80,82,84,86,88,-1,-1,90,92,-1,94,-1,-1,-1,-1,-1,-1,-1,-1,-1,-1,-1,-1,-1,-1,-1,-1,-1,-1,-1,-1,-1,-1,-1,-1,-1,-1,-1,-1,-1,-1,-1,-1,-1,-1,-1,-1,-1,-1,-1,-1],"split_conditions":[1E0,1E0,1E0,1E0,1E0,1E0,1E0,1E0,1E0,1E0,1E0,1E0,1E0,1E0,1E0,1E0,1E0,9.385292E-2,1.1533319E-2,1E0,1E0,1E0,1E0,1E0,1E0,1E0,9.498644E-2,1E0,1E0,3.668829E-2,1E0,1E0,1E0,1E0,5.47744E-2,1E0,1E0,1E0,1E0,1E0,1E0,1E0,1E0,1E0,1E0,1E0,1E0,1E0,1E0,-4.7563743E-2,-7.559118E-3,1E0,1E0,-5.2420896E-2,1E0,-3.779528E-2,9.888685E-3,5.16019E-3,5.1478714E-2,-4.4141807E-2,1.1496196E-2,-5.104754E-4,7.646682E-2,-5.337456E-2,1.5541233E-2,-6.018224E-3,5.8461804E-2,2.531768E-3,1.17036775E-1,4.7804724E-2,-2.3203643E-2,-4.931347E-2,4.1361365E-2,6.058645E-2,-2.9221727E-2,-4.7673088E-2,2.9943883E-2,-9.8850895E-3,4.2281445E-2,-1.9182306E-2,-4.550508E-2,-4.277843E-2,5.1422622E-2,1.0982608E-1,3.276516E-2,8.4162466E-2,1.2171101E-2,-1.7876586E-2,7.449426E-2,5.109469E-2,-2.2339268E-2,9.41214E-3,-4.1261934E-2,3.445662E-2,-3.8553756E-2],"split_indices":[154,100,1958,1821,155,905,2016,146,469,1195,145,1481,1946,100,92,145,241,0,0,1117,1281,98,1017,159,314,136,0,124,201,0,131,550,78,103,0,109,52,66,138,124,408,110,1524,104,1702,353,135,545,166,0,0,226,1109,0,127,0,0,0,0,0,0,0,0,0,0,0,0,0,0,0,0,0,0,0,0,0,0,0,0,0,0,0,0,0,0,0,0,0,0,0,0,0,0,0,0],"split_type":[0,0,0,0,0,0,0,0,0,0,0,0,0,0,0,0,0,0,0,0,0,0,0,0,0,0,0,0,0,0,0,0,0,0,0,0,0,0,0,0,0,0,0,0,0,0,0,0,0,0,0,0,0,0,0,0,0,0,0,0,0,0,0,0,0,0,0,0,0,0,0,0,0,0,0,0,0,0,0,0,0,0,0,0,0,0,0,0,0,0,0,0,0,0,0],"sum_hessian":[1.4211653E3,4.5580023E2,9.6536505E2,1.615345E2,2.9426572E2,8.7028754E2,9.507751E1,1.5483298E2,6.70152E0,7.212097E1,2.2214474E2,8.347812E2,3.550637E1,8.5579636E1,9.497873E0,1.17899765E2,3.6933216E1,5.682952E0,1.0185683E0,5.2881798E1,1.9239172E1,2.9517998E1,1.9262674E2,8.178399E2,1.6941256E1,3.098007E1,4.526301E0,4.8530784E0,8.0726555E1,1.097299E0,8.400574E0,2.3944855E1,9.395491E1,3.573322E1,1.1999985E0,4.3400753E1,9.481045E0,1.3280573E1,5.9585996E0,1.6211634E1,1.3306363E1,1.8393515E2,8.691601E0,1.3767192E2,6.80168E2,9.005543E0,7.935713E0,1.605885E1,1.492122E1,3.8033376E0,1.0497406E0,7.228002E1,8.446537E0,5.510307E0,2.890267E0,2.079812E1,3.146733E0,7.327283E1,2.0682085E1,3.0457464E1,5.2757535E0,4.0257103E1,3.1436515E0,8.416501E0,1.0645435E0,9.063259E0,4.217314E0,1.2888362E0,4.6697636E0,9.639903E0,6.571731E0,1.1639153E1,1.667211E0,1.7893446E2,5.00069E0,6.1458554E0,2.5457451E0,1.0461434E2,3.3057587E1,5.802054E2,9.9962616E1,5.1717186E0,3.8338244E0,6.7344685E0,1.2012441E0,6.8970957E0,9.161755E0,1.3724829E1,1.1963909E0,6.749183E1,4.7881866E0,5.395134E0,3.051403E0,1.1281682E0,1.7620988E0],"tree_param":{"num_deleted":"0","num_feature":"2215","num_nodes":"95","size_leaf_vector":"1"}},{"base_weights":[-5.706716E-3,1.8247436E-1,-5.417014E-1,-1.927234E-1,4.2597437E-1,-5.734963E-1,1.3567793E0,-2.7028468E-1,7.6861423E-1,7.1593827E-1,1.1698847E-1,-6.4352036E-1,2.6151946E-1,1.9003565E0,-3.1078849E-2,-3.0839148E-1,7.9390025E-1,1.6834785E0,-2.5550934E-2,3.417864E-1,1.0233313E0,3.9353818E-1,-2.0893878E-1,-6.8005955E-1,3.2530734E-1,2.4100253E-3,1.1603138E0,1.3118957E-1,1.18563585E-2,-9.56627E-2,-5.57174E-1,-3.7860733E-2,1.046169E0,-2.6182604E-1,2.0540931E0,-3.3651382E-1,1.2724543E0,2.1501786E-1,1.5731082E0,6.9644034E-1,1.4335783E0,2.3707066E-1,1.2506037E0,5.111392E-1,-3.7279648E-1,-5.475814E-1,-1.0753028E0,-1.65847E-1,1.3615037E0,-2.1103065E-1,7.52187E-2,1.4807023E0,-8.355425E-3,-9.289766E-3,4.1756254E-2,-3.215788E-2,1.54872285E-2,6.601548E-2,-1.1444429E-2,-3.334594E-2,1.5273543E-2,1.1627819E-1,2.4699324E-3,-4.282164E-2,1.369631E-2,6.641922E-3,9.300839E-2,5.5865417E-3,9.692817E-2,3.6744436E-4,9.7983085E-2,4.11361E-2,-3.1187296E-2,7.499041E-2,-4.3124836E-2,4.8025805E-3,6.322657E-2,7.346702E-2,-1.1914035E-2,1.5323146E-3,6.75097E-2,-2.1839907E-2,8.173452E-2,-1.5828928E-2,-3.786284E-2,-5.4290276E-2,-7.3563457E-3,-2.9437024E-2,2.930204E-2,8.279364E-2,2.3123955E-2,-1.9666523E-2,7.680185E-2,9.856028E-2,3.0926624E-3],"categories":[],"categories_nodes":[],"categories_segments":[],"categories_sizes":[],"default_left":[0,0,0,0,0,0,0,0,0,0,0,0,0,0,0,0,0,0,0,0,0,0,0,0,0,0,0,0,0,0,0,0,0,0,0,0,0,0,0,0,0,0,0,0,0,0,0,0,0,0,0,0,0,0,0,0,0,0,0,0,0,0,0,0,0,0,0,0,0,0,0,0,0,0,0,0,0,0,0,0,0,0,0,0,0,0,0,0,0,0,0,0,0,0,0],"id":14,"left_children":[1,3,5,7,9,11,13,15,17,19,21,23,25,27,-1,29,31,33,35,37,39,41,43,45,47,49,51,-1,-1,53,55,-1,57,59,61,63,65,67,69,71,73,75,77,79,81,83,85,87,89,91,-1,93,-1,-1,-1,-1,-1,-1,-1,-1,-1,-1,-1,-1,-1,-1,-1,-1,-1,-1,-1,-1,-1,-1,-1,-1,-1,-1,-1,-1,-1,-1,-1,-1,-1,-1,-1,-1,-1,-1,-1,-1,-1,-1,-1],"loss_changes":[1.4252072E2,9.56312E1,2.2941376E1,3.0949932E1,5.6768173E1,2.1324799E1,8.004624E0,1.5746454E1,2.259622E1,3.7276688E1,2.7879131E1,1.204921E1,6.682457E0,5.663433E0,0E0,1.9515823E1,6.072607E0,1.0948093E1,7.532867E0,2.2928255E1,2.3019714E1,2.2122856E1,1.697013E1,1.6287262E1,6.7502074E0,7.782015E0,2.9784918E0,0E0,0E0,1.6978718E1,1.2888401E1,0E0,4.5061226E0,9.3857753E-1,6.54731E0,4.9923806E0,2.1714535E0,2.4047602E1,8.310814E0,1.7454788E1,1.3227615E1,2.0540804E1,8.679249E0,1.0756816E1,1.5672947E1,1.1550919E1,6.188736E-1,3.3939335E0,3.5392857E-1,7.376632E0,0E0,3.548832E0,0E0,0E0,0E0,0E0,0E0,0E0,0E0,0E0,0E0,0E0,0E0,0E0,0E0,0E0,0E0,0E0,0E0,0E0,0E0,0E0,0E0,0E0,0E0,0E0,0E0,0E0,0E0,0E0,0E0,0E0,0E0,0E0,0E0,0E0,0E0,0E0,0E0,0E0,0E0,0E0,0E0,0E0,0E0],"parents":[2147483647,0,0,1,1,2,2,3,3,4,4,5,5,6,6,7,7,8,8,9,9,10,10,11,11,12,12,13,13,15,15,16,16,17,17,18,18,19,19,20,20,21,21,22,22,23,23,24,24,25,25,26,26,29,29,30,30,32,32,33,33,34,34,35,35,36,36,37,37,38,38,39,39,40,40,41,41,42,42,43,43,44,44,45,45,46,46,47,47,48,48,49,49,51,51],"right_children":[2,4,6,8,10,12,14,16,18,20,22,24,26,28,-1,30,32,34,36,38,40,42,44,46,48,50,52,-1,-1,54,56,-1,58,60,62,64,66,68,70,72,74,76,78,80,82,84,86,88,90,92,-1,94,-1,-1,-1,-1,-1,-1,-1,-1,-1,-1,-1,-1,-1,-1,-1,-1,-1,-1,-1,-1,-1,-1,-1,-1,-1,-1,-1,-1,-1,-1,-1,-1,-1,-1,-1,-1,-1,-1,-1,-1,-1,-1,-1],"split_conditions":[1E0,1E0,1E0,1E0,1E0,1E0,1E0,1E0,1E0,1E0,1E0,1E0,1E0,1E0,-3.1078849E-2,1E0,1E0,1E0,1E0,1E0,1E0,1E0,1E0,1E0,1E0,1E0,1E0,1.3118957E-1,1.18563585E-2,1E0,1E0,-3.7860733E-2,1E0,1E0,1E0,1E0,1E0,1E0,1E0,1E0,1E0,1E0,1E0,1E0,1E0,1E0,1E0,1E0,1E0,1E0,7.52187E-2,1E0,-8.355425E-3,-9.289766E-3,4.1756254E-2,-3.215788E-2,1.54872285E-2,6.601548E-2,-1.1444429E-2,-3.334594E-2,1.5273543E-2,1.1627819E-1,2.4699324E-3,-4.282164E-2,1.369631E-2,6.641922E-3,9.300839E-2,5.5865417E-3,9.692817E-2,3.6744436E-4,9.7983085E-2,4.11361E-2,-3.1187296E-2,7.499041E-2,-4.3124836E-2,4.8025805E-3,6.322657E-2,7.346702E-2,-1.1914035E-2,1.5323146E-3,6.75097E-2,-2.1839907E-2,8.173452E-2,-1.5828928E-2,-3.786284E-2,-5.4290276E-2,-7.3563457E-3,-2.9437024E-2,2.930204E-2,8.279364E-2,2.3123955E-2,-1.9666523E-2,7.680185E-2,9.856028E-2,3.0926624E-3],"split_indices":[481,100,1946,1770,110,2078,93,28,1702,1366,136,1473,87,1281,0,146,125,145,728,1410,152,168,121,1702,1296,1206,94,0,0,1227,383,0,69,80,664,79,92,408,145,52,1234,1516,81,208,1694,89,70,556,638,1476,0,157,0,0,0,0,0,0,0,0,0,0,0,0,0,0,0,0,0,0,0,0,0,0,0,0,0,0,0,0,0,0,0,0,0,0,0,0,0,0,0,0,0,0,0],"split_type":[0,0,0,0,0,0,0,0,0,0,0,0,0,0,0,0,0,0,0,0,0,0,0,0,0,0,0,0,0,0,0,0,0,0,0,0,0,0,0,0,0,0,0,0,0,0,0,0,0,0,0,0,0,0,0,0,0,0,0,0,0,0,0,0,0,0,0,0,0,0,0,0,0,0,0,0,0,0,0,0,0,0,0,0,0,0,0,0,0,0,0,0,0,0,0],"sum_hessian":[1.4110182E3,1.0448455E3,3.661727E2,4.113004E2,6.3354504E2,3.6082764E2,5.3450556E0,3.8125906E2,3.0041367E1,3.261534E2,3.073916E2,3.3312152E2,2.7706104E1,4.2239113E0,1.1211439E0,3.687644E2,1.2494664E1,1.3439495E1,1.6601871E1,1.480555E2,1.7809792E2,1.6618011E2,1.412115E2,3.2130173E2,1.1819793E1,2.2284489E1,5.421615E0,2.5411084E0,1.6828032E0,1.9953268E2,1.692317E2,1.4678339E0,1.1026831E1,2.1976852E0,1.124181E1,1.3990834E1,2.6110363E0,1.3530049E2,1.2755E1,1.00619995E2,7.747792E1,1.4160504E2,2.4575083E1,2.57839E1,1.154276E2,2.4242935E2,7.887238E1,8.588712E0,3.2310805E0,2.0264277E1,2.0202134E0,4.2744555E0,1.1471599E0,1.8264655E2,1.6886143E1,1.541962E2,1.5035515E1,9.046351E0,1.9804786E0,1.1796896E0,1.0179956E0,9.760067E0,1.4817427E0,7.3379984E0,6.652836E0,1.3055377E0,1.3054987E0,1.2865538E2,6.6451135E0,2.7272232E0,1.0027777E1,9.2179436E1,8.440562E0,7.5642815E1,1.8351088E0,1.25476814E2,1.612822E1,2.1438595E1,3.1364875E0,1.7054182E1,8.729718E0,1.1261953E2,2.808064E0,1.1654247E2,1.2588689E2,7.782197E1,1.0504196E0,5.635854E0,2.9528584E0,1.7998862E0,1.4311943E0,1.9051216E1,1.213059E0,2.8870785E0,1.3873768E0],"tree_param":{"num_deleted":"0","num_feature":"2215","num_nodes":"95","size_leaf_vector":"1"}},{"base_weights":[2.968495E-3,1.7384647E-1,-4.982987E-1,-2.1530712E-1,4.191938E-1,-6.0964906E-1,1.9374752E-2,3.4826487E-2,-5.1347613E-1,-1.0127419E-1,5.880609E-1,-4.7712183E-1,-1.0300697E0,-3.890915E-1,5.837504E-1,-3.141965E-2,1.861291E0,-6.223214E-1,3.1863838E-1,-2.0131318E-1,1.1876463E0,-1.1120876E-1,7.368397E-1,-5.061173E-1,1.1069987E0,-5.34148E-2,3.2065496E-2,-4.76069E-1,5.3995766E-2,8.0368733E-1,-4.5312304E-2,6.53872E-2,-1.0466628E0,1.0401314E-1,1.0846399E-2,-6.5278983E-1,6.523844E-2,-1.1542497E-2,1.4041537E0,-2.7573624E-1,1.4296914E0,1.3421296E0,4.6756194E-4,-2.7746776E-1,1.8639938E0,1.025794E0,3.8388628E-1,-1.1235703E-1,-6.387825E-1,1.1733853E-1,1.00871794E-1,-5.9371793E-1,7.110224E-1,1.0730277E0,-6.792797E-1,-2.4380738E-2,1.2697235E-2,-5.4678448E-2,-6.9213808E-3,-3.4337472E-2,5.018015E-2,2.6054898E-2,-2.830406E-2,8.417917E-2,1.0646614E-2,-2.1726398E-2,1.6982533E-2,9.737504E-2,-1.4367324E-2,7.497122E-2,3.408185E-3,-1.8589182E-2,9.991637E-2,-1.0308933E-2,1.1333803E-1,5.4755654E-2,-2.5284613E-2,3.2906614E-2,-1.29994545E-2,-2.2489881E-2,1.7962554E-2,-3.4357324E-2,2.8145377E-2,-7.424522E-3,1.6881138E-2,-3.3310693E-2,4.172416E-2,-9.2819845E-3,5.9827473E-2,4.178193E-4,6.6243015E-2,-4.145927E-2,-4.5890426E-3],"categories":[],"categories_nodes":[],"categories_segments":[],"categories_sizes":[],"default_left":[0,0,0,0,0,0,0,0,0,0,0,0,0,0,0,0,0,0,0,0,0,0,0,0,0,0,0,0,0,0,0,0,0,0,0,0,0,0,0,0,0,0,0,0,0,0,0,0,0,0,0,0,0,0,0,0,0,0,0,0,0,0,0,0,0,0,0,0,0,0,0,0,0,0,0,0,0,0,0,0,0,0,0,0,0,0,0,0,0,0,0,0,0],"id":15,"left_children":[1,3,5,7,9,11,13,15,17,19,21,23,25,27,29,31,33,35,37,39,41,43,45,47,49,-1,-1,51,-1,53,-1,55,57,-1,-1,59,-1,61,63,65,67,69,-1,71,73,75,77,79,81,83,-1,85,87,89,91,-1,-1,-1,-1,-1,-1,-1,-1,-1,-1,-1,-1,-1,-1,-1,-1,-1,-1,-1,-1,-1,-1,-1,-1,-1,-1,-1,-1,-1,-1,-1,-1,-1,-1,-1,-1,-1,-1],"loss_changes":[1.20012856E2,9.985466E1,2.0544449E1,3.020116E1,5.6414375E1,1.5843597E1,1.4986604E1,2.6800241E1,1.6925594E1,2.060268E1,5.046367E1,1.0884659E1,5.1193924E0,5.336512E0,9.668752E0,2.112654E1,2.340063E0,1.0461136E1,7.910269E0,1.828728E1,2.0843258E0,2.8702543E1,4.0344284E1,1.1494827E1,3.6863542E0,0E0,0E0,5.4955673E0,0E0,1.0435977E1,0E0,2.061864E1,6.457329E-1,0E0,0E0,9.789429E0,0E0,5.576153E0,1.3540802E0,1.400541E1,6.422701E0,1.9372139E0,0E0,1.7921831E1,6.131384E0,2.3806839E1,3.2203938E1,9.234741E0,9.999954E0,2.3447396E-1,0E0,4.03446E0,1.8462837E0,5.6073437E0,3.0680823E-1,0E0,0E0,0E0,0E0,0E0,0E0,0E0,0E0,0E0,0E0,0E0,0E0,0E0,0E0,0E0,0E0,0E0,0E0,0E0,0E0,0E0,0E0,0E0,0E0,0E0,0E0,0E0,0E0,0E0,0E0,0E0,0E0,0E0,0E0,0E0,0E0,0E0,0E0],"parents":[2147483647,0,0,1,1,2,2,3,3,4,4,5,5,6,6,7,7,8,8,9,9,10,10,11,11,12,12,13,13,14,14,15,15,16,16,17,17,18,18,19,19,20,20,21,21,22,22,23,23,24,24,27,27,29,29,31,31,32,32,35,35,37,37,38,38,39,39,40,40,41,41,43,43,44,44,45,45,46,46,47,47,48,48,49,49,51,51,52,52,53,53,54,54],"right_children":[2,4,6,8,10,12,14,16,18,20,22,24,26,28,30,32,34,36,38,40,42,44,46,48,50,-1,-1,52,-1,54,-1,56,58,-1,-1,60,-1,62,64,66,68,70,-1,72,74,76,78,80,82,84,-1,86,88,90,92,-1,-1,-1,-1,-1,-1,-1,-1,-1,-1,-1,-1,-1,-1,-1,-1,-1,-1,-1,-1,-1,-1,-1,-1,-1,-1,-1,-1,-1,-1,-1,-1,-1,-1,-1,-1,-1,-1],"split_conditions":[1E0,1E0,1E0,1E0,1E0,1E0,1E0,1E0,1E0,1E0,1E0,1E0,1E0,1E0,1E0,1E0,1E0,1E0,1E0,1E0,1E0,1E0,1E0,1E0,1E0,-5.34148E-2,3.2065496E-2,1E0,5.3995766E-2,1E0,-4.5312304E-2,1E0,1E0,1.0401314E-1,1.0846399E-2,1E0,6.523844E-2,1E0,1E0,1E0,1E0,1E0,4.6756194E-4,1E0,1E0,1E0,1E0,1E0,1E0,1E0,1.00871794E-1,1E0,1E0,1E0,1E0,-2.4380738E-2,1.2697235E-2,-5.4678448E-2,-6.9213808E-3,-3.4337472E-2,5.018015E-2,2.6054898E-2,-2.830406E-2,8.417917E-2,1.0646614E-2,-2.1726398E-2,1.6982533E-2,9.737504E-2,-1.4367324E-2,7.497122E-2,3.408185E-3,-1.8589182E-2,9.991637E-2,-1.0308933E-2,1.1333803E-1,5.4755654E-2,-2.5284613E-2,3.2906614E-2,-1.29994545E-2,-2.2489881E-2,1.7962554E-2,-3.4357324E-2,2.8145377E-2,-7.424522E-3,1.6881138E-2,-3.3310693E-2,4.172416E-2,-9.2819845E-3,5.9827473E-2,4.178193E-4,6.6243015E-2,-4.145927E-2,-4.5890426E-3],"split_indices":[481,100,82,146,155,1702,1366,1821,608,1532,145,708,608,1946,2137,1147,469,496,87,2021,149,1423,110,136,359,0,0,1092,0,472,0,145,2203,0,0,241,0,124,1552,1281,140,489,0,661,125,1017,140,1042,1068,54,0,363,461,111,969,0,0,0,0,0,0,0,0,0,0,0,0,0,0,0,0,0,0,0,0,0,0,0,0,0,0,0,0,0,0,0,0,0,0,0,0,0,0],"split_type":[0,0,0,0,0,0,0,0,0,0,0,0,0,0,0,0,0,0,0,0,0,0,0,0,0,0,0,0,0,0,0,0,0,0,0,0,0,0,0,0,0,0,0,0,0,0,0,0,0,0,0,0,0,0,0,0,0,0,0,0,0,0,0,0,0,0,0,0,0,0,0,0,0,0,0,0,0,0,0,0,0,0,0,0,0,0,0,0,0,0,0,0,0],"sum_hessian":[1.3990991E3,1.0438964E3,3.5520273E2,4.0369876E2,6.4019763E2,2.921782E2,6.3024525E1,2.2001318E2,1.836856E2,1.5692793E2,4.832697E2,2.2377385E2,6.840434E1,3.6742653E1,2.6281874E1,2.1326097E2,6.752209E0,1.6266077E2,2.1024832E1,1.4640833E2,1.0519606E1,8.4827515E1,3.984422E2,2.2041983E2,3.3540242E0,6.722761E1,1.1767393E0,3.5326927E1,1.4157249E0,2.3302784E1,2.97909E0,1.955502E2,1.7710775E1,5.7247815E0,1.0274276E0,1.6078E2,1.8807675E0,1.6879856E1,4.144974E0,1.408139E2,5.5944247E0,9.177343E0,1.3422623E0,7.903446E1,5.7930546E0,2.1803554E2,1.8040665E2,5.601374E1,1.6440608E2,2.1479974E0,1.2060268E0,3.2596268E1,2.7306597E0,1.9954945E1,3.3478389E0,4.9319576E1,1.4623062E2,1.6646976E1,1.0637977E0,1.5812352E2,2.6564772E0,8.640687E0,8.23917E0,3.0226204E0,1.1223539E0,1.12165184E2,2.8648716E1,4.1950855E0,1.399339E0,8.011233E0,1.1661099E0,7.669272E1,2.3417442E0,1.0230088E0,4.7700458E0,2.0886664E2,9.168907E0,1.2650304E2,5.3903606E1,3.267831E1,2.333543E1,1.5845691E2,5.9491773E0,1.1210634E0,1.0269339E0,3.1529358E1,1.0669103E0,1.1761751E0,1.5544846E0,4.014794E0,1.594015E1,2.3395097E0,1.0083293E0],"tree_param":{"num_deleted":"0","num_feature":"2215","num_nodes":"93","size_leaf_vector":"1"}},{"base_weights":[-3.17313E-3,4.731455E-1,-1.7087288E-1,6.4657307E-1,-1.8082644E-1,-2.536359E-1,5.4271555E-1,7.3700774E-1,-5.908769E-1,-2.4395913E-1,7.645526E-2,-1.06462024E-1,-5.1809657E-1,6.319865E-1,-6.837196E-1,3.6284098E-1,1.0027624E0,-8.705625E-1,3.4630722E-1,-4.44519E-1,2.0273845E-1,-1.54884E-1,8.46444E-1,-5.514453E-1,1.1241426E0,7.193054E-1,-5.575924E-1,-8.8321835E-1,1.5301968E-2,1.4858048E-1,1.1711555E0,1.1023586E0,-2.5517642E-1,-9.61954E-1,-1.70479E-3,-4.2996934E-1,6.306732E-2,-5.6292653E-1,8.282175E-1,-3.2895786E-1,9.189423E-1,-2.1163766E-1,6.1337996E-1,1.2421557E0,-4.8204314E-2,-5.761867E-1,1.4350154E0,-2.7292046E-1,1.008292E-1,8.1317043E-1,-4.0373054E-1,-8.143695E-1,1.3885478E-2,-4.9532972E-2,-1.1214866E-2,1.9971494E-2,-2.6557868E-2,6.862103E-2,-4.493E-2,6.112435E-2,4.5028604E-3,-2.2219513E-2,3.089487E-2,7.8094574E-3,-5.408385E-2,1.7179415E-2,-4.2766508E-2,-3.7129387E-2,7.920256E-3,7.519169E-2,1.9669859E-3,-4.6897043E-2,1.3283553E-2,6.1903335E-2,-3.8561397E-3,-1.2029849E-2,7.190122E-2,4.326978E-2,-3.608565E-2,-2.763319E-2,7.244811E-2,-3.1690676E-2,1.3583521E-2,-1.6496992E-2,1.3285892E-1,-3.433556E-2,1.6390607E-2,3.4751248E-2,9.9180035E-2,-4.843176E-2,1.8333983E-2,-4.555648E-2,-1.0586468E-2],"categories":[],"categories_nodes":[],"categories_segments":[],"categories_sizes":[],"default_left":[0,0,0,0,0,0,0,0,0,0,0,0,0,0,0,0,0,0,0,0,0,0,0,0,0,0,0,0,0,0,0,0,0,0,0,0,0,0,0,0,0,0,0,0,0,0,0,0,0,0,0,0,0,0,0,0,0,0,0,0,0,0,0,0,0,0,0,0,0,0,0,0,0,0,0,0,0,0,0,0,0,0,0,0,0,0,0,0,0,0,0,0,0],"id":16,"left_children":[1,3,5,7,9,11,13,15,17,19,-1,21,23,25,27,29,31,33,35,37,39,41,43,45,47,49,51,53,-1,55,57,59,61,63,-1,65,-1,67,69,71,73,75,77,79,-1,81,83,85,-1,87,89,91,-1,-1,-1,-1,-1,-1,-1,-1,-1,-1,-1,-1,-1,-1,-1,-1,-1,-1,-1,-1,-1,-1,-1,-1,-1,-1,-1,-1,-1,-1,-1,-1,-1,-1,-1,-1,-1,-1,-1,-1,-1],"loss_changes":[1.1112363E2,4.120256E1,6.0902733E1,3.2501892E1,8.65428E0,3.585568E1,1.2174259E1,2.6232666E1,5.562101E0,6.7952595E0,0E0,2.7540329E1,1.8672012E1,1.0839428E1,1.8020039E0,1.933517E1,1.9804062E1,1.1705751E0,4.327118E0,8.297456E0,9.394971E0,2.4814709E1,2.1888824E1,1.673745E1,9.140073E0,1.0243153E1,1.8209317E0,2.5306463E-1,0E0,1.5590397E1,1.1004936E1,1.747194E1,2.2973099E0,2.0637407E0,0E0,1.4877994E0,0E0,6.356024E0,2.5138881E0,5.478332E0,3.4131489E0,2.5567408E1,1.3814662E1,9.760101E0,0E0,1.58296585E1,1.0085091E1,1.1116065E0,0E0,1.0670227E1,3.8034332E0,1.5353656E-1,0E0,0E0,0E0,0E0,0E0,0E0,0E0,0E0,0E0,0E0,0E0,0E0,0E0,0E0,0E0,0E0,0E0,0E0,0E0,0E0,0E0,0E0,0E0,0E0,0E0,0E0,0E0,0E0,0E0,0E0,0E0,0E0,0E0,0E0,0E0,0E0,0E0,0E0,0E0,0E0,0E0],"parents":[2147483647,0,0,1,1,2,2,3,3,4,4,5,5,6,6,7,7,8,8,9,9,11,11,12,12,13,13,14,14,15,15,16,16,17,17,18,18,19,19,20,20,21,21,22,22,23,23,24,24,25,25,26,26,27,27,29,29,30,30,31,31,32,32,33,33,35,35,37,37,38,38,39,39,40,40,41,41,42,42,43,43,45,45,46,46,47,47,49,49,50,50,51,51],"right_children":[2,4,6,8,10,12,14,16,18,20,-1,22,24,26,28,30,32,34,36,38,40,42,44,46,48,50,52,