{"learner":{"attributes":{"scikit_learn":"{\"_estimator_type\": \"classifier\"}"},"feature_names":[],"feature_types":[],"gradient_booster":{"model":{"cats":{"enc":[],"feature_segments":[],"sorted_idx":[]},"gbtree_model_param":{"num_parallel_tree":"1","num_trees":"500"},"iteration_indptr":[0,1,2,3,4,5,6,7,8,9,10,11,12,13,14,15,16,17,18,19,20,21,22,23,24,25,26,27,28,29,30,31,32,33,34,35,36,37,38,39,40,41,42,43,44,45,46,47,48,49,50,51,52,53,54,55,56,57,58,59,60,61,62,63,64,65,66,67,68,69,70,71,72,73,74,75,76,77,78,79,80,81,82,83,84,85,86,87,88,89,90,91,92,93,94,95,96,97,98,99,100,101,102,103,104,105,106,107,108,109,110,111,112,113,114,115,116,117,118,119,120,121,122,123,124,125,126,127,128,129,130,131,132,133,134,135,136,137,138,139,140,141,142,143,144,145,146,147,148,149,150,151,152,153,154,155,156,157,158,159,160,161,162,163,164,165,166,167,168,169,170,171,172,173,174,175,176,177,178,179,180,181,182,183,184,185,186,187,188,189,190,191,192,193,194,195,196,197,198,199,200,201,202,203,204,205,206,207,208,209,210,211,212,213,214,215,216,217,218,219,220,221,222,223,224,225,226,227,228,229,230,231,232,233,234,235,236,237,238,239,240,241,242,243,244,245,246,247,248,249,250,251,252,253,254,255,256,257,258,259,260,261,262,263,264,265,266,267,268,269,270,271,272,273,274,275,276,277,278,279,280,281,282,283,284,285,286,287,288,289,290,291,292,293,294,295,296,297,298,299,300,301,302,303,304,305,306,307,308,309,310,311,312,313,314,315,316,317,318,319,320,321,322,323,324,325,326,327,328,329,330,331,332,333,334,335,336,337,338,339,340,341,342,343,344,345,346,347,348,349,350,351,352,353,354,355,356,357,358,359,360,361,362,363,364,365,366,367,368,369,370,371,372,373,374,375,376,377,378,379,380,381,382,383,384,385,386,387,388,389,390,391,392,393,394,395,396,397,398,399,400,401,402,403,404,405,406,407,408,409,410,411,412,413,414,415,416,417,418,419,420,421,422,423,424,425,426,427,428,429,430,431,432,433,434,435,436,437,438,439,440,441,442,443,444,445,446,447,448,449,450,451,452,453,454,455,456,457,458,459,460,461,462,463,464,465,466,467,468,469,470,471,472,473,474,475,476,477,478,479,480,481,482,483,484,485,486,487,488,489,490,491,492,493,494,495,496,497,498,499,500],"tree_info":[0,0,0,0,0,0,0,0,0,0,0,0,0,0,0,0,0,0,0,0,0,0,0,0,0,0,0,0,0,0,0,0,0,0,0,0,0,0,0,0,0,0,0,0,0,0,0,0,0,0,0,0,0,0,0,0,0,0,0,0,0,0,0,0,0,0,0,0,0,0,0,0,0,0,0,0,0,0,0,0,0,0,0,0,0,0,0,0,0,0,0,0,0,0,0,0,0,0,0,0,0,0,0,0,0,0,0,0,0,0,0,0,0,0,0,0,0,0,0,0,0,0,0,0,0,0,0,0,0,0,0,0,0,0,0,0,0,0,0,0,0,0,0,0,0,0,0,0,0,0,0,0,0,0,0,0,0,0,0,0,0,0,0,0,0,0,0,0,0,0,0,0,0,0,0,0,0,0,0,0,0,0,0,0,0,0,0,0,0,0,0,0,0,0,0,0,0,0,0,0,0,0,0,0,0,0,0,0,0,0,0,0,0,0,0,0,0,0,0,0,0,0,0,0,0,0,0,0,0,0,0,0,0,0,0,0,0,0,0,0,0,0,0,0,0,0,0,0,0,0,0,0,0,0,0,0,0,0,0,0,0,0,0,0,0,0,0,0,0,0,0,0,0,0,0,0,0,0,0,0,0,0,0,0,0,0,0,0,0,0,0,0,0,0,0,0,0,0,0,0,0,0,0,0,0,0,0,0,0,0,0,0,0,0,0,0,0,0,0,0,0,0,0,0,0,0,0,0,0,0,0,0,0,0,0,0,0,0,0,0,0,0,0,0,0,0,0,0,0,0,0,0,0,0,0,0,0,0,0,0,0,0,0,0,0,0,0,0,0,0,0,0,0,0,0,0,0,0,0,0,0,0,0,0,0,0,0,0,0,0,0,0,0,0,0,0,0,0,0,0,0,0,0,0,0,0,0,0,0,0,0,0,0,0,0,0,0,0,0,0,0,0,0,0,0,0,0,0,0,0,0,0,0,0,0,0,0,0,0,0,0,0,0,0,0,0,0,0,0,0,0,0,0,0,0,0,0,0,0,0,0,0,0,0,0,0,0,0,0,0,0,0,0,0,0,0,0,0,0,0,0,0,0,0,0,0,0,0,0,0,0,0,0,0,0,0,0,0,0,0],"trees":[{"base_weights":[1.077827E-2,-1.1255952E0,4.5049414E-1,-8.90988E-1,-1.3894011E0,6.71535E-1,-6.7006516E-1,-1.0078591E0,4.91381E-2,-1.4124134E0,5.2348103E-2,5.392333E-1,1.7784133E0,-7.6269215E-1,1.6183782E0,-1.0757257E0,9.717369E-3,-9.761446E-1,6.39579E-1,-1.4387801E0,7.945322E-1,3.0785796E-1,1.2938622E0,1.9192175E0,3.8755995E-1,-9.469568E-1,9.750147E-2,-2.1613149E-2,1.0756629E-1,-1.1371137E0,2.0532938E-2,-9.7524077E-1,5.02715E-1,-1.2112712E0,2.1191007E-2,-2.2516137E-1,1.3436174E0,-1.4560684E0,6.6971295E-2,7.243891E-2,-9.202337E-3,2.4053931E-1,1.9220604E0,6.163275E-1,1.5748816E0,2.0450606E0,1.0055052E0,1.2219042E0,-2.3720807E-1,-6.07625E-1,-1.3167323E0,-2.437085E-1,1.1871494E0,-5.875293E-2,3.283721E-2,-5.6387078E-2,4.072864E-2,-6.715653E-2,2.6130804E-3,3.8804192E-2,-5.002296E-2,-7.162128E-2,1.12079745E-2,-3.0532783E-2,4.2667147E-2,7.909181E-2,5.0982493E-3,-7.424053E-2,-5.908751E-3,-3.568884E-3,3.2818962E-2,1.02911524E-1,2.0402608E-2,3.5816517E-2,-4.2579204E-2,8.1828006E-2,-2.3643479E-2,-4.5656953E-3,1.0424657E-1,-3.996771E-2,7.3701985E-2,2.059597E-2,8.6575106E-2,2.4264516E-2,-6.285106E-2,-3.391685E-2,8.6575106E-2,-1.4442967E-2,-7.379667E-2,-2.6700158E-2,7.1481355E-2,2.0125652E-2,8.0863595E-2],"categories":[],"categories_nodes":[],"categories_segments":[],"categories_sizes":[],"default_left":[0,0,0,0,0,0,0,0,0,0,0,0,0,0,0,0,0,0,0,0,0,0,0,0,0,0,0,0,0,0,0,0,0,0,0,0,0,0,0,0,0,0,0,0,0,0,0,0,0,0,0,0,0,0,0,0,0,0,0,0,0,0,0,0,0,0,0,0,0,0,0,0,0,0,0,0,0,0,0,0,0,0,0,0,0,0,0,0,0,0,0,0,0],"id":0,"left_children":[1,3,5,7,9,11,13,15,17,19,-1,21,23,25,27,29,31,33,35,37,39,41,43,45,47,49,51,-1,-1,53,55,57,59,61,-1,63,65,67,-1,-1,-1,69,71,73,75,77,79,81,83,85,87,89,91,-1,-1,-1,-1,-1,-1,-1,-1,-1,-1,-1,-1,-1,-1,-1,-1,-1,-1,-1,-1,-1,-1,-1,-1,-1,-1,-1,-1,-1,-1,-1,-1,-1,-1,-1,-1,-1,-1,-1,-1],"loss_changes":[1.0641981E3,3.553662E1,3.8078998E2,3.4910797E1,1.7059692E1,1.8693408E2,5.4968483E1,1.9502502E1,2.2439053E1,1.7187622E1,0E0,1.999588E2,2.5997955E1,3.8817078E1,1.2057362E1,1.7830963E1,9.540804E0,4.9783487E0,1.4591921E1,1.505426E1,2.7632148E0,9.51141E1,5.0239594E1,1.2172455E1,7.486551E0,2.4459091E1,1.6651815E1,0E0,0E0,1.7829285E1,1.4608187E1,2.5489206E0,6.1517735E0,4.0902176E0,0E0,5.256499E0,3.7079277E0,1.0269348E1,0E0,0E0,0E0,1.09711296E2,6.3900146E0,1.2426182E1,2.4703949E1,9.372437E0,1.5509457E1,1.7939453E0,7.043843E0,1.884488E1,1.5197037E1,1.7446413E1,2.9483376E0,0E0,0E0,0E0,0E0,0E0,0E0,0E0,0E0,0E0,0E0,0E0,0E0,0E0,0E0,0E0,0E0,0E0,0E0,0E0,0E0,0E0,0E0,0E0,0E0,0E0,0E0,0E0,0E0,0E0,0E0,0E0,0E0,0E0,0E0,0E0,0E0,0E0,0E0,0E0,0E0],"parents":[2147483647,0,0,1,1,2,2,3,3,4,4,5,5,6,6,7,7,8,8,9,9,11,11,12,12,13,13,14,14,15,15,16,16,17,17,18,18,19,19,20,20,21,21,22,22,23,23,24,24,25,25,26,26,29,29,30,30,31,31,32,32,33,33,35,35,36,36,37,37,41,41,42,42,43,43,44,44,45,45,46,46,47,47,48,48,49,49,50,50,51,51,52,52],"right_children":[2,4,6,8,10,12,14,16,18,20,-1,22,24,26,28,30,32,34,36,38,40,42,44,46,48,50,52,-1,-1,54,56,58,60,62,-1,64,66,68,-1,-1,-1,70,72,74,76,78,80,82,84,86,88,90,92,-1,-1,-1,-1,-1,-1,-1,-1,-1,-1,-1,-1,-1,-1,-1,-1,-1,-1,-1,-1,-1,-1,-1,-1,-1,-1,-1,-1,-1,-1,-1,-1,-1,-1,-1,-1,-1,-1,-1,-1],"split_conditions":[1E0,1E0,1E0,1E0,1E0,1E0,1E0,1E0,1E0,1E0,5.2348103E-2,1E0,1E0,1E0,1E0,1E0,1E0,1E0,1E0,1E0,1E0,1E0,1E0,1E0,1E0,1E0,1E0,-2.1613149E-2,1.0756629E-1,1E0,1E0,1E0,1E0,1E0,2.1191007E-2,1E0,1E0,1E0,6.6971295E-2,7.243891E-2,-9.202337E-3,1E0,1E0,1E0,1E0,1E0,1E0,1E0,1E0,1E0,1E0,1E0,1E0,-5.875293E-2,3.283721E-2,-5.6387078E-2,4.072864E-2,-6.715653E-2,2.6130804E-3,3.8804192E-2,-5.002296E-2,-7.162128E-2,1.12079745E-2,-3.0532783E-2,4.2667147E-2,7.909181E-2,5.0982493E-3,-7.424053E-2,-5.908751E-3,-3.568884E-3,3.2818962E-2,1.02911524E-1,2.0402608E-2,3.5816517E-2,-4.2579204E-2,8.1828006E-2,-2.3643479E-2,-4.5656953E-3,1.0424657E-1,-3.996771E-2,7.3701985E-2,2.059597E-2,8.6575106E-2,2.4264516E-2,-6.285106E-2,-3.391685E-2,8.6575106E-2,-1.4442967E-2,-7.379667E-2,-2.6700158E-2,7.1481355E-2,2.0125652E-2,8.0863595E-2],"split_indices":[125,139,139,76,1681,1770,1678,1057,1917,1399,0,1703,1109,78,86,1459,2040,169,93,1788,155,881,155,52,80,123,1703,0,0,1584,117,554,42,87,0,116,47,1885,0,0,0,88,364,249,951,142,145,155,8,1690,556,1685,1042,0,0,0,0,0,0,0,0,0,0,0,0,0,0,0,0,0,0,0,0,0,0,0,0,0,0,0,0,0,0,0,0,0,0,0,0,0,0,0,0],"split_type":[0,0,0,0,0,0,0,0,0,0,0,0,0,0,0,0,0,0,0,0,0,0,0,0,0,0,0,0,0,0,0,0,0,0,0,0,0,0,0,0,0,0,0,0,0,0,0,0,0,0,0,0,0,0,0,0,0,0,0,0,0,0,0,0,0,0,0,0,0,0,0,0,0,0,0,0,0,0,0,0,0,0,0,0,0,0,0,0,0,0,0,0,0],"sum_hessian":[2.1277383E3,5.9318616E2,1.5345521E3,3.1628543E2,2.7690076E2,1.2820553E3,2.5249677E2,2.8125E2,3.5035435E1,2.7472614E2,2.1746132E0,1.1465044E3,1.3555089E2,2.4331506E2,9.181701E0,2.6361145E2,1.763853E1,1.2564432E1,2.2471004E1,2.7182666E2,2.8994844E0,8.7854376E2,2.679607E2,1.2274484E2,1.2806056E1,2.0030605E2,4.3009018E1,1.9329896E0,7.248711E0,2.4959727E2,1.4014174E1,5.557345E0,1.2081185E1,1.0873067E1,1.691366E0,1.0389819E1,1.2081185E1,2.7061853E2,1.2081184E0,1.4497422E0,1.4497422E0,8.4447485E2,3.4068943E1,7.9494194E1,1.8846649E2,1.06797676E2,1.5947165E1,5.0740976E0,7.7319584E0,1.0583118E2,9.447487E1,3.334407E1,9.6649475E0,2.447648E2,4.8324738E0,5.557345E0,8.456829E0,3.8659792E0,1.691366E0,1.0631443E1,1.4497422E0,9.423325E0,1.4497422E0,7.9735823E0,2.4162369E0,9.906571E0,2.1746132E0,2.6481958E2,5.798969E0,4.8300577E2,3.6146906E2,3.0927834E1,3.141108E0,7.490334E1,4.5908504E0,1.8315076E2,5.3157215E0,1.9329896E0,1.04864685E2,3.141108E0,1.2806056E1,2.6578608E0,2.4162369E0,4.8324738E0,2.8994844E0,1.0341494E2,2.4162369E0,1.304768E1,8.1427185E1,2.8994844E1,4.3492265E0,4.107603E0,5.557345E0],"tree_param":{"num_deleted":"0","num_feature":"2215","num_nodes":"93","size_leaf_vector":"1"}},{"base_weights":[-2.3109352E-3,3.3804134E-1,-1.0360854E0,-1.0259289E0,5.176613E-1,-1.1201779E0,8.1391156E-1,-1.1224183E0,3.5684216E-1,-3.21038E-1,6.8623227E-1,-1.169564E0,2.523732E-1,-2.6216784E-1,1.9837121E0,-1.1797811E0,5.447116E-1,-1.4458941E-1,1.1612166E0,-7.0320314E-1,9.555058E-2,5.595521E-1,1.6794732E0,-1.4242334E0,-9.5396733E-1,-3.4200767E-1,1.5212963E0,-8.1906253E-1,6.3698314E-2,2.2602804E-2,1.0592063E-1,-1.262212E0,2.1612164E-1,-3.6780843E-1,8.09187E-2,-7.6928914E-1,9.704259E-1,8.505033E-2,2.1675304E-3,-1.0596081E0,-2.7232254E-1,-9.203698E-2,1.2240628E0,2.9748073E-1,1.1300306E0,1.8052199E0,4.780708E-1,-1.4608693E0,6.303745E-1,-9.8570186E-1,1.1874917E0,-8.143236E-1,5.337214E-1,8.504919E-2,2.1691753E-2,1.2565592E-2,-1.0203147E0,-6.5010235E-2,5.2067168E-2,-3.0296091E-2,5.9232116E-2,-4.9676757E-2,1.41551E-2,-5.6938797E-2,2.1375801E-2,7.32627E-2,-8.613636E-4,-5.6063868E-2,6.3518584E-2,-2.5088578E-2,3.4339007E-2,-1.909708E-2,2.4375025E-2,2.1891406E-2,8.0534786E-2,-1.5894609E-3,3.1086145E-2,6.2009383E-2,-6.0983635E-3,9.160403E-2,-2.3640592E-2,-3.3707148E-4,7.335934E-2,-7.4641876E-2,-9.208511E-3,-2.9163677E-2,6.835132E-2,-5.5248357E-2,-1.857109E-2,1.2154742E-2,7.8325965E-2,-6.0449213E-2,-1.9592647E-3,-2.2260359E-2,4.6305027E-2,-5.905136E-2,3.6424733E-4],"categories":[],"categories_nodes":[],"categories_segments":[],"categories_sizes":[],"default_left":[0,0,0,0,0,0,0,0,0,0,0,0,0,0,0,0,0,0,0,0,0,0,0,0,0,0,0,0,0,0,0,0,0,0,0,0,0,0,0,0,0,0,0,0,0,0,0,0,0,0,0,0,0,0,0,0,0,0,0,0,0,0,0,0,0,0,0,0,0,0,0,0,0,0,0,0,0,0,0,0,0,0,0,0,0,0,0,0,0,0,0,0,0,0,0,0,0],"id":1,"left_children":[1,3,5,7,9,11,13,15,17,19,21,23,25,27,29,31,33,35,37,39,41,43,45,47,49,51,53,55,-1,-1,-1,57,59,61,-1,63,65,-1,-1,67,69,71,73,75,77,79,81,83,85,87,89,91,93,-1,-1,-1,95,-1,-1,-1,-1,-1,-1,-1,-1,-1,-1,-1,-1,-1,-1,-1,-1,-1,-1,-1,-1,-1,-1,-1,-1,-1,-1,-1,-1,-1,-1,-1,-1,-1,-1,-1,-1,-1,-1,-1,-1],"loss_changes":[7.565582E2,3.9685278E2,8.376642E1,2.5560715E1,2.0240674E2,3.485547E1,3.0398275E1,1.752301E1,5.435167E0,3.827857E1,1.4892609E2,2.5672485E1,1.4496393E1,1.2375173E1,1.4127617E0,1.9944473E1,7.0180964E0,6.969302E0,3.0190325E0,1.8953178E1,2.4608906E1,1.5781842E2,1.9415344E1,1.775772E1,1.9494797E1,5.991954E0,4.5296478E-1,2.4817615E0,0E0,0E0,0E0,1.5494537E1,8.987125E0,2.0564902E0,0E0,3.2654672E0,1.8091233E0,0E0,0E0,1.122821E1,1.3123431E1,1.7012756E1,4.3297157E0,7.755267E1,4.6026794E1,8.279388E0,6.760974E0,8.7065735E0,4.9252195E0,1.9095673E1,1.190978E0,2.7438745E0,2.4525506E0,0E0,0E0,0E0,1.477293E0,0E0,0E0,0E0,0E0,0E0,0E0,0E0,0E0,0E0,0E0,0E0,0E0,0E0,0E0,0E0,0E0,0E0,0E0,0E0,0E0,0E0,0E0,0E0,0E0,0E0,0E0,0E0,0E0,0E0,0E0,0E0,0E0,0E0,0E0,0E0,0E0,0E0,0E0,0E0,0E0],"parents":[2147483647,0,0,1,1,2,2,3,3,4,4,5,5,6,6,7,7,8,8,9,9,10,10,11,11,12,12,13,13,14,14,15,15,16,16,17,17,18,18,19,19,20,20,21,21,22,22,23,23,24,24,25,25,26,26,27,27,31,31,32,32,33,33,35,35,36,36,39,39,40,40,41,41,42,42,43,43,44,44,45,45,46,46,47,47,48,48,49,49,50,50,51,51,52,52,56,56],"right_children":[2,4,6,8,10,12,14,16,18,20,22,24,26,28,30,32,34,36,38,40,42,44,46,48,50,52,54,56,-1,-1,-1,58,60,62,-1,64,66,-1,-1,68,70,72,74,76,78,80,82,84,86,88,90,92,94,-1,-1,-1,96,-1,-1,-1,-1,-1,-1,-1,-1,-1,-1,-1,-1,-1,-1,-1,-1,-1,-1,-1,-1,-1,-1,-1,-1,-1,-1,-1,-1,-1,-1,-1,-1,-1,-1,-1,-1,-1,-1,-1,-1],"split_conditions":[1E0,1E0,1E0,1E0,1E0,1E0,1E0,1E0,1E0,1E0,1E0,1E0,1E0,1E0,1E0,1E0,1E0,1E0,1E0,1E0,1E0,1E0,1E0,1E0,1E0,1E0,1E0,1E0,6.3698314E-2,2.2602804E-2,1.0592063E-1,1E0,1E0,1E0,8.09187E-2,1E0,1E0,8.505033E-2,2.1675304E-3,1E0,1E0,1E0,1E0,1E0,1E0,1E0,1E0,1E0,1E0,1E0,1E0,1E0,1E0,8.504919E-2,2.1691753E-2,1.2565592E-2,1E0,-6.5010235E-2,5.2067168E-2,-3.0296091E-2,5.9232116E-2,-4.9676757E-2,1.41551E-2,-5.6938797E-2,2.1375801E-2,7.32627E-2,-8.613636E-4,-5.6063868E-2,6.3518584E-2,-2.5088578E-2,3.4339007E-2,-1.909708E-2,2.4375025E-2,2.1891406E-2,8.0534786E-2,-1.5894609E-3,3.1086145E-2,6.2009383E-2,-6.0983635E-3,9.160403E-2,-2.3640592E-2,-3.3707148E-4,7.335934E-2,-7.4641876E-2,-9.208511E-3,-2.9163677E-2,6.835132E-2,-5.5248357E-2,-1.857109E-2,1.2154742E-2,7.8325965E-2,-6.0449213E-2,-1.9592647E-3,-2.2260359E-2,4.6305027E-2,-5.905136E-2,3.6424733E-4],"split_indices":[139,1917,2072,217,145,841,1921,1770,1042,144,1770,145,861,948,110,477,150,208,918,81,181,1008,1109,1885,1460,149,140,120,0,0,0,905,47,155,0,1447,387,0,0,661,168,138,133,83,1329,1389,804,1031,127,87,987,75,1917,0,0,0,106,0,0,0,0,0,0,0,0,0,0,0,0,0,0,0,0,0,0,0,0,0,0,0,0,0,0,0,0,0,0,0,0,0,0,0,0,0,0,0,0],"split_type":[0,0,0,0,0,0,0,0,0,0,0,0,0,0,0,0,0,0,0,0,0,0,0,0,0,0,0,0,0,0,0,0,0,0,0,0,0,0,0,0,0,0,0,0,0,0,0,0,0,0,0,0,0,0,0,0,0,0,0,0,0,0,0,0,0,0,0,0,0,0,0,0,0,0,0,0,0,0,0,0,0,0,0,0,0,0,0,0,0,0,0,0,0,0,0,0,0],"sum_hessian":[2.1482495E3,1.616664E3,5.315855E2,1.875749E2,1.429089E3,5.0885E2,2.2735504E1,1.7551575E2,1.2059164E1,2.3901274E2,1.1900763E3,4.9131955E2,1.7530445E1,1.22462635E1,1.0489241E1,1.6996008E2,5.5556726E0,7.9336967E0,4.125468E0,1.2429785E2,1.1471489E2,1.056847E3,1.3322926E2,2.226787E2,2.6864087E2,1.2435814E1,5.0946307E0,9.330485E0,2.9157784E0,1.2000208E0,9.28922E0,1.6057364E2,9.386432E0,3.3585892E0,2.1970832E0,5.2835774E0,2.650119E0,2.4302871E0,1.6951805E0,6.7229485E1,5.7068367E1,9.915178E1,1.5563114E1,7.252136E2,3.316334E2,1.2015089E2,1.3078378E1,2.1906157E2,3.6171162E0,2.652498E2,3.3910594E0,8.124216E0,4.311598E0,3.888013E0,1.2066176E0,1.4373097E0,7.8931756E0,1.5839677E2,2.1768768E0,5.27965E0,4.106782E0,1.4440407E0,1.9145484E0,4.074235E0,1.2093424E0,1.4433893E0,1.2067297E0,6.600134E1,1.2281444E0,4.6436142E1,1.0632226E1,6.631812E1,3.2833656E1,5.833287E0,9.729827E0,3.602646E2,3.64949E2,3.04823E2,2.6810408E1,1.1894415E2,1.2067333E0,9.443069E0,3.6353078E0,2.1354518E2,5.5163956E0,1.444872E0,2.172244E0,2.2145457E2,4.379523E1,1.441282E0,1.9497772E0,5.0124383E0,3.1117778E0,1.1951753E0,3.1164224E0,6.6965547E0,1.1966211E0],"tree_param":{"num_deleted":"0","num_feature":"2215","num_nodes":"97","size_leaf_vector":"1"}},{"base_weights":[-3.0338992E-3,-1.0772105E0,4.077528E-1,-1.201045E0,-6.205582E-1,6.104866E-1,-6.475273E-1,-1.0160558E0,-1.4218218E0,-8.3673775E-1,6.463086E-1,4.9153236E-1,1.6030997E0,-7.6822674E-1,8.1680113E-1,-1.0397149E0,7.742577E-1,-1.4469589E0,9.424522E-2,-1.1907647E0,-3.9283997E-1,2.3389602E-1,8.6794205E-2,2.915725E-1,1.1345212E0,1.7189186E0,3.1784332E-1,-4.6576747E-1,-1.1390579E0,-2.023427E-4,9.724758E-2,-1.0914638E0,-1.1235479E-1,2.572754E-3,6.506338E-2,-1.4650089E0,2.3943393E-2,-3.8913246E-2,6.3843705E-2,-1.2492536E0,4.7145873E-2,-8.5203964E-1,2.5399706E-1,-7.646373E-2,1.2266356E0,2.142569E-1,1.4508024E0,5.342464E-1,1.3863039E0,1.7671075E0,8.9004174E-2,-1.8014528E-1,7.301652E-2,-5.4300946E-1,1.1757187E0,-1.2309908E0,1.1027867E0,-7.273392E-1,1.2376965E0,-5.5462904E-2,6.570434E-2,-2.7366525E-2,2.9190833E-2,-7.3936075E-2,6.8878876E-3,-6.5459035E-2,4.506899E-2,-5.0073873E-2,3.5001557E-2,3.051424E-2,-4.8105624E-2,-1.7569205E-2,6.82657E-2,2.1406835E-2,7.227421E-2,-4.3563318E-2,1.4372249E-2,2.21552E-2,9.26186E-2,3.1378374E-2,-4.310999E-2,7.2443366E-2,-2.330454E-2,-7.3859426E-3,8.996891E-2,-3.0078236E-2,4.7341704E-2,-3.1933066E-2,4.250125E-2,-3.261861E-2,2.5134126E-2,8.3655834E-2,1.4443866E-2,-6.5056615E-2,6.4078644E-2,-2.099834E-2,8.7742515E-2,-4.848054E-2,1.3169877E-2,1.8205276E-2,7.146708E-2],"categories":[],"categories_nodes":[],"categories_segments":[],"categories_sizes":[],"default_left":[0,0,0,0,0,0,0,0,0,0,0,0,0,0,0,0,0,0,0,0,0,0,0,0,0,0,0,0,0,0,0,0,0,0,0,0,0,0,0,0,0,0,0,0,0,0,0,0,0,0,0,0,0,0,0,0,0,0,0,0,0,0,0,0,0,0,0,0,0,0,0,0,0,0,0,0,0,0,0,0,0,0,0,0,0,0,0,0,0,0,0,0,0,0,0,0,0,0,0,0,0],"id":2,"left_children":[1,3,5,7,9,11,13,15,17,19,21,23,25,27,29,31,33,35,37,39,41,43,-1,45,47,49,51,53,55,57,-1,59,61,-1,-1,63,-1,-1,-1,65,-1,67,69,71,73,75,77,79,81,83,85,87,-1,89,91,93,95,97,99,-1,-1,-1,-1,-1,-1,-1,-1,-1,-1,-1,-1,-1,-1,-1,-1,-1,-1,-1,-1,-1,-1,-1,-1,-1,-1,-1,-1,-1,-1,-1,-1,-1,-1,-1,-1,-1,-1,-1,-1,-1,-1],"loss_changes":[9.417339E2,3.2640625E1,3.306824E2,1.747998E1,3.5600426E1,1.5218423E2,4.4685844E1,1.1632538E1,8.091644E0,1.6786026E1,8.232664E0,1.4859982E2,2.0025757E1,2.5357574E1,1.7943327E1,1.2005188E1,1.4213872E0,7.8415833E0,5.4756255E0,8.738869E0,1.5128605E1,4.746724E0,0E0,7.900099E1,4.073645E1,9.782379E0,7.4608517E0,1.6971308E1,2.258461E1,1.1963136E1,0E0,1.1698517E1,4.701793E0,0E0,0E0,4.6816406E0,0E0,0E0,0E0,8.835533E0,0E0,7.564253E0,9.952251E0,5.413118E0,1.9927979E-2,6.6251945E1,2.1498856E1,1.1321123E1,2.300882E1,7.857788E0,3.3461568E0,5.125078E0,0E0,1.4475563E1,2.209731E0,1.9186966E1,5.2892356E0,2.2649956E0,3.0294895E-1,0E0,0E0,0E0,0E0,0E0,0E0,0E0,0E0,0E0,0E0,0E0,0E0,0E0,0E0,0E0,0E0,0E0,0E0,0E0,0E0,0E0,0E0,0E0,0E0,0E0,0E0,0E0,0E0,0E0,0E0,0E0,0E0,0E0,0E0,0E0,0E0,0E0,0E0,0E0,0E0,0E0,0E0],"parents":[2147483647,0,0,1,1,2,2,3,3,4,4,5,5,6,6,7,7,8,8,9,9,10,10,11,11,12,12,13,13,14,14,15,15,16,16,17,17,18,18,19,19,20,20,21,21,23,23,24,24,25,25,26,26,27,27,28,28,29,29,31,31,32,32,35,35,39,39,41,41,42,42,43,43,44,44,45,45,46,46,47,47,48,48,49,49,50,50,51,51,53,53,54,54,55,55,56,56,57,57,58,58],"right_children":[2,4,6,8,10,12,14,16,18,20,22,24,26,28,30,32,34,36,38,40,42,44,-1,46,48,50,52,54,56,58,-1,60,62,-1,-1,64,-1,-1,-1,66,-1,68,70,72,74,76,78,80,82,84,86,88,-1,90,92,94,96,98,100,-1,-1,-1,-1,-1,-1,-1,-1,-1,-1,-1,-1,-1,-1,-1,-1,-1,-1,-1,-1,-1,-1,-1,-1,-1,-1,-1,-1,-1,-1,-1,-1,-1,-1,-1,-1,-1,-1,-1,-1,-1,-1],"split_conditions":[1E0,1E0,1E0,1E0,1E0,1E0,1E0,1E0,1E0,1E0,1E0,1E0,1E0,1E0,1E0,1E0,1E0,1E0,1E0,1E0,1E0,1E0,8.6794205E-2,1E0,1E0,1E0,1E0,1E0,1E0,1E0,9.724758E-2,1E0,1E0,2.572754E-3,6.506338E-2,1E0,2.3943393E-2,-3.8913246E-2,6.3843705E-2,1E0,4.7145873E-2,1E0,1E0,1E0,1E0,1E0,1E0,1E0,1E0,1E0,1E0,1E0,7.301652E-2,1E0,1E0,1E0,1E0,1E0,1E0,-5.5462904E-2,6.570434E-2,-2.7366525E-2,2.9190833E-2,-7.3936075E-2,6.8878876E-3,-6.5459035E-2,4.506899E-2,-5.0073873E-2,3.5001557E-2,3.051424E-2,-4.8105624E-2,-1.7569205E-2,6.82657E-2,2.1406835E-2,7.227421E-2,-4.3563318E-2,1.4372249E-2,2.21552E-2,9.26186E-2,3.1378374E-2,-4.310999E-2,7.2443366E-2,-2.330454E-2,-7.3859426E-3,8.996891E-2,-3.0078236E-2,4.7341704E-2,-3.1933066E-2,4.250125E-2,-3.261861E-2,2.5134126E-2,8.3655834E-2,1.4443866E-2,-6.5056615E-2,6.4078644E-2,-2.099834E-2,8.7742515E-2,-4.848054E-2,1.3169877E-2,1.8205276E-2,7.146708E-2],"split_indices":[125,99,139,139,1042,1770,2072,1325,387,1917,45,1703,1109,123,948,554,1868,1946,608,1320,141,74,0,2072,155,1832,829,41,1553,1921,0,963,132,0,0,1961,0,0,0,1722,0,208,86,477,140,1917,123,249,951,142,112,1042,0,1031,79,1927,138,166,28,0,0,0,0,0,0,0,0,0,0,0,0,0,0,0,0,0,0,0,0,0,0,0,0,0,0,0,0,0,0,0,0,0,0,0,0,0,0,0,0,0,0],"split_type":[0,0,0,0,0,0,0,0,0,0,0,0,0,0,0,0,0,0,0,0,0,0,0,0,0,0,0,0,0,0,0,0,0,0,0,0,0,0,0,0,0,0,0,0,0,0,0,0,0,0,0,0,0,0,0,0,0,0,0,0,0,0,0,0,0,0,0,0,0,0,0,0,0,0,0,0,0,0,0,0,0,0,0,0,0,0,0,0,0,0,0,0,0,0,0,0,0,0,0,0,0],"sum_hessian":[2.1322095E3,5.893862E2,1.5428234E3,4.6237088E2,1.2701531E2,1.2945449E3,2.482784E2,2.5462366E2,2.0774724E2,1.0879067E2,1.8224634E1,1.1573445E3,1.3720045E2,2.2981125E2,1.8467157E1,2.5171646E2,2.9071941E0,2.0440372E2,3.3435135E0,5.9585903E1,4.920477E1,1.4101701E1,4.1229334E0,8.8391406E2,2.7343042E2,1.2554936E2,1.1651089E1,1.2781671E2,1.0199453E2,1.1290459E1,7.176699E0,2.3824487E2,1.3471588E1,1.688721E0,1.2184732E0,2.0274278E2,1.6609403E0,2.120781E0,1.2227327E0,5.839955E1,1.1863532E0,2.859061E1,2.0614159E1,1.1446244E1,2.6554573E0,8.297576E2,5.4156418E1,8.172107E1,1.9170935E2,1.218623E2,3.6870668E0,8.700866E0,2.950222E0,1.2271158E2,5.105135E0,9.840987E1,3.5846603E0,7.372388E0,3.9180708E0,2.3703041E2,1.2144736E0,8.422755E0,5.0488324E0,2.0109964E2,1.6431364E0,5.719703E1,1.2025241E0,2.6403185E1,2.1874256E0,1.6328506E1,4.285652E0,1.0248356E1,1.197888E0,1.2071868E0,1.4482704E0,5.1721504E1,7.7803613E2,1.6031187E1,3.812523E1,7.711806E1,4.6030164E0,1.8565675E2,6.0525985E0,1.9604225E0,1.1990188E2,2.2081788E0,1.478888E0,6.283985E0,2.416881E0,1.1143353E2,1.1278044E1,2.7026896E0,2.4024453E0,9.62063E1,2.2035708E0,1.1814892E0,2.403171E0,5.940934E0,1.4314537E0,1.2266103E0,2.6914606E0],"tree_param":{"num_deleted":"0","num_feature":"2215","num_nodes":"101","size_leaf_vector":"1"}},{"base_weights":[3.4293344E-3,-1.0285667E0,3.8650632E-1,-1.1599611E0,-5.4406655E-1,5.771186E-1,-6.1253685E-1,-9.699917E-1,-1.3869889E0,-1.1699919E0,-8.175371E-2,4.6470118E-1,1.5088711E0,-7.465419E-1,1.0673487E0,-1.0258659E0,1.6239426E-1,-1.4055657E0,4.9526285E-2,-1.237067E0,4.8048165E-2,2.9669422E-1,-9.5145667E-1,3.9165044E-1,1.9056633E0,1.6334245E0,2.072647E-1,-8.665381E-1,9.014083E-2,1.479759E-1,9.1509715E-2,-1.060269E0,5.4284245E-1,7.168378E-1,-6.32305E-1,-1.4354662E0,1.2081576E-1,-1.3053479E0,4.443263E-2,-1.9307372E-1,8.103789E-1,-1.1280558E0,2.4857325E-2,2.2393948E-1,9.35899E-1,1.7522866E-1,1.981952E0,1.7309916E0,9.133634E-1,-1.5581986E-1,6.421294E-2,-9.064076E-1,1.2324069E0,-2.0427571E-1,1.1750311E0,-5.108229E-1,6.626759E-2,-5.4203708E-2,3.7685975E-2,-9.696991E-3,6.6864245E-2,6.75336E-2,-1.0914896E-2,2.3278784E-2,-5.130285E-2,-7.246221E-2,2.2883233E-2,-4.072878E-2,6.64494E-2,-6.782808E-2,6.7897327E-3,-2.1082217E-2,6.371539E-2,4.9987573E-2,-5.140086E-2,-7.240597E-2,-3.0783018E-2,-3.209233E-3,3.0995646E-2,2.1364287E-2,5.8369357E-2,-4.7561172E-2,6.0644414E-2,1.0122847E-1,5.010078E-2,-7.146496E-3,8.829447E-2,-3.7357118E-2,6.492995E-2,4.0110108E-2,-3.7470303E-2,-2.89356E-2,-5.7502378E-2,1.9881478E-2,7.188755E-2,-1.9057808E-2,5.5741567E-2,8.687794E-3,9.0231195E-2,2.3514105E-2,-3.9944496E-2],"categories":[],"categories_nodes":[],"categories_segments":[],"categories_sizes":[],"default_left":[0,0,0,0,0,0,0,0,0,0,0,0,0,0,0,0,0,0,0,0,0,0,0,0,0,0,0,0,0,0,0,0,0,0,0,0,0,0,0,0,0,0,0,0,0,0,0,0,0,0,0,0,0,0,0,0,0,0,0,0,0,0,0,0,0,0,0,0,0,0,0,0,0,0,0,0,0,0,0,0,0,0,0,0,0,0,0,0,0,0,0,0,0,0,0,0,0,0,0,0,0],"id":3,"left_children":[1,3,5,7,9,11,13,15,17,19,21,23,25,27,29,31,33,35,-1,37,-1,39,41,43,45,47,49,51,53,55,-1,57,59,61,63,65,67,69,-1,71,73,75,-1,77,79,81,83,85,87,89,-1,91,93,95,97,99,-1,-1,-1,-1,-1,-1,-1,-1,-1,-1,-1,-1,-1,-1,-1,-1,-1,-1,-1,-1,-1,-1,-1,-1,-1,-1,-1,-1,-1,-1,-1,-1,-1,-1,-1,-1,-1,-1,-1,-1,-1,-1,-1,-1,-1],"loss_changes":[8.4123096E2,3.604059E1,2.9587128E2,1.816034E1,3.6011524E1,1.3585693E2,5.6879074E1,1.5956421E1,1.0389587E1,8.754784E0,2.4257826E1,1.2186449E2,2.2344513E1,2.3301605E1,1.2925945E1,1.34179535E1,6.0041504E0,9.417572E0,0E0,8.672104E0,0E0,1.3117987E1,6.2718773E0,1.01094315E2,7.037842E0,7.3799133E0,5.4263E0,1.8054138E1,9.796548E0,8.139434E0,0E0,1.0886841E1,3.6355824E0,4.9710693E0,2.945498E0,5.8469543E0,6.522772E0,3.9151077E0,0E0,9.653872E0,9.848991E0,2.4219627E0,0E0,9.6985275E1,3.0245667E1,5.19705E0,2.0491028E-1,7.5252686E0,1.2060887E1,6.7922626E0,0E0,1.5238266E1,1.476736E-1,6.1145043E0,3.805728E0,2.3231995E0,0E0,0E0,0E0,0E0,0E0,0E0,0E0,0E0,0E0,0E0,0E0,0E0,0E0,0E0,0E0,0E0,0E0,0E0,0E0,0E0,0E0,0E0,0E0,0E0,0E0,0E0,0E0,0E0,0E0,0E0,0E0,0E0,0E0,0E0,0E0,0E0,0E0,0E0,0E0,0E0,0E0,0E0,0E0,0E0,0E0],"parents":[2147483647,0,0,1,1,2,2,3,3,4,4,5,5,6,6,7,7,8,8,9,9,10,10,11,11,12,12,13,13,14,14,15,15,16,16,17,17,19,19,21,21,22,22,23,23,24,24,25,25,26,26,27,27,28,28,29,29,31,31,32,32,33,33,34,34,35,35,36,36,37,37,39,39,40,40,41,41,43,43,44,44,45,45,46,46,47,47,48,48,49,49,51,51,52,52,53,53,54,54,55,55],"right_children":[2,4,6,8,10,12,14,16,18,20,22,24,26,28,30,32,34,36,-1,38,-1,40,42,44,46,48,50,52,54,56,-1,58,60,62,64,66,68,70,-1,72,74,76,-1,78,80,82,84,86,88,90,-1,92,94,96,98,100,-1,-1,-1,-1,-1,-1,-1,-1,-1,-1,-1,-1,-1,-1,-1,-1,-1,-1,-1,-1,-1,-1,-1,-1,-1,-1,-1,-1,-1,-1,-1,-1,-1,-1,-1,-1,-1,-1,-1,-1,-1,-1,-1,-1,-1],"split_conditions":[1E0,1E0,1E0,1E0,1E0,1E0,1E0,1E0,1E0,1E0,1E0,1E0,1E0,1E0,1E0,1E0,1E0,1E0,4.9526285E-2,1E0,4.8048165E-2,1E0,1E0,1E0,1E0,1E0,1E0,1E0,1E0,1E0,9.1509715E-2,1E0,1E0,1E0,1E0,1E0,1E0,1E0,4.443263E-2,1E0,1E0,1E0,2.4857325E-2,1E0,1E0,1E0,1E0,1E0,1E0,1E0,6.421294E-2,1E0,1E0,1E0,1E0,1E0,6.626759E-2,-5.4203708E-2,3.7685975E-2,-9.696991E-3,6.6864245E-2,6.75336E-2,-1.0914896E-2,2.3278784E-2,-5.130285E-2,-7.246221E-2,2.2883233E-2,-4.072878E-2,6.64494E-2,-6.782808E-2,6.7897327E-3,-2.1082217E-2,6.371539E-2,4.9987573E-2,-5.140086E-2,-7.240597E-2,-3.0783018E-2,-3.209233E-3,3.0995646E-2,2.1364287E-2,5.8369357E-2,-4.7561172E-2,6.0644414E-2,1.0122847E-1,5.010078E-2,-7.146496E-3,8.829447E-2,-3.7357118E-2,6.492995E-2,4.0110108E-2,-3.7470303E-2,-2.89356E-2,-5.7502378E-2,1.9881478E-2,7.188755E-2,-1.9057808E-2,5.5741567E-2,8.687794E-3,9.0231195E-2,2.3514105E-2,-3.9944496E-2],"split_indices":[125,99,139,139,162,1770,2072,536,1569,167,556,881,1109,71,1921,2072,77,387,0,1897,0,141,2078,1703,65,52,804,1690,1008,948,0,846,150,97,83,1946,608,2027,0,208,1797,149,0,88,155,87,2126,142,145,80,0,556,1255,1558,109,120,0,0,0,0,0,0,0,0,0,0,0,0,0,0,0,0,0,0,0,0,0,0,0,0,0,0,0,0,0,0,0,0,0,0,0,0,0,0,0,0,0,0,0,0,0],"split_type":[0,0,0,0,0,0,0,0,0,0,0,0,0,0,0,0,0,0,0,0,0,0,0,0,0,0,0,0,0,0,0,0,0,0,0,0,0,0,0,0,0,0,0,0,0,0,0,0,0,0,0,0,0,0,0,0,0,0,0,0,0,0,0,0,0,0,0,0,0,0,0,0,0,0,0,0,0,0,0,0,0,0,0,0,0,0,0,0,0,0,0,0,0,0,0,0,0,0,0,0,0],"sum_hessian":[2.1258943E3,5.750486E2,1.5508457E3,4.5127142E2,1.2377714E2,1.3027166E3,2.4812923E2,2.4855836E2,2.0271306E2,5.1933563E1,7.1843575E1,1.1638008E3,1.3891568E2,2.3031271E2,1.7816525E1,2.3696034E2,1.1598024E1,2.0154707E2,1.1659937E0,5.0755436E1,1.178128E0,5.0519196E1,2.1324379E1,1.1088582E3,5.494266E1,1.26550835E2,1.2364844E1,2.013934E2,2.8919313E1,8.620806E0,9.195718E0,2.3219228E2,4.7680683E0,6.889414E0,4.708611E0,1.9773322E2,3.8138614E0,4.9549755E1,1.2056798E0,2.6181154E1,2.4338041E1,1.9204447E1,2.1199324E0,8.4873175E2,2.601264E2,2.459161E0,5.24835E1,1.1021319E2,1.633765E1,9.886987E0,2.4778578E0,1.9819681E2,3.1965916E0,2.338486E1,5.5344534E0,5.890769E0,2.7300365E0,2.2958183E2,2.6104429E0,2.8659794E0,1.902089E0,3.8413749E0,3.0480392E0,1.1947987E0,3.513812E0,1.9653731E2,1.1958971E0,2.3332162E0,1.4806451E0,4.7906017E1,1.6437403E0,2.3269217E1,2.9119368E0,2.24787E1,1.8593405E0,1.0696678E1,8.507768E0,4.91753E2,3.5697876E2,8.2252174E1,1.7787424E2,1.2190721E0,1.2400889E0,4.9274544E1,3.208959E0,1.9583606E0,1.0825482E2,2.8996515E0,1.3437999E1,3.647933E0,6.2390532E0,8.595825E1,1.1223855E2,1.2107964E0,1.9857953E0,2.1246891E1,2.1379683E0,2.6291523E0,2.905301E0,1.1934716E0,4.6972976E0],"tree_param":{"num_deleted":"0","num_feature":"2215","num_nodes":"101","size_leaf_vector":"1"}},{"base_weights":[7.4637267E-3,-9.8552424E-1,3.694623E-1,-1.1227784E0,-4.9422297E-1,5.50662E-1,-5.840418E-1,-1.2927315E0,-8.915023E-1,-1.0954888E0,-6.2211823E-2,4.435376E-1,1.450661E0,-6.9976455E-1,7.7768546E-1,-1.3172803E0,6.604707E-1,-1.002687E0,2.965124E-1,-1.1795807E0,6.815388E-2,2.785061E-1,-8.782367E-1,2.4452513E-1,9.246602E-1,1.5143057E0,-5.3414553E-1,-8.2563394E-1,1.469997E-1,-3.9802052E-2,1.561487E0,-1.3281289E0,2.7376367E-2,-5.275054E-3,5.7616096E-2,-1.1060693E0,-2.4558038E-1,-2.6091084E-1,8.859055E-1,-1.2483352E0,4.6614587E-2,-6.04535E-1,5.276205E-1,-1.2423038E-1,-1.2452133E0,-2.0766934E-2,6.103647E-1,-1.5728354E-1,1.0260636E0,1.5541177E0,-3.9955877E-2,4.1683514E-2,-5.95104E-2,-8.8479555E-1,9.8169744E-1,-9.605496E-3,8.170986E-2,-5.97057E-1,7.161214E-2,1.765892E-2,8.4385194E-2,-6.6950195E-2,1.824175E-2,-5.756865E-2,2.6208866E-2,-4.3214686E-2,3.301456E-2,-3.3713307E-2,7.332107E-2,6.295087E-2,-4.099957E-2,-6.591821E-2,1.8847454E-2,-4.2143386E-2,4.2104702E-2,1.0756051E-2,6.588812E-2,-3.430963E-2,4.52105E-2,-7.1265295E-2,-9.671817E-3,-6.415024E-3,5.339398E-2,2.373246E-2,7.023382E-2,-3.2581717E-2,2.5905693E-2,-5.2198227E-2,5.3512614E-2,7.928034E-2,-1.6795129E-2,-4.6319738E-2,5.0965883E-2,-1.2985825E-2,7.141596E-2,-9.08607E-3,6.083724E-2,2.1404743E-2,-4.5672186E-2],"categories":[],"categories_nodes":[],"categories_segments":[],"categories_sizes":[],"default_left":[0,0,0,0,0,0,0,0,0,0,0,0,0,0,0,0,0,0,0,0,0,0,0,0,0,0,0,0,0,0,0,0,0,0,0,0,0,0,0,0,0,0,0,0,0,0,0,0,0,0,0,0,0,0,0,0,0,0,0,0,0,0,0,0,0,0,0,0,0,0,0,0,0,0,0,0,0,0,0,0,0,0,0,0,0,0,0,0,0,0,0,0,0,0,0,0,0,0,0],"id":4,"left_children":[1,3,5,7,9,11,13,15,17,19,21,23,25,27,29,31,33,35,37,39,-1,41,43,45,47,49,51,53,55,57,59,61,-1,-1,-1,63,65,67,69,71,-1,73,75,77,79,81,83,85,87,89,-1,-1,-1,91,93,95,-1,97,-1,-1,-1,-1,-1,-1,-1,-1,-1,-1,-1,-1,-1,-1,-1,-1,-1,-1,-1,-1,-1,-1,-1,-1,-1,-1,-1,-1,-1,-1,-1,-1,-1,-1,-1,-1,-1,-1,-1,-1,-1],"loss_changes":[7.632596E2,3.7698303E1,2.6916916E2,1.6245056E1,3.2572304E1,1.2547183E2,3.9777733E1,1.2996796E1,2.5487503E1,1.2457409E1,2.0869629E1,1.1183824E2,1.8329346E1,2.4634766E1,1.2860783E1,5.7869873E0,1.5551962E0,1.339566E1,5.846667E0,8.609459E0,0E0,1.1997766E1,5.957922E0,8.0498505E1,3.7694733E1,1.364328E1,5.522636E0,2.2294495E1,7.1455274E0,9.67529E0,9.6291924E-1,5.0718994E0,0E0,0E0,0E0,1.1929337E1,1.3049187E1,7.8123846E0,6.4650927E0,6.197914E0,0E0,4.898105E0,1.0072998E1,5.4420996E0,2.5178547E0,5.6524E1,3.691443E1,1.0415154E1,2.9740967E1,8.430817E0,0E0,0E0,0E0,1.6355148E1,4.1553173E0,6.2769494E0,0E0,3.1497371E0,0E0,0E0,0E0,0E0,0E0,0E0,0E0,0E0,0E0,0E0,0E0,0E0,0E0,0E0,0E0,0E0,0E0,0E0,0E0,0E0,0E0,0E0,0E0,0E0,0E0,0E0,0E0,0E0,0E0,0E0,0E0,0E0,0E0,0E0,0E0,0E0,0E0,0E0,0E0,0E0,0E0],"parents":[2147483647,0,0,1,1,2,2,3,3,4,4,5,5,6,6,7,7,8,8,9,9,10,10,11,11,12,12,13,13,14,14,15,15,16,16,17,17,18,18,19,19,21,21,22,22,23,23,24,24,25,25,26,26,27,27,28,28,29,29,30,30,31,31,35,35,36,36,37,37,38,38,39,39,41,41,42,42,43,43,44,44,45,45,46,46,47,47,48,48,49,49,53,53,54,54,55,55,57,57],"right_children":[2,4,6,8,10,12,14,16,18,20,22,24,26,28,30,32,34,36,38,40,-1,42,44,46,48,50,52,54,56,58,60,62,-1,-1,-1,64,66,68,70,72,-1,74,76,78,80,82,84,86,88,90,-1,-1,-1,92,94,96,-1,98,-1,-1,-1,-1,-1,-1,-1,-1,-1,-1,-1,-1,-1,-1,-1,-1,-1,-1,-1,-1,-1,-1,-1,-1,-1,-1,-1,-1,-1,-1,-1,-1,-1,-1,-1,-1,-1,-1,-1,-1,-1],"split_conditions":[1E0,1E0,1E0,1E0,1E0,1E0,1E0,1E0,1E0,1E0,1E0,1E0,1E0,1E0,1E0,1E0,1E0,1E0,1E0,1E0,6.815388E-2,1E0,1E0,1E0,1E0,1E0,1E0,1E0,1E0,1E0,1E0,1E0,2.7376367E-2,-5.275054E-3,5.7616096E-2,1E0,1E0,1E0,1E0,1E0,4.6614587E-2,1E0,1E0,1E0,1E0,1E0,1E0,1E0,1E0,1E0,-3.9955877E-2,4.1683514E-2,-5.95104E-2,1E0,1E0,1E0,8.170986E-2,1E0,7.161214E-2,1.765892E-2,8.4385194E-2,-6.6950195E-2,1.824175E-2,-5.756865E-2,2.6208866E-2,-4.3214686E-2,3.301456E-2,-3.3713307E-2,7.332107E-2,6.295087E-2,-4.099957E-2,-6.591821E-2,1.8847454E-2,-4.2143386E-2,4.2104702E-2,1.0756051E-2,6.588812E-2,-3.430963E-2,4.52105E-2,-7.1265295E-2,-9.671817E-3,-6.415024E-3,5.339398E-2,2.373246E-2,7.023382E-2,-3.2581717E-2,2.5905693E-2,-5.2198227E-2,5.3512614E-2,7.928034E-2,-1.6795129E-2,-4.6319738E-2,5.0965883E-2,-1.2985825E-2,7.141596E-2,-9.08607E-3,6.083724E-2,2.1404743E-2,-4.5672186E-2],"split_indices":[125,99,139,92,162,1770,2072,706,477,455,556,1008,8,71,1921,207,66,2078,1186,1320,0,150,139,88,145,68,80,41,261,1017,110,1887,0,0,0,1427,126,1441,912,2022,0,961,115,104,82,1516,969,36,1917,1683,0,0,0,1460,113,1037,0,120,0,0,0,0,0,0,0,0,0,0,0,0,0,0,0,0,0,0,0,0,0,0,0,0,0,0,0,0,0,0,0,0,0,0,0,0,0,0,0,0,0],"split_type":[0,0,0,0,0,0,0,0,0,0,0,0,0,0,0,0,0,0,0,0,0,0,0,0,0,0,0,0,0,0,0,0,0,0,0,0,0,0,0,0,0,0,0,0,0,0,0,0,0,0,0,0,0,0,0,0,0,0,0,0,0,0,0,0,0,0,0,0,0,0,0,0,0,0,0,0,0,0,0,0,0,0,0,0,0,0,0,0,0,0,0,0,0,0,0,0,0,0,0],"sum_hessian":[2.121336E3,5.6627655E2,1.5550594E3,4.4161722E2,1.2465935E2,1.3070886E3,2.4797078E2,2.51911E2,1.8970622E2,5.147773E1,7.318162E1,1.169392E3,1.3769662E2,2.2899626E2,1.897452E1,2.4910568E2,2.8053012E0,1.7361394E2,1.6092287E1,5.0278244E1,1.1994833E0,5.20907E1,2.109092E1,8.282863E2,3.4110568E2,1.3364812E2,4.0485106E0,1.9938338E2,2.9612892E1,9.752303E0,9.222216E0,2.47951E2,1.1546845E0,1.4041252E0,1.401176E0,1.5234976E2,2.1264162E1,8.556875E0,7.535411E0,4.908899E1,1.1892552E0,1.1147871E1,4.0942825E1,7.342734E0,1.3748185E1,4.806683E2,3.47618E2,2.918281E1,3.1192288E2,1.3170973E2,1.9383878E0,1.2246132E0,2.8238976E0,1.9355785E2,5.8255215E0,2.7690556E1,1.9223356E0,7.5054536E0,2.2468498E0,1.2314444E0,7.9907713E0,2.4657617E2,1.3748235E0,1.4851633E2,3.8334455E0,1.2661923E1,8.602239E0,7.3965178E0,1.1603578E0,6.398007E0,1.137404E0,4.72423E1,1.8466934E0,9.929362E0,1.2185087E0,3.025091E1,1.0691917E1,4.9634047E0,2.3793292E0,1.1435055E1,2.3131306E0,4.3826028E2,4.2408012E1,2.9825583E2,4.936219E1,1.687009E1,1.2312719E1,6.0465417E0,3.0587634E2,1.2970975E2,1.9999926E0,1.8992209E2,3.6357603E0,1.6520444E0,4.1734767E0,2.502953E1,2.6610267E0,1.6868076E0,5.818646E0],"tree_param":{"num_deleted":"0","num_feature":"2215","num_nodes":"99","size_leaf_vector":"1"}},{"base_weights":[2.2224341E-4,-9.5397717E-1,3.4643936E-1,-1.0864943E0,-4.8192146E-1,5.1180935E-1,-5.3121066E-1,-9.002676E-1,-1.308865E0,-6.854551E-1,6.384359E-1,4.1296625E-1,1.3152355E0,-7.1314114E-1,3.4748876E-1,-9.3030566E-1,4.8081073E-1,-1.3380095E0,1.6031852E-1,-7.455266E-1,1.2138437E0,8.756052E-1,-5.2741826E-2,-7.630352E-1,4.7526866E-1,4.7877815E-1,1.6446369E0,-8.5830426E-1,3.9907984E-2,6.919236E-2,8.0943845E-2,-9.5334023E-1,5.4187883E-2,-2.5722668E-1,1.0627096E0,-1.3514162E0,1.4208945E-2,-3.5190966E-2,5.376355E-2,-8.306582E-1,4.9232042E-1,2.072811E-2,7.182633E-2,-6.860779E-1,1.2373892E0,-8.81681E-1,6.165905E-2,3.4281373E-1,1.1689829E0,2.2123712E-1,1.3435047E0,1.7160926E0,-1.9178976E-1,-9.262064E-1,2.6930764E-1,-1.0198454E0,6.054081E-1,-4.5146346E-1,1.1779512E0,-5.0571274E-2,-7.5362124E-3,-4.404786E-2,2.407872E-2,6.453728E-2,1.7892567E-2,-6.827693E-2,1.0541915E-2,-4.5944627E-2,2.668996E-2,-3.0281622E-2,6.745628E-2,2.181072E-3,-5.0264426E-2,-2.0836934E-2,7.044019E-2,-4.9685795E-2,7.290704E-2,4.927577E-5,2.9613897E-2,6.881785E-2,1.4548736E-2,1.8606907E-2,-6.0537916E-2,8.163228E-2,8.440577E-3,8.879842E-2,-4.077316E-2,4.647426E-2,-4.9606863E-2,-5.1437583E-2,-1.2746674E-2,5.291873E-2,-2.4247445E-2,-5.731597E-2,5.5524907E-3,2.1905236E-5,5.6737687E-2,1.2987481E-2,-5.6146707E-2,6.900979E-2,-8.481613E-3],"categories":[],"categories_nodes":[],"categories_segments":[],"categories_sizes":[],"default_left":[0,0,0,0,0,0,0,0,0,0,0,0,0,0,0,0,0,0,0,0,0,0,0,0,0,0,0,0,0,0,0,0,0,0,0,0,0,0,0,0,0,0,0,0,0,0,0,0,0,0,0,0,0,0,0,0,0,0,0,0,0,0,0,0,0,0,0,0,0,0,0,0,0,0,0,0,0,0,0,0,0,0,0,0,0,0,0,0,0,0,0,0,0,0,0,0,0,0,0,0,0],"id":5,"left_children":[1,3,5,7,9,11,13,15,17,19,21,23,25,27,29,31,33,35,37,39,41,43,-1,45,47,49,51,53,55,57,-1,59,-1,61,63,65,-1,-1,-1,67,69,-1,-1,71,73,75,-1,77,79,81,83,85,87,89,91,93,95,97,99,-1,-1,-1,-1,-1,-1,-1,-1,-1,-1,-1,-1,-1,-1,-1,-1,-1,-1,-1,-1,-1,-1,-1,-1,-1,-1,-1,-1,-1,-1,-1,-1,-1,-1,-1,-1,-1,-1,-1,-1,-1,-1],"loss_changes":[6.990509E2,3.4717712E1,2.2562091E2,1.7004639E1,2.9005531E1,1.0324982E2,3.968013E1,1.0493439E1,8.688995E0,1.3056252E1,8.866452E0,8.573979E1,3.85372E1,2.2409012E1,1.5096304E1,1.2044586E1,2.7703176E0,4.607025E0,4.5066195E0,1.1353394E1,5.3358555E-2,1.0959397E1,0E0,1.5063839E1,1.0134126E2,8.997414E0,1.371228E1,1.3391945E1,2.1014189E1,2.1492064E1,0E0,1.0812515E1,0E0,1.9764063E0,9.196472E-2,4.5405884E0,0E0,0E0,0E0,1.2234283E1,7.6946764E0,0E0,0E0,9.776937E-1,4.8078175E0,1.620348E1,0E0,7.940295E1,3.184636E1,7.6582828E0,2.9104881E0,1.6343658E1,5.1572404E0,1.0897598E1,6.776606E0,1.8743668E0,7.3073597E0,1.2435812E1,3.4716263E0,0E0,0E0,0E0,0E0,0E0,0E0,0E0,0E0,0E0,0E0,0E0,0E0,0E0,0E0,0E0,0E0,0E0,0E0,0E0,0E0,0E0,0E0,0E0,0E0,0E0,0E0,0E0,0E0,0E0,0E0,0E0,0E0,0E0,0E0,0E0,0E0,0E0,0E0,0E0,0E0,0E0,0E0],"parents":[2147483647,0,0,1,1,2,2,3,3,4,4,5,5,6,6,7,7,8,8,9,9,10,10,11,11,12,12,13,13,14,14,15,15,16,16,17,17,18,18,19,19,20,20,21,21,23,23,24,24,25,25,26,26,27,27,28,28,29,29,31,31,33,33,34,34,35,35,39,39,40,40,43,43,44,44,45,45,47,47,48,48,49,49,50,50,51,51,52,52,53,53,54,54,55,55,56,56,57,57,58,58],"right_children":[2,4,6,8,10,12,14,16,18,20,22,24,26,28,30,32,34,36,38,40,42,44,-1,46,48,50,52,54,56,58,-1,60,-1,62,64,66,-1,-1,-1,68,70,-1,-1,72,74,76,-1,78,80,82,84,86,88,90,92,94,96,98,100,-1,-1,-1,-1,-1,-1,-1,-1,-1,-1,-1,-1,-1,-1,-1,-1,-1,-1,-1,-1,-1,-1,-1,-1,-1,-1,-1,-1,-1,-1,-1,-1,-1,-1,-1,-1,-1,-1,-1,-1,-1,-1],"split_conditions":[1E0,1E0,1E0,1E0,1E0,1E0,1E0,1E0,1E0,1E0,1E0,1E0,1E0,1E0,1E0,1E0,1E0,1E0,1E0,1E0,1E0,1E0,-5.2741826E-2,1E0,1E0,1E0,1E0,1E0,1E0,1E0,8.0943845E-2,1E0,5.4187883E-2,1E0,1E0,1E0,1.4208945E-2,-3.5190966E-2,5.376355E-2,1E0,1E0,2.072811E-2,7.182633E-2,1E0,1E0,1E0,6.165905E-2,1E0,1E0,1E0,1E0,1E0,1E0,1E0,1E0,1E0,1E0,1E0,1E0,-5.0571274E-2,-7.5362124E-3,-4.404786E-2,2.407872E-2,6.453728E-2,1.7892567E-2,-6.827693E-2,1.0541915E-2,-4.5944627E-2,2.668996E-2,-3.0281622E-2,6.745628E-2,2.181072E-3,-5.0264426E-2,-2.0836934E-2,7.044019E-2,-4.9685795E-2,7.290704E-2,4.927577E-5,2.9613897E-2,6.881785E-2,1.4548736E-2,1.8606907E-2,-6.0537916E-2,8.163228E-2,8.440577E-3,8.879842E-2,-4.077316E-2,4.647426E-2,-4.9606863E-2,-5.1437583E-2,-1.2746674E-2,5.291873E-2,-2.4247445E-2,-5.731597E-2,5.5524907E-3,2.1905236E-5,5.6737687E-2,1.2987481E-2,-5.6146707E-2,6.900979E-2,-8.481613E-3],"split_indices":[125,99,139,139,1042,1516,1008,1427,387,1172,1643,1917,152,1921,1000,846,804,1946,1042,961,314,150,0,469,969,1186,1900,398,100,119,0,1057,0,133,108,1961,0,0,0,59,162,0,0,140,161,1249,0,1319,1857,1008,132,1389,150,861,62,790,113,556,2200,0,0,0,0,0,0,0,0,0,0,0,0,0,0,0,0,0,0,0,0,0,0,0,0,0,0,0,0,0,0,0,0,0,0,0,0,0,0,0,0,0,0],"split_type":[0,0,0,0,0,0,0,0,0,0,0,0,0,0,0,0,0,0,0,0,0,0,0,0,0,0,0,0,0,0,0,0,0,0,0,0,0,0,0,0,0,0,0,0,0,0,0,0,0,0,0,0,0,0,0,0,0,0,0,0,0,0,0,0,0,0,0,0,0,0,0,0,0,0,0,0,0,0,0,0,0,0,0,0,0,0,0,0,0,0,0,0,0,0,0,0,0,0,0,0,0],"sum_hessian":[2.1140264E3,5.6236163E2,1.5516648E3,4.3808047E2,1.2428115E2,1.3060004E3,2.4566443E2,2.4116371E2,1.9691676E2,1.055028E2,1.8778353E1,1.1642769E3,1.4172342E2,2.0368155E2,4.1982876E1,2.3634958E2,4.8141446E0,1.9317401E2,3.7427387E0,1.0285708E2,2.645717E0,1.6894855E1,1.8834972E0,5.8012016E1,1.1062649E3,4.07357E1,1.00987724E2,1.706467E2,3.303485E1,3.5308548E1,6.6743283E0,2.3419774E2,2.1518335E0,2.3683095E0,2.445835E0,1.9175613E2,1.4178771E0,2.0434945E0,1.6992443E0,9.654617E1,6.3109083E0,1.2000428E0,1.4456741E0,3.0091472E0,1.3885709E1,5.5284485E1,2.7275293E0,9.3015845E2,1.7610641E2,3.235521E1,8.380488E0,9.726852E1,3.719209E0,1.6112288E2,9.523827E0,1.1214784E1,2.1820066E1,2.4429607E1,1.087894E1,2.1815007E2,1.6047676E1,1.1798284E0,1.1884811E0,1.2199452E0,1.2258899E0,1.9016304E2,1.5930943E0,9.0988815E1,5.5573583E0,2.8946764E0,3.4162319E0,1.1785004E0,1.8306466E0,1.1694531E0,1.2716256E1,5.330734E1,1.9771482E0,3.928542E2,5.3730426E2,1.4200023E2,3.4106182E1,2.9940285E1,2.414925E0,6.4123054E0,1.9681832E0,9.531267E1,1.9558457E0,1.481832E0,2.237377E0,1.3930914E2,2.1813726E1,4.457453E0,5.0663743E0,1.0074463E1,1.1403204E0,1.0649718E1,1.1170349E1,1.2161484E1,1.2268124E1,9.438252E0,1.4406878E0],"tree_param":{"num_deleted":"0","num_feature":"2215","num_nodes":"101","size_leaf_vector":"1"}},{"base_weights":[3.4636976E-3,-9.133907E-1,3.3173072E-1,-6.954452E-1,-1.1703209E0,4.8802269E-1,-5.3279936E-1,-8.3878523E-1,-9.395812E-2,-1.1907973E0,5.285231E-2,1.0969284E-1,7.0031565E-1,-6.170564E-1,1.4361937E0,-8.91777E-1,2.2907445E-1,-1.1109397E0,2.3301569E-1,-1.2302395E0,-1.8278757E-1,-1.9926503E-2,1.0887223E0,-5.4905707E-1,7.634503E-1,-7.581439E-1,2.5939128E-1,-1.91285E-2,8.577069E-2,-9.639235E-1,-1.2266235E-2,8.0658454E-1,-6.883226E-1,-6.817975E-2,2.1821134E-2,-3.5287103E-1,7.544791E-1,-1.2450497E0,4.9281508E-2,-7.338006E-1,7.406265E-1,-9.54213E-2,1.4399394E0,1.5745988E0,6.826788E-1,2.2728884E-1,-1.0808995E0,5.827896E-1,1.1303778E0,-4.2310792E-1,-1.1402365E0,-3.333905E-1,7.209711E-1,-5.0211277E-2,1.7707976E-2,-3.7501007E-2,2.615275E-2,6.636002E-2,-6.2734275E-3,-9.016847E-3,-5.072261E-2,-2.641589E-2,5.5442262E-2,5.6694653E-2,-1.6001826E-2,-6.3724704E-2,-8.234869E-3,-6.137727E-2,4.8399135E-2,-2.2102853E-2,6.942961E-2,-7.960904E-3,8.404616E-2,8.215714E-2,-3.1757557E-3,8.406331E-2,-1.7934948E-3,1.4272237E-2,7.975961E-2,-1.0354645E-2,5.8945548E-2,-5.9853047E-2,3.0291988E-2,2.4164747E-2,6.868431E-2,1.8430867E-3,6.0826074E-2,-2.6030628E-2,5.3658325E-2,-1.4443885E-2,-6.433322E-2,-2.789535E-2,4.6541043E-2,6.3291125E-2,8.7170134E-4],"categories":[],"categories_nodes":[],"categories_segments":[],"categories_sizes":[],"default_left":[0,0,0,0,0,0,0,0,0,0,0,0,0,0,0,0,0,0,0,0,0,0,0,0,0,0,0,0,0,0,0,0,0,0,0,0,0,0,0,0,0,0,0,0,0,0,0,0,0,0,0,0,0,0,0,0,0,0,0,0,0,0,0,0,0,0,0,0,0,0,0,0,0,0,0,0,0,0,0,0,0,0,0,0,0,0,0,0,0,0,0,0,0,0,0],"id":6,"left_children":[1,3,5,7,9,11,13,15,17,19,-1,21,23,25,27,29,31,33,35,37,39,41,43,45,47,49,51,-1,-1,53,55,57,59,-1,-1,61,63,65,-1,67,69,71,73,75,77,79,81,83,85,87,89,91,93,-1,-1,-1,-1,-1,-1,-1,-1,-1,-1,-1,-1,-1,-1,-1,-1,-1,-1,-1,-1,-1,-1,-1,-1,-1,-1,-1,-1,-1,-1,-1,-1,-1,-1,-1,-1,-1,-1,-1,-1,-1,-1],"loss_changes":[6.3405597E2,3.0287445E1,2.0986581E2,2.6042358E1,1.2817932E1,1.0548218E2,4.036802E1,1.4042099E1,2.0021513E1,9.778503E0,0E0,6.0120895E1,6.681082E1,2.8503548E1,5.7683334E0,1.4784348E1,7.1019516E0,6.3157387E0,1.4258717E1,9.167572E0,5.9617214E0,4.6338615E1,9.852493E0,1.7202827E1,5.2480408E1,2.4791656E1,9.129003E0,0E0,0E0,1.1802765E1,7.7739E0,4.0696354E0,6.9729924E-1,0E0,0E0,6.291566E0,1.03717785E1,7.4497375E0,0E0,7.2140865E0,4.0449514E0,4.5544113E1,6.4206047E0,4.260433E0,1.1121771E1,7.487509E0,5.53467E0,4.1767E1,2.4768036E1,1.6137669E1,1.1053406E1,4.7500257E0,7.100198E0,0E0,0E0,0E0,0E0,0E0,0E0,0E0,0E0,0E0,0E0,0E0,0E0,0E0,0E0,0E0,0E0,0E0,0E0,0E0,0E0,0E0,0E0,0E0,0E0,0E0,0E0,0E0,0E0,0E0,0E0,0E0,0E0,0E0,0E0,0E0,0E0,0E0,0E0,0E0,0E0,0E0,0E0],"parents":[2147483647,0,0,1,1,2,2,3,3,4,4,5,5,6,6,7,7,8,8,9,9,11,11,12,12,13,13,14,14,15,15,16,16,17,17,18,18,19,19,20,20,21,21,22,22,23,23,24,24,25,25,26,26,29,29,30,30,31,31,32,32,35,35,36,36,37,37,39,39,40,40,41,41,42,42,43,43,44,44,45,45,46,46,47,47,48,48,49,49,50,50,51,51,52,52],"right_children":[2,4,6,8,10,12,14,16,18,20,-1,22,24,26,28,30,32,34,36,38,40,42,44,46,48,50,52,-1,-1,54,56,58,60,-1,-1,62,64,66,-1,68,70,72,74,76,78,80,82,84,86,88,90,92,94,-1,-1,-1,-1,-1,-1,-1,-1,-1,-1,-1,-1,-1,-1,-1,-1,-1,-1,-1,-1,-1,-1,-1,-1,-1,-1,-1,-1,-1,-1,-1,-1,-1,-1,-1,-1,-1,-1,-1,-1,-1,-1],"split_conditions":[1E0,1E0,1E0,1E0,1E0,1E0,1E0,1E0,1E0,1E0,5.285231E-2,1E0,1E0,1E0,1E0,1E0,1E0,1E0,1E0,1E0,1E0,1E0,1E0,1E0,1E0,1E0,1E0,-1.91285E-2,8.577069E-2,1E0,1E0,1E0,1E0,-6.817975E-2,2.1821134E-2,1E0,1E0,1E0,4.9281508E-2,1E0,1E0,1E0,1E0,1E0,1E0,1E0,1E0,1E0,1E0,1E0,1E0,1E0,1E0,-5.0211277E-2,1.7707976E-2,-3.7501007E-2,2.615275E-2,6.636002E-2,-6.2734275E-3,-9.016847E-3,-5.072261E-2,-2.641589E-2,5.5442262E-2,5.6694653E-2,-1.6001826E-2,-6.3724704E-2,-8.234869E-3,-6.137727E-2,4.8399135E-2,-2.2102853E-2,6.942961E-2,-7.960904E-3,8.404616E-2,8.215714E-2,-3.1757557E-3,8.406331E-2,-1.7934948E-3,1.4272237E-2,7.975961E-2,-1.0354645E-2,5.8945548E-2,-5.9853047E-2,3.0291988E-2,2.4164747E-2,6.868431E-2,1.8430867E-3,6.0826074E-2,-2.6030628E-2,5.3658325E-2,-1.4443885E-2,-6.433322E-2,-2.789535E-2,4.6541043E-2,6.3291125E-2,8.7170134E-4],"split_indices":[125,139,139,99,1935,247,1678,536,162,758,0,1770,1917,71,111,1057,77,169,145,1721,1319,804,2084,38,1008,123,126,0,0,1442,1917,1319,1255,0,0,961,861,841,0,1293,1547,2030,25,131,1195,1195,1770,1770,145,41,556,842,481,0,0,0,0,0,0,0,0,0,0,0,0,0,0,0,0,0,0,0,0,0,0,0,0,0,0,0,0,0,0,0,0,0,0,0,0,0,0,0,0,0,0],"split_type":[0,0,0,0,0,0,0,0,0,0,0,0,0,0,0,0,0,0,0,0,0,0,0,0,0,0,0,0,0,0,0,0,0,0,0,0,0,0,0,0,0,0,0,0,0,0,0,0,0,0,0,0,0,0,0,0,0,0,0,0,0,0,0,0,0,0,0,0,0,0,0,0,0,0,0,0,0,0,0,0,0,0,0,0,0,0,0,0,0,0,0,0,0,0,0],"sum_hessian":[2.1046802E3,5.544133E2,1.5502667E3,3.0196933E2,2.5244402E2,1.3132834E3,2.3698328E2,2.4353752E2,5.8431816E1,2.5060555E2,1.8384695E0,4.7259064E2,8.406928E2,2.2791687E2,9.066397E0,2.3218062E2,1.1356902E1,1.3632675E1,4.479914E1,2.4095674E2,9.6488E0,4.182021E2,5.4388535E1,4.0069054E1,8.006238E2,1.9643108E2,3.1485798E1,1.157382E0,7.9090147E0,2.1448997E2,1.769065E1,7.0436487E0,4.313253E0,1.1821248E1,1.8114269E0,2.124866E1,2.3550482E1,2.3979216E2,1.1645858E0,6.1715164E0,3.477283E0,3.9852747E2,1.967462E1,2.3450037E1,3.0938496E1,1.6522831E1,2.3546223E1,5.3821576E2,2.6240802E2,1.05783066E2,9.064801E1,1.3905476E1,1.7580322E1,2.083573E2,6.1326685E0,7.270178E0,1.0420473E1,4.2472906E0,2.796358E0,2.2936234E0,2.0196297E0,1.9541676E1,1.7069831E0,1.7363968E1,6.1865153E0,2.3325525E2,6.5369115E0,4.9996266E0,1.1718895E0,1.343277E0,2.134006E0,3.8558954E2,1.2937944E1,1.725021E1,2.4244094E0,2.1952108E1,1.4979303E0,2.246979E1,8.468706E0,1.1881656E1,4.6411753E0,2.230074E1,1.245485E0,4.7950513E2,5.8710606E1,1.9266415E1,2.4314162E2,9.9923615E1,5.859452E0,1.3739116E1,7.690889E1,1.2282812E1,1.6226633E0,9.457092E0,8.12323E0],"tree_param":{"num_deleted":"0","num_feature":"2215","num_nodes":"95","size_leaf_vector":"1"}},{"base_weights":[1.190175E-2,-9.970309E-1,2.1156484E-1,-1.0458021E0,2.6912656E-1,-5.0741744E-1,3.7769598E-1,-1.0923874E0,1.11250035E-1,-2.8199896E-1,1.0558262E0,-6.451857E-1,3.6529592E-1,6.1231434E-2,6.7561895E-1,-1.118E0,9.4345665E-1,8.7569016E-1,-9.451877E-1,-9.3507755E-1,7.058849E-1,1.3423792E0,-1.6625706E-3,-9.224574E-1,-3.2907334E-1,-5.0803896E-2,7.1906877E-1,-1.4011881E-1,9.389466E-1,5.425592E-1,1.2606847E0,-1.1586955E0,-1.2140083E-1,-1.8935821E-4,6.69386E-2,-3.1316835E-2,1.3190997E0,-5.9405386E-2,-5.938053E-3,-6.0250845E-2,4.4035213E-3,4.753444E-2,2.570239E-3,2.0383662E-2,7.716516E-2,-9.622845E-1,6.0868092E-2,-4.21528E-1,8.397899E-1,2.3876747E-1,-1.1276205E0,1.0025852E0,-3.8684034E-1,-2.3632054E-1,9.037976E-1,1.0606669E0,-8.453707E-1,4.7025406E-1,1.6165988E0,1.3625766E0,-7.4888575E-1,-5.8875468E-2,1.6549401E-2,-2.6208883E-2,4.8344698E-2,3.1646784E-2,8.785934E-2,-5.0187375E-2,4.382234E-2,-2.6130458E-2,3.7965152E-2,5.4908145E-2,-2.8504694E-2,-2.1933992E-3,7.792724E-2,-6.379992E-2,-1.693636E-2,5.677866E-2,-2.7864328E-2,1.6912045E-3,-4.6489727E-2,-1.8724848E-2,1.8254323E-2,7.40078E-2,1.3968683E-2,5.7105925E-2,-1.5044889E-2,9.997192E-3,-7.638564E-2,1.9547435E-2,6.381454E-2,8.361705E-2,7.290995E-3,6.972059E-2,-2.9942906E-2,7.6329694E-3,-5.597363E-2],"categories":[],"categories_nodes":[],"categories_segments":[],"categories_sizes":[],"default_left":[0,0,0,0,0,0,0,0,0,0,0,0,0,0,0,0,0,0,0,0,0,0,0,0,0,0,0,0,0,0,0,0,0,0,0,0,0,0,0,0,0,0,0,0,0,0,0,0,0,0,0,0,0,0,0,0,0,0,0,0,0,0,0,0,0,0,0,0,0,0,0,0,0,0,0,0,0,0,0,0,0,0,0,0,0,0,0,0,0,0,0,0,0,0,0,0,0],"id":7,"left_children":[1,3,5,7,9,11,13,15,17,19,21,23,25,27,29,31,33,35,37,39,41,43,-1,45,47,49,51,53,55,57,59,61,63,-1,-1,-1,65,-1,-1,-1,-1,-1,-1,-1,-1,67,-1,69,71,73,75,77,79,81,83,85,87,89,91,93,95,-1,-1,-1,-1,-1,-1,-1,-1,-1,-1,-1,-1,-1,-1,-1,-1,-1,-1,-1,-1,-1,-1,-1,-1,-1,-1,-1,-1,-1,-1,-1,-1,-1,-1,-1,-1],"loss_changes":[4.2300244E2,2.1703156E1,2.0956491E2,1.813739E1,6.221148E0,3.9844116E1,1.3425829E2,1.7813263E1,1.2007693E1,6.3523693E0,1.8668332E0,2.466587E1,6.7421684E0,1.2239713E2,5.6427216E1,1.2750671E1,1.7034278E0,6.5212584E0,1.1222148E0,1.6919298E0,6.050277E-1,2.4352741E-1,0E0,1.4057922E1,1.49074545E1,7.0875883E0,8.128119E0,5.681455E1,2.8962273E1,4.579167E1,2.8698608E1,8.945465E0,6.462676E0,0E0,0E0,0E0,9.6915245E-1,0E0,0E0,0E0,0E0,0E0,0E0,0E0,0E0,1.2239716E1,0E0,1.5372328E1,4.343702E0,6.8042192E0,1.3067818E-1,4.766693E0,1.346798E0,4.3086422E1,1.677623E1,1.3808685E1,6.5883694E0,3.5492493E1,2.8222885E0,8.890533E0,2.5658603E0,0E0,0E0,0E0,0E0,0E0,0E0,0E0,0E0,0E0,0E0,0E0,0E0,0E0,0E0,0E0,0E0,0E0,0E0,0E0,0E0,0E0,0E0,0E0,0E0,0E0,0E0,0E0,0E0,0E0,0E0,0E0,0E0,0E0,0E0,0E0,0E0],"parents":[2147483647,0,0,1,1,2,2,3,3,4,4,5,5,6,6,7,7,8,8,9,9,10,10,11,11,12,12,13,13,14,14,15,15,16,16,17,17,18,18,19,19,20,20,21,21,23,23,24,24,25,25,26,26,27,27,28,28,29,29,30,30,31,31,32,32,36,36,45,45,47,47,48,48,49,49,50,50,51,51,52,52,53,53,54,54,55,55,56,56,57,57,58,58,59,59,60,60],"right_children":[2,4,6,8,10,12,14,16,18,20,22,24,26,28,30,32,34,36,38,40,42,44,-1,46,48,50,52,54,56,58,60,62,64,-1,-1,-1,66,-1,-1,-1,-1,-1,-1,-1,-1,68,-1,70,72,74,76,78,80,82,84,86,88,90,92,94,96,-1,-1,-1,-1,-1,-1,-1,-1,-1,-1,-1,-1,-1,-1,-1,-1,-1,-1,-1,-1,-1,-1,-1,-1,-1,-1,-1,-1,-1,-1,-1,-1,-1,-1,-1,-1],"split_conditions":[1E0,1E0,1E0,1E0,1E0,1E0,1E0,1E0,1E0,1E0,1E0,1E0,1E0,1E0,1E0,1E0,1E0,1E0,1E0,1E0,1E0,1E0,-1.6625706E-3,1E0,1E0,1E0,1E0,1E0,1E0,1E0,1E0,1E0,1E0,-1.8935821E-4,6.69386E-2,-3.1316835E-2,1E0,-5.9405386E-2,-5.938053E-3,-6.0250845E-2,4.4035213E-3,4.753444E-2,2.570239E-3,2.0383662E-2,7.716516E-2,1E0,6.0868092E-2,1E0,1E0,1E0,1E0,1E0,1E0,1E0,1E0,1E0,1E0,1E0,1E0,1E0,1E0,-5.8875468E-2,1.6549401E-2,-2.6208883E-2,4.8344698E-2,3.1646784E-2,8.785934E-2,-5.0187375E-2,4.382234E-2,-2.6130458E-2,3.7965152E-2,5.4908145E-2,-2.8504694E-2,-2.1933992E-3,7.792724E-2,-6.379992E-2,-1.693636E-2,5.677866E-2,-2.7864328E-2,1.6912045E-3,-4.6489727E-2,-1.8724848E-2,1.8254323E-2,7.40078E-2,1.3968683E-2,5.7105925E-2,-1.5044889E-2,9.997192E-3,-7.638564E-2,1.9547435E-2,6.381454E-2,8.361705E-2,7.290995E-3,6.972059E-2,-2.9942906E-2,7.6329694E-3,-5.597363E-2],"split_indices":[1917,217,145,477,969,1734,1319,2196,104,141,126,120,135,969,422,264,1619,158,136,140,1905,106,0,568,1516,78,123,1770,1181,1406,693,1549,140,0,0,0,157,0,0,0,0,0,0,0,0,1057,0,1010,1790,281,86,1223,556,1703,154,1867,473,1410,1863,623,146,0,0,0,0,0,0,0,0,0,0,0,0,0,0,0,0,0,0,0,0,0,0,0,0,0,0,0,0,0,0,0,0,0,0,0,0],"split_type":[0,0,0,0,0,0,0,0,0,0,0,0,0,0,0,0,0,0,0,0,0,0,0,0,0,0,0,0,0,0,0,0,0,0,0,0,0,0,0,0,0,0,0,0,0,0,0,0,0,0,0,0,0,0,0,0,0,0,0,0,0,0,0,0,0,0,0,0,0,0,0,0,0,0,0,0,0,0,0,0,0,0,0,0,0,0,0,0,0,0,0,0,0,0,0,0,0],"sum_hessian":[2.097777E3,3.4589838E2,1.7518788E3,3.3323645E2,1.266193E1,3.284329E2,1.4234459E3,3.2039267E2,1.2843773E1,7.8230224E0,4.8389077E0,2.838798E2,4.455311E1,6.908284E2,7.326175E2,3.1685718E2,3.5354857E0,7.5509696E0,5.2928033E0,4.741756E0,3.0812662E0,3.646796E0,1.1921118E0,1.502089E2,1.336709E2,2.0866632E1,2.3686478E1,5.626056E2,1.2822289E2,5.984428E2,1.3417467E2,3.042699E2,1.258729E1,1.3326488E0,2.202837E0,1.6270099E0,5.9239597E0,3.7522275E0,1.5405756E0,3.6112406E0,1.1305155E0,1.9130983E0,1.168168E0,1.1811293E0,2.4656665E0,1.4800447E2,2.2044194E0,1.2446532E2,9.205579E0,1.7057808E1,3.8088233E0,1.8927547E1,4.7589307E0,5.15842E2,4.67636E1,1.20414185E2,7.8087025E0,5.6204346E2,3.6399345E1,1.2800629E2,6.1683846E0,3.00682E2,3.5878787E0,9.565469E0,3.0218215E0,3.261045E0,2.6629148E0,1.451847E2,2.819769E0,1.1516447E2,9.300851E0,7.9667096E0,1.238869E0,1.4845375E1,2.2124338E0,2.6861491E0,1.1226742E0,1.7691273E1,1.2362735E0,3.2097878E0,1.5491428E0,4.19774E2,9.606797E1,2.3605091E1,2.3158506E1,1.1376945E2,6.6447425E0,3.3632865E0,4.445416E0,5.1304987E2,4.8993587E1,3.4938156E1,1.4611874E0,1.2624633E2,1.7599566E0,1.9682308E0,4.200154E0],"tree_param":{"num_deleted":"0","num_feature":"2215","num_nodes":"97","size_leaf_vector":"1"}},{"base_weights":[-3.958122E-3,-8.609229E-1,2.9270026E-1,-9.842754E-1,-4.1632292E-1,4.3449655E-1,-4.8639706E-1,-1.1644868E0,-7.470612E-1,-9.839663E-1,-2.0603951E-2,9.406073E-2,6.275681E-1,-6.49325E-1,3.0071205E-1,-1.1786724E0,1.7465137E-2,-8.460243E-1,2.8525192E-1,-1.165043E0,3.103124E-1,3.1328437E-1,-8.591818E-1,1.7069774E-2,1.3924563E0,4.713193E-1,1.0677253E0,-3.746842E-1,-9.930459E-1,7.3446965E-1,-3.9840272E-1,-1.1898082E0,3.1011477E-2,-9.501542E-1,-1.450541E-1,-2.5372094E-1,1.3819273E0,-1.2269336E0,2.2824416E-2,1.0885298E0,-4.8322033E-2,-5.558143E-1,5.3448373E-1,-1.000301E0,1.818047E-2,9.267788E-2,-1.2760328E0,-1.9712538E-2,1.5309025E0,-4.7043148E-1,5.3262186E-1,1.1168944E0,-6.6347796E-1,-1.9951625E-1,-1.1978669E0,-1.072406E0,1.1342455E0,9.6280575E-1,-4.2105578E-2,1.0573586E0,-8.0461574E-1,-6.072218E-2,-1.3283677E-2,-5.116273E-2,5.7225707E-3,-3.4417756E-2,3.3964075E-2,-3.0805055E-2,6.5087035E-2,-3.612533E-3,9.274804E-2,-6.428358E-2,-1.788814E-2,7.911775E-2,-1.4495256E-2,-4.334466E-2,3.628352E-2,3.597808E-2,-2.8719781E-2,-5.6475967E-2,2.4892792E-2,1.9390531E-3,7.774403E-2,-7.0586935E-2,2.6866248E-2,8.343526E-2,2.810464E-3,-4.4612624E-2,1.3102867E-2,2.8792357E-2,-3.2335613E-2,5.798787E-2,-1.6053842E-2,3.7265558E-2,-5.6079265E-2,-2.9453328E-2,1.5738843E-2,-6.899195E-2,1.1135849E-2,-5.7999413E-2,3.5734992E-2,7.0524715E-2,1.592229E-2,4.451127E-3,6.8387605E-2,2.2923306E-3,7.245665E-2,-6.240768E-2,-7.5939676E-4],"categories":[],"categories_nodes":[],"categories_segments":[],"categories_sizes":[],"default_left":[0,0,0,0,0,0,0,0,0,0,0,0,0,0,0,0,0,0,0,0,0,0,0,0,0,0,0,0,0,0,0,0,0,0,0,0,0,0,0,0,0,0,0,0,0,0,0,0,0,0,0,0,0,0,0,0,0,0,0,0,0,0,0,0,0,0,0,0,0,0,0,0,0,0,0,0,0,0,0,0,0,0,0,0,0,0,0,0,0,0,0,0,0,0,0,0,0,0,0,0,0,0,0,0,0,0,0,0,0],"id":8,"left_children":[1,3,5,7,9,11,13,15,17,19,21,23,25,27,29,31,-1,33,35,37,39,41,43,45,47,49,51,53,55,57,59,61,-1,63,65,67,69,71,-1,73,-1,75,77,79,-1,81,83,-1,85,87,89,91,93,95,97,99,101,103,-1,105,107,-1,-1,-1,-1,-1,-1,-1,-1,-1,-1,-1,-1,-1,-1,-1,-1,-1,-1,-1,-1,-1,-1,-1,-1,-1,-1,-1,-1,-1,-1,-1,-1,-1,-1,-1,-1,-1,-1,-1,-1,-1,-1,-1,-1,-1,-1,-1,-1],"loss_changes":[5.3296326E2,2.9155853E1,1.7225398E2,1.7139252E1,2.6669752E1,8.657518E1,3.1007217E1,5.514282E0,1.9106926E1,1.1795147E1,2.01579E1,4.777647E1,5.7328217E1,1.8448982E1,1.29949665E1,5.458313E0,0E0,1.218055E1,1.0341163E1,4.8763046E0,7.785927E0,1.0204889E1,3.9004421E0,4.4350586E1,7.2216263E0,3.6181717E1,1.942604E1,1.597296E1,1.60635E1,1.0243041E1,1.07183075E1,5.016754E0,0E0,1.1538086E1,1.0771847E1,7.6661024E0,4.071885E0,1.6688766E0,0E0,3.645162E0,0E0,4.992692E0,8.949099E0,4.1711636E0,0E0,3.36977E1,6.925255E0,0E0,4.993782E0,1.2150664E1,3.0184433E1,1.3551392E1,5.1532393E0,1.8998371E1,5.35515E0,1.4179573E1,3.731537E-1,8.141455E0,0E0,1.5474291E0,4.747861E0,0E0,0E0,0E0,0E0,0E0,0E0,0E0,0E0,0E0,0E0,0E0,0E0,0E0,0E0,0E0,0E0,0E0,0E0,0E0,0E0,0E0,0E0,0E0,0E0,0E0,0E0,0E0,0E0,0E0,0E0,0E0,0E0,0E0,0E0,0E0,0E0,0E0,0E0,0E0,0E0,0E0,0E0,0E0,0E0,0E0,0E0,0E0,0E0],"parents":[2147483647,0,0,1,1,2,2,3,3,4,4,5,5,6,6,7,7,8,8,9,9,10,10,11,11,12,12,13,13,14,14,15,15,17,17,18,18,19,19,20,20,21,21,22,22,23,23,24,24,25,25,26,26,27,27,28,28,29,29,30,30,31,31,33,33,34,34,35,35,36,36,37,37,39,39,41,41,42,42,43,43,45,45,46,46,48,48,49,49,50,50,51,51,52,52,53,53,54,54,55,55,56,56,57,57,59,59,60,60],"right_children":[2,4,6,8,10,12,14,16,18,20,22,24,26,28,30,32,-1,34,36,38,40,42,44,46,48,50,52,54,56,58,60,62,-1,64,66,68,70,72,-1,74,-1,76,78,80,-1,82,84,-1,86,88,90,92,94,96,98,100,102,104,-1,106,108,-1,-1,-1,-1,-1,-1,-1,-1,-1,-1,-1,-1,-1,-1,-1,-1,-1,-1,-1,-1,-1,-1,-1,-1,-1,-1,-1,-1,-1,-1,-1,-1,-1,-1,-1,-1,-1,-1,-1,-1,-1,-1,-1,-1,-1,-1,-1,-1],"split_conditions":[1E0,1E0,1E0,1E0,1E0,1E0,1E0,1E0,1E0,1E0,1E0,1E0,1E0,1E0,1E0,1E0,1.7465137E-2,1E0,1E0,1E0,1E0,1E0,1E0,1E0,1E0,1E0,1E0,1E0,1E0,1E0,1E0,1E0,3.1011477E-2,1E0,1E0,1E0,1E0,1E0,2.2824416E-2,1E0,-4.8322033E-2,1E0,1E0,1E0,1.818047E-2,1E0,1E0,-1.9712538E-2,1E0,1E0,1E0,1E0,1E0,1E0,1E0,1E0,1E0,1E0,-4.2105578E-2,1E0,1E0,-6.072218E-2,-1.3283677E-2,-5.116273E-2,5.7225707E-3,-3.4417756E-2,3.3964075E-2,-3.0805055E-2,6.5087035E-2,-3.612533E-3,9.274804E-2,-6.428358E-2,-1.788814E-2,7.911775E-2,-1.4495256E-2,-4.334466E-2,3.628352E-2,3.597808E-2,-2.8719781E-2,-5.6475967E-2,2.4892792E-2,1.9390531E-3,7.774403E-2,-7.0586935E-2,2.6866248E-2,8.343526E-2,2.810464E-3,-4.4612624E-2,1.3102867E-2,2.8792357E-2,-3.2335613E-2,5.798787E-2,-1.6053842E-2,3.7265558E-2,-5.6079265E-2,-2.9453328E-2,1.5738843E-2,-6.899195E-2,1.1135849E-2,-5.7999413E-2,3.5734992E-2,7.0524715E-2,1.592229E-2,4.451127E-3,6.8387605E-2,2.2923306E-3,7.245665E-2,-6.240768E-2,-7.5939676E-4],"split_indices":[125,99,139,92,162,155,1008,324,477,1293,556,804,1703,123,481,1235,0,2078,1042,1723,2088,150,2078,657,969,1917,951,48,1897,623,89,804,0,1868,126,1441,96,169,0,2118,0,568,53,1901,0,2030,69,0,25,1042,819,54,2084,1042,86,28,166,1255,0,105,948,0,0,0,0,0,0,0,0,0,0,0,0,0,0,0,0,0,0,0,0,0,0,0,0,0,0,0,0,0,0,0,0,0,0,0,0,0,0,0,0,0,0,0,0,0,0,0,0],"split_type":[0,0,0,0,0,0,0,0,0,0,0,0,0,0,0,0,0,0,0,0,0,0,0,0,0,0,0,0,0,0,0,0,0,0,0,0,0,0,0,0,0,0,0,0,0,0,0,0,0,0,0,0,0,0,0,0,0,0,0,0,0,0,0,0,0,0,0,0,0,0,0,0,0,0,0,0,0,0,0,0,0,0,0,0,0,0,0,0,0,0,0,0,0,0,0,0,0,0,0,0,0,0,0,0,0,0,0,0,0],"sum_hessian":[2.094426E3,5.381001E2,1.5563258E3,4.2028094E2,1.17819176E2,1.3170619E3,2.3926398E2,2.3661543E2,1.8366551E2,4.7785797E1,7.003338E1,4.7717108E2,8.398908E2,1.9837608E2,4.088789E1,2.3463803E2,1.9774029E0,1.6776328E2,1.5902227E1,4.200844E1,5.77736E0,5.0537693E1,1.9495687E1,4.514166E2,2.5754501E1,6.2138116E2,2.1850964E2,1.1143059E2,8.694549E1,2.52014E1,1.5686488E1,2.3353099E2,1.1070504E0,1.4575563E2,2.200765E1,1.1177547E1,4.72468E0,4.069841E1,1.3100275E0,3.681068E0,2.0962923E0,9.946172E0,4.0591522E1,1.764166E1,1.8540264E0,4.273572E2,2.4059378E1,1.7192446E0,2.4035257E1,3.7568443E1,5.8381274E2,2.1282005E2,5.6895967E0,9.290366E1,1.852693E1,8.429663E1,2.648861E0,2.2353285E1,2.8481157E0,3.072497E0,1.2613992E1,2.2716125E2,6.369731E0,1.3642682E2,9.328811E0,1.336442E1,8.6432295E0,9.555327E0,1.6222196E0,1.3676313E0,3.3570487E0,3.7673283E1,3.0251281E0,2.601237E0,1.0798309E0,8.263694E0,1.6824778E0,3.508649E1,5.50503E0,1.6467384E1,1.174276E0,4.1315485E2,1.4202371E1,2.2590273E1,1.4691049E0,2.1860905E1,2.1743512E0,2.3701351E1,1.3867092E1,5.6366486E2,2.014788E1,2.068478E2,5.972248E0,1.2422979E0,4.4472985E0,5.2780094E1,4.012357E1,1.64486E1,2.0783286E0,8.069295E1,3.6036801E0,1.4342273E0,1.2146336E0,7.465105E0,1.4888181E1,1.1696447E0,1.9028522E0,7.704278E0,4.9097133E0],"tree_param":{"num_deleted":"0","num_feature":"2215","num_nodes":"109","size_leaf_vector":"1"}},{"base_weights":[-3.3465184E-3,-8.299139E-1,2.799845E-1,-9.591734E-1,-3.837693E-1,4.181483E-1,-4.808003E-1,-7.806329E-1,-1.186735E0,-5.880821E-1,6.7487997E-1,3.2157597E-1,1.224713E0,-6.722846E-1,3.78686E-1,-8.414501E-1,2.4586488E-2,-1.2173805E0,2.297559E-1,-6.8114674E-1,6.7831826E-1,9.1528654E-1,-4.975323E-2,2.5973085E-1,1.566536E0,1.2764369E0,-6.023903E-1,-8.2014924E-1,2.651872E-1,-2.263501E-1,9.5423824E-1,-8.7335426E-1,7.515758E-1,-9.1116613E-1,5.039396E-1,-1.2369654E0,3.4308188E-2,-3.0443495E-2,5.2706208E-2,-7.4468935E-1,1.0111506E0,-2.6806602E-1,6.435628E-2,1.1295166E0,-3.2284778E-2,-8.50074E-2,4.562766E-1,2.0060813E-1,1.6619505E0,1.3199625E0,-4.9896386E-1,3.2157784E-3,-5.079918E-2,-8.765143E-1,5.1874137E-1,-4.4283763E-1,8.7453717E-1,-5.0632054E-1,7.964211E-2,4.0777573E-1,1.4055334E0,-4.641985E-2,5.938696E-3,-1.717469E-2,5.9132796E-2,-5.6491267E-2,-8.394792E-3,4.3743357E-2,-5.0489396E-2,-6.2638514E-2,7.5504743E-3,-3.9714567E-2,6.114326E-2,4.999831E-3,6.73903E-2,2.1564793E-2,-4.114395E-2,6.480818E-2,-2.5045646E-2,-7.6294267E-3,7.64288E-2,1.5855843E-2,4.384537E-2,-5.7725396E-2,6.838465E-2,2.4558071E-2,8.465884E-2,6.816864E-2,5.856959E-3,6.3725077E-3,-5.217154E-2,-4.773935E-2,-4.583887E-3,4.7307804E-2,-4.1864287E-2,-3.96702E-2,2.8176565E-2,6.379679E-2,-1.2472235E-2,-4.7661986E-2,3.2293204E-2,3.831496E-2,-3.77815E-2,7.9761595E-2,1.231536E-2],"categories":[],"categories_nodes":[],"categories_segments":[],"categories_sizes":[],"default_left":[0,0,0,0,0,0,0,0,0,0,0,0,0,0,0,0,0,0,0,0,0,0,0,0,0,0,0,0,0,0,0,0,0,0,0,0,0,0,0,0,0,0,0,0,0,0,0,0,0,0,0,0,0,0,0,0,0,0,0,0,0,0,0,0,0,0,0,0,0,0,0,0,0,0,0,0,0,0,0,0,0,0,0,0,0,0,0,0,0,0,0,0,0,0,0,0,0,0,0,0,0,0,0,0,0],"id":9,"left_children":[1,3,5,7,9,11,13,15,17,19,21,23,25,27,29,31,33,35,37,39,41,43,-1,45,47,49,51,53,55,57,59,61,63,65,67,69,-1,-1,-1,71,73,75,-1,77,-1,79,81,83,85,87,89,-1,-1,91,93,95,97,99,-1,101,103,-1,-1,-1,-1,-1,-1,-1,-1,-1,-1,-1,-1,-1,-1,-1,-1,-1,-1,-1,-1,-1,-1,-1,-1,-1,-1,-1,-1,-1,-1,-1,-1,-1,-1,-1,-1,-1,-1,-1,-1,-1,-1,-1,-1],"loss_changes":[4.8375146E2,3.0040588E1,1.618986E2,1.5657593E1,2.6378492E1,1.0105446E2,3.924273E1,1.1364822E1,7.986206E0,1.2391872E1,8.899098E0,8.925443E1,1.3896805E1,2.712281E1,1.5469095E1,1.1604431E1,8.191883E0,7.3330994E0,3.8225083E0,1.0946312E1,4.626198E0,6.7201805E0,0E0,7.528959E1,6.823303E0,1.1122345E1,1.3071941E0,1.3125282E1,1.2121859E1,1.2094158E1,5.0101395E0,1.1668015E1,2.6564999E0,8.1725025E-1,7.645608E0,3.9736328E0,0E0,0E0,0E0,9.943951E0,1.0476024E0,1.804687E0,0E0,5.0282383E0,0E0,4.4300922E1,4.1134583E1,9.048027E0,1.0398407E0,6.7557526E0,1.485605E0,0E0,0E0,9.832756E0,5.087424E0,5.119824E0,7.065116E0,1.0896414E1,0E0,5.4378457E0,2.2439022E0,0E0,0E0,0E0,0E0,0E0,0E0,0E0,0E0,0E0,0E0,0E0,0E0,0E0,0E0,0E0,0E0,0E0,0E0,0E0,0E0,0E0,0E0,0E0,0E0,0E0,0E0,0E0,0E0,0E0,0E0,0E0,0E0,0E0,0E0,0E0,0E0,0E0,0E0,0E0,0E0,0E0,0E0,0E0,0E0],"parents":[2147483647,0,0,1,1,2,2,3,3,4,4,5,5,6,6,7,7,8,8,9,9,10,10,11,11,12,12,13,13,14,14,15,15,16,16,17,17,18,18,19,19,20,20,21,21,23,23,24,24,25,25,26,26,27,27,28,28,29,29,30,30,31,31,32,32,33,33,34,34,35,35,39,39,40,40,41,41,43,43,45,45,46,46,47,47,48,48,49,49,50,50,53,53,54,54,55,55,56,56,57,57,59,59,60,60],"right_children":[2,4,6,8,10,12,14,16,18,20,22,24,26,28,30,32,34,36,38,40,42,44,-1,46,48,50,52,54,56,58,60,62,64,66,68,70,-1,-1,-1,72,74,76,-1,78,-1,80,82,84,86,88,90,-1,-1,92,94,96,98,100,-1,102,104,-1,-1,-1,-1,-1,-1,-1,-1,-1,-1,-1,-1,-1,-1,-1,-1,-1,-1,-1,-1,-1,-1,-1,-1,-1,-1,-1,-1,-1,-1,-1,-1,-1,-1,-1,-1,-1,-1,-1,-1,-1,-1,-1,-1],"split_conditions":[1E0,1E0,1E0,1E0,1E0,1E0,1E0,1E0,1E0,1E0,1E0,1E0,1E0,1E0,1E0,1E0,1E0,1E0,1E0,1E0,1E0,1E0,-4.975323E-2,1E0,1E0,1E0,1E0,1E0,1E0,1E0,1E0,1E0,1E0,1E0,1E0,1E0,3.4308188E-2,-3.0443495E-2,5.2706208E-2,1E0,1E0,1E0,6.435628E-2,1E0,-3.2284778E-2,1E0,1E0,1E0,1E0,1E0,1E0,3.2157784E-3,-5.079918E-2,1E0,1E0,1E0,1E0,1E0,7.964211E-2,1E0,1E0,-4.641985E-2,5.938696E-3,-1.717469E-2,5.9132796E-2,-5.6491267E-2,-8.394792E-3,4.3743357E-2,-5.0489396E-2,-6.2638514E-2,7.5504743E-3,-3.9714567E-2,6.114326E-2,4.999831E-3,6.73903E-2,2.1564793E-2,-4.114395E-2,6.480818E-2,-2.5045646E-2,-7.6294267E-3,7.64288E-2,1.5855843E-2,4.384537E-2,-5.7725396E-2,6.838465E-2,2.4558071E-2,8.465884E-2,6.816864E-2,5.856959E-3,6.3725077E-3,-5.217154E-2,-4.773935E-2,-4.583887E-3,4.7307804E-2,-4.1864287E-2,-3.96702E-2,2.8176565E-2,6.379679E-2,-1.2472235E-2,-4.7661986E-2,3.2293204E-2,3.831496E-2,-3.77815E-2,7.9761595E-2,1.231536E-2],"split_indices":[125,99,139,139,1042,1770,1921,1057,387,961,1002,881,8,71,1319,1070,2040,1569,1042,1172,162,1329,0,155,1042,43,62,41,126,1031,1093,1770,155,554,42,586,0,0,0,214,62,156,0,1412,0,536,1703,62,101,1832,159,0,0,912,123,519,1108,1932,0,653,78,0,0,0,0,0,0,0,0,0,0,0,0,0,0,0,0,0,0,0,0,0,0,0,0,0,0,0,0,0,0,0,0,0,0,0,0,0,0,0,0,0,0,0,0],"split_type":[0,0,0,0,0,0,0,0,0,0,0,0,0,0,0,0,0,0,0,0,0,0,0,0,0,0,0,0,0,0,0,0,0,0,0,0,0,0,0,0,0,0,0,0,0,0,0,0,0,0,0,0,0,0,0,0,0,0,0,0,0,0,0,0,0,0,0,0,0,0,0,0,0,0,0,0,0,0,0,0,0,0,0,0,0,0,0,0,0,0,0,0,0,0,0,0,0,0,0,0,0,0,0,0,0],"sum_hessian":[2.0636252E3,5.263026E2,1.5373225E3,4.0718176E2,1.1912084E2,1.301425E3,2.3589745E2,2.3064926E2,1.7653252E2,1.0022293E2,1.8897911E1,1.163513E3,1.379121E2,1.9309563E2,4.2801823E1,2.1441014E2,1.6239119E1,1.7293175E2,3.600775E0,9.379249E1,6.430438E0,1.6914755E1,1.9831558E0,1.1096007E3,5.3912327E1,1.3440848E2,3.5036187E0,1.6689667E2,2.6198961E1,2.1162233E1,2.163959E1,2.1064326E2,3.7668762E0,5.1956964E0,1.1043422E1,1.7151724E2,1.4145077E0,1.9145365E0,1.6862385E0,9.09379E1,2.8545964E0,2.7364085E0,3.6940293E0,1.5116557E1,1.7981982E0,4.031134E2,7.0648724E2,3.7226357E0,5.0189693E1,1.3144257E2,2.9659088E0,1.6646786E0,1.8389401E0,1.6048582E2,6.410844E0,1.2244692E1,1.3954269E1,1.89652E1,2.1970325E0,1.0648791E1,1.0990798E1,1.9963202E2,1.1011242E1,1.1213919E0,2.6454844E0,3.612792E0,1.5829041E0,9.208897E0,1.834526E0,1.6968248E2,1.8347619E0,8.928337E1,1.6545238E0,1.1200968E0,1.7344996E0,1.3089978E0,1.4274107E0,1.3900769E1,1.2157878E0,3.8777768E2,1.5335719E1,5.3217773E2,1.7430956E2,1.7275423E0,1.9950935E0,1.7384343E0,4.845126E1,1.26735176E2,4.707393E0,1.7353225E0,1.2305863E0,1.4573495E2,1.4750863E1,5.1042585E0,1.3065848E0,9.238202E0,3.00649E0,1.0182634E1,3.771635E0,1.3789197E1,5.176004E0,8.40116E0,2.247631E0,9.121944E0,1.8688538E0],"tree_param":{"num_deleted":"0","num_feature":"2215","num_nodes":"105","size_leaf_vector":"1"}},{"base_weights":[-2.0528585E-3,-8.2599103E-1,2.756568E-1,-9.532734E-1,-4.7753626E-1,4.110587E-1,-4.724432E-1,-7.6832724E-1,-1.1677957E0,-9.352216E-1,-2.074836E-1,3.2474175E-1,1.1400728E0,-5.814527E-1,7.646021E-1,-8.008088E-1,7.019806E-2,-1.212905E0,2.2946086E-2,-1.0467697E0,1.0731959E0,-3.5800725E-1,8.503002E-1,2.6559117E-1,1.4794439E0,1.2421982E0,2.918004E-1,-3.0210358E-1,-9.5642823E-1,3.752719E-2,1.4027934E0,-8.763542E-1,-2.7670315E-2,-1.250595E0,9.710157E-2,-3.541174E-1,5.6862038E-2,-1.1173488E0,5.2964058E-2,1.1318359E-2,6.86797E-2,-7.182296E-1,5.903458E-2,1.1800015E0,-4.2204164E-2,-7.9370224E-1,3.2224536E-1,-5.58084E-3,1.5313618E0,1.5230919E0,9.7449243E-1,-1.9484666E-1,6.8589784E-2,-5.955048E-1,4.7266353E-2,-1.0171282E0,7.17107E-2,6.1300033E-1,-4.5029514E-2,1.5256149E-2,7.587939E-2,-4.6048727E-2,1.5261324E-2,-9.921762E-3,6.923099E-2,-6.331051E-2,2.4044503E-2,-4.8539404E-2,5.4855477E-2,-4.415905E-2,3.3047404E-2,-5.9449553E-2,4.7800537E-2,-4.0244635E-2,5.3831436E-2,-4.845714E-3,6.956544E-2,-3.0990944E-3,7.500911E-2,-4.550662E-2,5.0141342E-2,1.4727456E-4,2.5083525E-2,7.851087E-2,2.8766623E-2,7.76095E-2,5.10605E-3,5.3121127E-2,-1.5964525E-2,-3.1121528E-2,5.1809173E-2,-3.440891E-2,5.7657566E-2,1.1552561E-2,-6.3506834E-2,-5.4534167E-2,5.0543E-2,-8.429194E-3,6.250452E-2],"categories":[],"categories_nodes":[],"categories_segments":[],"categories_sizes":[],"default_left":[0,0,0,0,0,0,0,0,0,0,0,0,0,0,0,0,0,0,0,0,0,0,0,0,0,0,0,0,0,0,0,0,0,0,0,0,0,0,0,0,0,0,0,0,0,0,0,0,0,0,0,0,0,0,0,0,0,0,0,0,0,0,0,0,0,0,0,0,0,0,0,0,0,0,0,0,0,0,0,0,0,0,0,0,0,0,0,0,0,0,0,0,0,0,0,0,0,0,0],"id":10,"left_children":[1,3,5,7,9,11,13,15,17,19,21,23,25,27,29,31,-1,33,35,37,39,41,43,45,47,49,51,53,55,57,59,61,63,65,67,69,-1,71,-1,-1,-1,73,75,77,-1,79,81,-1,83,85,87,89,-1,91,93,95,-1,97,-1,-1,-1,-1,-1,-1,-1,-1,-1,-1,-1,-1,-1,-1,-1,-1,-1,-1,-1,-1,-1,-1,-1,-1,-1,-1,-1,-1,-1,-1,-1,-1,-1,-1,-1,-1,-1,-1,-1,-1,-1],"loss_changes":[4.6995102E2,2.2507843E1,1.5579248E2,1.4108582E1,1.717471E1,8.151073E1,3.225323E1,1.5661926E1,9.330215E0,1.274221E1,1.4580737E1,7.91687E1,1.1536926E1,2.2477997E1,9.011736E0,1.1869507E1,0E0,8.361053E0,3.4710557E0,8.562077E0,5.088501E-1,1.1940036E1,7.40139E0,6.682971E1,4.841774E0,7.7117004E0,8.711699E0,1.2945647E1,1.4856934E1,6.0365005E0,8.4436226E-1,1.005986E1,4.8953676E0,4.9967194E0,7.039939E0,3.9235318E0,0E0,8.343262E0,0E0,0E0,0E0,7.488146E0,7.9526734E0,4.075674E0,0E0,1.2753063E1,6.036611E1,0E0,1.133194E0,2.2355042E0,7.7783737E0,6.935946E0,0E0,1.1905401E1,1.4445019E1,1.4621498E1,0E0,3.6422935E0,0E0,0E0,0E0,0E0,0E0,0E0,0E0,0E0,0E0,0E0,0E0,0E0,0E0,0E0,0E0,0E0,0E0,0E0,0E0,0E0,0E0,0E0,0E0,0E0,0E0,0E0,0E0,0E0,0E0,0E0,0E0,0E0,0E0,0E0,0E0,0E0,0E0,0E0,0E0,0E0,0E0],"parents":[2147483647,0,0,1,1,2,2,3,3,4,4,5,5,6,6,7,7,8,8,9,9,10,10,11,11,12,12,13,13,14,14,15,15,17,17,18,18,19,19,20,20,21,21,22,22,23,23,24,24,25,25,26,26,27,27,28,28,29,29,30,30,31,31,32,32,33,33,34,34,35,35,37,37,41,41,42,42,43,43,45,45,46,46,48,48,49,49,50,50,51,51,53,53,54,54,55,55,57,57],"right_children":[2,4,6,8,10,12,14,16,18,20,22,24,26,28,30,32,-1,34,36,38,40,42,44,46,48,50,52,54,56,58,60,62,64,66,68,70,-1,72,-1,-1,-1,74,76,78,-1,80,82,-1,84,86,88,90,-1,92,94,96,-1,98,-1,-1,-1,-1,-1,-1,-1,-1,-1,-1,-1,-1,-1,-1,-1,-1,-1,-1,-1,-1,-1,-1,-1,-1,-1,-1,-1,-1,-1,-1,-1,-1,-1,-1,-1,-1,-1,-1,-1,-1,-1],"split_conditions":[1E0,1E0,1E0,1E0,1E0,1E0,1E0,1E0,1E0,1E0,1E0,1E0,1E0,1E0,1E0,1E0,7.019806E-2,1E0,1E0,1E0,1E0,1E0,1E0,1E0,1E0,1E0,1E0,1E0,1E0,1E0,1E0,1E0,1E0,1E0,1E0,1E0,5.6862038E-2,1E0,5.2964058E-2,1.1318359E-2,6.86797E-2,1E0,1E0,1E0,-4.2204164E-2,1E0,1E0,-5.58084E-3,1E0,1E0,1E0,1E0,6.8589784E-2,1E0,1E0,1E0,7.17107E-2,1E0,-4.5029514E-2,1.5256149E-2,7.587939E-2,-4.6048727E-2,1.5261324E-2,-9.921762E-3,6.923099E-2,-6.331051E-2,2.4044503E-2,-4.8539404E-2,5.4855477E-2,-4.415905E-2,3.3047404E-2,-5.9449553E-2,4.7800537E-2,-4.0244635E-2,5.3831436E-2,-4.845714E-3,6.956544E-2,-3.0990944E-3,7.500911E-2,-4.550662E-2,5.0141342E-2,1.4727456E-4,2.5083525E-2,7.851087E-2,2.8766623E-2,7.76095E-2,5.10605E-3,5.3121127E-2,-1.5964525E-2,-3.1121528E-2,5.1809173E-2,-3.440891E-2,5.7657566E-2,1.1552561E-2,-6.3506834E-2,-5.4534167E-2,5.0543E-2,-8.429194E-3,6.250452E-2],"split_indices":[125,141,139,139,162,1770,2072,1015,841,847,1405,881,719,123,1921,1057,0,1611,1195,730,114,128,1048,1917,65,154,804,1042,337,556,110,324,1532,1721,208,113,0,1320,0,0,0,586,2026,97,0,1984,155,0,754,1346,69,101,0,805,39,718,0,1206,0,0,0,0,0,0,0,0,0,0,0,0,0,0,0,0,0,0,0,0,0,0,0,0,0,0,0,0,0,0,0,0,0,0,0,0,0,0,0,0,0],"split_type":[0,0,0,0,0,0,0,0,0,0,0,0,0,0,0,0,0,0,0,0,0,0,0,0,0,0,0,0,0,0,0,0,0,0,0,0,0,0,0,0,0,0,0,0,0,0,0,0,0,0,0,0,0,0,0,0,0,0,0,0,0,0,0,0,0,0,0,0,0,0,0,0,0,0,0,0,0,0,0,0,0,0,0,0,0,0,0,0,0,0,0,0,0,0,0,0,0,0,0],"sum_hessian":[2.0518467E3,5.167435E2,1.5351033E3,3.7721863E2,1.3952489E2,1.3002211E3,2.3488216E2,2.0503409E2,1.7218456E2,5.086157E1,8.8663315E1,1.1638625E3,1.3635854E2,2.163474E2,1.8534758E1,2.026355E2,2.398594E0,1.6588176E2,6.30279E0,4.8638954E1,2.2226138E0,7.819731E1,1.04660015E1,1.108318E3,5.55445E1,1.2129159E2,1.5066943E1,1.2501753E2,9.1329865E1,9.158975E0,9.375783E0,1.8447632E2,1.8159172E1,1.6128677E2,4.594989E0,5.2189627E0,1.0838274E0,4.751603E1,1.1229244E0,1.0411489E0,1.1814649E0,4.1569344E1,3.6627968E1,9.015335E0,1.4506665E0,5.5606373E1,1.0527117E3,1.7188629E0,5.3825634E1,5.6899567E1,6.439202E1,1.0951687E1,4.1152563E0,6.7568726E1,5.7448807E1,8.962867E1,1.7011912E0,5.8914948E0,3.26748E0,1.2340186E0,8.141765E0,1.7797594E2,6.500386E0,1.6967112E1,1.1920588E0,1.6011154E2,1.1752391E0,2.236206E0,2.3587828E0,3.5162046E0,1.7027582E0,4.6341305E1,1.174726E0,4.0180805E1,1.3885374E0,3.3619865E1,3.0081046E0,2.0130634E0,7.0022717E0,5.2685318E1,2.921055E0,3.7909732E2,6.736143E2,5.1106106E1,2.7195292E0,5.5667286E1,1.2322807E0,6.046166E1,3.9303617E0,8.495319E0,2.4563673E0,6.474395E1,2.8247755E0,5.1139225E1,6.309582E0,8.693763E1,2.6910427E0,2.9759612E0,2.9155338E0],"tree_param":{"num_deleted":"0","num_feature":"2215","num_nodes":"99","size_leaf_vector":"1"}},{"base_weights":[9.779225E-4,-7.9447585E-1,2.607684E-1,-5.936503E-1,-1.0399029E0,3.8374972E-1,-4.3084303E-1,-8.339872E-1,-3.1268728E-1,-1.0634854E0,7.278838E-1,2.9574934E-1,1.1191435E0,-7.011228E-1,5.791954E-2,-9.2268217E-1,5.522892E-1,-6.261042E-1,9.966632E-2,-1.0952462E0,2.872991E-1,6.3540615E-2,-1.3926807E-2,1.4795397E-1,7.664582E-1,1.2018695E0,1.9223289E-1,-4.1788346E-1,-1.0953687E0,-1.3607717E-1,1.0628414E0,-9.696965E-1,5.612252E-1,7.9344225E-1,-3.650659E-2,-7.576514E-1,2.403812E-3,-5.303019E-1,4.405338E-1,-1.1169039E0,3.4277666E-1,-3.6115695E-2,6.1185908E-2,-7.1301445E-2,4.546628E-1,3.9200965E-1,9.4453645E-1,1.2264972E0,-3.6539774E-2,9.1638225E-1,-3.1355748E-1,-4.9992388E-1,6.860532E-2,-1.1679038E0,3.239388E-2,-3.8643786E-1,6.633949E-1,1.3454479E0,-4.3786224E-2,-5.0040822E-2,5.4865E-2,5.3707458E-2,-3.567412E-2,5.4868866E-2,-3.4474705E-3,-4.102898E-2,5.128923E-2,-1.3048887E-2,8.0233954E-2,-5.4520883E-2,1.2260957E-2,-5.2515823E-2,2.9714877E-2,-5.6599077E-2,3.3823233E-2,-2.7820561E-2,6.671726E-2,-7.478909E-3,6.2016755E-2,1.2485746E-2,4.2924408E-2,2.3690727E-2,-5.3678352E-2,4.9479373E-2,-5.7378877E-2,6.271548E-2,-1.1229767E-2,3.9365976E-3,6.8500124E-2,-3.8990542E-2,3.91556E-2,-2.9176285E-2,3.556594E-2,-6.0716446E-2,3.759415E-2,2.9617196E-2,-3.068525E-2,7.854966E-2,6.191337E-3,7.465467E-2,-3.354925E-3],"categories":[],"categories_nodes":[],"categories_segments":[],"categories_sizes":[],"default_left":[0,0,0,0,0,0,0,0,0,0,0,0,0,0,0,0,0,0,0,0,0,0,0,0,0,0,0,0,0,0,0,0,0,0,0,0,0,0,0,0,0,0,0,0,0,0,0,0,0,0,0,0,0,0,0,0,0,0,0,0,0,0,0,0,0,0,0,0,0,0,0,0,0,0,0,0,0,0,0,0,0,0,0,0,0,0,0,0,0,0,0,0,0,0,0,0,0,0,0,0,0],"id":11,"left_children":[1,3,5,7,9,11,13,15,17,19,21,23,25,27,29,31,33,35,37,39,41,-1,-1,43,45,47,49,51,53,55,57,59,61,63,-1,65,67,69,71,73,75,-1,-1,77,79,81,83,85,-1,87,89,91,-1,93,-1,95,97,99,-1,-1,-1,-1,-1,-1,-1,-1,-1,-1,-1,-1,-1,-1,-1,-1,-1,-1,-1,-1,-1,-1,-1,-1,-1,-1,-1,-1,-1,-1,-1,-1,-1,-1,-1,-1,-1,-1,-1,-1,-1,-1,-1],"loss_changes":[4.2254904E2,2.4194061E1,1.3126492E2,1.8591377E1,1.0162872E1,8.439209E1,3.0843285E1,1.8937103E1,1.6903912E1,9.866943E0,2.2983637E0,8.1324585E1,1.0470276E1,1.6316788E1,1.6511137E1,1.0397362E1,3.559906E0,6.134592E0,1.2503014E1,7.164337E0,6.4686294E0,0E0,0E0,6.002588E1,1.8266205E1,6.985611E0,4.9116E0,1.3760732E1,8.619934E0,1.45183E1,8.682546E0,9.927582E0,4.016342E0,2.3276052E0,0E0,7.72596E0,6.257264E0,9.178755E0,9.248655E0,6.57251E0,4.305235E0,0E0,0E0,5.368686E1,3.057611E1,1.1513171E1,1.8920853E1,5.3950043E0,0E0,1.9618182E0,4.7925425E0,9.109955E0,0E0,6.265877E0,0E0,1.2574295E1,8.307102E0,2.6756763E0,0E0,0E0,0E0,0E0,0E0,0E0,0E0,0E0,0E0,0E0,0E0,0E0,0E0,0E0,0E0,0E0,0E0,0E0,0E0,0E0,0E0,0E0,0E0,0E0,0E0,0E0,0E0,0E0,0E0,0E0,0E0,0E0,0E0,0E0,0E0,0E0,0E0,0E0,0E0,0E0,0E0,0E0,0E0],"parents":[2147483647,0,0,1,1,2,2,3,3,4,4,5,5,6,6,7,7,8,8,9,9,10,10,11,11,12,12,13,13,14,14,15,15,16,16,17,17,18,18,19,19,20,20,23,23,24,24,25,25,26,26,27,27,28,28,29,29,30,30,31,31,32,32,33,33,35,35,36,36,37,37,38,38,39,39,40,40,43,43,44,44,45,45,46,46,47,47,49,49,50,50,51,51,53,53,55,55,56,56,57,57],"right_children":[2,4,6,8,10,12,14,16,18,20,22,24,26,28,30,32,34,36,38,40,42,-1,-1,44,46,48,50,52,54,56,58,60,62,64,-1,66,68,70,72,74,76,-1,-1,78,80,82,84,86,-1,88,90,92,-1,94,-1,96,98,100,-1,-1,-1,-1,-1,-1,-1,-1,-1,-1,-1,-1,-1,-1,-1,-1,-1,-1,-1,-1,-1,-1,-1,-1,-1,-1,-1,-1,-1,-1,-1,-1,-1,-1,-1,-1,-1,-1,-1,-1,-1,-1,-1],"split_conditions":[1E0,1E0,1E0,1E0,1E0,1E0,1E0,1E0,1E0,1E0,1E0,1E0,1E0,1E0,1E0,1E0,1E0,1E0,1E0,1E0,1E0,6.3540615E-2,-1.3926807E-2,1E0,1E0,1E0,1E0,1E0,1E0,1E0,1E0,1E0,1E0,1E0,-3.650659E-2,1E0,1E0,1E0,1E0,1E0,1E0,-3.6115695E-2,6.1185908E-2,1E0,1E0,1E0,1E0,1E0,-3.6539774E-2,1E0,1E0,1E0,6.860532E-2,1E0,3.239388E-2,1E0,1E0,1E0,-4.3786224E-2,-5.0040822E-2,5.4865E-2,5.3707458E-2,-3.567412E-2,5.4868866E-2,-3.4474705E-3,-4.102898E-2,5.128923E-2,-1.3048887E-2,8.0233954E-2,-5.4520883E-2,1.2260957E-2,-5.2515823E-2,2.9714877E-2,-5.6599077E-2,3.3823233E-2,-2.7820561E-2,6.671726E-2,-7.478909E-3,6.2016755E-2,1.2485746E-2,4.2924408E-2,2.3690727E-2,-5.3678352E-2,4.9479373E-2,-5.7378877E-2,6.271548E-2,-1.1229767E-2,3.9365976E-3,6.8500124E-2,-3.8990542E-2,3.91556E-2,-2.9176285E-2,3.556594E-2,-6.0716446E-2,3.759415E-2,2.9617196E-2,-3.068525E-2,7.854966E-2,6.191337E-3,7.465467E-2,-3.354925E-3],"split_indices":[125,139,139,150,1399,1770,862,536,145,387,155,1703,1109,123,2072,1532,615,87,1186,999,1042,0,0,88,1255,1479,80,970,1967,71,369,1495,38,97,0,1932,277,481,158,1569,714,0,0,881,128,249,1389,43,0,155,804,42,0,2023,0,817,133,624,0,0,0,0,0,0,0,0,0,0,0,0,0,0,0,0,0,0,0,0,0,0,0,0,0,0,0,0,0,0,0,0,0,0,0,0,0,0,0,0,0,0,0],"split_type":[0,0,0,0,0,0,0,0,0,0,0,0,0,0,0,0,0,0,0,0,0,0,0,0,0,0,0,0,0,0,0,0,0,0,0,0,0,0,0,0,0,0,0,0,0,0,0,0,0,0,0,0,0,0,0,0,0,0,0,0,0,0,0,0,0,0,0,0,0,0,0,0,0,0,0,0,0,0,0,0,0,0,0,0,0,0,0,0,0,0,0,0,0,0,0,0,0,0,0,0,0],"sum_hessian":[2.0427413E3,5.0239566E2,1.5403457E3,2.781845E2,2.2421114E2,1.3081735E3,2.3217227E2,1.4887117E2,1.2931334E2,2.2165266E2,2.5584671E0,1.1696145E3,1.3855896E2,1.492206E2,8.2951675E1,1.4023335E2,8.637818E0,7.3176125E1,5.613722E1,2.1674553E2,4.9071274E0,1.4912723E0,1.0671949E0,8.9112823E2,2.7848627E2,1.269336E2,1.1625358E1,8.8034004E1,6.11866E1,7.0253975E1,1.26977E1,1.362627E2,3.9706583E0,7.5915565E0,1.0462618E0,6.0341187E1,1.2834938E1,1.951506E1,3.6622158E1,2.1374962E2,2.9959233E0,2.471302E0,2.4358253E0,5.200968E2,3.7103146E2,9.0787315E1,1.8769894E2,1.25697235E2,1.2363604E0,4.446886E0,7.178471E0,8.48651E1,3.168903E0,5.905923E1,2.1273663E0,5.3893467E1,1.636051E1,1.1349162E1,1.3485378E0,1.3474977E2,1.5129297E0,2.943552E0,1.0271063E0,5.411785E0,2.1797717E0,5.8806114E1,1.5350735E0,1.1741924E1,1.0930135E0,1.1095414E1,8.419646E0,2.8788564E0,3.37433E1,2.1233324E2,1.4163686E0,1.8013004E0,1.1946228E0,4.9164218E2,2.8454596E1,2.4719461E2,1.2383686E2,8.6628624E1,4.1586914E0,1.8425816E2,3.4407732E0,1.2346643E2,2.2308087E0,1.9744505E0,2.4724357E0,5.239714E0,1.9387571E0,7.987055E1,4.9945483E0,5.8023552E1,1.0356818E0,9.852946E0,4.404052E1,5.3872075E0,1.0973303E1,1.0223532E1,1.1256304E0],"tree_param":{"num_deleted":"0","num_feature":"2215","num_nodes":"101","size_leaf_vector":"1"}},{"base_weights":[-9.123144E-3,-7.7533925E-1,2.3957844E-1,-8.974145E-1,-3.5036215E-1,-8.140016E-1,3.0534977E-1,-9.5205295E-1,-2.0571992E-1,-5.5231327E-1,6.387081E-1,-8.9432526E-1,6.1461914E-2,1.4873238E-1,7.191397E-1,-9.714315E-1,4.078192E-1,-4.229421E-1,7.362732E-2,-6.4732164E-1,6.5943587E-1,-6.0837585E-1,9.010102E-1,-9.675238E-1,9.514163E-1,5.7938762E-2,9.419345E-1,6.402938E-1,1.5000794E0,-9.8300445E-1,5.0053526E-2,-3.654639E-2,8.1626886E-1,-6.140902E-1,7.541568E-1,-7.212339E-1,1.053497E0,-3.920225E-2,1.1183263E0,-3.9085906E-4,-4.514388E-2,1.1052656E0,-4.2031012E-2,-1.0252215E0,5.186372E-2,1.08717745E-2,5.9309866E-2,-2.047034E-1,3.3119836E-1,1.3310612E0,6.2132984E-1,5.612834E-1,1.2917756E0,1.5249346E0,2.0953491E-2,-5.1382996E-2,-2.2661744E-2,6.4886376E-2,-1.8868074E-2,-4.067818E-2,2.4897477E-2,6.9115706E-2,-7.0424713E-3,-4.0165987E-2,2.7898181E-2,5.8639883E-3,6.79298E-2,6.7047566E-2,1.133635E-2,6.3310556E-2,-2.2657147E-2,-5.3743463E-2,6.3885204E-2,-1.7498773E-2,3.2268982E-2,1.3137623E-2,8.2074404E-2,2.0080296E-2,6.996475E-2,2.216403E-2,6.636428E-2,2.0890096E-2,5.491292E-2,6.8539485E-2,-7.567635E-4,7.755852E-2,2.6734231E-2],"categories":[],"categories_nodes":[],"categories_segments":[],"categories_sizes":[],"default_left":[0,0,0,0,0,0,0,0,0,0,0,0,0,0,0,0,0,0,0,0,0,0,0,0,0,0,0,0,0,0,0,0,0,0,0,0,0,0,0,0,0,0,0,0,0,0,0,0,0,0,0,0,0,0,0,0,0,0,0,0,0,0,0,0,0,0,0,0,0,0,0,0,0,0,0,0,0,0,0,0,0,0,0,0,0,0,0],"id":12,"left_children":[1,3,5,7,9,11,13,15,17,19,21,23,-1,25,27,29,31,33,-1,35,37,39,41,43,45,47,49,51,53,55,-1,-1,57,59,61,63,65,-1,67,-1,-1,69,-1,71,-1,-1,-1,73,75,77,79,81,83,85,-1,-1,-1,-1,-1,-1,-1,-1,-1,-1,-1,-1,-1,-1,-1,-1,-1,-1,-1,-1,-1,-1,-1,-1,-1,-1,-1,-1,-1,-1,-1,-1,-1],"loss_changes":[3.8771765E2,2.555127E1,1.06691864E2,1.4417908E1,2.2903465E1,1.5957256E1,9.3639206E1,9.832764E0,1.140784E1,1.1282265E1,6.961812E0,1.2767258E1,0E0,7.560939E1,2.3479446E1,9.050415E0,3.264361E0,6.5314975E0,0E0,1.1814915E1,5.7460155E0,7.0115304E-1,6.83529E0,1.087661E1,4.0535116E-1,6.780293E1,1.2626984E1,1.7922134E1,3.189392E-1,7.856842E0,0E0,0E0,3.1871786E0,5.6742487E0,2.5653346E0,9.360073E0,1.0028849E0,0E0,8.849025E-1,0E0,0E0,4.4092693E0,0E0,1.0859268E1,0E0,0E0,0E0,5.9732475E1,4.108577E1,2.4720612E0,7.0793743E0,2.4569618E1,3.9875946E0,6.62384E-2,0E0,0E0,0E0,0E0,0E0,0E0,0E0,0E0,0E0,0E0,0E0,0E0,0E0,0E0,0E0,0E0,0E0,0E0,0E0,0E0,0E0,0E0,0E0,0E0,0E0,0E0,0E0,0E0,0E0,0E0,0E0,0E0,0E0],"parents":[2147483647,0,0,1,1,2,2,3,3,4,4,5,5,6,6,7,7,8,8,9,9,10,10,11,11,13,13,14,14,15,15,16,16,17,17,19,19,20,20,21,21,22,22,23,23,24,24,25,25,26,26,27,27,28,28,29,29,32,32,33,33,34,34,35,35,36,36,38,38,41,41,43,43,47,47,48,48,49,49,50,50,51,51,52,52,53,53],"right_children":[2,4,6,8,10,12,14,16,18,20,22,24,-1,26,28,30,32,34,-1,36,38,40,42,44,46,48,50,52,54,56,-1,-1,58,60,62,64,66,-1,68,-1,-1,70,-1,72,-1,-1,-1,74,76,78,80,82,84,86,-1,-1,-1,-1,-1,-1,-1,-1,-1,-1,-1,-1,-1,-1,-1,-1,-1,-1,-1,-1,-1,-1,-1,-1,-1,-1,-1,-1,-1,-1,-1,-1,-1],"split_conditions":[1E0,1E0,1E0,1E0,1E0,1E0,1E0,1E0,1E0,1E0,1E0,1E0,6.1461914E-2,1E0,1E0,1E0,1E0,1E0,7.362732E-2,1E0,1E0,1E0,1E0,1E0,1E0,1E0,1E0,1E0,1E0,1E0,5.0053526E-2,-3.654639E-2,1E0,1E0,1E0,1E0,1E0,-3.920225E-2,1E0,-3.9085906E-4,-4.514388E-2,1E0,-4.2031012E-2,1E0,5.186372E-2,1.08717745E-2,5.9309866E-2,1E0,1E0,1E0,1E0,1E0,1E0,1E0,2.0953491E-2,-5.1382996E-2,-2.2661744E-2,6.4886376E-2,-1.8868074E-2,-4.067818E-2,2.4897477E-2,6.9115706E-2,-7.0424713E-3,-4.0165987E-2,2.7898181E-2,5.8639883E-3,6.79298E-2,6.7047566E-2,1.133635E-2,6.3310556E-2,-2.2657147E-2,-5.3743463E-2,6.3885204E-2,-1.7498773E-2,3.2268982E-2,1.3137623E-2,8.2074404E-2,2.0080296E-2,6.996475E-2,2.216403E-2,6.636428E-2,2.0890096E-2,5.491292E-2,6.8539485E-2,-7.567635E-4,7.755852E-2,2.6734231E-2],"split_indices":[125,99,1917,477,1042,536,1008,1427,1141,961,150,469,0,1770,881,1721,1042,1441,0,1172,163,155,1643,592,75,1319,154,1583,222,208,0,0,126,2165,123,59,312,0,556,0,0,192,0,2160,0,0,0,969,22,145,1195,969,674,281,0,0,0,0,0,0,0,0,0,0,0,0,0,0,0,0,0,0,0,0,0,0,0,0,0,0,0,0,0,0,0,0,0],"split_type":[0,0,0,0,0,0,0,0,0,0,0,0,0,0,0,0,0,0,0,0,0,0,0,0,0,0,0,0,0,0,0,0,0,0,0,0,0,0,0,0,0,0,0,0,0,0,0,0,0,0,0,0,0,0,0,0,0,0,0,0,0,0,0,0,0,0,0,0,0,0,0,0,0,0,0,0,0,0,0,0,0,0,0,0,0,0,0],"sum_hessian":[2.0326565E3,4.9757556E2,1.5350809E3,3.856775E2,1.1189808E2,8.953052E1,1.4455504E3,3.570935E2,2.8583979E1,9.329121E1,1.8606874E1,8.668506E1,2.845453E0,1.0496301E3,3.959203E2,3.5235797E2,4.7355576E0,2.5970535E1,2.6134424E0,8.694035E1,6.350847E0,3.0042336E0,1.560264E1,8.383609E1,2.8489711E0,9.4278735E2,1.0684279E2,3.6126575E2,3.4654526E1,3.508014E2,1.5565596E0,1.0417284E0,3.693829E0,2.2753857E1,3.216678E0,8.387151E1,3.0688453E0,1.3610321E0,4.9898148E0,1.3262467E0,1.6779869E0,1.4291896E1,1.3107443E0,8.196575E1,1.8703396E0,1.1572509E0,1.6917202E0,4.8086096E2,4.6192636E2,4.684004E1,6.0002754E1,3.238513E2,3.7414467E1,3.3474205E1,1.1803195E0,3.2266354E2,2.8137861E1,2.5699947E0,1.1238345E0,1.9520712E1,3.2331448E0,1.5701787E0,1.6464992E0,7.916361E1,4.707898E0,1.0945482E0,1.9742969E0,3.5895495E0,1.4002653E0,1.3124005E1,1.1678908E0,8.075798E1,1.2077688E0,4.1118176E2,6.967919E1,4.4013544E2,2.1790928E1,3.6744003E0,4.3165638E1,4.921751E1,1.0785242E1,2.5696695E2,6.688435E1,3.523531E1,2.179157E0,3.205841E1,1.4157963E0],"tree_param":{"num_deleted":"0","num_feature":"2215","num_nodes":"87","size_leaf_vector":"1"}},{"base_weights":[7.191831E-3,-7.3228544E-1,2.4556147E-1,-8.3974755E-1,-3.159552E-1,-1.3653455E-2,4.9134433E-1,-9.609606E-1,-5.134495E-1,-5.1179147E-1,6.7652386E-1,-1.8837468E-1,7.371269E-1,4.255133E-1,1.3641993E0,-1.0028435E0,2.0470794E-1,-5.708852E-1,1.2832441E0,-8.575567E-1,-1.4373091E-1,3.15833E-1,6.890755E-2,-5.777223E-1,1.3056969E-2,9.932786E-1,-1.5377414E-1,3.1982818E-1,9.040593E-1,1.4349811E0,5.719951E-1,-1.034546E0,5.050391E-1,-4.983947E-1,8.002936E-1,-6.710606E-1,4.8237038E-1,8.430181E-2,7.339775E-3,-9.126646E-1,3.0869706E-2,-3.5776052E-1,1.3199519E0,-7.87209E-2,9.716708E-1,-6.480665E-1,9.8470736E-1,-6.1318513E-2,1.0336455E0,4.7072062E-1,1.341876E0,-6.688854E-1,1.3023597E0,2.74349E-1,1.3608205E0,-2.3152404E-1,1.0521685E0,1.9421097E-2,1.4643438E0,-3.0149022E-2,5.83672E-2,-5.3852808E-2,-3.0280054E-3,-4.835397E-3,7.162014E-2,-4.8219644E-2,2.9555182E-3,7.4885026E-2,-1.7619146E-2,-3.6559198E-2,4.890321E-2,4.2202245E-2,-4.0738363E-2,-5.456535E-2,-1.5126717E-2,-2.5789214E-2,5.317954E-2,1.1697264E-2,8.336144E-2,2.6354596E-2,-2.202571E-2,6.643219E-2,-3.598313E-3,-3.81515E-2,1.3443649E-2,-7.4497756E-4,7.7567235E-2,-5.587256E-3,7.149244E-2,7.5502425E-2,1.488089E-2,-1.4199197E-2,6.175526E-2,7.273278E-2,-2.5391921E-2,6.4128794E-4,-6.896614E-2,3.233472E-2,7.916724E-2,1.1368602E-2,6.528606E-2,7.462643E-2,-1.5117599E-3,2.7074296E-2,-4.5428135E-2,5.7168163E-2,-3.0809322E-2,7.411011E-2,2.044305E-2],"categories":[],"categories_nodes":[],"categories_segments":[],"categories_sizes":[],"default_left":[0,0,0,0,0,0,0,0,0,0,0,0,0,0,0,0,0,0,0,0,0,0,0,0,0,0,0,0,0,0,0,0,0,0,0,0,0,0,0,0,0,0,0,0,0,0,0,0,0,0,0,0,0,0,0,0,0,0,0,0,0,0,0,0,0,0,0,0,0,0,0,0,0,0,0,0,0,0,0,0,0,0,0,0,0,0,0,0,0,0,0,0,0,0,0,0,0,0,0,0,0,0,0,0,0,0,0,0,0],"id":13,"left_children":[1,3,5,7,9,11,13,15,17,19,21,23,25,27,29,31,33,35,37,39,41,43,-1,45,47,49,51,53,55,57,59,61,63,65,67,69,71,-1,-1,73,-1,75,77,79,81,83,85,87,89,91,93,95,97,99,101,103,105,-1,107,-1,-1,-1,-1,-1,-1,-1,-1,-1,-1,-1,-1,-1,-1,-1,-1,-1,-1,-1,-1,-1,-1,-1,-1,-1,-1,-1,-1,-1,-1,-1,-1,-1,-1,-1,-1,-1,-1,-1,-1,-1,-1,-1,-1,-1,-1,-1,-1,-1,-1],"loss_changes":[3.5605164E2,2.1764557E1,9.7325424E1,1.4962433E1,2.0292809E1,9.778912E1,4.4474518E1,1.4060028E1,1.1876875E1,1.0857162E1,3.9538555E0,4.7430473E1,3.227002E1,3.665915E1,2.237259E0,1.3625977E1,4.8683686E0,1.1438168E1,1.4247704E0,4.163185E0,1.3941248E1,3.3762703E0,0E0,2.3300285E1,3.0386944E1,1.9304855E1,2.5094368E1,2.8030548E1,2.2378838E1,9.4927216E-1,4.996043E0,1.1063965E1,3.6632786E0,1.4887544E0,5.4814644E0,1.0294056E1,5.252718E0,0E0,0E0,4.3670235E0,0E0,9.150266E0,1.7589998E0,2.1800687E0,1.9080615E0,2.106794E1,5.27956E0,2.8229387E1,9.084986E0,2.6503677E1,1.4321068E1,1.1891249E1,5.9330654E-1,2.7615204E1,4.6000366E0,8.8679285E0,1.8445282E1,0E0,2.929306E-1,0E0,0E0,0E0,0E0,0E0,0E0,0E0,0E0,0E0,0E0,0E0,0E0,0E0,0E0,0E0,0E0,0E0,0E0,0E0,0E0,0E0,0E0,0E0,0E0,0E0,0E0,0E0,0E0,0E0,0E0,0E0,0E0,0E0,0E0,0E0,0E0,0E0,0E0,0E0,0E0,0E0,0E0,0E0,0E0,0E0,0E0,0E0,0E0,0E0,0E0],"parents":[2147483647,0,0,1,1,2,2,3,3,4,4,5,5,6,6,7,7,8,8,9,9,10,10,11,11,12,12,13,13,14,14,15,15,16,16,17,17,18,18,19,19,20,20,21,21,23,23,24,24,25,25,26,26,27,27,28,28,29,29,30,30,31,31,32,32,33,33,34,34,35,35,36,36,39,39,41,41,42,42,43,43,44,44,45,45,46,46,47,47,48,48,49,49,50,50,51,51,52,52,53,53,54,54,55,55,56,56,58,58],"right_children":[2,4,6,8,10,12,14,16,18,20,22,24,26,28,30,32,34,36,38,40,42,44,-1,46,48,50,52,54,56,58,60,62,64,66,68,70,72,-1,-1,74,-1,76,78,80,82,84,86,88,90,92,94,96,98,100,102,104,106,-1,108,-1,-1,-1,-1,-1,-1,-1,-1,-1,-1,-1,-1,-1,-1,-1,-1,-1,-1,-1,-1,-1,-1,-1,-1,-1,-1,-1,-1,-1,-1,-1,-1,-1,-1,-1,-1,-1,-1,-1,-1,-1,-1,-1,-1,-1,-1,-1,-1,-1,-1],"split_conditions":[1E0,1E0,1E0,1E0,1E0,1E0,1E0,1E0,1E0,1E0,1E0,1E0,1E0,1E0,1E0,1E0,1E0,1E0,1E0,1E0,1E0,1E0,6.890755E-2,1E0,1E0,1E0,1E0,1E0,1E0,1E0,1E0,1E0,1E0,1E0,1E0,1E0,1E0,8.430181E-2,7.339775E-3,1E0,3.0869706E-2,1E0,1E0,1E0,1E0,1E0,1E0,1E0,1E0,1E0,1E0,1E0,1E0,1E0,1E0,1E0,1E0,1.9421097E-2,1E0,-3.0149022E-2,5.83672E-2,-5.3852808E-2,-3.0280054E-3,-4.835397E-3,7.162014E-2,-4.8219644E-2,2.9555182E-3,7.4885026E-2,-1.7619146E-2,-3.6559198E-2,4.890321E-2,4.2202245E-2,-4.0738363E-2,-5.456535E-2,-1.5126717E-2,-2.5789214E-2,5.317954E-2,1.1697264E-2,8.336144E-2,2.6354596E-2,-2.202571E-2,6.643219E-2,-3.598313E-3,-3.81515E-2,1.3443649E-2,-7.4497756E-4,7.7567235E-2,-5.587256E-3,7.149244E-2,7.5502425E-2,1.488089E-2,-1.4199197E-2,6.175526E-2,7.273278E-2,-2.5391921E-2,6.4128794E-4,-6.896614E-2,3.233472E-2,7.916724E-2,1.1368602E-2,6.528606E-2,7.462643E-2,-1.5117599E-3,2.7074296E-2,-4.5428135E-2,5.7168163E-2,-3.0809322E-2,7.411011E-2,2.044305E-2],"split_indices":[125,1042,1319,141,99,969,881,1801,34,92,1889,144,25,422,364,324,85,758,50,586,477,87,0,1553,1770,128,1475,804,145,101,144,804,95,117,131,2142,1457,0,0,1195,0,983,96,126,481,1770,113,1967,154,1008,99,1857,473,22,25,94,693,0,222,0,0,0,0,0,0,0,0,0,0,0,0,0,0,0,0,0,0,0,0,0,0,0,0,0,0,0,0,0,0,0,0,0,0,0,0,0,0,0,0,0,0,0,0,0,0,0,0,0,0],"split_type":[0,0,0,0,0,0,0,0,0,0,0,0,0,0,0,0,0,0,0,0,0,0,0,0,0,0,0,0,0,0,0,0,0,0,0,0,0,0,0,0,0,0,0,0,0,0,0,0,0,0,0,0,0,0,0,0,0,0,0,0,0,0,0,0,0,0,0,0,0,0,0,0,0,0,0,0,0,0,0,0,0,0,0,0,0,0,0,0,0,0,0,0,0,0,0,0,0,0,0,0,0,0,0,0,0,0,0,0,0],"sum_hessian":[2.017914E3,4.9140155E2,1.5265125E3,3.8977646E2,1.0162512E2,7.434146E2,7.8309784E2,2.827832E2,1.0699324E2,8.528165E1,1.6343472E1,6.036764E2,1.3973817E2,7.295615E2,5.3536297E1,2.7310995E2,9.673248E0,1.0434002E2,2.6532254E0,4.3286915E1,4.199473E1,1.1752115E1,4.5913568E0,2.051921E2,3.984843E2,1.0844358E2,3.1294594E1,5.9895325E2,1.3060828E2,4.8400436E1,5.1358576E0,2.6779364E2,5.316329E0,4.511043E0,5.162205E0,9.560944E1,8.730573E0,1.6018722E0,1.051353E0,4.209535E1,1.1915665E0,3.7296555E1,4.6981792E0,7.8871512E0,3.864964E0,1.969119E2,8.28021E0,3.7229333E2,2.619099E1,4.4334766E1,6.410881E1,2.3516287E1,7.778307E0,5.75092E2,2.3861252E1,1.5004268E1,1.15604004E2,1.7091843E0,4.6691254E1,1.7228456E0,3.413012E0,2.5649304E2,1.1300587E1,3.7674356E0,1.5488935E0,2.0596337E0,2.4514096E0,3.0297709E0,2.1324341E0,9.2783394E1,2.8260493E0,7.1001687E0,1.6304036E0,3.1951496E1,1.0143851E1,3.4138233E1,3.1583211E0,1.5438613E0,3.1543176E0,2.778217E0,5.108934E0,2.6764143E0,1.1885496E0,1.7512325E2,2.1788637E1,3.34789E0,4.9323196E0,3.6101016E2,1.1283171E1,1.5261305E1,1.0929686E1,2.2624882E1,2.1709885E1,6.062595E1,3.482864E0,1.2501871E1,1.1014417E1,3.3238313E0,4.4544754E0,5.512061E2,2.3885897E1,2.173079E1,2.1304622E0,7.099087E0,7.9051805E0,1.0991079E2,5.6932163E0,4.5516834E1,1.1744208E0],"tree_param":{"num_deleted":"0","num_feature":"2215","num_nodes":"109","size_leaf_vector":"1"}},{"base_weights":[-1.0052608E-2,-7.1140116E-1,2.1034521E-1,-8.389223E-1,-2.802219E-1,-4.5556776E-2,4.4915664E-1,-1.0877386E0,-6.351417E-1,-7.9201275E-1,4.0805187E-2,-1.3023977E-1,8.019165E-1,-1.4533153E-1,5.4405373E-1,-1.1041828E0,3.457932E-2,-7.217319E-1,3.1822586E-1,-8.820772E-1,6.3616365E-2,3.1422248E-1,-6.882756E-1,-2.6814955E-1,3.7837E-1,9.1748583E-1,-3.4911278E-1,-3.4310985E-1,5.5500627E-1,4.2821726E-1,1.0267408E0,-1.1198407E0,1.5492757E-2,-8.0951566E-1,-8.238379E-2,-8.678543E-1,6.894434E-1,-9.571422E-1,2.8096665E-2,-6.121153E-1,5.343161E-1,-8.351314E-1,3.5003394E-2,-6.7216533E-1,-7.2393574E-2,1.7150332E-1,1.2062242E0,1.0144516E0,-4.6671346E-1,-5.9510764E-2,2.4535842E-1,-6.016569E-1,2.976684E-1,6.7420757E-1,-3.8544934E-2,3.54062E-1,1.1360382E0,1.1075536E0,-5.282842E-1,-5.7183534E-2,-1.745762E-2,-4.2636197E-2,2.88422E-2,-1.566072E-2,8.648123E-2,-4.9486E-2,-1.0648878E-2,1.0800839E-2,7.767033E-2,-5.1881682E-2,2.3777204E-2,-4.725618E-2,3.5270575E-2,3.275177E-2,-4.2076122E-2,1.0188411E-2,-4.9642127E-2,-3.6101293E-2,4.8205648E-2,-8.08894E-3,4.62222E-2,2.79207E-3,4.879663E-2,-5.194778E-2,6.918504E-2,5.3511914E-2,-2.9816225E-2,3.5351623E-2,-5.449731E-2,5.227066E-2,-2.4357483E-2,-3.7243553E-2,4.6939697E-2,3.6836077E-2,-2.1513615E-2,4.0171135E-2,-3.5868693E-2,8.448301E-3,3.2902773E-2,1.1130508E-2,6.465084E-2,5.6823798E-2,-3.0279784E-2,1.8989604E-2,-4.728544E-2],"categories":[],"categories_nodes":[],"categories_segments":[],"categories_sizes":[],"default_left":[0,0,0,0,0,0,0,0,0,0,0,0,0,0,0,0,0,0,0,0,0,0,0,0,0,0,0,0,0,0,0,0,0,0,0,0,0,0,0,0,0,0,0,0,0,0,0,0,0,0,0,0,0,0,0,0,0,0,0,0,0,0,0,0,0,0,0,0,0,0,0,0,0,0,0,0,0,0,0,0,0,0,0,0,0,0,0,0,0,0,0,0,0,0,0,0,0,0,0,0,0,0,0,0,0],"id":14,"left_children":[1,3,5,7,9,11,13,15,17,19,21,23,25,27,29,31,-1,33,35,37,-1,39,41,43,45,47,49,51,53,55,57,59,-1,61,63,65,67,69,-1,71,73,75,-1,77,79,81,83,85,87,-1,89,91,93,95,-1,97,99,101,103,-1,-1,-1,-1,-1,-1,-1,-1,-1,-1,-1,-1,-1,-1,-1,-1,-1,-1,-1,-1,-1,-1,-1,-1,-1,-1,-1,-1,-1,-1,-1,-1,-1,-1,-1,-1,-1,-1,-1,-1,-1,-1,-1,-1,-1,-1],"loss_changes":[3.1102753E2,2.6218872E1,9.358663E1,1.811026E1,1.832116E1,5.321085E1,4.4763535E1,5.6075745E0,1.7256317E1,9.109116E0,1.4042131E1,4.7350906E1,9.281437E0,1.540185E1,3.776239E1,3.9873505E0,0E0,1.0562454E1,8.46518E0,5.0635643E0,0E0,1.075098E1,4.5052996E0,4.1909145E1,2.4472073E1,8.727169E0,3.7276087E0,1.446898E1,4.402411E0,2.8609634E1,1.7112411E1,2.5912018E0,0E0,1.0460114E1,1.057056E1,1.6444755E-1,5.4584455E0,5.1130066E0,0E0,5.177721E0,7.5014105E0,3.1263275E0,0E0,1.4813019E1,3.2091522E1,1.0781281E1,1.2851543E1,5.8306046E0,4.21655E0,0E0,3.3544161E0,1.4330618E1,8.456137E0,4.7252264E0,0E0,2.8122044E1,7.1630096E0,6.898773E0,3.0785873E0,0E0,0E0,0E0,0E0,0E0,0E0,0E0,0E0,0E0,0E0,0E0,0E0,0E0,0E0,0E0,0E0,0E0,0E0,0E0,0E0,0E0,0E0,0E0,0E0,0E0,0E0,0E0,0E0,0E0,0E0,0E0,0E0,0E0,0E0,0E0,0E0,0E0,0E0,0E0,0E0,0E0,0E0,0E0,0E0,0E0,0E0],"parents":[2147483647,0,0,1,1,2,2,3,3,4,4,5,5,6,6,7,7,8,8,9,9,10,10,11,11,12,12,13,13,14,14,15,15,17,17,18,18,19,19,21,21,22,22,23,23,24,24,25,25,26,26,27,27,28,28,29,29,30,30,31,31,33,33,34,34,35,35,36,36,37,37,39,39,40,40,41,41,43,43,44,44,45,45,46,46,47,47,48,48,50,50,51,51,52,52,53,53,55,55,56,56,57,57,58,58],"right_children":[2,4,6,8,10,12,14,16,18,20,22,24,26,28,30,32,-1,34,36,38,-1,40,42,44,46,48,50,52,54,56,58,60,-1,62,64,66,68,70,-1,72,74,76,-1,78,80,82,84,86,88,-1,90,92,94,96,-1,98,100,102,104,-1,-1,-1,-1,-1,-1,-1,-1,-1,-1,-1,-1,-1,-1,-1,-1,-1,-1,-1,-1,-1,-1,-1,-1,-1,-1,-1,-1,-1,-1,-1,-1,-1,-1,-1,-1,-1,-1,-1,-1,-1,-1,-1,-1,-1,-1],"split_conditions":[1E0,1E0,1E0,1E0,1E0,1E0,1E0,1E0,1E0,1E0,1E0,1E0,1E0,1E0,1E0,1E0,3.457932E-2,1E0,1E0,1E0,6.3616365E-2,1E0,1E0,1E0,1E0,1E0,1E0,1E0,1E0,1E0,1E0,1E0,1.5492757E-2,1E0,1E0,1E0,1E0,1E0,2.8096665E-2,1E0,1E0,1E0,3.5003394E-2,1E0,1E0,1E0,1E0,1E0,1E0,-5.9510764E-2,1E0,1E0,1E0,1E0,-3.8544934E-2,1E0,1E0,1E0,1E0,-5.7183534E-2,-1.745762E-2,-4.2636197E-2,2.88422E-2,-1.566072E-2,8.648123E-2,-4.9486E-2,-1.0648878E-2,1.0800839E-2,7.767033E-2,-5.1881682E-2,2.3777204E-2,-4.725618E-2,3.5270575E-2,3.275177E-2,-4.2076122E-2,1.0188411E-2,-4.9642127E-2,-3.6101293E-2,4.8205648E-2,-8.08894E-3,4.62222E-2,2.79207E-3,4.879663E-2,-5.194778E-2,6.918504E-2,5.3511914E-2,-2.9816225E-2,3.5351623E-2,-5.449731E-2,5.227066E-2,-2.4357483E-2,-3.7243553E-2,4.6939697E-2,3.6836077E-2,-2.1513615E-2,4.0171135E-2,-3.5868693E-2,8.448301E-3,3.2902773E-2,1.1130508E-2,6.465084E-2,5.6823798E-2,-3.0279784E-2,1.8989604E-2,-4.728544E-2],"split_indices":[125,99,1319,117,162,1770,145,1327,477,214,556,1008,140,181,422,1887,0,2078,1093,1995,0,150,1901,153,1562,8,110,138,1410,2072,693,1770,0,1427,1703,2078,1042,2022,0,568,686,157,0,45,1990,1195,1917,1322,80,0,556,383,116,2034,0,88,96,1657,109,0,0,0,0,0,0,0,0,0,0,0,0,0,0,0,0,0,0,0,0,0,0,0,0,0,0,0,0,0,0,0,0,0,0,0,0,0,0,0,0,0,0,0,0,0,0],"split_type":[0,0,0,0,0,0,0,0,0,0,0,0,0,0,0,0,0,0,0,0,0,0,0,0,0,0,0,0,0,0,0,0,0,0,0,0,0,0,0,0,0,0,0,0,0,0,0,0,0,0,0,0,0,0,0,0,0,0,0,0,0,0,0,0,0,0,0,0,0,0,0,0,0,0,0,0,0,0,0,0,0,0,0,0,0,0,0,0,0,0,0,0,0,0,0,0,0,0,0,0,0,0,0,0,0],"sum_hessian":[2.0101694E3,4.8011682E2,1.5300526E3,3.6980228E2,1.1031456E2,7.3898804E2,7.910645E2,1.6454947E2,2.0525279E2,4.1957523E1,6.835704E1,6.726231E2,6.636493E1,1.0882054E2,6.82244E2,1.6341861E2,1.1308535E0,1.8838553E2,1.6867264E1,4.0752262E1,1.2052613E0,5.012744E1,1.8229599E1,5.295171E2,1.4310603E2,6.0493927E1,5.871005E0,8.525442E1,2.3566124E1,5.5172644E2,1.3051756E2,1.6183464E2,1.5839727E0,1.6540846E2,2.297707E1,3.701789E0,1.3165475E1,3.9059E1,1.6932651E0,9.281592E0,4.0845848E1,1.6846125E1,1.3834754E0,1.7203165E2,3.574854E2,1.1546137E2,2.764466E1,5.678327E1,3.7106538E0,2.0161972E0,3.854808E0,6.078812E1,2.4466293E1,2.2073214E1,1.4929109E0,5.0076385E2,5.0962597E1,1.2434333E2,6.1742244E0,1.565113E2,5.3233376E0,1.6078233E2,4.6261334E0,2.1114456E1,1.8626124E0,2.6899166E0,1.0118725E0,9.312517E0,3.8529577E0,3.7242382E1,1.8166169E0,7.634585E0,1.6470073E0,3.8032673E1,2.8131733E0,2.1817994E0,1.4664325E1,1.6748674E2,4.5449004E0,3.2883673E2,2.8648687E1,1.0188205E2,1.3579321E1,1.6695713E0,2.597509E1,5.5206844E1,1.5764269E0,1.2403047E0,2.470349E0,1.638284E0,2.2165241E0,5.608996E1,4.6981645E0,1.525392E1,9.212374E0,2.0584497E1,1.488716E0,3.122167E2,1.8854713E2,7.82845E0,4.3134148E1,1.2260998E2,1.7333522E0,1.9727681E0,4.201456E0],"tree_param":{"num_deleted":"0","num_feature":"2215","num_nodes":"105","size_leaf_vector":"1"}},{"base_weights":[3.533936E-3,-6.7971516E-1,2.1258081E-1,-4.7412267E-1,-9.3392044E-1,3.233906E-1,-4.2109582E-1,-6.930118E-1,-1.1512667E-1,-9.5652044E-1,5.4172672E-2,2.4267891E-1,9.84914E-1,-4.8771557E-1,1.1223078E0,-7.357909E-1,1.2855644E0,-3.2300544E-1,6.680655E-1,-9.752966E-1,5.192993E-2,-4.9029505E-1,3.036771E-1,3.1841058E-1,1.2630336E0,-6.31733E-1,3.2707986E-1,-1.7721508E-2,1.3839129E0,-8.0867344E-1,4.601206E-1,8.2944E-2,8.902244E-3,-4.506864E-1,7.387572E-1,-5.245114E-1,9.6292937E-1,-1.0307618E0,-1.6547233E-1,-6.388687E-1,4.8843384E-1,1.9989122E-1,7.2517973E-1,-2.9066093E-2,9.5841885E-1,1.3293526E0,-3.4782305E-1,-6.8867475E-1,7.0830876E-1,6.26507E-1,-3.4147942E-1,7.85845E-2,6.1563325E-1,-4.8585366E-2,-2.2676934E-2,-2.1588278E-3,6.77525E-2,-2.5847176E-2,5.324767E-2,6.2082764E-2,-2.4276098E-2,-4.8295286E-2,1.3507609E-2,6.084857E-2,-2.3342382E-2,-5.326548E-2,3.2208122E-3,-3.804554E-2,3.5359126E-2,-2.2916447E-2,-5.4287013E-2,-4.9240827E-3,5.2229714E-2,6.9169127E-3,4.766318E-2,3.8552865E-2,-4.739242E-2,-4.7334507E-2,1.2420573E-2,7.34564E-2,7.018175E-3,6.916405E-2,-1.4030299E-2,3.9087813E-2,-5.5583186E-2,-3.7816986E-2,1.5580564E-2,5.075599E-2,-3.5736647E-2,5.02802E-4,4.7975983E-2,-3.495019E-2,4.584021E-2,6.092044E-3,3.9605033E-2],"categories":[],"categories_nodes":[],"categories_segments":[],"categories_sizes":[],"default_left":[0,0,0,0,0,0,0,0,0,0,0,0,0,0,0,0,0,0,0,0,0,0,0,0,0,0,0,0,0,0,0,0,0,0,0,0,0,0,0,0,0,0,0,0,0,0,0,0,0,0,0,0,0,0,0,0,0,0,0,0,0,0,0,0,0,0,0,0,0,0,0,0,0,0,0,0,0,0,0,0,0,0,0,0,0,0,0,0,0,0,0,0,0,0,0],"id":15,"left_children":[1,3,5,7,9,11,13,15,17,19,-1,21,23,25,27,29,31,33,35,37,-1,39,41,43,45,47,49,-1,51,53,55,-1,-1,57,59,61,63,65,67,69,71,73,75,77,79,81,83,85,87,89,91,-1,93,-1,-1,-1,-1,-1,-1,-1,-1,-1,-1,-1,-1,-1,-1,-1,-1,-1,-1,-1,-1,-1,-1,-1,-1,-1,-1,-1,-1,-1,-1,-1,-1,-1,-1,-1,-1,-1,-1,-1,-1,-1,-1],"loss_changes":[2.8467776E2,2.396109E1,1.0729873E2,2.0365913E1,1.050856E1,6.914813E1,2.3948177E1,1.461013E1,1.6456377E1,8.72937E0,0E0,5.1993538E1,2.5732697E1,2.5889545E1,4.245578E0,1.4200661E1,1.2677393E0,1.1110955E1,7.9772835E0,9.0186615E0,0E0,1.3321968E1,4.6711617E1,9.556671E0,1.1053711E1,1.4705879E1,6.926855E0,0E0,2.5307083E-1,8.238617E0,4.4504614E0,0E0,0E0,7.7397327E0,6.090591E0,1.9655346E0,6.88439E0,7.305771E0,7.971147E0,5.804163E0,4.13686E0,3.9788082E1,1.6945007E1,7.5532036E0,6.105194E0,8.673538E0,4.93541E0,1.2367813E1,4.2568154E0,4.8173265E0,5.5984607E0,0E0,1.9154894E-1,0E0,0E0,0E0,0E0,0E0,0E0,0E0,0E0,0E0,0E0,0E0,0E0,0E0,0E0,0E0,0E0,0E0,0E0,0E0,0E0,0E0,0E0,0E0,0E0,0E0,0E0,0E0,0E0,0E0,0E0,0E0,0E0,0E0,0E0,0E0,0E0,0E0,0E0,0E0,0E0,0E0,0E0],"parents":[2147483647,0,0,1,1,2,2,3,3,4,4,5,5,6,6,7,7,8,8,9,9,11,11,12,12,13,13,14,14,15,15,16,16,17,17,18,18,19,19,21,21,22,22,23,23,24,24,25,25,26,26,28,28,29,29,30,30,33,33,34,34,35,35,36,36,37,37,38,38,39,39,40,40,41,41,42,42,43,43,44,44,45,45,46,46,47,47,48,48,49,49,50,50,52,52],"right_children":[2,4,6,8,10,12,14,16,18,20,-1,22,24,26,28,30,32,34,36,38,-1,40,42,44,46,48,50,-1,52,54,56,-1,-1,58,60,62,64,66,68,70,72,74,76,78,80,82,84,86,88,90,92,-1,94,-1,-1,-1,-1,-1,-1,-1,-1,-1,-1,-1,-1,-1,-1,-1,-1,-1,-1,-1,-1,-1,-1,-1,-1,-1,-1,-1,-1,-1,-1,-1,-1,-1,-1,-1,-1,-1,-1,-1,-1,-1,-1],"split_conditions":[1E0,1E0,1E0,1E0,1E0,1E0,1E0,1E0,1E0,1E0,5.4172672E-2,1E0,1E0,1E0,1E0,1E0,1E0,1E0,1E0,1E0,5.192993E-2,1E0,1E0,1E0,1E0,1E0,1E0,-1.7721508E-2,1E0,1E0,1E0,8.2944E-2,8.902244E-3,1E0,1E0,1E0,1E0,1E0,1E0,1E0,1E0,1E0,1E0,1E0,1E0,1E0,1E0,1E0,1E0,1E0,1E0,7.85845E-2,1E0,-4.8585366E-2,-2.2676934E-2,-2.1588278E-3,6.77525E-2,-2.5847176E-2,5.324767E-2,6.2082764E-2,-2.4276098E-2,-4.8295286E-2,1.3507609E-2,6.084857E-2,-2.3342382E-2,-5.326548E-2,3.2208122E-3,-3.804554E-2,3.5359126E-2,-2.2916447E-2,-5.4287013E-2,-4.9240827E-3,5.2229714E-2,6.9169127E-3,4.766318E-2,3.8552865E-2,-4.739242E-2,-4.7334507E-2,1.2420573E-2,7.34564E-2,7.018175E-3,6.916405E-2,-1.4030299E-2,3.9087813E-2,-5.5583186E-2,-3.7816986E-2,1.5580564E-2,5.075599E-2,-3.5736647E-2,5.02802E-4,4.7975983E-2,-3.495019E-2,4.584021E-2,6.092044E-3,3.9605033E-2],"split_indices":[125,139,139,1186,1935,1516,1348,706,1889,1246,0,158,152,71,1042,536,45,1624,149,477,0,948,1206,136,1900,41,106,0,90,115,1552,0,0,917,398,85,77,714,110,92,1255,2126,8,144,481,918,150,422,123,113,1069,0,80,0,0,0,0,0,0,0,0,0,0,0,0,0,0,0,0,0,0,0,0,0,0,0,0,0,0,0,0,0,0,0,0,0,0,0,0,0,0,0,0,0,0],"split_type":[0,0,0,0,0,0,0,0,0,0,0,0,0,0,0,0,0,0,0,0,0,0,0,0,0,0,0,0,0,0,0,0,0,0,0,0,0,0,0,0,0,0,0,0,0,0,0,0,0,0,0,0,0,0,0,0,0,0,0,0,0,0,0,0,0,0,0,0,0,0,0,0,0,0,0,0,0,0,0,0,0,0,0,0,0,0,0,0,0,0,0,0,0,0,0],"sum_hessian":[1.9910961E3,4.65946E2,1.52515E3,2.5918842E2,2.067576E2,1.2985626E3,2.2658743E2,1.60436E2,9.8752396E1,2.0498706E2,1.7705472E0,1.1585734E3,1.3998932E2,2.1786736E2,8.720067E0,1.5765544E2,2.7805734E0,7.850325E1,2.0249146E1,2.0358229E2,1.4047675E0,8.8468605E1,1.0701047E3,4.1847706E1,9.814162E1,1.8533377E2,3.2533592E1,1.2588938E0,7.461173E0,1.4890454E2,8.750901E0,1.7072656E0,1.0733076E0,7.059006E1,7.9131904E0,3.8597133E0,1.6389433E1,1.9027731E2,1.3304983E1,7.7110306E1,1.13583E1,8.598576E2,2.1024712E2,2.7741E1,1.4106705E1,9.442874E1,3.71288E0,1.7824573E2,7.088034E0,2.2513424E1,1.002017E1,5.155402E0,2.3057709E0,1.0086409E2,4.8040443E1,6.2101464E0,2.5407548E0,6.826475E1,2.3253078E0,5.5990653E0,2.3141248E0,2.342877E0,1.5168365E0,1.4043101E1,2.3463318E0,1.8448495E2,5.792356E0,7.9847803E0,5.3202033E0,5.6364307E1,2.0745998E1,5.9267416E0,5.431558E0,7.96005E2,6.3852573E1,2.0516035E2,5.0867567E0,5.880916E0,2.1860083E1,8.194825E0,5.9118795E0,9.150443E1,2.9243047E0,1.4883825E0,2.2244976E0,1.6718057E2,1.1065164E1,6.0666957E0,1.0213387E0,8.257635E0,1.4255789E1,8.149171E0,1.8709989E0,1.0521319E0,1.253639E0],"tree_param":{"num_deleted":"0","num_feature":"2215","num_nodes":"95","size_leaf_vector":"1"}},{"base_weights":[-3.8637344E-3,-6.6274065E-1,2.0032345E-1,-4.6465763E-1,-9.1387844E-1,3.0551553E-1,-4.0567943E-1,-5.6432736E-1,2.1887933E-1,-9.656187E-1,1.3690938E-1,2.2864725E-1,9.8469055E-1,-6.4886653E-1,2.5960136E-2,-6.237936E-1,4.517645E-1,-1.7221853E-1,9.0701175E-1,-1.0059891E0,1.1025555E-1,-7.664339E-1,6.6029555E-1,1.7769888E-1,1.2795373E0,1.317727E0,7.2882533E-1,-3.780656E-1,-1.0462013E0,-4.0378034E-1,4.2945358E-1,-6.93432E-1,2.2508939E-1,-6.151062E-1,1.1304039E0,-3.2169524E-1,6.8210006E-2,