{"learner":{"attributes":{"scikit_learn":"{\"_estimator_type\": \"classifier\"}"},"feature_names":[],"feature_types":[],"gradient_booster":{"model":{"cats":{"enc":[],"feature_segments":[],"sorted_idx":[]},"gbtree_model_param":{"num_parallel_tree":"1","num_trees":"500"},"iteration_indptr":[0,1,2,3,4,5,6,7,8,9,10,11,12,13,14,15,16,17,18,19,20,21,22,23,24,25,26,27,28,29,30,31,32,33,34,35,36,37,38,39,40,41,42,43,44,45,46,47,48,49,50,51,52,53,54,55,56,57,58,59,60,61,62,63,64,65,66,67,68,69,70,71,72,73,74,75,76,77,78,79,80,81,82,83,84,85,86,87,88,89,90,91,92,93,94,95,96,97,98,99,100,101,102,103,104,105,106,107,108,109,110,111,112,113,114,115,116,117,118,119,120,121,122,123,124,125,126,127,128,129,130,131,132,133,134,135,136,137,138,139,140,141,142,143,144,145,146,147,148,149,150,151,152,153,154,155,156,157,158,159,160,161,162,163,164,165,166,167,168,169,170,171,172,173,174,175,176,177,178,179,180,181,182,183,184,185,186,187,188,189,190,191,192,193,194,195,196,197,198,199,200,201,202,203,204,205,206,207,208,209,210,211,212,213,214,215,216,217,218,219,220,221,222,223,224,225,226,227,228,229,230,231,232,233,234,235,236,237,238,239,240,241,242,243,244,245,246,247,248,249,250,251,252,253,254,255,256,257,258,259,260,261,262,263,264,265,266,267,268,269,270,271,272,273,274,275,276,277,278,279,280,281,282,283,284,285,286,287,288,289,290,291,292,293,294,295,296,297,298,299,300,301,302,303,304,305,306,307,308,309,310,311,312,313,314,315,316,317,318,319,320,321,322,323,324,325,326,327,328,329,330,331,332,333,334,335,336,337,338,339,340,341,342,343,344,345,346,347,348,349,350,351,352,353,354,355,356,357,358,359,360,361,362,363,364,365,366,367,368,369,370,371,372,373,374,375,376,377,378,379,380,381,382,383,384,385,386,387,388,389,390,391,392,393,394,395,396,397,398,399,400,401,402,403,404,405,406,407,408,409,410,411,412,413,414,415,416,417,418,419,420,421,422,423,424,425,426,427,428,429,430,431,432,433,434,435,436,437,438,439,440,441,442,443,444,445,446,447,448,449,450,451,452,453,454,455,456,457,458,459,460,461,462,463,464,465,466,467,468,469,470,471,472,473,474,475,476,477,478,479,480,481,482,483,484,485,486,487,488,489,490,491,492,493,494,495,496,497,498,499,500],"tree_info":[0,0,0,0,0,0,0,0,0,0,0,0,0,0,0,0,0,0,0,0,0,0,0,0,0,0,0,0,0,0,0,0,0,0,0,0,0,0,0,0,0,0,0,0,0,0,0,0,0,0,0,0,0,0,0,0,0,0,0,0,0,0,0,0,0,0,0,0,0,0,0,0,0,0,0,0,0,0,0,0,0,0,0,0,0,0,0,0,0,0,0,0,0,0,0,0,0,0,0,0,0,0,0,0,0,0,0,0,0,0,0,0,0,0,0,0,0,0,0,0,0,0,0,0,0,0,0,0,0,0,0,0,0,0,0,0,0,0,0,0,0,0,0,0,0,0,0,0,0,0,0,0,0,0,0,0,0,0,0,0,0,0,0,0,0,0,0,0,0,0,0,0,0,0,0,0,0,0,0,0,0,0,0,0,0,0,0,0,0,0,0,0,0,0,0,0,0,0,0,0,0,0,0,0,0,0,0,0,0,0,0,0,0,0,0,0,0,0,0,0,0,0,0,0,0,0,0,0,0,0,0,0,0,0,0,0,0,0,0,0,0,0,0,0,0,0,0,0,0,0,0,0,0,0,0,0,0,0,0,0,0,0,0,0,0,0,0,0,0,0,0,0,0,0,0,0,0,0,0,0,0,0,0,0,0,0,0,0,0,0,0,0,0,0,0,0,0,0,0,0,0,0,0,0,0,0,0,0,0,0,0,0,0,0,0,0,0,0,0,0,0,0,0,0,0,0,0,0,0,0,0,0,0,0,0,0,0,0,0,0,0,0,0,0,0,0,0,0,0,0,0,0,0,0,0,0,0,0,0,0,0,0,0,0,0,0,0,0,0,0,0,0,0,0,0,0,0,0,0,0,0,0,0,0,0,0,0,0,0,0,0,0,0,0,0,0,0,0,0,0,0,0,0,0,0,0,0,0,0,0,0,0,0,0,0,0,0,0,0,0,0,0,0,0,0,0,0,0,0,0,0,0,0,0,0,0,0,0,0,0,0,0,0,0,0,0,0,0,0,0,0,0,0,0,0,0,0,0,0,0,0,0,0,0,0,0,0,0,0,0,0,0,0,0,0,0,0,0,0,0,0,0,0,0,0,0,0,0,0,0,0,0,0,0,0,0,0,0,0,0],"trees":[{"base_weights":[2.1986566E-2,-1.8159058E0,4.092922E-1,-2.0604548E0,2.4929544E-2,-6.665704E-1,8.8448465E-1,-4.681428E-1,-2.3570673E0,-1.0378641E0,4.5907724E-1,-2.970955E-1,1.0087861E0,3.8586225E-2,-6.2094938E-2,-1.2966241E-1,-1.4580011E-2,-1.577555E0,9.1789395E-2,8.3036816E-1,-1.8389573E-2,-8.082559E-2,2.7216431E-1,1.0725882E0,-4.4569757E-2,-1.9350649E0,2.8822338E-2,7.3494637E-1,-7.384434E-2,5.6613863E-2,-9.178502E-3,3.96955E-2,-2.572803E-2,1.153476E0,-2.7746111E-2,-1.0818171E-1,-1.3230381E-3,-3.3060864E-2,5.890734E-2,6.158484E-2,1.1051724E-2],"categories":[],"categories_nodes":[],"categories_segments":[],"categories_sizes":[],"default_left":[0,0,0,0,0,0,0,0,0,0,0,0,0,0,0,0,0,0,0,0,0,0,0,0,0,0,0,0,0,0,0,0,0,0,0,0,0,0,0,0,0],"id":0,"left_children":[1,3,5,7,-1,9,11,13,15,17,19,21,23,-1,-1,-1,-1,25,27,29,-1,-1,31,33,-1,35,-1,37,-1,-1,-1,-1,-1,39,-1,-1,-1,-1,-1,-1,-1],"loss_changes":[7.385087E1,1.1249474E1,4.4374504E1,6.703232E0,0E0,1.1681105E1,9.087856E0,4.6455374E0,5.920021E0,1.2622179E1,2.559723E0,5.2979937E0,7.5473633E0,0E0,0E0,0E0,0E0,1.1822941E1,8.71434E0,1.8530419E0,0E0,0E0,2.6145387E0,7.6245804E0,0E0,5.2451973E0,0E0,4.5105896E0,0E0,0E0,0E0,0E0,0E0,3.4378738E0,0E0,0E0,0E0,0E0,0E0,0E0,0E0],"parents":[2147483647,0,0,1,1,2,2,3,3,5,5,6,6,7,7,8,8,9,9,10,10,11,11,12,12,17,17,18,18,19,19,22,22,23,23,25,25,27,27,33,33],"right_children":[2,4,6,8,-1,10,12,14,16,18,20,22,24,-1,-1,-1,-1,26,28,30,-1,-1,32,34,-1,36,-1,38,-1,-1,-1,-1,-1,40,-1,-1,-1,-1,-1,-1,-1],"split_conditions":[1E0,1E0,1E0,1E0,2.4929544E-2,1E0,1E0,1E0,1E0,1E0,1E0,1E0,1E0,3.8586225E-2,-6.2094938E-2,-1.2966241E-1,-1.4580011E-2,1E0,1E0,1E0,-1.8389573E-2,-8.082559E-2,1E0,1E0,-4.4569757E-2,1E0,2.8822338E-2,1E0,-7.384434E-2,5.6613863E-2,-9.178502E-3,3.96955E-2,-2.572803E-2,1E0,-2.7746111E-2,-1.0818171E-1,-1.3230381E-3,-3.3060864E-2,5.890734E-2,6.158484E-2,1.1051724E-2],"split_indices":[1917,653,138,161,0,281,145,155,1195,108,2084,129,1594,0,0,0,0,937,62,671,0,0,79,852,0,1524,0,155,0,0,0,0,0,2158,0,0,0,0,0,0,0],"split_type":[0,0,0,0,0,0,0,0,0,0,0,0,0,0,0,0,0,0,0,0,0,0,0,0,0,0,0,0,0,0,0,0,0,0,0,0,0,0,0,0,0],"sum_hessian":[1.0170435E2,1.7060085E1,8.4644264E1,1.5529052E1,1.5310333E0,2.5808846E1,5.883542E1,2.8433475E0,1.2685704E1,1.9465994E1,6.342852E0,5.467976E0,5.3367443E1,1.0935951E0,1.7497523E0,1.1154671E1,1.5310333E0,1.2904423E1,6.561571E0,4.3743806E0,1.9684713E0,1.0935951E0,4.3743806E0,5.205513E1,1.3123143E0,1.1154671E1,1.7497523E0,5.0305376E0,1.5310333E0,3.2807856E0,1.0935951E0,2.6246285E0,1.7497523E0,4.986794E1,2.1871903E0,9.842357E0,1.3123143E0,1.0935951E0,3.9369426E0,4.571228E1,4.1556616E0],"tree_param":{"num_deleted":"0","num_feature":"2215","num_nodes":"41","size_leaf_vector":"1"}},{"base_weights":[4.9078215E-2,-1.5852693E0,4.4288346E-1,-1.818626E0,2.8192608E-2,-7.597667E-1,8.035924E-1,-1.9743981E0,1.5883608E-2,-1.3562561E0,2.8954676E-1,9.1409683E-1,-9.6746475E-1,-2.1358094E0,-1.1369386E-2,-1.9037561E0,1.8537314E-1,6.7281026E-1,-5.443827E-2,9.6821976E-1,-4.417781E-2,-7.401129E-2,1.418588E-2,-2.3258526E0,-2.1858636E-2,-2.3296309E0,2.0927012E-2,-4.361859E-2,4.7977988E-2,-1.3725184E-2,9.992731E-1,1.0192374E0,-1.735359E-2,-1.21298365E-1,-3.1117631E-2,-1.254472E-1,-3.132902E-2,5.594291E-2,1.3670797E-2,5.36619E-2,-1.2636897E-2],"categories":[],"categories_nodes":[],"categories_segments":[],"categories_sizes":[],"default_left":[0,0,0,0,0,0,0,0,0,0,0,0,0,0,0,0,0,0,0,0,0,0,0,0,0,0,0,0,0,0,0,0,0,0,0,0,0,0,0,0,0],"id":1,"left_children":[1,3,5,7,-1,9,11,13,-1,15,17,19,21,23,-1,25,27,29,-1,31,-1,-1,-1,33,-1,35,-1,-1,-1,-1,37,39,-1,-1,-1,-1,-1,-1,-1,-1,-1],"loss_changes":[6.6674446E1,1.1116505E1,3.6782036E1,6.746002E0,0E0,1.2755805E1,1.3532913E1,4.3859863E0,0E0,1.1130857E1,4.9495745E0,6.824257E0,3.1667953E0,4.050026E0,0E0,1.0382164E1,4.3237457E0,2.3971355E0,0E0,4.3820686E0,0E0,0E0,0E0,8.582001E-1,0E0,9.289932E-1,0E0,0E0,0E0,0E0,1.5590811E-1,4.2581596E0,0E0,0E0,0E0,0E0,0E0,0E0,0E0,0E0,0E0],"parents":[2147483647,0,0,1,1,2,2,3,3,5,5,6,6,7,7,9,9,10,10,11,11,12,12,13,13,15,15,16,16,17,17,19,19,23,23,25,25,30,30,31,31],"right_children":[2,4,6,8,-1,10,12,14,-1,16,18,20,22,24,-1,26,28,30,-1,32,-1,-1,-1,34,-1,36,-1,-1,-1,-1,38,40,-1,-1,-1,-1,-1,-1,-1,-1,-1],"split_conditions":[1E0,1E0,1E0,1E0,2.8192608E-2,1E0,1E0,1E0,1.5883608E-2,1E0,1E0,1E0,1E0,1E0,-1.1369386E-2,1E0,1E0,1E0,-5.443827E-2,1E0,-4.417781E-2,-7.401129E-2,1.418588E-2,1E0,-2.1858636E-2,1E0,2.0927012E-2,-4.361859E-2,4.7977988E-2,-1.3725184E-2,1E0,1E0,-1.735359E-2,-1.21298365E-1,-3.1117631E-2,-1.254472E-1,-3.132902E-2,5.594291E-2,1.3670797E-2,5.36619E-2,-1.2636897E-2],"split_indices":[1917,653,147,1684,0,126,882,25,0,115,1338,1250,56,1624,0,1186,74,168,0,852,0,0,0,1058,0,1327,0,0,0,0,1303,912,0,0,0,0,0,0,0,0,0],"split_type":[0,0,0,0,0,0,0,0,0,0,0,0,0,0,0,0,0,0,0,0,0,0,0,0,0,0,0,0,0,0,0,0,0,0,0,0,0,0,0,0,0],"sum_hessian":[1.0150289E2,1.9121294E1,8.23816E1,1.7387138E1,1.7341553E0,1.8752392E1,6.3629204E1,1.6276121E1,1.1110173E0,1.176945E1,6.9829416E0,6.0347702E1,3.2815018E0,1.4695785E1,1.5803362E0,8.511681E0,3.257769E0,5.8641677E0,1.1187738E0,5.90318E1,1.315905E0,2.1977541E0,1.0837475E0,1.2884969E1,1.8108162E0,7.1899858E0,1.3216952E0,1.3231585E0,1.9346105E0,1.5437495E0,4.3204184E0,5.7044247E1,1.9875505E0,1.1769187E1,1.1157819E0,6.0769424E0,1.113043E0,3.244462E0,1.0759561E0,5.487099E1,2.1732569E0],"tree_param":{"num_deleted":"0","num_feature":"2215","num_nodes":"41","size_leaf_vector":"1"}},{"base_weights":[-4.386728E-2,-1.6055635E0,3.7039238E-1,-2.16527E0,-2.9368225E-1,-4.9230233E-1,7.822989E-1,-2.250003E0,-3.0024996E-2,5.272358E-1,-1.2804602E0,-5.8572352E-2,-1.3805093E0,9.064859E-1,-7.918251E-1,-1.17672406E-1,-2.9247468E-2,-1.5485569E-2,5.0120343E-2,-8.057182E-2,-1.9972308E-2,-4.938846E-1,5.0435424E-1,-1.8329359E0,1.2342063E-2,9.819278E-1,-4.6873546E-1,1.9995442E-2,-6.957292E-2,-8.247985E-2,-1.3022302E-2,9.047858E-1,-3.218708E-1,-1.1240407E-1,-1.2282252E-2,1.0878791E0,-8.29373E-3,1.3372554E-2,-4.651012E-2,-2.9007563E-2,3.440443E-2,-5.9777866E-3,5.793959E-2,1.4652534E-2,-3.5204243E-2,5.798986E-2,-2.7871921E-3,-2.6397739E-2,4.3792453E-2],"categories":[],"categories_nodes":[],"categories_segments":[],"categories_sizes":[],"default_left":[0,0,0,0,0,0,0,0,0,0,0,0,0,0,0,0,0,0,0,0,0,0,0,0,0,0,0,0,0,0,0,0,0,0,0,0,0,0,0,0,0,0,0,0,0,0,0,0,0],"id":2,"left_children":[1,3,5,7,9,11,13,15,-1,17,19,21,23,25,27,-1,-1,-1,-1,-1,-1,29,31,33,-1,35,37,-1,-1,-1,39,41,43,-1,-1,45,47,-1,-1,-1,-1,-1,-1,-1,-1,-1,-1,-1,-1],"loss_changes":[6.6130875E1,1.50959015E1,2.9124186E1,6.1924744E-1,6.802589E0,1.0224318E1,1.1494038E1,9.8883057E-1,0E0,2.2342787E0,4.4301605E-1,4.9093084E0,6.881714E0,5.8096657E0,3.818441E0,0E0,0E0,0E0,0E0,0E0,0E0,6.2192326E0,3.198675E0,4.0284786E0,0E0,5.171116E0,1.3896873E0,0E0,0E0,0E0,3.953142E0,1.7469168E0,1.053937E0,0E0,0E0,3.7208977E0,3.1034148E0,0E0,0E0,0E0,0E0,0E0,0E0,0E0,0E0,0E0,0E0,0E0,0E0],"parents":[2147483647,0,0,1,1,2,2,3,3,4,4,5,5,6,6,7,7,9,9,10,10,11,11,12,12,13,13,14,14,21,21,22,22,23,23,25,25,26,26,30,30,31,31,32,32,35,35,36,36],"right_children":[2,4,6,8,10,12,14,16,-1,18,20,22,24,26,28,-1,-1,-1,-1,-1,-1,30,32,34,-1,36,38,-1,-1,-1,40,42,44,-1,-1,46,48,-1,-1,-1,-1,-1,-1,-1,-1,-1,-1,-1,-1],"split_conditions":[1E0,1E0,1E0,1E0,1E0,1E0,1E0,1E0,-3.0024996E-2,1E0,1E0,1E0,1E0,1E0,1E0,-1.17672406E-1,-2.9247468E-2,-1.5485569E-2,5.0120343E-2,-8.057182E-2,-1.9972308E-2,1E0,1E0,1E0,1.2342063E-2,1E0,1E0,1.9995442E-2,-6.957292E-2,-8.247985E-2,1E0,1E0,1E0,-1.1240407E-1,-1.2282252E-2,1E0,1E0,1.3372554E-2,-4.651012E-2,-2.9007563E-2,3.440443E-2,-5.9777866E-3,5.793959E-2,1.4652534E-2,-3.5204243E-2,5.798986E-2,-2.7871921E-3,-2.6397739E-2,4.3792453E-2],"split_indices":[145,108,138,36,137,136,882,103,0,157,144,168,1643,1769,1186,0,0,0,0,0,0,101,65,965,0,1317,1042,0,0,0,155,1255,450,0,0,851,42,0,0,0,0,0,0,0,0,0,0,0,0],"split_type":[0,0,0,0,0,0,0,0,0,0,0,0,0,0,0,0,0,0,0,0,0,0,0,0,0,0,0,0,0,0,0,0,0,0,0,0,0,0,0,0,0,0,0,0,0,0,0,0,0],"sum_hessian":[1.0030058E2,2.0425142E1,7.987544E1,1.3860944E1,6.5641985E0,2.5749876E1,5.4125565E1,1.2733506E1,1.1274378E0,3.8374531E0,2.7267454E0,1.80175E1,7.7323756E0,5.0560818E1,3.564748E0,1.159943E1,1.1340764E0,1.5157981E0,2.321655E0,1.3794491E0,1.3472962E0,1.0229588E1,7.787912E0,5.951455E0,1.7809205E0,4.820251E1,2.3583083E0,1.3047386E0,2.2600095E0,2.2915473E0,7.9380407E0,5.18157E0,2.606342E0,4.3876047E0,1.5638505E0,4.3454376E1,4.7481327E0,1.0706745E0,1.2876338E0,4.4836993E0,3.4543412E0,1.1347462E0,4.0468235E0,1.0884619E0,1.5178802E0,4.087007E1,2.5843072E0,3.2441964E0,1.5039363E0],"tree_param":{"num_deleted":"0","num_feature":"2215","num_nodes":"49","size_leaf_vector":"1"}},{"base_weights":[-2.4581924E-2,-1.0688735E0,5.070029E-1,-1.7281419E0,-4.741356E-1,-8.5231805E-1,8.109644E-1,-1.877405E0,-6.132242E-4,1.14734024E-1,-1.3521409E0,-1.2634947E0,3.6298793E-2,8.9492816E-1,-5.6752484E-2,-1.9998068E0,-2.6812201E-2,-1.0519464E0,5.273707E-1,-1.6774354E0,-6.129592E-3,-1.6753564E0,1.4057934E-1,9.696089E-1,-5.134554E-2,-1.0437199E-1,-2.82393E-2,-1.1134984E-2,-7.826451E-2,-5.399225E-1,9.7593564E-1,-1.8145807E-2,-9.838237E-2,-1.8733959E0,-1.8697288E-2,1.9433415E-2,-1.0031349E-2,1.0470424E0,-4.124724E-2,-4.9155414E-2,1.3729172E-2,5.909537E-2,8.584439E-3,-1.0224291E-1,-2.6844574E-2,5.5425048E-2,-9.008985E-3],"categories":[],"categories_nodes":[],"categories_segments":[],"categories_sizes":[],"default_left":[0,0,0,0,0,0,0,0,0,0,0,0,0,0,0,0,0,0,0,0,0,0,0,0,0,0,0,0,0,0,0,0,0,0,0,0,0,0,0,0,0,0,0,0,0,0,0],"id":3,"left_children":[1,3,5,7,9,11,13,15,-1,17,19,21,-1,23,-1,25,-1,27,29,31,-1,33,35,37,-1,-1,-1,-1,-1,39,41,-1,-1,43,-1,-1,-1,45,-1,-1,-1,-1,-1,-1,-1,-1,-1],"loss_changes":[5.8122173E1,1.3025616E1,2.9371515E1,4.1692734E0,1.0465718E1,9.46581E0,1.0368618E1,1.3985786E0,0E0,6.7448583E0,3.0276012E0,6.489748E0,0E0,8.95158E0,0E0,5.095482E-1,0E0,1.2236624E0,5.3932753E0,1.6945248E0,0E0,1.4746094E0,3.6371216E-1,8.34988E0,0E0,0E0,0E0,0E0,0E0,1.5881258E0,1.0416226E0,0E0,0E0,5.235748E-1,0E0,0E0,0E0,4.128189E0,0E0,0E0,0E0,0E0,0E0,0E0,0E0,0E0,0E0],"parents":[2147483647,0,0,1,1,2,2,3,3,4,4,5,5,6,6,7,7,9,9,10,10,11,11,13,13,15,15,17,17,18,18,19,19,21,21,22,22,23,23,29,29,30,30,33,33,37,37],"right_children":[2,4,6,8,10,12,14,16,-1,18,20,22,-1,24,-1,26,-1,28,30,32,-1,34,36,38,-1,-1,-1,-1,-1,40,42,-1,-1,44,-1,-1,-1,46,-1,-1,-1,-1,-1,-1,-1,-1,-1],"split_conditions":[1E0,1E0,1E0,1E0,1E0,1E0,1E0,1E0,-6.132242E-4,1E0,1E0,1E0,3.6298793E-2,1E0,-5.6752484E-2,1E0,-2.6812201E-2,1E0,1E0,1E0,-6.129592E-3,1E0,1E0,1E0,-5.134554E-2,-1.0437199E-1,-2.82393E-2,-1.1134984E-2,-7.826451E-2,1E0,1E0,-1.8145807E-2,-9.838237E-2,1E0,-1.8697288E-2,1.9433415E-2,-1.0031349E-2,1E0,-4.124724E-2,-4.9155414E-2,1.3729172E-2,5.909537E-2,8.584439E-3,-1.0224291E-1,-2.6844574E-2,5.5425048E-2,-9.008985E-3],"split_indices":[125,128,100,1194,136,108,1476,78,0,155,965,1524,0,1331,0,559,0,1206,149,150,0,671,882,852,0,0,0,0,0,126,2198,0,0,1774,0,0,0,548,0,0,0,0,0,0,0,0,0],"split_type":[0,0,0,0,0,0,0,0,0,0,0,0,0,0,0,0,0,0,0,0,0,0,0,0,0,0,0,0,0,0,0,0,0,0,0,0,0,0,0,0,0,0,0,0,0,0,0],"sum_hessian":[1.0272399E2,3.4310577E1,6.8413414E1,1.536866E1,1.8941916E1,1.2172729E1,5.624069E1,1.4052135E1,1.3165238E0,1.1858117E1,7.083799E0,9.8151455E0,2.3575835E0,5.4432247E1,1.8084403E0,1.2426888E1,1.6252474E0,2.6934326E0,9.164684E0,5.313713E0,1.770086E0,7.4396405E0,2.375505E0,5.2873127E1,1.5591193E0,1.1283211E1,1.1436776E0,1.5780687E0,1.1153638E0,2.651698E0,6.512986E0,1.367974E0,3.945739E0,6.075588E0,1.3640523E0,1.2948948E0,1.08061E0,5.108538E1,1.7877467E0,1.583235E0,1.0684632E0,4.811224E0,1.701762E0,4.915027E0,1.1605611E0,4.8741188E1,2.344192E0],"tree_param":{"num_deleted":"0","num_feature":"2215","num_nodes":"47","size_leaf_vector":"1"}},{"base_weights":[-5.399611E-3,-1.4054081E0,3.647284E-1,-1.5472535E0,3.6594287E-2,-4.4527262E-1,7.624222E-1,-1.9175702E0,-6.375623E-1,7.537816E-2,-1.420002E0,8.789716E-1,-7.251018E-1,-1.0358661E-1,-8.520933E-1,-1.1202399E0,2.4743481E-1,-5.1374304E-1,7.5939894E-1,-2.570761E-1,-1.8196697E0,9.4500315E-1,-1.5959063E-1,1.1609792E-2,-6.962353E-2,1.37169305E-2,-7.286096E-2,-5.616979E-3,-6.886683E-2,4.1692484E-2,-2.4103316E-2,-8.5468805E-1,4.3756712E-2,9.892732E-1,-7.801627E-3,2.486102E-2,-5.1267076E-2,-1.04951955E-1,-7.874277E-3,9.93025E-1,-1.896788E-2,3.8669776E-2,-4.268676E-2,-6.2060118E-2,8.585519E-3,1.6670214E-2,5.8223385E-2,5.2023806E-2,-5.7440666E-3],"categories":[],"categories_nodes":[],"categories_segments":[],"categories_sizes":[],"default_left":[0,0,0,0,0,0,0,0,0,0,0,0,0,0,0,0,0,0,0,0,0,0,0,0,0,0,0,0,0,0,0,0,0,0,0,0,0,0,0,0,0,0,0,0,0,0,0,0,0],"id":4,"left_children":[1,3,5,7,-1,9,11,13,15,17,19,21,23,-1,25,27,29,31,33,35,37,39,41,-1,-1,-1,-1,-1,-1,-1,-1,43,-1,45,-1,-1,-1,-1,-1,47,-1,-1,-1,-1,-1,-1,-1,-1,-1],"loss_changes":[5.44335E1,7.7911606E0,2.7106655E1,5.824238E0,0E0,1.4313839E1,1.0363342E1,5.9477615E-1,3.5022695E0,8.125923E0,4.0857773E0,3.7494774E0,3.2775092E0,0E0,2.7955725E0,1.1580958E0,1.8922153E0,5.914367E0,2.1085548E0,2.6367955E0,2.9788628E0,3.5237541E0,3.2459016E0,0E0,0E0,0E0,0E0,0E0,0E0,0E0,0E0,3.8890634E0,0E0,4.8030758E-1,0E0,0E0,0E0,0E0,0E0,2.6444283E0,0E0,0E0,0E0,0E0,0E0,0E0,0E0,0E0,0E0],"parents":[2147483647,0,0,1,1,2,2,3,3,5,5,6,6,7,7,8,8,9,9,10,10,11,11,12,12,14,14,15,15,16,16,17,17,18,18,19,19,20,20,21,21,22,22,31,31,33,33,39,39],"right_children":[2,4,6,8,-1,10,12,14,16,18,20,22,24,-1,26,28,30,32,34,36,38,40,42,-1,-1,-1,-1,-1,-1,-1,-1,44,-1,46,-1,-1,-1,-1,-1,48,-1,-1,-1,-1,-1,-1,-1,-1,-1],"split_conditions":[1E0,1E0,1E0,1E0,3.6594287E-2,1E0,1E0,1E0,1E0,1E0,1E0,1E0,1E0,-1.0358661E-1,1E0,1E0,1E0,1E0,1E0,1E0,1E0,1E0,1E0,1.1609792E-2,-6.962353E-2,1.37169305E-2,-7.286096E-2,-5.616979E-3,-6.886683E-2,4.1692484E-2,-2.4103316E-2,1E0,4.3756712E-2,1E0,-7.801627E-3,2.486102E-2,-5.1267076E-2,-1.04951955E-1,-7.874277E-3,1E0,-1.896788E-2,3.8669776E-2,-4.268676E-2,-6.2060118E-2,8.585519E-3,1.6670214E-2,5.8223385E-2,5.2023806E-2,-5.7440666E-3],"split_indices":[145,208,138,85,0,1227,882,126,97,147,154,644,1647,0,154,151,75,115,545,83,671,175,131,0,0,0,0,0,0,0,0,54,0,125,0,0,0,0,0,1860,0,0,0,0,0,0,0,0,0],"split_type":[0,0,0,0,0,0,0,0,0,0,0,0,0,0,0,0,0,0,0,0,0,0,0,0,0,0,0,0,0,0,0,0,0,0,0,0,0,0,0,0,0,0,0,0,0,0,0,0,0],"sum_hessian":[1.03057785E2,2.0964085E1,8.20937E1,1.9918243E1,1.0458405E0,2.6994053E1,5.5099648E1,1.3368332E1,6.549911E0,1.8196875E1,8.797176E0,5.1475574E1,3.624072E0,1.0853537E1,2.5147953E0,4.0663247E0,2.4835865E0,9.910378E0,8.286497E0,2.6703632E0,6.1268134E0,4.8483112E1,2.992461E0,1.756524E0,1.8675481E0,1.0698777E0,1.4449174E0,1.1184807E0,2.947844E0,1.2975224E0,1.186064E0,8.265871E0,1.644507E0,6.558841E0,1.7276556E0,1.5254505E0,1.1449127E0,5.020226E0,1.1065874E0,4.702804E1,1.4550709E0,1.2278974E0,1.7645634E0,5.8526425E0,2.4132288E0,1.9946394E0,4.564202E0,4.515494E1,1.8730991E0],"tree_param":{"num_deleted":"0","num_feature":"2215","num_nodes":"49","size_leaf_vector":"1"}},{"base_weights":[-7.396065E-2,-1.4118665E0,2.761422E-1,-1.5854943E0,3.9382856E-2,-4.7916886E-1,6.770814E-1,-1.8955338E0,-7.484028E-1,-1.1512895E-2,-1.2695851E0,8.0523396E-1,-7.8252155E-1,-9.8287776E-2,-2.8761733E-2,-1.1373936E0,2.2338895E-2,-5.3620154E-1,6.2903607E-1,-2.5112188E-1,-1.5720036E0,8.786069E-1,-4.9994165E-1,1.9290665E-2,-6.5286174E-2,2.7725294E-3,-9.112542E-2,-9.113542E-1,4.4927042E-2,9.589107E-2,5.5791814E-2,2.4243703E-2,-4.952934E-2,-1.7732803E0,-7.6567903E-3,9.8251665E-1,-1.9147243E-1,3.5439003E-2,-6.724082E-2,-6.1204035E-2,3.866783E-3,-4.062658E-2,2.959393E-2,-9.773995E-2,-2.3658006E-2,5.1810622E-2,-1.6569884E-2,-3.5979416E-2,3.977346E-2],"categories":[],"categories_nodes":[],"categories_segments":[],"categories_sizes":[],"default_left":[0,0,0,0,0,0,0,0,0,0,0,0,0,0,0,0,0,0,0,0,0,0,0,0,0,0,0,0,0,0,0,0,0,0,0,0,0,0,0,0,0,0,0,0,0,0,0,0,0],"id":5,"left_children":[1,3,5,7,-1,9,11,13,15,17,19,21,23,-1,-1,25,-1,27,29,31,33,35,37,-1,-1,-1,-1,39,-1,41,-1,-1,-1,43,-1,45,47,-1,-1,-1,-1,-1,-1,-1,-1,-1,-1,-1,-1],"loss_changes":[4.864777E1,9.471779E0,2.5306488E1,3.8468437E0,0E0,1.0775682E1,1.0787607E1,1.8136215E-1,3.8257103E0,6.8403516E0,2.9445648E0,5.2670403E0,3.4929748E0,0E0,0E0,4.7312374E0,0E0,6.8345613E0,2.2736726E0,2.478984E0,2.061535E0,5.5355988E0,4.344201E0,0E0,0E0,0E0,0E0,2.987514E0,0E0,2.946433E0,0E0,0E0,0E0,7.4121094E-1,0E0,3.4475937E0,3.2272747E0,0E0,0E0,0E0,0E0,0E0,0E0,0E0,0E0,0E0,0E0,0E0,0E0],"parents":[2147483647,0,0,1,1,2,2,3,3,5,5,6,6,7,7,8,8,9,9,10,10,11,11,12,12,15,15,17,17,18,18,19,19,20,20,21,21,22,22,27,27,29,29,33,33,35,35,36,36],"right_children":[2,4,6,8,-1,10,12,14,16,18,20,22,24,-1,-1,26,-1,28,30,32,34,36,38,-1,-1,-1,-1,40,-1,42,-1,-1,-1,44,-1,46,48,-1,-1,-1,-1,-1,-1,-1,-1,-1,-1,-1,-1],"split_conditions":[1E0,1E0,1E0,1E0,3.9382856E-2,1E0,1E0,1E0,1E0,1E0,1E0,1E0,1E0,-9.8287776E-2,-2.8761733E-2,1E0,2.2338895E-2,1E0,1E0,1E0,1E0,1E0,1E0,1.9290665E-2,-6.5286174E-2,2.7725294E-3,-9.112542E-2,1E0,4.4927042E-2,1E0,5.5791814E-2,2.4243703E-2,-4.952934E-2,1E0,-7.6567903E-3,1E0,1E0,3.5439003E-2,-6.724082E-2,-6.1204035E-2,3.866783E-3,-4.062658E-2,2.959393E-2,-9.773995E-2,-2.3658006E-2,5.1810622E-2,-1.6569884E-2,-3.5979416E-2,3.977346E-2],"split_indices":[145,208,138,85,0,1227,882,101,961,147,154,1769,1186,0,0,49,0,115,168,83,671,1317,95,0,0,0,0,54,0,101,0,0,0,109,0,1610,42,0,0,0,0,0,0,0,0,0,0,0,0],"split_type":[0,0,0,0,0,0,0,0,0,0,0,0,0,0,0,0,0,0,0,0,0,0,0,0,0,0,0,0,0,0,0,0,0,0,0,0,0,0,0,0,0,0,0,0,0,0,0,0,0],"sum_hessian":[1.0202606E2,2.0531796E1,8.149426E1,1.928836E1,1.2434344E0,2.8191141E1,5.3303123E1,1.31525345E1,6.135827E0,1.8349237E1,9.841904E0,4.9413002E1,3.8901215E0,1.2024145E1,1.1283888E0,4.6656623E0,1.4701648E0,1.0176407E1,8.172831E0,2.672392E0,7.169512E0,4.7092438E1,2.3205647E0,1.2844577E0,2.6056638E0,2.0374131E0,2.6282492E0,8.356236E0,1.8201708E0,4.472031E0,3.7007992E0,1.5118874E0,1.1605045E0,6.060063E0,1.1094491E0,4.2998875E1,4.093563E0,1.0209801E0,1.2995846E0,6.167385E0,2.1888516E0,1.3539689E0,3.1180623E0,4.875771E0,1.184292E0,4.1513687E1,1.4851884E0,2.8431008E0,1.2504622E0],"tree_param":{"num_deleted":"0","num_feature":"2215","num_nodes":"49","size_leaf_vector":"1"}},{"base_weights":[-3.8643045E-4,-1.2808892E0,3.6279348E-1,-1.6972275E0,-2.8003618E-1,-6.8434393E-1,6.655169E-1,-2.800152E-2,-1.8138111E0,3.984078E-1,-1.1071846E0,-8.6871105E-1,4.307373E-2,7.6079714E-1,-6.4132035E-2,-1.9080852E0,-2.1620918E-2,3.7859198E-2,-1.2821536E-2,-7.3482566E-2,-5.9771645E-3,-1.2025095E0,1.6941051E-1,8.6565334E-1,-6.8570346E-1,-1.00656845E-1,-2.3663534E-2,-1.4063087E0,8.470769E-3,3.517666E-2,-2.6950253E-2,9.053298E-1,-2.9418284E-2,1.890325E-2,-5.996061E-2,-7.956307E-2,1.1620754E-2,4.8466243E-2,-6.9297673E-3],"categories":[],"categories_nodes":[],"categories_segments":[],"categories_sizes":[],"default_left":[0,0,0,0,0,0,0,0,0,0,0,0,0,0,0,0,0,0,0,0,0,0,0,0,0,0,0,0,0,0,0,0,0,0,0,0,0,0,0],"id":6,"left_children":[1,3,5,7,9,11,13,-1,15,17,19,21,-1,23,-1,25,-1,-1,-1,-1,-1,27,29,31,33,-1,-1,35,-1,-1,-1,37,-1,-1,-1,-1,-1,-1,-1],"loss_changes":[4.804175E1,9.035927E0,2.5966778E1,1.0951538E0,4.8761744E0,6.032666E0,1.2658377E1,0E0,9.974785E-1,1.3870203E0,1.193944E0,6.1166697E0,0E0,9.789722E0,0E0,9.7777176E-1,0E0,0E0,0E0,0E0,0E0,3.8829136E0,2.281793E0,3.819561E0,2.9967568E0,0E0,0E0,3.842287E0,0E0,0E0,0E0,3.8658104E0,0E0,0E0,0E0,0E0,0E0,0E0,0E0],"parents":[2147483647,0,0,1,1,2,2,3,3,4,4,5,5,6,6,8,8,9,9,10,10,11,11,13,13,15,15,21,21,22,22,23,23,24,24,27,27,31,31],"right_children":[2,4,6,8,10,12,14,-1,16,18,20,22,-1,24,-1,26,-1,-1,-1,-1,-1,28,30,32,34,-1,-1,36,-1,-1,-1,38,-1,-1,-1,-1,-1,-1,-1],"split_conditions":[1E0,1E0,1E0,1E0,1E0,1E0,1E0,-2.800152E-2,1E0,1E0,1E0,1E0,4.307373E-2,1E0,-6.4132035E-2,1E0,-2.1620918E-2,3.7859198E-2,-1.2821536E-2,-7.3482566E-2,-5.9771645E-3,1E0,1E0,1E0,1E0,-1.00656845E-1,-2.3663534E-2,1E0,8.470769E-3,3.517666E-2,-2.6950253E-2,1E0,-2.9418284E-2,1.890325E-2,-5.996061E-2,-7.956307E-2,1.1620754E-2,4.8466243E-2,-6.9297673E-3],"split_indices":[145,108,100,151,137,286,1461,0,1227,112,1281,281,0,882,0,36,0,0,0,0,0,1293,50,1331,1492,0,0,78,0,0,0,548,0,0,0,0,0,0,0],"split_type":[0,0,0,0,0,0,0,0,0,0,0,0,0,0,0,0,0,0,0,0,0,0,0,0,0,0,0,0,0,0,0,0,0,0,0,0,0,0,0],"sum_hessian":[1.0130461E2,2.1825436E1,7.947917E1,1.4922246E1,6.90319E0,1.7541502E1,6.193767E1,1.9272126E0,1.2995033E1,4.0772676E0,2.8259223E0,1.6063643E1,1.477858E0,5.963074E1,2.3069339E0,1.1807917E1,1.1871165E0,2.533119E0,1.5441488E0,1.7102244E0,1.1156979E0,1.2035415E1,4.0282283E0,5.597471E1,3.6560297E0,1.06268E1,1.181118E0,1.0456972E1,1.5784428E0,2.3005667E0,1.7276616E0,5.485521E1,1.1194986E0,1.276153E0,2.3798766E0,9.422478E0,1.0344942E0,5.175403E1,3.1011808E0],"tree_param":{"num_deleted":"0","num_feature":"2215","num_nodes":"39","size_leaf_vector":"1"}},{"base_weights":[-2.0949326E-2,-8.4144735E-1,5.219764E-1,-1.1643976E0,-1.4729759E-1,-7.696292E-1,7.153269E-1,-1.5509802E0,-4.4719276E-1,3.9836115E-1,-1.1362215E0,-1.2768872E0,3.131076E-2,7.800575E-1,-3.1032985E-2,-6.930601E-1,-8.893571E-2,-7.415744E-1,3.105476E-2,-4.0836796E-1,7.767058E-1,-2.8492042E-3,-7.1491964E-2,-8.2029976E-2,1.4727296E-2,8.362625E-1,-2.3473253E-2,-6.4226426E-2,1.4202197E-2,-1.135555E0,1.9170266E-1,-4.3834675E-2,1.8255537E-2,4.813326E-2,-1.6796225E-3,-3.5580896E-2,9.2188317E-1,-1.7324332E-2,-7.472604E-2,4.1742977E-2,-3.240008E-2,-5.1393848E-2,2.9236594E-2,4.848231E-2,-6.5566073E-3],"categories":[],"categories_nodes":[],"categories_segments":[],"categories_sizes":[],"default_left":[0,0,0,0,0,0,0,0,0,0,0,0,0,0,0,0,0,0,0,0,0,0,0,0,0,0,0,0,0,0,0,0,0,0,0,0,0,0,0,0,0,0,0,0,0],"id":7,"left_children":[1,3,5,7,9,11,13,15,17,19,21,23,-1,25,-1,27,-1,29,-1,31,33,-1,-1,-1,-1,35,-1,-1,-1,37,39,-1,-1,-1,-1,41,43,-1,-1,-1,-1,-1,-1,-1,-1],"loss_changes":[4.505892E1,8.85574E0,1.5757929E1,6.886036E0,7.9699726E0,6.7547455E0,5.109413E0,2.1586075E0,3.9135334E0,3.2832842E0,1.5704603E0,4.1970787E0,0E0,4.0062904E0,0E0,3.4160278E0,0E0,3.550282E0,0E0,1.6813569E0,1.0810814E0,0E0,0E0,0E0,0E0,3.7353477E0,0E0,0E0,0E0,1.3282566E0,2.456028E0,0E0,0E0,0E0,0E0,3.9238732E0,2.400589E0,0E0,0E0,0E0,0E0,0E0,0E0,0E0,0E0],"parents":[2147483647,0,0,1,1,2,2,3,3,4,4,5,5,6,6,7,7,8,8,9,9,10,10,11,11,13,13,15,15,17,17,19,19,20,20,25,25,29,29,30,30,35,35,36,36],"right_children":[2,4,6,8,10,12,14,16,18,20,22,24,-1,26,-1,28,-1,30,-1,32,34,-1,-1,-1,-1,36,-1,-1,-1,38,40,-1,-1,-1,-1,42,44,-1,-1,-1,-1,-1,-1,-1,-1],"split_conditions":[1E0,1E0,1E0,1E0,1E0,1E0,1E0,1E0,1E0,1E0,1E0,1E0,3.131076E-2,1E0,-3.1032985E-2,1E0,-8.893571E-2,1E0,3.105476E-2,1E0,1E0,-2.8492042E-3,-7.1491964E-2,-8.2029976E-2,1.4727296E-2,1E0,-2.3473253E-2,-6.4226426E-2,1.4202197E-2,1E0,1E0,-4.3834675E-2,1.8255537E-2,4.813326E-2,-1.6796225E-3,1E0,1E0,-1.7324332E-2,-7.472604E-2,4.1742977E-2,-3.240008E-2,-5.1393848E-2,2.9236594E-2,4.848231E-2,-6.5566073E-3],"split_indices":[138,1366,1917,113,62,117,852,156,108,155,154,1227,0,528,0,141,0,42,0,95,424,0,0,0,0,145,0,0,0,151,450,0,0,0,0,108,364,0,0,0,0,0,0,0,0],"split_type":[0,0,0,0,0,0,0,0,0,0,0,0,0,0,0,0,0,0,0,0,0,0,0,0,0,0,0,0,0,0,0,0,0,0,0,0,0,0,0,0,0,0,0,0,0],"sum_hessian":[9.916333E1,3.9268642E1,5.9894688E1,2.6337698E1,1.2930944E1,7.410583E0,5.2484104E1,1.6357992E1,9.979705E0,8.717865E0,4.2130804E0,5.4978533E0,1.9127295E0,5.045557E1,2.028531E0,4.2795067E0,1.2078486E1,8.063519E0,1.916186E0,2.7579162E0,5.9599485E0,1.1564488E0,3.0566313E0,4.4287844E0,1.069069E0,4.8600212E1,1.8553609E0,2.4698246E0,1.8096821E0,5.517556E0,2.5459626E0,1.6346978E0,1.1232184E0,4.694537E0,1.2654113E0,4.3983064E0,4.4201904E1,2.3397088E0,3.1778471E0,1.444977E0,1.1009854E0,1.4391346E0,2.9591715E0,4.235971E1,1.8421948E0],"tree_param":{"num_deleted":"0","num_feature":"2215","num_nodes":"45","size_leaf_vector":"1"}},{"base_weights":[-1.5647195E-3,-7.4910337E-1,4.8981202E-1,-1.4505829E0,-3.9748034E-1,-3.3562732E-1,7.9118806E-1,-1.511251E-3,-1.5872281E0,2.0389974E-1,-8.327942E-1,-1.2646011E0,1.757293E-1,8.754878E-1,-6.2567276E-1,-8.917198E-2,-5.594736E-1,-3.1873545E-1,7.476348E-1,-2.0868593E-1,-1.358963E0,-8.822141E-2,-1.5944848E-3,4.7087294E-1,-6.0250934E-2,9.61294E-1,-2.2854263E-2,-5.6354064E-2,1.0553332E-2,-1.4569736E-3,-4.1476678E-2,-5.074053E-2,1.2064084E-1,-1.8339224E-2,5.5662144E-2,-6.7284995E-1,3.1504893E-1,-7.8033045E-2,-1.914288E-2,7.1869856E-1,-2.8217657E-2,1.0197475E0,-3.0118516E-2,2.366033E-2,-3.1365987E-2,-5.9507646E-2,2.1573765E-2,-1.2080123E-2,4.3336894E-2,-1.993972E-2,5.7977255E-2,5.4890957E-2,8.211617E-3],"categories":[],"categories_nodes":[],"categories_segments":[],"categories_sizes":[],"default_left":[0,0,0,0,0,0,0,0,0,0,0,0,0,0,0,0,0,0,0,0,0,0,0,0,0,0,0,0,0,0,0,0,0,0,0,0,0,0,0,0,0,0,0,0,0,0,0,0,0,0,0,0,0],"id":8,"left_children":[1,3,5,7,9,11,13,-1,15,17,19,21,23,25,27,-1,29,31,33,35,37,-1,-1,39,-1,41,-1,-1,-1,-1,-1,-1,43,-1,-1,45,47,-1,-1,49,-1,51,-1,-1,-1,-1,-1,-1,-1,-1,-1,-1,-1],"loss_changes":[3.7057487E1,9.292667E0,1.5409079E1,2.4716969E0,7.507705E0,8.289996E0,5.909569E0,0E0,1.3865223E0,3.811288E0,5.12053E0,3.7339926E0,5.389118E0,5.331749E0,1.5402135E0,0E0,4.559809E-1,2.2975821E0,3.0408382E0,2.3291616E0,1.1246777E0,0E0,0E0,3.0910087E0,0E0,4.3179092E0,0E0,0E0,0E0,0E0,0E0,0E0,1.6822896E0,0E0,0E0,3.3333478E0,1.6752101E0,0E0,0E0,4.839676E0,0E0,2.4533997E0,0E0,0E0,0E0,0E0,0E0,0E0,0E0,0E0,0E0,0E0,0E0],"parents":[2147483647,0,0,1,1,2,2,3,3,4,4,5,5,6,6,8,8,9,9,10,10,11,11,12,12,13,13,14,14,16,16,17,17,18,18,19,19,20,20,23,23,25,25,32,32,35,35,36,36,39,39,41,41],"right_children":[2,4,6,8,10,12,14,-1,16,18,20,22,24,26,28,-1,30,32,34,36,38,-1,-1,40,-1,42,-1,-1,-1,-1,-1,-1,44,-1,-1,46,48,-1,-1,50,-1,52,-1,-1,-1,-1,-1,-1,-1,-1,-1,-1,-1],"split_conditions":[1E0,1E0,1E0,1E0,1E0,1E0,1E0,-1.511251E-3,1E0,1E0,1E0,1E0,1E0,1E0,1E0,-8.917198E-2,1E0,1E0,1E0,1E0,1E0,-8.822141E-2,-1.5944848E-3,1E0,-6.0250934E-2,1E0,-2.2854263E-2,-5.6354064E-2,1.0553332E-2,-1.4569736E-3,-4.1476678E-2,-5.074053E-2,1E0,-1.8339224E-2,5.5662144E-2,1E0,1E0,-7.8033045E-2,-1.914288E-2,1E0,-2.8217657E-2,1E0,-3.0118516E-2,2.366033E-2,-3.1365987E-2,-5.9507646E-2,2.1573765E-2,-1.2080123E-2,4.3336894E-2,-1.993972E-2,5.7977255E-2,5.4890957E-2,8.211617E-3],"split_indices":[138,145,125,156,154,1224,548,0,108,155,136,96,32,852,79,0,974,150,111,129,965,0,0,481,0,1499,0,0,0,0,0,0,450,0,0,1446,123,0,0,128,0,2158,0,0,0,0,0,0,0,0,0,0,0],"split_type":[0,0,0,0,0,0,0,0,0,0,0,0,0,0,0,0,0,0,0,0,0,0,0,0,0,0,0,0,0,0,0,0,0,0,0,0,0,0,0,0,0,0,0,0,0,0,0,0,0,0,0,0,0],"sum_hessian":[9.8886345E1,3.9012123E1,5.9874218E1,1.1982311E1,2.7029814E1,1.5983455E1,4.3890762E1,1.1587614E0,1.082355E1,1.15732E1,1.5456614E1,5.1515965E0,1.0831859E1,4.178665E1,2.104111E0,8.471041E0,2.352509E0,6.112093E0,5.461107E0,7.709136E0,7.7474775E0,3.358491E0,1.7931052E0,9.467165E0,1.364694E0,3.9520493E1,2.266159E0,1.0987206E0,1.0053903E0,1.1675721E0,1.1849369E0,1.8583574E0,4.2537355E0,1.348251E0,4.112856E0,3.936059E0,3.7730772E0,5.924418E0,1.8230591E0,7.88525E0,1.5819149E0,3.843167E1,1.0888214E0,3.1406615E0,1.1130743E0,2.6275206E0,1.3085383E0,2.1578674E0,1.6152099E0,2.2576833E0,5.6275663E0,3.4958267E1,3.4734063E0],"tree_param":{"num_deleted":"0","num_feature":"2215","num_nodes":"53","size_leaf_vector":"1"}},{"base_weights":[-4.172439E-2,-8.4758836E-1,4.274796E-1,-1.503712E0,-4.3660608E-1,-2.3919947E-1,7.811492E-1,-8.534379E-2,7.934344E-3,-1.1399839E0,-8.238739E-2,-4.5782453E-1,4.7164583E-1,8.768443E-1,-6.4937145E-2,-1.4690919E0,7.2070407E-3,4.0870905E-1,-8.3059347E-1,-6.1177814E-1,2.8607775E-2,8.483099E-1,-2.0461002E-2,1.0308151E0,-3.4420913E-1,-8.819623E-2,-1.1403768E-2,-3.2612868E-2,7.028322E-1,2.3464791E-1,-1.4433995E0,-7.577944E-1,3.7108228E-2,4.8425566E-2,1.1216954E-2,1.1011847E0,-1.8559655E-2,-9.5860887E-1,3.9961226E-2,1.3032406E-2,5.3131253E-2,-1.5853582E-2,3.7545726E-2,-2.2364793E-2,-8.301743E-2,-4.5849834E-2,3.3467405E-2,5.7543486E-2,-8.083538E-3,-6.0416233E-2,-8.565689E-3],"categories":[],"categories_nodes":[],"categories_segments":[],"categories_sizes":[],"default_left":[0,0,0,0,0,0,0,0,0,0,0,0,0,0,0,0,0,0,0,0,0,0,0,0,0,0,0,0,0,0,0,0,0,0,0,0,0,0,0,0,0,0,0,0,0,0,0,0,0,0,0],"id":9,"left_children":[1,3,5,7,9,11,13,-1,-1,15,17,19,21,23,-1,25,-1,27,29,31,-1,33,-1,35,37,-1,-1,-1,39,41,43,45,-1,-1,-1,47,-1,49,-1,-1,-1,-1,-1,-1,-1,-1,-1,-1,-1,-1,-1],"loss_changes":[3.734257E1,9.138609E0,1.4917942E1,4.857641E0,5.8218455E0,3.7003675E0,9.3103695E0,0E0,0E0,3.5396748E0,6.537935E0,3.149537E0,2.2603636E0,7.8463135E0,0E0,1.9238405E0,0E0,3.845693E0,4.917689E0,3.6943946E0,0E0,1.1007857E-1,0E0,3.924488E0,4.427431E0,0E0,0E0,0E0,1.1517034E0,1.2127419E0,2.4984074E-1,3.975254E0,0E0,0E0,0E0,2.3309593E0,0E0,5.488665E-1,0E0,0E0,0E0,0E0,0E0,0E0,0E0,0E0,0E0,0E0,0E0,0E0,0E0],"parents":[2147483647,0,0,1,1,2,2,3,3,4,4,5,5,6,6,9,9,10,10,11,11,12,12,13,13,15,15,17,17,18,18,19,19,21,21,23,23,24,24,28,28,29,29,30,30,31,31,35,35,37,37],"right_children":[2,4,6,8,10,12,14,-1,-1,16,18,20,22,24,-1,26,-1,28,30,32,-1,34,-1,36,38,-1,-1,-1,40,42,44,46,-1,-1,-1,48,-1,50,-1,-1,-1,-1,-1,-1,-1,-1,-1,-1,-1,-1,-1],"split_conditions":[1E0,1E0,1E0,1E0,1E0,1E0,1E0,-8.534379E-2,7.934344E-3,1E0,1E0,1E0,1E0,1E0,-6.4937145E-2,1E0,7.2070407E-3,1E0,1E0,1E0,2.8607775E-2,1E0,-2.0461002E-2,1E0,1E0,-8.819623E-2,-1.1403768E-2,-3.2612868E-2,1E0,1E0,1E0,1E0,3.7108228E-2,4.8425566E-2,1.1216954E-2,1E0,-1.8559655E-2,1E0,3.9961226E-2,1.3032406E-2,5.3131253E-2,-1.5853582E-2,3.7545726E-2,-2.2364793E-2,-8.301743E-2,-4.5849834E-2,3.3467405E-2,5.7543486E-2,-8.083538E-3,-6.0416233E-2,-8.565689E-3],"split_indices":[125,129,86,105,149,1492,1476,0,0,135,136,2033,2158,1317,0,168,0,155,112,1620,0,556,0,912,42,0,0,0,126,965,150,611,0,0,0,719,0,477,0,0,0,0,0,0,0,0,0,0,0,0,0],"split_type":[0,0,0,0,0,0,0,0,0,0,0,0,0,0,0,0,0,0,0,0,0,0,0,0,0,0,0,0,0,0,0,0,0,0,0,0,0,0,0,0,0,0,0,0,0,0,0,0,0,0,0],"sum_hessian":[9.680169E1,3.532467E1,6.147702E1,1.2580834E1,2.2743835E1,2.1421133E1,4.0055885E1,1.11869135E1,1.3939214E0,6.874575E0,1.586926E1,1.6654789E1,4.766344E0,3.884697E1,1.2089164E0,5.357469E0,1.517106E0,9.854715E0,6.014544E0,1.4842302E1,1.8124857E0,3.3645847E0,1.4017594E0,3.463536E1,4.2116084E0,3.9885426E0,1.3689265E0,1.874685E0,7.9800305E0,2.421807E0,3.592737E0,1.3794894E1,1.0474085E0,2.3581398E0,1.0064449E0,3.318434E1,1.451022E0,2.8447063E0,1.3669022E0,4.3537397E0,3.626291E0,1.3572209E0,1.0645862E0,1.1901264E0,2.4026105E0,1.2732053E1,1.0628412E0,3.2013496E1,1.1708417E0,1.7536883E0,1.0910181E0],"tree_param":{"num_deleted":"0","num_feature":"2215","num_nodes":"51","size_leaf_vector":"1"}},{"base_weights":[1.6049031E-2,-1.103316E0,3.2789233E-1,-1.2606062E0,2.60059E-2,-5.511183E-1,5.6308126E-1,-1.3837578E0,2.0742688E-2,-9.0123564E-1,5.250174E-1,-2.886079E-1,8.0834466E-1,-1.4717146E0,-8.757274E-3,-1.3048841E0,1.3477048E-1,-5.6987563E-3,3.77685E-2,-5.779686E-1,3.7538897E-2,8.6920345E-1,-2.0964481E-2,-1.545691E0,-2.3088785E-2,-8.649414E-2,-1.2581226E-1,5.4917955E-1,-2.9965803E-2,-3.188109E-2,-1.089961E0,9.1729856E-1,-1.9481365E-2,-8.12775E-2,-2.8508103E-2,2.3739902E-2,-3.5074238E-2,4.6440173E-4,4.1095875E-2,-2.6395822E-2,4.2654645E-2,-6.385227E-2,-5.247411E-3,4.983221E-2,3.1922634E-3],"categories":[],"categories_nodes":[],"categories_segments":[],"categories_sizes":[],"default_left":[0,0,0,0,0,0,0,0,0,0,0,0,0,0,0,0,0,0,0,0,0,0,0,0,0,0,0,0,0,0,0,0,0,0,0,0,0,0,0,0,0,0,0,0,0],"id":10,"left_children":[1,3,5,7,-1,9,11,13,-1,15,17,19,21,23,-1,25,27,-1,-1,29,-1,31,-1,33,-1,-1,35,37,-1,39,41,43,-1,-1,-1,-1,-1,-1,-1,-1,-1,-1,-1,-1,-1],"loss_changes":[3.4550907E1,6.16358E0,1.630622E1,4.691868E0,0E0,6.817213E0,1.308757E1,1.7430267E0,0E0,5.642576E0,7.8750765E-1,4.7935953E0,3.9537048E0,5.869026E-1,0E0,4.5433083E0,1.719886E0,0E0,0E0,3.2935092E0,0E0,3.1483002E0,0E0,3.036766E-1,0E0,0E0,1.5762949E0,4.9947703E-1,0E0,3.4311628E0,9.9259996E-1,2.9632874E0,0E0,0E0,0E0,0E0,0E0,0E0,0E0,0E0,0E0,0E0,0E0,0E0,0E0],"parents":[2147483647,0,0,1,1,2,2,3,3,5,5,6,6,7,7,9,9,10,10,11,11,12,12,13,13,15,15,16,16,19,19,21,21,23,23,26,26,27,27,29,29,30,30,31,31],"right_children":[2,4,6,8,-1,10,12,14,-1,16,18,20,22,24,-1,26,28,-1,-1,30,-1,32,-1,34,-1,-1,36,38,-1,40,42,44,-1,-1,-1,-1,-1,-1,-1,-1,-1,-1,-1,-1,-1],"split_conditions":[1E0,1E0,1E0,1E0,2.60059E-2,1E0,1E0,1E0,2.0742688E-2,1E0,1E0,1E0,1E0,1E0,-8.757274E-3,1E0,1E0,-5.6987563E-3,3.77685E-2,1E0,3.7538897E-2,1E0,-2.0964481E-2,1E0,-2.3088785E-2,-8.649414E-2,1E0,1E0,-2.9965803E-2,1E0,1E0,1E0,-1.9481365E-2,-8.12775E-2,-2.8508103E-2,2.3739902E-2,-3.5074238E-2,4.6440173E-4,4.1095875E-2,-2.6395822E-2,4.2654645E-2,-6.385227E-2,-5.247411E-3,4.983221E-2,3.1922634E-3],"split_indices":[1917,653,100,1684,0,108,125,2051,0,75,155,2078,169,1195,0,101,450,0,0,117,0,805,0,78,0,0,154,66,0,114,54,2158,0,0,0,0,0,0,0,0,0,0,0,0,0],"split_type":[0,0,0,0,0,0,0,0,0,0,0,0,0,0,0,0,0,0,0,0,0,0,0,0,0,0,0,0,0,0,0,0,0,0,0,0,0,0,0,0,0,0,0,0,0],"sum_hessian":[9.694449E1,2.0570044E1,7.637444E1,1.8956858E1,1.6131862E0,1.5837822E1,6.053662E1,1.7821056E1,1.1358021E0,1.2072575E1,3.7652473E0,1.3495636E1,4.7040985E1,1.6409187E1,1.4118683E0,8.5009165E0,3.571658E0,1.1315554E0,2.6336918E0,1.0903954E1,2.5916824E0,4.5097298E1,1.9436876E0,1.4794998E1,1.6141891E0,5.9052143E0,2.5957022E0,2.443904E0,1.127754E0,5.7903147E0,5.113639E0,4.3699036E1,1.3982637E0,1.3059587E1,1.7354116E0,1.3560929E0,1.2396092E0,1.1672863E0,1.2766178E0,3.9690793E0,1.8212353E0,4.048271E0,1.0653678E0,3.9828407E1,3.8706276E0],"tree_param":{"num_deleted":"0","num_feature":"2215","num_nodes":"45","size_leaf_vector":"1"}},{"base_weights":[-4.8630867E-2,-7.585054E-1,3.5683122E-1,-8.7915975E-1,5.040255E-1,-3.5089386E-1,7.370364E-1,-1.1004891E0,-1.4846523E-1,4.304333E-2,-9.6649295E-3,-5.657273E-1,5.145621E-1,8.3164316E-1,-4.878322E-2,-4.2676657E-1,-1.4233642E0,-6.4687155E-2,3.8872215E-1,-1.580932E-1,-1.1868457E0,-1.0954031E-2,7.714708E-1,9.65203E-1,-2.5971606E-1,5.055405E-1,-8.259322E-1,-1.5595704E0,1.4315451E-2,7.7376854E-1,-2.557131E-2,-6.4457583E-1,8.0446255E-1,-7.749414E-2,9.257207E-3,4.4100102E-2,1.2215943E-2,1.038073E0,-2.598968E-2,-8.44573E-1,3.8332146E-2,4.246972E-2,-5.3474237E-3,-6.700835E-2,1.5691124E-2,-8.267147E-2,-8.474688E-3,-2.695047E-3,5.1121652E-2,-4.5457225E-2,1.087561E-2,4.6873182E-2,1.0148807E-2,5.441403E-2,-6.0886755E-3,-5.219831E-2,-9.706167E-3],"categories":[],"categories_nodes":[],"categories_segments":[],"categories_sizes":[],"default_left":[0,0,0,0,0,0,0,0,0,0,0,0,0,0,0,0,0,0,0,0,0,0,0,0,0,0,0,0,0,0,0,0,0,0,0,0,0,0,0,0,0,0,0,0,0,0,0,0,0,0,0,0,0,0,0,0,0],"id":11,"left_children":[1,3,5,7,9,11,13,15,17,-1,-1,19,21,23,-1,25,27,-1,29,31,33,-1,35,37,39,41,43,45,-1,47,-1,49,51,-1,-1,-1,-1,53,-1,55,-1,-1,-1,-1,-1,-1,-1,-1,-1,-1,-1,-1,-1,-1,-1,-1,-1],"loss_changes":[2.7153027E1,5.663933E0,1.6436972E1,4.954838E0,1.0684828E0,4.3238106E0,7.2011776E0,4.6424484E0,5.740679E0,0E0,0E0,4.3324304E0,1.0806887E0,5.7765865E0,0E0,3.8588395E0,4.146122E0,0E0,2.670884E0,6.1060314E0,3.7338028E0,0E0,6.136656E-3,4.2175846E0,3.6017742E0,8.053366E-1,4.4380894E0,1.6598549E0,0E0,1.0832484E0,0E0,2.132213E0,1.6577673E-1,0E0,0E0,0E0,0E0,2.0386543E0,0E0,2.6565838E-1,0E0,0E0,0E0,0E0,0E0,0E0,0E0,0E0,0E0,0E0,0E0,0E0,0E0,0E0,0E0,0E0,0E0],"parents":[2147483647,0,0,1,1,2,2,3,3,4,4,5,5,6,6,7,7,8,8,11,11,12,12,13,13,15,15,16,16,18,18,19,19,20,20,22,22,23,23,24,24,25,25,26,26,27,27,29,29,31,31,32,32,37,37,39,39],"right_children":[2,4,6,8,10,12,14,16,18,-1,-1,20,22,24,-1,26,28,-1,30,32,34,-1,36,38,40,42,44,46,-1,48,-1,50,52,-1,-1,-1,-1,54,-1,56,-1,-1,-1,-1,-1,-1,-1,-1,-1,-1,-1,-1,-1,-1,-1,-1,-1],"split_conditions":[1E0,1E0,1E0,1E0,1E0,1E0,1E0,1E0,1E0,4.304333E-2,-9.6649295E-3,1E0,1E0,1E0,-4.878322E-2,1E0,1E0,-6.4687155E-2,1E0,1E0,1E0,-1.0954031E-2,1E0,1E0,1E0,1E0,1E0,1E0,1.4315451E-2,1E0,-2.557131E-2,1E0,1E0,-7.749414E-2,9.257207E-3,4.4100102E-2,1.2215943E-2,1E0,-2.598968E-2,1E0,3.8332146E-2,4.246972E-2,-5.3474237E-3,-6.700835E-2,1.5691124E-2,-8.267147E-2,-8.474688E-3,-2.695047E-3,5.1121652E-2,-4.5457225E-2,1.087561E-2,4.6873182E-2,1.0148807E-2,5.441403E-2,-6.0886755E-3,-5.219831E-2,-9.706167E-3],"split_indices":[125,607,86,109,112,1524,744,154,126,0,0,124,1186,1317,0,151,103,0,136,168,69,0,13,912,42,168,145,1312,0,1093,0,1099,1921,0,0,0,0,1540,0,477,0,0,0,0,0,0,0,0,0,0,0,0,0,0,0,0,0],"split_type":[0,0,0,0,0,0,0,0,0,0,0,0,0,0,0,0,0,0,0,0,0,0,0,0,0,0,0,0,0,0,0,0,0,0,0,0,0,0,0,0,0,0,0,0,0,0,0,0,0,0,0,0,0,0,0,0,0],"sum_hessian":[9.23976E1,3.3273075E1,5.912452E1,3.0647852E1,2.6252234E0,2.0689526E1,3.8434994E1,2.3134317E1,7.5135336E0,1.5814304E0,1.043793E0,1.6852522E1,3.8370025E0,3.6910545E1,1.5244514E0,8.247196E0,1.4887121E1,1.9492941E0,5.5642395E0,1.0932292E1,5.9202304E0,1.0333512E0,2.8036513E0,3.298897E1,3.9215722E0,2.3925557E0,5.854641E0,1.3869928E1,1.0171933E0,3.9955196E0,1.5687199E0,7.4814587E0,3.4508338E0,4.5789504E0,1.3412797E0,1.7612197E0,1.0424316E0,3.1732779E1,1.2561939E0,2.6109018E0,1.3106703E0,1.28459E0,1.1079656E0,3.9132307E0,1.9414103E0,1.2815186E1,1.054743E0,1.1040322E0,2.8914876E0,5.682849E0,1.7986099E0,2.3685253E0,1.0823084E0,3.0475264E1,1.2575145E0,1.5352767E0,1.0756252E0],"tree_param":{"num_deleted":"0","num_feature":"2215","num_nodes":"57","size_leaf_vector":"1"}},{"base_weights":[-3.7705302E-2,-1.0173694E0,2.5263485E-1,-1.3925967E0,-1.3607246E-1,-3.828093E-1,5.8869237E-1,-1.4680763E0,-1.3881089E-2,3.84865E-1,-8.219883E-1,3.320024E-1,-8.3016807E-1,6.851157E-1,-5.9902614E-1,-1.5544659E0,-2.119835E-2,-9.893326E-3,3.577202E-2,5.447465E-4,-6.0091704E-2,-1.0917982E-1,7.6748884E-1,-1.3399395E0,-2.0449838E-1,7.5770855E-1,-3.9739478E-1,2.4492478E-2,-6.757335E-2,-2.8021708E-2,-8.294824E-2,-4.3576398E-1,2.6660917E-2,1.108675E-2,4.9312636E-2,-7.612099E-2,-2.0868639E-3,-4.8823813E-1,2.770177E-2,8.1040835E-1,-3.4029514E-2,1.5098899E-2,-4.4444457E-2,-4.795338E-2,5.007622E-3,-6.62685E-2,3.4232747E-3,4.3923426E-2,-2.2411881E-2],"categories":[],"categories_nodes":[],"categories_segments":[],"categories_sizes":[],"default_left":[0,0,0,0,0,0,0,0,0,0,0,0,0,0,0,0,0,0,0,0,0,0,0,0,0,0,0,0,0,0,0,0,0,0,0,0,0,0,0,0,0,0,0,0,0,0,0,0,0],"id":12,"left_children":[1,3,5,7,9,11,13,15,-1,17,19,21,23,25,27,29,-1,-1,-1,-1,-1,31,33,35,37,39,41,-1,-1,-1,-1,43,-1,-1,-1,-1,-1,45,-1,47,-1,-1,-1,-1,-1,-1,-1,-1,-1],"loss_changes":[2.6913055E1,6.9611225E0,1.5833826E1,8.5967636E-1,3.0196834E0,8.554518E0,5.9307137E0,5.920315E-1,0E0,1.1010864E0,1.1471372E0,2.1357503E0,4.895973E0,3.8412037E0,4.064566E0,3.6195946E-1,0E0,0E0,0E0,0E0,0E0,1.5290747E0,4.378798E-1,2.0097542E0,2.0907912E0,3.7776928E0,1.4670763E0,0E0,0E0,0E0,0E0,1.3995512E0,0E0,0E0,0E0,0E0,0E0,3.2069821E0,0E0,3.950039E0,0E0,0E0,0E0,0E0,0E0,0E0,0E0,0E0,0E0],"parents":[2147483647,0,0,1,1,2,2,3,3,4,4,5,5,6,6,7,7,9,9,10,10,11,11,12,12,13,13,14,14,15,15,21,21,22,22,23,23,24,24,25,25,26,26,31,31,37,37,39,39],"right_children":[2,4,6,8,10,12,14,16,-1,18,20,22,24,26,28,30,-1,-1,-1,-1,-1,32,34,36,38,40,42,-1,-1,-1,-1,44,-1,-1,-1,-1,-1,46,-1,48,-1,-1,-1,-1,-1,-1,-1,-1,-1],"split_conditions":[1E0,1E0,1E0,1E0,1E0,1E0,1E0,1E0,-1.3881089E-2,1E0,1E0,1E0,1E0,1E0,1E0,1E0,-2.119835E-2,-9.893326E-3,3.577202E-2,5.447465E-4,-6.0091704E-2,1E0,1E0,1E0,1E0,1E0,1E0,2.4492478E-2,-6.757335E-2,-2.8021708E-2,-8.294824E-2,1E0,2.6660917E-2,1.108675E-2,4.9312636E-2,-7.612099E-2,-2.0868639E-3,1E0,2.770177E-2,1E0,-3.4029514E-2,1.5098899E-2,-4.4444457E-2,-4.795338E-2,5.007622E-3,-6.62685E-2,3.4232747E-3,4.3923426E-2,-2.2411881E-2],"split_indices":[145,108,138,1227,137,154,882,1731,0,157,90,155,129,1769,1647,151,0,0,0,0,0,556,156,1446,168,1610,1042,0,0,0,0,281,0,0,0,0,0,83,0,852,0,0,0,0,0,0,0,0,0],"split_type":[0,0,0,0,0,0,0,0,0,0,0,0,0,0,0,0,0,0,0,0,0,0,0,0,0,0,0,0,0,0,0,0,0,0,0,0,0,0,0,0,0,0,0,0,0,0,0,0,0],"sum_hessian":[9.271545E1,2.0623543E1,7.20919E1,1.4057959E1,6.565584E0,2.4889584E1,4.7202316E1,1.2870016E1,1.1879417E0,3.981005E0,2.5845792E0,9.680102E0,1.5209482E1,4.4049393E1,3.1529236E0,1.1435083E1,1.4349335E0,1.5862482E0,2.3947568E0,1.1137629E0,1.4708164E0,5.180817E0,4.4992857E0,7.7519135E0,7.457568E0,4.1562283E1,2.4871097E0,1.4310303E0,1.7218933E0,1.6930679E0,9.742015E0,3.6479318E0,1.5328853E0,1.8636324E0,2.635653E0,6.645135E0,1.106779E0,5.6867156E0,1.7708524E0,4.0514374E1,1.0479103E0,1.1856208E0,1.3014889E0,1.4461919E0,2.2017398E0,1.7198218E0,3.966894E0,3.8722538E1,1.7918355E0],"tree_param":{"num_deleted":"0","num_feature":"2215","num_nodes":"49","size_leaf_vector":"1"}},{"base_weights":[1.7686965E-2,-6.4633065E-1,5.1565677E-1,-9.899206E-1,-1.9376235E-1,-4.695646E-1,6.9077384E-1,-1.1170969E0,2.390995E-2,-5.922523E-1,4.6452364E-1,-8.052769E-1,3.9070398E-2,7.6813376E-1,-4.6513762E-2,-5.444386E-1,-1.4156333E0,-9.62906E-1,1.9624338E-1,4.9194876E-2,-9.286963E-2,-1.110515E0,2.2761308E-2,8.501802E-1,-3.12836E-1,-7.2261757E-1,1.7699657E-2,-7.773684E-2,-7.3589184E-3,-4.918522E-1,-7.076059E-2,5.4103965E-1,-2.2439519E-2,-3.9619502E-1,1.932743E-2,-1.3441561E0,-1.7963898E-3,9.2259115E-1,-3.37376E-1,2.3893997E-2,-4.858483E-2,-5.0549455E-2,1.2215787E-2,-4.1803222E-2,-2.2470285E-3,6.4858235E-4,4.1184448E-2,-1.5397924E-3,-2.9437158E-2,-7.444628E-2,-2.2013351E-2,5.0079495E-2,-6.692784E-4,-3.596527E-2,9.958641E-3],"categories":[],"categories_nodes":[],"categories_segments":[],"categories_sizes":[],"default_left":[0,0,0,0,0,0,0,0,0,0,0,0,0,0,0,0,0,0,0,0,0,0,0,0,0,0,0,0,0,0,0,0,0,0,0,0,0,0,0,0,0,0,0,0,0,0,0,0,0,0,0,0,0,0,0],"id":13,"left_children":[1,3,5,7,9,11,13,15,-1,17,19,21,-1,23,-1,25,27,29,31,-1,33,35,-1,37,39,41,-1,-1,-1,43,-1,45,-1,47,-1,49,-1,51,53,-1,-1,-1,-1,-1,-1,-1,-1,-1,-1,-1,-1,-1,-1,-1,-1],"loss_changes":[3.0882193E1,6.0337753E0,9.528971E0,4.737955E0,5.133679E0,4.260706E0,6.4460506E0,2.8228092E0,0E0,3.6893353E0,2.2754817E0,3.3180618E0,0E0,4.1833973E0,0E0,1.6689854E0,2.0988426E0,1.0758338E0,1.2793319E0,0E0,8.152189E-1,1.5022078E0,0E0,3.864708E0,2.4685547E0,2.3928337E0,0E0,0E0,0E0,8.2488513E-1,0E0,5.102953E-1,0E0,2.1280664E-1,0E0,4.673004E-3,0E0,2.9130669E0,7.7998185E-1,0E0,0E0,0E0,0E0,0E0,0E0,0E0,0E0,0E0,0E0,0E0,0E0,0E0,0E0,0E0,0E0],"parents":[2147483647,0,0,1,1,2,2,3,3,4,4,5,5,6,6,7,7,9,9,10,10,11,11,13,13,15,15,16,16,17,17,18,18,20,20,21,21,23,23,24,24,25,25,29,29,31,31,33,33,35,35,37,37,38,38],"right_children":[2,4,6,8,10,12,14,16,-1,18,20,22,-1,24,-1,26,28,30,32,-1,34,36,-1,38,40,42,-1,-1,-1,44,-1,46,-1,48,-1,50,-1,52,54,-1,-1,-1,-1,-1,-1,-1,-1,-1,-1,-1,-1,-1,-1,-1,-1],"split_conditions":[1E0,1E0,1E0,1E0,1E0,1E0,1E0,1E0,2.390995E-2,1E0,1E0,1E0,3.9070398E-2,1E0,-4.6513762E-2,1E0,1E0,1E0,1E0,4.9194876E-2,1E0,1E0,2.2761308E-2,1E0,1E0,1E0,1.7699657E-2,-7.773684E-2,-7.3589184E-3,1E0,-7.076059E-2,1E0,-2.2439519E-2,1E0,1.932743E-2,1E0,-1.7963898E-3,1E0,1E0,2.3893997E-2,-4.858483E-2,-5.0549455E-2,1.2215787E-2,-4.1803222E-2,-2.2470285E-3,6.4858235E-4,4.1184448E-2,-1.5397924E-3,-2.9437158E-2,-7.444628E-2,-2.2013351E-2,5.0079495E-2,-6.692784E-4,-3.596527E-2,9.958641E-3],"split_indices":[138,1255,145,1711,104,961,744,131,0,113,85,53,0,882,0,1195,62,124,722,0,97,1624,0,1860,1647,281,0,0,0,85,0,146,0,154,0,128,0,906,1577,0,0,0,0,0,0,0,0,0,0,0,0,0,0,0,0],"split_type":[0,0,0,0,0,0,0,0,0,0,0,0,0,0,0,0,0,0,0,0,0,0,0,0,0,0,0,0,0,0,0,0,0,0,0,0,0,0,0,0,0,0,0,0,0,0,0,0,0,0,0,0,0,0,0],"sum_hessian":[9.1387474E1,3.903643E1,5.2351044E1,2.1514942E1,1.7521488E1,7.6470065E0,4.4704037E1,2.0019817E1,1.4951247E0,1.0976956E1,6.5445313E0,6.3099427E0,1.3370636E0,4.3170025E1,1.5340147E0,7.8278947E0,1.2191923E1,7.316462E0,3.6604943E0,2.9917088E0,3.5528228E0,5.175626E0,1.1343173E0,4.032298E1,2.8470438E0,6.695682E0,1.1322125E0,1.0783655E1,1.4082681E0,4.6064787E0,2.7099833E0,2.4904644E0,1.17003E0,2.2823708E0,1.2704519E0,4.045236E0,1.1303896E0,3.8215893E1,2.1070862E0,1.4188873E0,1.4281565E0,5.1224394E0,1.5732429E0,2.1103344E0,2.496144E0,1.2329191E0,1.2575454E0,1.187944E0,1.0944268E0,2.9288924E0,1.1163437E0,3.5176785E1,3.0391088E0,1.0319221E0,1.0751641E0],"tree_param":{"num_deleted":"0","num_feature":"2215","num_nodes":"55","size_leaf_vector":"1"}},{"base_weights":[-6.22863E-2,-7.4068457E-1,3.6015734E-1,-8.430813E-1,3.1984475E-2,-2.3918262E-1,7.026885E-1,-1.2784841E0,-4.373508E-1,-5.7188076E-1,2.717597E-1,7.985513E-1,-4.994618E-2,-1.3423648E0,-1.9154744E-2,-5.5810755E-1,3.8287483E-2,-8.216883E-1,4.0772602E-1,6.229322E-1,-5.5307824E-2,9.393104E-1,-2.7422175E-1,-1.4165716E0,-1.3639237E-2,-7.022898E-1,1.768539E-2,-1.0118697E0,1.958666E-2,-7.6594288E-3,3.628328E-2,9.7179556E-1,-1.323869E-2,1.015055E0,-1.8787403E-2,-8.2627594E-1,3.6744956E-2,-7.453061E-2,-2.3091113E-2,-4.1547723E-2,2.0122549E-2,-5.8377203E-2,3.6742114E-3,5.535844E-2,8.949407E-3,5.341829E-2,5.2436134E-3,-7.101326E-3,-5.5377383E-2],"categories":[],"categories_nodes":[],"categories_segments":[],"categories_sizes":[],"default_left":[0,0,0,0,0,0,0,0,0,0,0,0,0,0,0,0,0,0,0,0,0,0,0,0,0,0,0,0,0,0,0,0,0,0,0,0,0,0,0,0,0,0,0,0,0,0,0,0,0],"id":14,"left_children":[1,3,5,7,-1,9,11,13,15,17,19,21,-1,23,-1,25,-1,27,29,31,-1,33,35,37,-1,39,-1,41,-1,-1,-1,43,-1,45,-1,47,-1,-1,-1,-1,-1,-1,-1,-1,-1,-1,-1,-1,-1],"loss_changes":[2.6533007E1,5.5568695E0,1.1901381E1,5.3550262E0,0E0,3.8155155E0,6.7716465E0,3.7968254E-1,3.1658988E0,3.6049695E0,5.1257997E0,5.5766907E0,0E0,7.3973656E-1,0E0,2.5765252E0,0E0,2.9299803E0,7.145643E-1,2.7182477E0,0E0,3.5056705E0,3.3146038E0,2.3266411E-1,0E0,2.5554829E0,0E0,1.7366171E0,0E0,0E0,0E0,4.3705893E-1,0E0,1.3401146E0,0E0,5.3787875E-1,0E0,0E0,0E0,0E0,0E0,0E0,0E0,0E0,0E0,0E0,0E0,0E0,0E0],"parents":[2147483647,0,0,1,1,2,2,3,3,5,5,6,6,7,7,8,8,9,9,10,10,11,11,13,13,15,15,17,17,18,18,19,19,21,21,22,22,23,23,25,25,27,27,31,31,33,33,35,35],"right_children":[2,4,6,8,-1,10,12,14,16,18,20,22,-1,24,-1,26,-1,28,30,32,-1,34,36,38,-1,40,-1,42,-1,-1,-1,44,-1,46,-1,48,-1,-1,-1,-1,-1,-1,-1,-1,-1,-1,-1,-1,-1],"split_conditions":[1E0,1E0,1E0,1E0,3.1984475E-2,1E0,1E0,1E0,1E0,1E0,1E0,1E0,-4.994618E-2,1E0,-1.9154744E-2,1E0,3.8287483E-2,1E0,1E0,1E0,-5.5307824E-2,1E0,1E0,1E0,-1.3639237E-2,1E0,1.768539E-2,1E0,1.958666E-2,-7.6594288E-3,3.628328E-2,1E0,-1.323869E-2,1E0,-1.8787403E-2,1E0,3.6744956E-2,-7.453061E-2,-2.3091113E-2,-4.1547723E-2,2.0122549E-2,-5.8377203E-2,3.6742114E-3,5.535844E-2,8.949407E-3,5.341829E-2,5.2436134E-3,-7.101326E-3,-5.5377383E-2],"split_indices":[125,1194,86,128,0,1186,1476,103,1000,450,1227,1317,0,78,0,1558,0,1516,556,882,0,912,42,1206,0,1805,0,1099,0,0,0,1614,0,607,0,49,0,0,0,0,0,0,0,0,0,0,0,0,0],"split_type":[0,0,0,0,0,0,0,0,0,0,0,0,0,0,0,0,0,0,0,0,0,0,0,0,0,0,0,0,0,0,0,0,0,0,0,0,0,0,0,0,0,0,0,0,0,0,0,0,0],"sum_hessian":[9.0652534E1,3.449846E1,5.615408E1,3.247843E1,2.020027E0,2.0531334E1,3.5622746E1,1.4628758E1,1.7849672E1,1.2362362E1,8.168972E0,3.422532E1,1.3974248E0,1.3188631E1,1.4401273E0,1.6708706E1,1.1409658E0,9.978875E0,2.3834865E0,6.946516E0,1.2224557E0,3.0365463E1,3.8598561E0,1.2029605E1,1.1590263E0,1.4625772E1,2.0829337E0,8.770382E0,1.2084935E0,1.0497255E0,1.3337611E0,4.918749E0,2.0277672E0,2.8927435E1,1.4380293E0,2.612075E0,1.2477812E0,1.0642984E1,1.3866205E0,1.3322039E1,1.3037343E0,7.6039996E0,1.1663821E0,3.8626738E0,1.056075E0,2.716268E1,1.7647545E0,1.1993533E0,1.4127218E0],"tree_param":{"num_deleted":"0","num_feature":"2215","num_nodes":"49","size_leaf_vector":"1"}},{"base_weights":[-3.1823594E-2,-6.743255E-1,3.5223857E-1,-1.1992806E0,-3.5496774E-1,-5.130286E-1,6.026845E-1,-7.020452E-2,9.987124E-3,-1.0905894E0,-3.805406E-2,-8.518757E-1,3.1246454E-1,6.9867015E-1,-8.805817E-1,-1.4387683E0,8.372952E-3,2.9966742E-1,-7.4679476E-1,-6.702117E-2,-2.8400174E-1,4.6451803E-2,-1.7162759E-2,7.4870783E-1,-3.3970818E-2,-8.487919E-3,-5.635664E-2,-2.6580215E-2,-8.0671854E-2,-6.1705273E-1,7.0692986E-1,-1.1476284E0,1.9470775E-2,1.1499135E-1,-4.97636E-2,8.0019325E-1,-2.951749E-2,1.1718141E-2,-6.282709E-2,3.5902269E-3,4.4219386E-2,-1.4927563E-2,-6.7188226E-2,-1.83901E-2,2.9688407E-2,4.3458916E-2,-1.6768519E-2],"categories":[],"categories_nodes":[],"categories_segments":[],"categories_sizes":[],"default_left":[0,0,0,0,0,0,0,0,0,0,0,0,0,0,0,0,0,0,0,0,0,0,0,0,0,0,0,0,0,0,0,0,0,0,0,0,0,0,0,0,0,0,0,0,0,0,0],"id":15,"left_children":[1,3,5,7,9,11,13,-1,-1,15,17,19,21,23,25,27,-1,29,31,-1,33,-1,-1,35,-1,-1,-1,-1,-1,37,39,41,-1,43,-1,45,-1,-1,-1,-1,-1,-1,-1,-1,-1,-1,-1],"loss_changes":[2.3118963E1,5.447791E0,1.3028048E1,3.9570446E0,5.367858E0,4.1024895E0,7.161173E0,0E0,0E0,3.2853327E0,4.353432E0,2.3914385E0,2.2283926E0,3.5248852E0,3.7593794E-1,2.1375656E-2,0E0,5.0652056E0,3.1131778E0,0E0,1.7858961E0,0E0,0E0,3.415104E0,0E0,0E0,0E0,0E0,0E0,2.6617508E0,9.566002E-1,3.6171627E-1,0E0,1.2977583E0,0E0,3.5446815E0,0E0,0E0,0E0,0E0,0E0,0E0,0E0,0E0,0E0,0E0,0E0],"parents":[2147483647,0,0,1,1,2,2,3,3,4,4,5,5,6,6,9,9,10,10,11,11,12,12,13,13,14,14,15,15,17,17,18,18,20,20,23,23,29,29,30,30,31,31,33,33,35,35],"right_children":[2,4,6,8,10,12,14,-1,-1,16,18,20,22,24,26,28,-1,30,32,-1,34,-1,-1,36,-1,-1,-1,-1,-1,38,40,42,-1,44,-1,46,-1,-1,-1,-1,-1,-1,-1,-1,-1,-1,-1],"split_conditions":[1E0,1E0,1E0,1E0,1E0,1E0,1E0,-7.020452E-2,9.987124E-3,1E0,1E0,1E0,1E0,1E0,1E0,1E0,8.372952E-3,1E0,1E0,-6.702117E-2,1E0,4.6451803E-2,-1.7162759E-2,1E0,-3.3970818E-2,-8.487919E-3,-5.635664E-2,-2.6580215E-2,-8.0671854E-2,1E0,1E0,1E0,1.9470775E-2,1E0,-4.97636E-2,1E0,-2.951749E-2,1.1718141E-2,-6.282709E-2,3.5902269E-3,4.4219386E-2,-1.4927563E-2,-6.7188226E-2,-1.83901E-2,2.9688407E-2,4.3458916E-2,-1.6768519E-2],"split_indices":[125,129,100,105,155,281,882,0,0,686,136,101,141,744,65,120,0,149,965,0,99,0,0,623,0,0,0,0,0,139,974,128,0,1255,0,1860,0,0,0,0,0,0,0,0,0,0,0],"split_type":[0,0,0,0,0,0,0,0,0,0,0,0,0,0,0,0,0,0,0,0,0,0,0,0,0,0,0,0,0,0,0,0,0,0,0,0,0,0,0,0,0,0,0,0,0,0,0],"sum_hessian":[9.172725E1,3.4034603E1,5.7692646E1,1.1831269E1,2.2203335E1,1.2715014E1,4.4977634E1,1.0317255E1,1.5140142E0,5.950266E0,1.6253069E1,8.992023E0,3.722991E0,4.2740746E1,2.2368875E0,4.5479255E0,1.4023402E0,1.1398678E1,4.8543916E0,4.102327E0,4.8896966E0,1.7039512E0,2.0190396E0,4.1683926E1,1.0568204E0,1.010907E0,1.2259804E0,1.3871399E0,3.1607857E0,3.3478255E0,8.050852E0,3.581024E0,1.2733675E0,3.669557E0,1.2201395E0,4.0528084E1,1.1558427E0,1.7077041E0,1.6401215E0,2.0649574E0,5.9858947E0,1.1452732E0,2.4357507E0,1.9425244E0,1.7270327E0,3.842817E1,2.0999122E0],"tree_param":{"num_deleted":"0","num_feature":"2215","num_nodes":"47","size_leaf_vector":"1"}},{"base_weights":[-3.9464533E-2,-5.9723806E-1,3.75198E-1,-7.4170977E-1,6.438707E-1,-5.9742594E-1,5.4611844E-1,-8.3731437E-1,3.1944107E-2,4.6460766E-2,-1.579378E-3,-9.5312613E-1,3.906237E-2,8.3081084E-1,2.0845322E-1,-9.3853056E-1,2.8152613E-2,-6.560945E-2,1.9642536E-2,9.178627E-1,-3.9238995E-3,4.013159E-1,-8.610195E-1,-1.0350722E0,2.0997022E-1,9.91729E-1,6.3348883E-3,5.34267E-1,-2.944292E-2,-5.665213E-2,-8.477024E-3,-5.5662807E-2,1.8095268E-2,-3.841199E-3,1.9980196E-2,5.3267665E-2,4.7587752E-3,3.6622047E-2,-6.5996284E-3],"categories":[],"categories_nodes":[],"categories_segments":[],"categories_sizes":[],"default_left":[0,0,0,0,0,0,0,0,0,0,0,0,0,0,0,0,0,0,0,0,0,0,0,0,0,0,0,0,0,0,0,0,0,0,0,0,0,0,0],"id":16,"left_children":[1,3,5,7,9,11,13,15,-1,-1,-1,17,-1,19,21,23,-1,-1,-1,25,-1,27,29,31,33,35,-1,37,-1,-1,-1,-1,-1,-1,-1,-1,-1,-1,-1],"loss_changes":[2.0019072E1,7.0905285E0,8.589268E0,4.9566727E0,8.737042E-1,4.6220436E0,3.9410315E0,5.0305824E0,0E0,0E0,0E0,3.770743E0,0E0,1.8835421E0,4.6590037E0,3.5433865E0,0E0,0E0,0E0,1.0995407E0,0E0,2.73682E0,4.686916E-1,3.4436035E0,2.0241572E-1,1.1546135E0,0E0,2.3077188E0,0E0,0E0,0E0,0E0,0E0,0E0,0E0,0E0,0E0,0E0,0E0],"parents":[2147483647,0,0,1,1,2,2,3,3,4,4,5,5,6,6,7,7,11,11,13,13,14,14,15,15,19,19,21,21,22,22,23,23,24,24,25,25,27,27],"right_children":[2,4,6,8,10,12,14,16,-1,-1,-1,18,-1,20,22,24,-1,-1,-1,26,-1,28,30,32,34,36,-1,38,-1,-1,-1,-1,-1,-1,-1,-1,-1,-1,-1],"split_conditions":[1E0,1E0,1E0,1E0,1E0,1E0,1E0,1E0,3.1944107E-2,4.6460766E-2,-1.579378E-3,1E0,3.906237E-2,1E0,1E0,1E0,2.8152613E-2,-6.560945E-2,1.9642536E-2,1E0,-3.9238995E-3,1E0,1E0,1E0,1E0,1E0,6.3348883E-3,1E0,-2.944292E-2,-5.665213E-2,-8.477024E-3,-5.5662807E-2,1.8095268E-2,-3.841199E-3,1.9980196E-2,5.3267665E-2,4.7587752E-3,3.6622047E-2,-6.5996284E-3],"split_indices":[138,1524,1917,1620,74,1624,131,937,0,0,0,1227,0,52,1212,1330,0,0,0,1227,0,1769,113,214,111,1206,0,2033,0,0,0,0,0,0,0,0,0,0,0],"split_type":[0,0,0,0,0,0,0,0,0,0,0,0,0,0,0,0,0,0,0,0,0,0,0,0,0,0,0,0,0,0,0,0,0,0,0,0,0,0,0],"sum_hessian":[8.458595E1,3.5881073E1,4.870488E1,3.250025E1,3.3808222E0,6.9067297E0,4.179815E1,3.0763428E1,1.7368255E0,2.1126573E0,1.2681649E0,5.735599E0,1.1711307E0,2.1885544E1,1.9912605E1,2.8997343E1,1.7660834E0,4.5475607E0,1.1880383E0,1.9964764E1,1.92078E0,1.739961E1,2.5129945E0,2.6839968E1,2.1573763E0,1.8028084E1,1.9366795E0,1.5745842E1,1.653769E0,1.3452171E0,1.1677775E0,2.5609776E1,1.2301913E0,1.0954877E0,1.0618886E0,1.6485992E1,1.542093E0,1.20595E1,3.6863415E0],"tree_param":{"num_deleted":"0","num_feature":"2215","num_nodes":"39","size_leaf_vector":"1"}},{"base_weights":[-3.4232036E-4,-6.5667146E-1,2.9175833E-1,-8.4709936E-1,5.218152E-1,-2.7063543E-1,6.088447E-1,-2.625869E-1,-1.2442175E0,-1.297926E-3,4.1382667E-2,-6.4869887E-1,2.3838553E-1,7.085021E-1,-5.8669084E-1,-8.665081E-1,2.1679907E-1,-1.3650606E0,-2.9653404E-3,-1.006781E0,4.4150252E-2,4.5285222E-1,-3.8618337E-2,7.811425E-1,-3.0769153E-2,-4.332471E-2,-5.6778744E-4,-5.619517E-2,2.4553593E-3,-2.548238E-1,4.555903E-2,-7.310399E-2,-1.23543255E-2,1.1254572E-2,-1.3050781E0,4.113426E-1,-2.9264444E-2,-4.3005567E-2,4.5197207E-2,8.604355E-1,-2.2741262E-2,1.9490961E-2,-2.784262E-2,-7.8225866E-2,-2.899654E-2,2.986871E-2,-1.7638078E-3,-3.607219E-2,2.7183652E-2,4.9606062E-2,9.399274E-3],"categories":[],"categories_nodes":[],"categories_segments":[],"categories_sizes":[],"default_left":[0,0,0,0,0,0,0,0,0,0,0,0,0,0,0,0,0,0,0,0,0,0,0,0,0,0,0,0,0,0,0,0,0,0,0,0,0,0,0,0,0,0,0,0,0,0,0,0,0,0,0],"id":17,"left_children":[1,3,5,7,9,11,13,15,17,-1,-1,19,21,23,25,27,29,31,-1,33,35,37,-1,39,-1,-1,-1,-1,-1,41,-1,-1,-1,-1,43,45,-1,47,-1,49,-1,-1,-1,-1,-1,-1,-1,-1,-1,-1,-1],"loss_changes":[1.6847076E1,6.515686E0,1.1009302E1,5.1700172E0,7.55882E-1,4.507203E0,5.085517E0,3.3283157E0,1.8997765E0,0E0,0E0,3.3309793E0,2.5978198E0,4.003519E0,5.637094E-1,1.2336483E0,2.47452E0,9.953575E-1,0E0,3.5183887E0,1.50538E0,2.0934954E0,0E0,3.8378735E0,0E0,0E0,0E0,0E0,0E0,1.1631324E0,0E0,0E0,0E0,0E0,4.4944668E-1,3.5698247E-1,0E0,2.5138175E0,0E0,2.7705173E0,0E0,0E0,0E0,0E0,0E0,0E0,0E0,0E0,0E0,0E0,0E0],"parents":[2147483647,0,0,1,1,2,2,3,3,4,4,5,5,6,6,7,7,8,8,11,11,12,12,13,13,14,14,15,15,16,16,17,17,19,19,20,20,21,21,23,23,29,29,34,34,35,35,37,37,39,39],"right_children":[2,4,6,8,10,12,14,16,18,-1,-1,20,22,24,26,28,30,32,-1,34,36,38,-1,40,-1,-1,-1,-1,-1,42,-1,-1,-1,-1,44,46,-1,48,-1,50,-1,-1,-1,-1,-1,-1,-1,-1,-1,-1,-1],"split_conditions":[1E0,1E0,1E0,1E0,1E0,1E0,1E0,1E0,1E0,-1.297926E-3,4.1382667E-2,1E0,1E0,1E0,1E0,1E0,1E0,1E0,-2.9653404E-3,1E0,1E0,1E0,-3.8618337E-2,1E0,-3.0769153E-2,-4.332471E-2,-5.6778744E-4,-5.619517E-2,2.4553593E-3,1E0,4.555903E-2,-7.310399E-2,-1.23543255E-2,1.1254572E-2,1E0,1E0,-2.9264444E-2,1E0,4.5197207E-2,1E0,-2.2741262E-2,1.9490961E-2,-2.784262E-2,-7.8225866E-2,-2.899654E-2,2.986871E-2,-1.7638078E-3,-3.607219E-2,2.7183652E-2,4.9606062E-2,9.399274E-3],"split_indices":[147,129,125,154,125,126,882,144,1619,0,0,135,261,1610,94,559,88,912,0,164,106,1917,0,852,0,0,0,0,0,106,0,0,0,0,149,774,0,131,0,1619,0,0,0,0,0,0,0,0,0,0,0],"split_type":[0,0,0,0,0,0,0,0,0,0,0,0,0,0,0,0,0,0,0,0,0,0,0,0,0,0,0,0,0,0,0,0,0,0,0,0,0,0,0,0,0,0,0,0,0,0,0,0,0,0,0],"sum_hessian":[8.5876656E1,2.606419E1,5.981246E1,2.2680515E1,3.3836741E0,2.1617506E1,3.8194958E1,9.847442E0,1.2833075E1,1.5402039E0,1.8434702E0,1.2246959E1,9.370548E0,3.563211E1,2.5628438E0,4.0003457E0,5.847096E0,1.1507451E1,1.3256234E0,7.7753544E0,4.4716043E0,8.185641E0,1.184907E0,3.4167343E1,1.4647683E0,1.3837935E0,1.1790504E0,2.9449775E0,1.0553682E0,3.8590534E0,1.9880425E0,1.0305347E1,1.2021034E0,1.563599E0,6.2117553E0,3.0429497E0,1.4286548E0,4.3302855E0,3.8553553E0,3.239302E1,1.7743248E0,1.1384665E0,2.7205868E0,3.7224438E0,2.4893112E0,1.9098747E0,1.133075E0,1.9015799E0,2.4287057E0,2.6690786E1,5.7022333E0],"tree_param":{"num_deleted":"0","num_feature":"2215","num_nodes":"51","size_leaf_vector":"1"}},{"base_weights":[-4.4342995E-2,-6.2295663E-1,3.0795383E-1,-7.2865003E-1,3.6682928E-1,-2.4352361E-1,6.32127E-1,-1.0258543E0,-2.7000925E-1,-7.152144E-3,3.8907845E-2,1.1850563E-2,-1.0300416E0,8.446901E-1,-1.475686E-1,-1.0956166E0,1.4717065E-3,3.1034628E-1,-8.022557E-1,-2.5543475E-1,4.7712956E-2,-6.612148E-2,-1.07854E-2,9.464409E-1,-1.5924811E-2,3.150043E-2,-1.0627978E0,-1.1799983E0,-6.755367E-3,6.240838E-1,-3.507841E-2,-5.4903436E-2,-1.6027804E-1,-5.203031E-1,3.631309E-2,1.0095981E0,-1.39901E-2,-8.764538E-3,-6.613112E-2,-6.2124908E-2,-1.4994484E-2,4.552092E-2,-1.5702248E-2,1.4163596E-2,-2.3582643E-2,-4.4203315E-2,9.545392E-3,5.37357E-2,7.0687644E-3],"categories":[],"categories_nodes":[],"categories_segments":[],"categories_sizes":[],"default_left":[0,0,0,0,0,0,0,0,0,0,0,0,0,0,0,0,0,0,0,0,0,0,0,0,0,0,0,0,0,0,0,0,0,0,0,0,0,0,0,0,0,0,0,0,0,0,0,0,0],"id":18,"left_children":[1,3,5,7,9,11,13,15,17,-1,-1,19,21,23,25,27,-1,29,31,33,-1,-1,-1,35,-1,-1,37,39,-1,41,-1,-1,43,45,-1,47,-1,-1,-1,-1,-1,-1,-1,-1,-1,-1,-1,-1,-1],"loss_changes":[1.8149004E1,3.789525E0,1.0062292E1,3.9152756E0,9.3208086E-1,4.2784486E0,5.955782E0,1.3798409E0,4.4037256E0,0E0,0E0,4.5316505E0,9.570341E-1,3.5911427E0,6.639241E0,1.2342987E0,0E0,2.709535E0,1.2093596E0,4.0312624E0,0E0,0E0,0E0,2.2814674E0,0E0,0E0,7.4249315E-1,4.8978233E-1,0E0,1.8952768E0,0E0,0E0,6.131264E-1,3.1821504E0,0E0,1.2480907E0,0E0,0E0,0E0,0E0,0E0,0E0,0E0,0E0,0E0,0E0,0E0,0E0,0E0],"parents":[2147483647,0,0,1,1,2,2,3,3,4,4,5,5,6,6,7,7,8,8,11,11,12,12,13,13,14,14,15,15,17,17,18,18,19,19,23,23,26,26,27,27,29,29,32,32,33,33,35,35],"right_children":[2,4,6,8,10,12,14,16,18,-1,-1,20,22,24,26,28,-1,30,32,34,-1,-1,-1,36,-1,-1,38,40,-1,42,-1,-1,44,46,-1,48,-1,-1,-1,-1,-1,-1,-1,-1,-1,-1,-1,-1,-1],"split_conditions":[1E0,1E0,1E0,1E0,1E0,1E0,1E0,1E0,1E0,-7.152144E-3,3.8907845E-2,1E0,1E0,1E0,1E0,1E0,1.4717065E-3,1E0,1E0,1E0,4.7712956E-2,-6.612148E-2,-1.07854E-2,1E0,-1.5924811E-2,3.150043E-2,1E0,1E0,-6.755367E-3,1E0,-3.507841E-2,-5.4903436E-2,1E0,1E0,3.631309E-2,1E0,-1.39901E-2,-8.764538E-3,-6.613112E-2,-6.2124908E-2,-1.4994484E-2,4.552092E-2,-1.5702248E-2,1.4163596E-2,-2.3582643E-2,-4.4203315E-2,9.545392E-3,5.37357E-2,7.0687644E-3],"split_indices":[125,1057,86,126,82,882,123,1055,136,0,0,1492,13,852,62,1048,0,2071,1293,450,0,0,0,719,0,0,113,25,0,450,0,0,115,126,0,834,0,0,0,0,0,0,0,0,0,0,0,0,0],"split_type":[0,0,0,0,0,0,0,0,0,0,0,0,0,0,0,0,0,0,0,0,0,0,0,0,0,0,0,0,0,0,0,0,0,0,0,0,0,0,0,0,0,0,0,0,0,0,0,0,0],"sum_hessian":[8.709278E1,3.266893E1,5.4423847E1,2.9755363E1,2.9135685E0,2.0240265E1,3.4183582E1,1.730488E1,1.2450483E1,1.59218E0,1.3213884E0,1.602277E1,4.2174935E0,2.6795225E1,7.3883576E0,1.6195992E1,1.1088881E0,6.1555033E0,6.2949796E0,1.30503845E1,2.9723864E0,2.6441612E0,1.5733323E0,2.4811182E1,1.9840434E0,4.163064E0,3.2252936E0,1.4678001E1,1.5179904E0,4.99126E0,1.1642436E0,3.8229692E0,2.4720104E0,1.0647589E1,2.4027953E0,2.3763903E1,1.0472796E0,1.1096407E0,2.1156528E0,1.3320319E1,1.3576823E0,3.8467097E0,1.1445502E0,1.0568267E0,1.4151837E0,6.883725E0,3.7638638E0,2.1884739E1,1.8791627E0],"tree_param":{"num_deleted":"0","num_feature":"2215","num_nodes":"49","size_leaf_vector":"1"}},{"base_weights":[-8.529454E-2,-6.1519146E-1,2.4137548E-1,-7.460776E-1,4.1273478E-1,-3.390174E-1,6.1474925E-1,-8.133239E-1,2.0504892E-2,-2.1826329E-2,4.4721443E-2,-4.6114877E-1,5.6190145E-1,7.7178234E-1,-4.728054E-1,-8.833538E-1,1.8012783E-2,-8.455198E-2,-1.0857158E0,3.8527805E-2,3.5306625E-3,8.57928E-1,-3.632484E-2,-1.0314957E0,3.469005E-2,-9.5140517E-1,2.1013428E-2,-3.1257904E-1,3.4413163E-2,-1.2909936E0,-1.0434997E-2,9.40602E-1,-2.1375276E-2,-6.446739E-2,-1.0227024E-2,-5.109772E-2,7.554874E-3,-3.388013E-2,1.152726E-2,-7.092288E-2,-2.0008257E-2,5.0002094E-2,-5.190526E-4],"categories":[],"categories_nodes":[],"categories_segments":[],"categories_sizes":[],"default_left":[0,0,0,0,0,0,0,0,0,0,0,0,0,0,0,0,0,0,0,0,0,0,0,0,0,0,0,0,0,0,0,0,0,0,0,0,0,0,0,0,0,0,0],"id":19,"left_children":[1,3,5,7,9,11,13,15,-1,-1,-1,17,19,21,23,25,-1,27,29,-1,-1,31,-1,33,-1,35,-1,37,-1,39,-1,41,-1,-1,-1,-1,-1,-1,-1,-1,-1,-1,-1],"loss_changes":[1.498523E1,4.7437077E0,1.1854412E1,2.635046E0,2.177198E0,2.6449044E0,6.0107374E0,2.6449108E0,0E0,0E0,0E0,4.52859E0,2.5714177E-1,4.4008408E0,3.8384337E0,2.7955952E0,0E0,2.5657701E0,1.0456476E0,0E0,0E0,3.392046E0,0E0,5.128348E-1,0E0,2.1745415E0,0E0,2.3345408E0,0E0,8.2606316E-2,0E0,1.5222912E0,0E0,0E0,0E0,0E0,0E0,0E0,0E0,0E0,0E0,0E0,0E0],"parents":[2147483647,0,0,1,1,2,2,3,3,4,4,5,5,6,6,7,7,11,11,12,12,13,13,14,14,15,15,17,17,18,18,21,21,23,23,25,25,27,27,29,29,31,31],"right_children":[2,4,6,8,10,12,14,16,-1,-1,-1,18,20,22,24,26,-1,28,30,-1,-1,32,-1,34,-1,36,-1,38,-1,40,-1,42,-1,-1,-1,-1,-1,-1,-1,-1,-1,-1,-1],"split_conditions":[1E0,1E0,1E0,1E0,1E0,1E0,1E0,1E0,2.0504892E-2,-2.1826329E-2,4.4721443E-2,1E0,1E0,1E0,1E0,1E0,1.8012783E-2,1E0,1E0,3.8527805E-2,3.5306625E-3,1E0,-3.632484E-2,1E0,3.469005E-2,1E0,2.1013428E-2,1E0,3.4413163E-2,1E0,-1.0434997E-2,1E0,-2.1375276E-2,-6.446739E-2,-1.0227024E-2,-5.109772E-2,7.554874E-3,-3.388013E-2,1.152726E-2,-7.092288E-2,-2.0008257E-2,5.0002094E-2,-5.190526E-4],"split_indices":[125,2078,86,2206,1917,69,1317,196,0,0,0,124,77,1476,42,1016,0,108,13,0,0,912,0,477,0,173,0,75,0,116,0,69,0,0,0,0,0,0,0,0,0,0,0],"split_type":[0,0,0,0,0,0,0,0,0,0,0,0,0,0,0,0,0,0,0,0,0,0,0,0,0,0,0,0,0,0,0,0,0,0,0,0,0,0,0,0,0,0,0],"sum_hessian":[8.471125E1,3.1969603E1,5.2741646E1,2.8601904E1,3.3676982E0,2.0682945E1,3.20587E1,2.7310019E1,1.2918848E0,1.25276E0,2.1149383E0,1.8643684E1,2.039261E0,2.826748E1,3.7912192E0,2.6005514E1,1.3045042E0,1.2338988E1,6.304695E0,1.0323657E0,1.0068953E0,2.7134724E1,1.1327575E0,2.6418476E0,1.1493715E0,2.497211E1,1.0334041E0,9.987582E0,2.3514063E0,4.726388E0,1.5783072E0,2.5747036E1,1.3876877E0,1.5876528E0,1.0541948E0,2.3538914E1,1.433197E0,5.825064E0,4.1625175E0,3.6166146E0,1.1097735E0,2.418387E1,1.563165E0],"tree_param":{"num_deleted":"0","num_feature":"2215","num_nodes":"43","size_leaf_vector":"1"}},{"base_weights":[-1.0695537E-2,-7.7549005E-1,1.9184208E-1,-8.8080543E-1,2.3085587E-2,3.1250554E-1,-6.897638E-1,-9.9205995E-1,1.8718997E-2,-1.9444932E-1,4.6519965E-1,-9.0615547E-1,1.8700574E-2,-1.1026785E0,3.9719898E-4,-4.874992E-1,3.8924832E-2,2.7797693E-1,9.6976346E-1,-1.1600018E0,-3.6232136E-3,-1.261289E0,-6.3181743E-3,-1.0077282E0,7.913942E-3,6.100386E-1,-7.733768E-2,5.4837327E-2,3.0523866E-1,-6.385208E-2,-1.717044E-2,-7.119906E-2,-2.2236556E-2,-5.809125E-2,-9.465869E-3,3.488068E-2,-3.334522E-2,3.6437776E-2,-3.3516902E-2,-5.0675847E-2,1.3322845E-2,-1.4202656E-2,3.423611E-2],"categories":[],"categories_nodes":[],"categories_segments":[],"categories_sizes":[],"default_left":[0,0,0,0,0,0,0,0,0,0,0,0,0,0,0,0,0,0,0,0,0,0,0,0,0,0,0,0,0,0,0,0,0,0,0,0,0,0,0,0,0,0,0],"id":20,"left_children":[1,3,5,7,-1,9,11,13,-1,15,17,19,-1,21,-1,23,-1,25,27,29,-1,31,-1,33,35,37,39,-1,41,-1,-1,-1,-1,-1,-1,-1,-1,-1,-1,-1,-1,-1,-1],"loss_changes":[1.3451462E1,2.775406E0,7.5236816E0,2.7589664E0,0E0,4.8214865E0,2.3145576E0,1.776372E0,0E0,4.614291E0,4.1953316E0,1.4870787E0,0E0,2.0697193E0,0E0,3.1082973E0,0E0,4.2799406E0,7.1072006E-1,9.900761E-2,0E0,9.969883E-1,0E0,5.2103615E-1,3.7948139E0,3.3243914E0,6.133646E0,0E0,9.488686E-1,0E0,0E0,0E0,0E0,0E0,0E0,0E0,0E0,0E0,0E0,0E0,0E0,0E0,0E0],"parents":[2147483647,0,0,1,1,2,2,3,3,5,5,6,6,7,7,9,9,10,10,11,11,13,13,15,15,17,17,18,18,19,19,21,21,23,23,24,24,25,25,26,26,28,28],"right_children":[2,4,6,8,-1,10,12,14,-1,16,18,20,-1,22,-1,24,-1,26,28,30,-1,32,-1,34,36,38,40,-1,42,-1,-1,-1,-1,-1,-1,-1,-1,-1,-1,-1,-1,-1,-1],"split_conditions":[1E0,1E0,1E0,1E0,2.3085587E-2,1E0,1E0,1E0,1.8718997E-2,1E0,1E0,1E0,1.8700574E-2,1E0,3.9719898E-4,1E0,3.8924832E-2,1E0,1E0,1E0,-3.6232136E-3,1E0,-6.3181743E-3,1E0,1E0,1E0,1E0,5.4837327E-2,1E0,-6.385208E-2,-1.717044E-2,-7.119906E-2,-2.2236556E-2,-5.809125E-2,-9.465869E-3,3.488068E-2,-3.334522E-2,3.6437776E-2,-3.3516902E-2,-5.0675847E-2,1.3322845E-2,-1.4202656E-2,3.423611E-2],"split_indices":[1917,1684,882,653,0,147,936,965,0,129,42,281,0,1852,0,144,0,131,1227,109,0,38,0,104,154,1558,1224,0,131,0,0,0,0,0,0,0,0,0,0,0,0,0,0],"split_type":[0,0,0,0,0,0,0,0,0,0,0,0,0,0,0,0,0,0,0,0,0,0,0,0,0,0,0,0,0,0,0,0,0,0,0,0,0,0,0,0,0,0,0],"sum_hessian":[8.48794E1,1.7179539E1,6.769987E1,1.6097338E1,1.0822006E0,6.011727E1,7.582592E0,1.4979267E1,1.1180702E0,1.3852517E1,4.6264755E1,6.4240007E0,1.1585912E0,1.33948765E1,1.5843902E0,1.1029418E1,2.8230994E0,3.4875008E1,1.1389746E1,4.6245046E0,1.7994963E0,1.1271793E1,2.1230836E0,4.8755393E0,6.1538787E0,1.7656816E1,1.7218193E1,9.016393E0,2.3733528E0,3.5515995E0,1.072905E0,8.778808E0,2.492986E0,3.7498736E0,1.1256658E0,3.026677E0,3.1272018E0,1.6552858E1,1.1039584E0,4.101489E0,1.3116703E1,1.0281833E0,1.3451693E0],"tree_param":{"num_deleted":"0","num_feature":"2215","num_nodes":"43","size_leaf_vector":"1"}},{"base_weights":[-6.6909515E-3,-7.7374595E-1,2.2278461E-1,-1.0692008E0,-6.1837707E-2,-2.0518039E-1,4.7587207E-1,-1.1793827E0,-1.3857558E-2,3.6733377E-1,-4.9959026E-2,3.278492E-1,-5.595353E-1,5.578127E-1,-6.1936587E-2,-6.736698E-2,-4.897478E-1,-3.7132382E-2,4.0963087E-2,5.790695E-1,-2.5550965E-2,-6.9670945E-1,3.5226103E-2,6.1934173E-1,-3.722618E-2,-3.4034204E-2,1.3024395E-4,2.6454175E-2,-3.194004E-2,1.9809011E-2,8.971967E-1,-8.2338697E-1,2.2391535E-2,7.123302E-1,-1.3711096E-1,-2.4766091E-2,3.8695633E-2,5.034972E-2,1.100239E-2,-4.797214E-2,1.4848666E-2,3.9163966E-2,-1.0285744E-2,1.7008772E-2,-4.6232454E-2],"categories":[],"categories_nodes":[],"categories_segments":[],"categories_sizes":[],"default_left":[0,0,0,0,0,0,0,0,0,0,0,0,0,0,0,0,0,0,0,0,0,0,0,0,0,0,0,0,0,0,0,0,0,0,0,0,0,0,0,0,0,0,0,0,0],"id":21,"left_children":[1,3,5,7,9,11,13,15,-1,17,-1,19,21,23,-1,-1,25,27,-1,29,-1,31,-1,33,-1,-1,-1,-1,-1,35,37,39,-1,41,43,-1,-1,-1,-1,-1,-1,-1,-1,-1,-1],"loss_changes":[1.5039536E1,4.0718718E0,7.2234745E0,8.8109493E-1,3.1151862E0,4.933237E0,6.541587E0,7.1204185E-1,0E0,1.0206143E0,0E0,2.5450141E0,3.1740775E0,3.7010565E0,0E0,0E0,3.675319E-1,1.6377572E0,0E0,1.5268226E0,0E0,2.4656181E0,0E0,2.851859E0,0E0,0E0,0E0,0E0,0E0,2.003374E0,1.8816805E-1,2.3234825E0,0E0,2.4427738E0,2.240878E0,0E0,0E0,0E0,0E0,0E0,0E0,0E0,0E0,0E0,0E0],"parents":[2147483647,0,0,1,1,2,2,3,3,4,4,5,5,6,6,7,7,9,9,11,11,12,12,13,13,16,16,17,17,19,19,21,21,23,23,29,29,30,30,31,31,33,33,34,34],"right_children":[2,4,6,8,10,12,14,16,-1,18,-1,20,22,24,-1,-1,26,28,-1,30,-1,32,-1,34,-1,-1,-1,-1,-1,36,38,40,-1,42,44,-1,-1,-1,-1,-1,-1,-1,-1,-1,-1],"split_conditions":[1E0,1E0,1E0,1E0,1E0,1E0,1E0,1E0,-1.3857558E-2,1E0,-4.9959026E-2,1E0,1E0,1E0,-6.1936587E-2,-6.736698E-2,1E0,1E0,4.0963087E-2,1E0,-2.5550965E-2,1E0,3.5226103E-2,1E0,-3.722618E-2,-3.4034204E-2,1.3024395E-4,2.6454175E-2,-3.194004E-2,1E0,1E0,1E0,2.2391535E-2,1E0,1E0,-2.4766091E-2,3.8695633E-2,5.034972E-2,1.100239E-2,-4.797214E-2,1.4848666E-2,3.9163966E-2,-1.0285744E-2,1.7008772E-2,-4.6232454E-2],"split_indices":[145,108,138,66,123,154,753,38,0,132,0,1250,286,744,0,0,104,82,0,111,0,409,0,906,0,0,0,0,0,281,1403,1584,0,644,1195,0,0,0,0,0,0,0,0,0,0],"split_type":[0,0,0,0,0,0,0,0,0,0,0,0,0,0,0,0,0,0,0,0,0,0,0,0,0,0,0,0,0,0,0,0,0,0,0,0,0,0,0,0,0,0,0,0,0],"sum_hessian":[8.346271E1,1.8673166E1,6.478954E1,1.2841735E1,5.831431E0,2.4146933E1,4.064261E1,1.0844175E1,1.9975598E0,4.417121E0,1.4143101E0,9.672346E0,1.44745865E1,3.9432793E1,1.2098167E0,7.9534545E0,2.8907208E0,2.8153114E0,1.6018096E0,7.681599E0,1.9907466E0,1.3462483E1,1.0121032E0,3.815461E1,1.2781812E0,1.8073215E0,1.0833993E0,1.5125376E0,1.3027737E0,3.170391E0,4.511208E0,1.2373573E1,1.0889096E0,3.402976E1,4.124851E0,2.0875459E0,1.0828451E0,3.4626422E0,1.0485657E0,1.1161731E1,1.2118425E0,3.1724777E1,2.304982E0,2.922018E0,1.2028329E0],"tree_param":{"num_deleted":"0","num_feature":"2215","num_nodes":"45","size_leaf_vector":"1"}},{"base_weights":[-8.429141E-2,-8.632599E-1,1.4155161E-1,-1.0120637E0,3.5227623E-2,-3.5623583E-1,4.3106002E-1,-1.1636149E0,-1.4266185E-1,-5.888677E-1,3.6547488E-1,5.3008074E-1,-4.9503766E-2,-1.244912E0,-3.7487284E-3,-4.56318E-2,3.9356664E-2,-9.172954E-1,-8.866757E-3,7.8140503E-1,-4.0915083E-2,6.132059E-1,-3.69516E-2,-1.3361106E0,-5.244085E-3,-1.1101599E0,-7.8220196E-2,4.8805636E-1,-4.9558547E-1,5.1002968E-2,-1.1389492E-3,7.052173E-1,-3.271195E-1,-7.0207976E-2,-1.5085778E-2,-6.872275E-2,-1.8942805E-2,6.6498215E-3,-1.37212E-2,-8.840731E-3,3.909205E-2,9.750796E-3,-5.8041718E-2,3.923305E-2,-2.2616437E-2,1.2477475E-2,-3.27574E-2],"categories":[],"categories_nodes":[],"categories_segments":[],"categories_sizes":[],"default_left":[0,0,0,0,0,0,0,0,0,0,0,0,0,0,0,0,0,0,0,0,0,0,0,0,0,0,0,0,0,0,0,0,0,0,0,0,0,0,0,0,0,0,0,0,0,0,0],"id":22,"left_children":[1,3,5,7,-1,9,11,13,15,17,19,21,-1,23,-1,-1,-1,25,27,29,-1,31,-1,33,-1,35,37,39,41,-1,-1,43,45,-1,-1,-1,-1,-1,-1,-1,-1,-1,-1,-1,-1,-1,-1],"loss_changes":[1.4622638E1,5.0679197E0,9.486001E0,2.1343746E0,0E0,4.305169E0,6.3502865E0,1.210104E0,3.3897142E0,3.5740561E0,3.8669915E0,4.6046066E0,0E0,1.2780228E0,0E0,0E0,0E0,1.8545771E0,2.1304538E0,1.0523875E0,0E0,3.473422E0,0E0,4.5934677E-1,0E0,1.350007E0,1.7399782E-1,9.913552E-1,2.2666419E0,0E0,0E0,3.5234528E0,9.2461646E-1,0E0,0E0,0E0,0E0,0E0,0E0,0E0,0E0,0E0,0E0,0E0,0E0,0E0,0E0],"parents":[2147483647,0,0,1,1,2,2,3,3,5,5,6,6,7,7,8,8,9,9,10,10,11,11,13,13,17,17,18,18,19,19,21,21,23,23,25,25,26,26,27,27,28,28,31,31,32,32],"right_children":[2,4,6,8,-1,10,12,14,16,18,20,22,-1,24,-1,-1,-1,26,28,30,-1,32,-1,34,-1,36,38,40,42,-1,-1,44,46,-1,-1,-1,-1,-1,-1,-1,-1,-1,-1,-1,-1,-1,-1],"split_conditions":[1E0,1E0,1E0,1E0,3.5227623E-2,1E0,1E0,1E0,1E0,1E0,1E0,1E0,-4.9503766E-2,1E0,-3.7487284E-3,-4.56318E-2,3.9356664E-2,1E0,1E0,1E0,-4.0915083E-2,1E0,-3.69516E-2,1E0,-5.244085E-3,1E0,1E0,1E0,1E0,5.1002968E-2,-1.1389492E-3,1E0,1E0,-7.0207976E-2,-1.5085778E-2,-6.872275E-2,-1.8942805E-2,6.6498215E-3,-1.37212E-2,-8.840731E-3,3.909205E-2,9.750796E-3,-5.8041718E-2,3.923305E-2,-2.2616437E-2,1.2477475E-2,-3.27574E-2],"split_indices":[1917,653,86,1329,0,108,1461,1195,153,1042,62,175,0,777,0,0,0,2033,49,114,0,644,0,283,0,101,136,148,141,0,0,912,49,0,0,0,0,0,0,0,0,0,0,0,0,0,0],"split_type":[0,0,0,0,0,0,0,0,0,0,0,0,0,0,0,0,0,0,0,0,0,0,0,0,0,0,0,0,0,0,0,0,0,0,0,0,0,0,0,0,0,0,0,0,0,0,0],"sum_hessian":[8.142418E1,1.7666664E1,6.375752E1,1.6458986E1,1.2076782E0,2.3360481E1,4.0397038E1,1.3727626E1,2.7313595E0,1.7805294E1,5.555186E0,3.8351795E1,2.045243E0,1.26401415E1,1.0874844E0,1.5041829E0,1.2271765E0,1.0996785E1,6.8085103E0,4.362344E0,1.1928424E0,3.647927E1,1.8725212E0,1.1544615E1,1.0955265E0,8.678845E0,2.3179398E0,3.367579E0,3.440931E0,3.1570108E0,1.2053328E0,3.3455647E1,3.0236256E0,1.0496615E1,1.0479997E0,5.728935E0,2.9499104E0,1.2714041E0,1.0465357E0,1.1540254E0,2.2135537E0,2.0351129E0,1.4058181E0,3.1608458E1,1.8471892E0,1.1830633E0,1.8405622E0],"tree_param":{"num_deleted":"0","num_feature":"2215","num_nodes":"47","size_leaf_vector":"1"}},{"base_weights":[-5.651805E-2,-5.320134E-1,2.5005338E-1,-9.3328714E-1,-2.6433906E-1,-1.6203077E-1,5.3074974E-1,-1.0896193E0,-7.206169E-2,2.68117E-1,-4.922663E-1,-4.9492407E-1,1.8887655E-1,6.87886E-1,-4.906592E-1,-1.1859201E0,-1.1314303E-2,-6.2630433E-3,8.404727E-4,4.3832295E-2,-3.2618925E-1,-9.570897E-1,-1.1595733E-1,-7.5323397E-1,1.6587326E-2,5.319116E-1,-5.603406E-1,7.9904866E-1,-4.0700104E-2,-4.4342842E-2,1.4816202E-2,-6.352079E-2,-1.4004699E-2,-4.528502E-2,1.7137233E-2,-6.029397E-2,5.706602E-3,3.065929E-1,-7.932949E-1,-1.2357413E-1,-6.402191E-2,2.9307311E-2,-4.503643E-1,7.401628E-1,-2.0559309E-2,-4.7308728E-4,-4.5379516E-2,8.8675654E-1,-2.0850819E-2,3.0587872E-2,-1.9894404E-2,-5.3869274E-2,-6.9211954E-3,1.7734705E-2,-4.1361492E-2,2.2499394E-4,-3.5349872E-2,-1.7938999E-3,4.458619E-2,4.7619198E-2,2.8812606E-3],"categories":[],"categories_nodes":[],"categories_segments":[],"categories_sizes":[],"default_left":[0,0,0,0,0,0,0,0,0,0,0,0,0,0,0,0,0,0,0,0,0,0,0,0,0,0,0,0,0,0,0,0,0,0,0,0,0,0,0,0,0,0,0,0,0,0,0,0,0,0,0,0,0,0,0,0,0,0,0,0,0],"id":23,"left_children":[1,3,5,7,9,11,13,15,17,19,21,23,25,27,29,31,-1,-1,-1,-1,33,35,37,39,41,43,45,47,-1,-1,-1,-1,-1,-1,-1,-1,-1,49,51,53,-1,-1,55,57,-1,-1,-1,59,-1,-1,-1,-1,-1,-1,-1,-1,-1,-1,-1,-1,-1],"loss_changes":[1.211749E1,3.2492285E0,5.946519E0,1.6217337E0,2.670734E0,2.5809894E0,5.212096E0,6.143751E-1,1.6341094E-2,2.7878318E0,2.5129576E0,1.4928553E0,3.1484063E0,5.1144505E0,1.707395E0,3.572073E-1,0E0,0E0,0E0,0E0,1.9496878E0,1.8894868E0,2.9415047E0,2.3202004E0,1.5240511E0,1.8992081E0,7.50864E-1,3.0789223E0,0E0,0E0,0E0,0E0,0E0,0E0,0E0,0E0,0E0,1.6466112E0,5.765481E-1,1.8109366E0,0E0,0E0,3.7310326E-1,8.563485E-1,0E0,0E0,0E0,1.2516575E0,0E0,0E0,0E0,0E0,0E0,0E0,0E0,0E0,0E0,0E0,0E0,0E0,0E0],"parents":[2147483647,0,0,1,1,2,2,3,3,4,4,5,5,6,6,7,7,8,8,9,9,10,10,11,11,12,12,13,13,14,14,15,15,20,20,21,21,22,22,23,23,24,24,25,25,26,26,27,27,37,37,38,38,39,39,42,42,43,43,47,47],"right_children":[2,4,6,8,10,12,14,16,18,20,22,24,26,28,30,32,-1,-1,-1,-1,34,36,38,40,42,44,46,48,-1,-1,-1,-1,-1,-1,-1,-1,-1,50,52,54,-1,-1,56,58,-1,-1,-1,60,-1,-1,-1,-1,-1,-1,-1,-1,-1,-1,-1,-1,-1],"split_conditions":[1E0,1E0,1E0,1E0,1E0,1E0,1E0,1E0,1E0,1E0,1E0,1E0,1E0,1E0,1E0,1E0,-1.1314303E-2,-6.2630433E-3,8.404727E-4,4.3832295E-2,1E0,1E0,1E0,1E0,1E0,1E0,1E0,1E0,-4.0700104E-2,-4.4342842E-2,1.4816202E-2,-6.352079E-2,-1.4004699E-2,-4.528502E-2,1.7137233E-2,-6.029397E-2,5.706602E-3,1E0,1E0,1E0,-6.402191E-2,2.9307311E-2,1E0,1E0,-2.0559309E-2,-4.7308728E-4,-4.5379516E-2,1E0,-2.0850819E-2,3.0587872E-2,-1.9894404E-2,-5.3869274E-2,-6.9211954E-3,1.7734705E-2,-4.1361492E-2,2.2499394E-4,-3.5349872E-2,-1.7938999E-3,4.458619E-2,4.7619198E-2,2.8812606E-3],"split_indices":[125,149,86,126,151,95,1317,25,120,91,90,556,882,1476,1608,1057,0,0,0,0,1459,1624,481,77,1093,1227,141,912,0,0,0,0,0,0,0,0,0,450,418,866,0,0,98,148,0,0,0,906,0,0,0,0,0,0,0,0,0,0,0,0,0],"split_type":[0,0,0,0,0,0,0,0,0,0,0,0,0,0,0,0,0,0,0,0,0,0,0,0,0,0,0,0,0,0,0,0,0,0,0,0,0,0,0,0,0,0,0,0,0,0,0,0,0,0,0,0,0,0,0,0,0,0,0,0,0],"sum_hessian":[8.121299E1,3.1547358E1,4.9665634E1,1.1628414E1,1.9918943E1,2.0294493E1,2.937114E1,9.6174345E0,2.0109806E0,5.91791E0,1.4001033E1,1.0203953E1,1.009054E1,2.5738062E1,3.633078E0,8.316152E0,1.3012822E0,1.0018169E0,1.0091636E0,2.6892395E0,3.2286706E0,5.5733595E0,8.427673E0,6.4660664E0,3.7378864E0,7.1204348E0,2.970105E0,2.4400055E1,1.3380063E0,2.3321016E0,1.3009765E0,7.2384534E0,1.0776985E0,1.5403167E0,1.688354E0,4.4209065E0,1.1524531E0,5.5270405E0,2.9006329E0,3.5092416E0,2.956825E0,1.5689349E0,2.1689515E0,6.008779E0,1.1116558E0,1.5455245E0,1.4245805E0,2.3011187E1,1.3888685E0,3.9483347E0,1.5787058E0,1.5730419E0,1.3275908E0,2.3844676E0,1.1247739E0,1.1366986E0,1.0322529E0,1.1064872E0,4.902292E0,2.1185648E1,1.8255395E0],"tree_param":{"num_deleted":"0","num_feature":"2215","num_nodes":"61","size_leaf_vector":"1"}},{"base_weights":[-3.5563245E-2,-6.7339766E-1,1.6884407E-1,-1.0009593E0,1.9428397E-2,3.1434634E-1,-7.090129E-1,-1.1204376E0,-6.49125E-4,4.144184E-1,-4.903877E-2,-2.4942963E-1,5.051229E-1,-9.3469495E-1,-1.2580624E-1,-1.2014885E0,-8.3243335E-3,6.492641E-1,-1.2878324E-2,-6.139484E-1,5.1918185E-1,7.010764E-1,2.6465885E-2,-1.097422E0,-1.0197254E-2,-1.999155E-2,1.437706E-2,-6.571621E-2,-2.4580231E-2,-3.6284204E-3,4.7369026E-2,-7.696716E-1,1.984029E-2,-4.052687E-3,4.300139E-2,8.269068E-1,4.7131427E-2,-3.9861935E-1,8.428459E-1,-6.281519E-2,-1.46576855E-2,-5.042396E-2,-2.2521515E-4,4.541144E-2,-1.6250007E-2,3.8403407E-2,-2.3866689E-2,-3.1368952E-2,3.234541E-2,4.8147358E-2,1.1787984E-2],"categories":[],"categories_nodes":[],"categories_segments":[],"categories_sizes":[],"default_left":[0,0,0,0,0,0,0,0,0,0,0,0,0,0,0,0,0,0,0,0,0,0,0,0,0,0,0,0,0,0,0,0,0,0,0,0,0,0,0,0,0,0,0,0,0,0,0,0,0,0,0],"id":24,"left_children":[1,3,5,7,9,11,13,15,-1,17,-1,19,21,23,25,27,-1,29,-1,31,33,35,37,39,-1,-1,-1,-1,-1,-1,-1,41,-1,-1,-1,43,45,47,49,-1,-1,-1,-1,-1,-1,-1,-1,-1,-1,-1,-1],"loss_changes":[1.0845406E1,4.598523E0,8.2871275E0,1.6048708E0,3.3529568E0,6.0255356E0,1.1043334E0,7.453575E-1,0E0,1.1219445E0,0E0,4.391827E0,3.856431E0,5.536442E-1,5.3923684E-1,2.436924E-1,0E0,1.0945606E0,0E0,1.929635E0,1.1373456E0,2.369876E0,4.8611026E0,2.8583717E-1,0E0,0E0,0E0,0E0,0E0,0E0,0E0,1.6914997E0,0E0,0E0,0E0,2.5892563E0,2.553712E0,2.619091E0,1.21925116E-1,0E0,0E0,0E0,0E0,0E0,0E0,0E0,0E0,0E0,0E0,0E0,0E0],"parents":[2147483647,0,0,1,1,2,2,3,3,4,4,5,5,6,6,7,7,9,9,11,11,12,12,13,13,14,14,15,15,17,17,19,19,20,20,21,21,22,22,23,23,31,31,35,35,36,36,37,37,38,38],"right_children":[2,4,6,8,10,12,14,16,-1,18,-1,20,22,24,26,28,-1,30,-1,32,34,36,38,40,-1,-1,-1,-1,-1,-1,-1,42,-1,-1,-1,44,46,48,50,-1,-1,-1,-1,-1,-1,-1,-1,-1,-1,-1,-1],"split_conditions":[1E0,1E0,1E0,1E0,1E0,1E0,1E0,1E0,-6.49125E-4,1E0,-4.903877E-2,1E0,1E0,1E0,1E0,1E0,-8.3243335E-3,1E0,-1.2878324E-2,1E0,1E0,1E0,1E0,1E0,-1.0197254E-2,-1.999155E-2,1.437706E-2,-6.571621E-2,-2.4580231E-2,-3.6284204E-3,4.7369026E-2,1E0,1.984029E-2,-4.052687E-3,4.300139E-2,1E0,1E0,1E0,1E0,-6.281519E-2,-1.46576855E-2,-5.042396E-2,-2.2521515E-4,4.541144E-2,-1.6250007E-2,3.8403407E-2,-2.3866689E-2,-3.1368952E-2,3.234541E-2,4.8147358E-2,1.1787984E-2],"split_indices":[145,108,882,66,1186,118,2137,842,0,834,0,168,139,920,1524,98,0,100,0,1643,1366,1619,141,131,0,0,0,0,0,0,0,2022,0,0,0,852,159,1837,559,0,0,0,0,0,0,0,0,0,0,0,0],"split_type":[0,0,0,0,0,0,0,0,0,0,0,0,0,0,0,0,0,0,0,0,0,0,0,0,0,0,0,0,0,0,0,0,0,0,0,0,0,0,0,0,0,0,0,0,0,0,0,0,0,0,0],"sum_hessian":[8.131224E1,1.9177187E1,6.2135056E1,1.271901E1,6.458176E0,5.3851276E1,8.283777E0,1.1227205E1,1.4918047E0,5.049677E0,1.4084994E0,1.35377035E1,4.0313572E1,5.53805E0,2.745727E0,1.0108838E1,1.1183677E0,3.7669961E0,1.2826806E0,9.319226E0,4.218477E0,2.8274027E1,1.2039547E1,4.1190286E0,1.4190212E0,1.6707916E0,1.0749354E0,7.987729E0,2.1211085E0,1.3221754E0,2.444821E0,8.281797E0,1.0374291E0,1.8039278E0,2.414549E0,2.3489708E1,4.7843194E0,8.253639E0,3.7859077E0,2.9702215E0,1.1488074E0,6.069523E0,2.2122743E0,2.2138334E1,1.3513725E0,1.8191767E0,2.9651427E0,7.1000915E0,1.1535476E0,2.6712668E0,1.1146411E0],"tree_param":{"num_deleted":"0","num_feature":"2215","num_nodes":"51","size_leaf_vector":"1"}},{"base_weights":[-2.9232537E-2,-7.2718614E-1,1.9220297E-1,-9.827204E-1,-1.263017E-1,-2.3517002E-1,4.7258604E-1,-9.370849E-3,-1.1035869E0,-5.4018116E-1,4.062617E-2,2.2014064E-1,-5.4841876E-1,5.58393E-1,-5.747911E-2,-6.2140565E-2,-3.1892997E-1,-5.2815028E-2,5.8196494E-3,-1.8010785E-1,6.4491254E-1,-1.681265E-1,-9.223397E-1,6.3597196E-1,-3.8108077E-2,-2.2404075E-2,-1.7568603E-3,1.8408036E-2,-1.8323354E-2,-6.3912976E-1,3.1751302E-1,8.0411226E-1,-5.9781993E-5,2.3257962E-1,-5.410249E-2,6.4510363E-4,-1.1254941E0,7.3957896E-1,-2.7830645E-1,-5.0822776E-2,-2.2804576E-3,4.3072768E-2,-2.3606336E-2,4.4986684E-2,1.1992413E-2,-1.4386915E-2,3.828452E-2,-6.1590698E-2,-1.6357651E-2,4.021273E-2,-2.0500468E-2,1.2063624E-2,-4.2391192E-2],"categories":[],"categories_nodes":[],"categories_segments":[],"categories_sizes":[],"default_left":[0,0,0,0,0,0,0,0,0,0,0,0,0,0,0,0,0,0,0,0,0,0,0,0,0,0,0,0,0,0,0,0,0,0,0,0,0,0,0,0,0,0,0,0,0,0,0,0,0,0,0,0,0],"id":25,"left_children":[1,3,5,7,9,11,13,-1,15,17,-1,19,21,23,-1,-1,25,-1,27,29,31,33,35,37,-1,-1,-1,-1,-1,39,41,43,-1,45,-1,-1,47,49,51,-1,-1,-1,-1,-1,-1,-1,-1,-1,-1,-1,-1,-1,-1],"loss_changes":[1.2544055E1,2.876131E0,7.506945E0,1.0968275E0,3.1501427E0,3.7032857E0,5.8757925E0,0E0,8.6739063E-1,1.5401043E0,0E0,1.9780471E0,2.0016994E0,4.212307E0,0E0,0E0,9.745586E-2,0E0,6.25888E-1,1.6694161E0,5.699065E-1,3.4532833E0,1.4252152E0,3.5128632E0,0E0,0E0,0E0,0E0,0E0,7.758751E-1,2.0168312E0,2.3724318E-2,0E0,2.1345115E0,0E0,0E0,1.1571503E-1,2.6815662E0,1.4710841E0,0E0,0E0,0E0,0E0,0E0,0E0,0E0,0E0,0E0,0E0,0E0,0E0,0E0,0E0],"parents":[2147483647,0,0,1,1,2,2,3,3,4,4,5,5,6,6,8,8,9,9,11,11,12,12,13,13,16,16,18,18,19,19,20,20,21,21,22,22,23,23,29,29,30,30,31,31,33,33,36,36,37,37,38,38],"right_children":[2,4,6,8,10,12,14,-1,16,18,-1,20,22,24,-1,-1,26,-1,28,30,32,34,36,38,-1,-1,-1,-1,-1,40,42,44,-1,46,-1,-1,48,50,52,-1,-1,-1,-1,-1,-1,-1,-1,-1,-1,-1,-1,-1,-1],"split_conditions":[1E0,1E0,1E0,1E0,1E0,1E0,1E0,-9.370849E-3,1E0,1E0,4.062617E-2,1E0,1E0,1E0,-5.747911E-2,-6.2140565E-2,1E0,-5.2815028E-2,1E0,1E0,1E0,1E0,1E0,1E0,-3.8108077E-2,-2.2404075E-2,-1.7568603E-3,1.8408036E-2,-1.8323354E-2,1E0,1E0,1E0,-5.9781993E-5,1E0,-5.410249E-2,6.4510363E-4,1E0,1E0,1E0,-5.0822776E-2,-2.2804576E-3,4.3072768E-2,-2.3606336E-2,4.4986684E-2,1.1992413E-2,-1.4386915E-2,3.828452E-2,-6.1590698E-2,-1.6357651E-2,4.021273E-2,-2.0500468E-2,1.2063624E-2,-4.2391192E-2],"split_indices":[145,108,138,151,113,154,753,0,129,138,0,155,1227,744,0,0,88,0,79,281,106,882,156,1317,0,0,0,0,0,98,450,1227,0,108,0,0,22,430,109,0,0,0,0,0,0,0,0,0,0,0,0,0,0],"split_type":[0,0,0,0,0,0,0,0,0,0,0,0,0,0,0,0,0,0,0,0,0,0,0,0,0,0,0,0,0,0,0,0,0,0,0,0,0,0,0,0,0,0,0,0,0,0,0,0,0,0,0,0,0],"sum_hessian":[7.925979E1,1.8539682E1,6.072011E1,1.2562046E1,5.977636E0,2.4118626E1,3.6601482E1,1.9937514E0,1.0568295E1,4.4433937E0,1.5342425E0,9.951394E0,1.4167232E1,3.538549E1,1.2159936E0,8.479803E0,2.0884914E0,1.8037477E0,2.639646E0,5.420153E0,4.5312414E0,7.742468E0,6.4247637E0,3.391168E1,1.4738133E0,1.0374523E0,1.051039E0,1.3433076E0,1.2963383E0,2.6715012E0,2.748652E0,3.4392657E0,1.0919756E0,5.9008E0,1.8416675E0,1.3136655E0,5.1110983E0,3.0631556E1,3.2801218E0,1.1975696E0,1.4739316E0,1.5736784E0,1.1749735E0,2.4325197E0,1.006746E0,3.2191575E0,2.681643E0,4.0312643E0,1.0798337E0,2.9284418E1,1.3471378E0,2.0166547E0,1.2634671E0],"tree_param":{"num_deleted":"0","num_feature":"2215","num_nodes":"53","size_leaf_vector":"1"}},{"base_weights":[-2.8765468E-2,-6.746476E-1,1.8075992E-1,-9.442554E-1,-1.02232605E-1,3.2733807E-1,-7.184192E-1,-1.0705268E0,-2.4329889E-1,-4.9300468E-1,3.3377662E-2,3.9573288E-1,-4.5950007E-2,-9.7110367E-1,-1.17554694E-1,-6.153826E-2,-1.0375521E-2,-2.0593096E-2,3.1517365E-3,-8.235E-1,1.8364936E-2,5.577252E-1,-8.476711E-2,-5.5566717E-2,-9.992101E-3,1.4635074E-2,-2.057824E-2,-8.998496E-3,-5.497206E-2,6.418985E-1,-2.8183436E-1,-7.758061E-1,3.1428635E-1,3.9197613E-2,-5.1747463E-3,1.3064633E-2,-4.1369755E-2,8.217755E-3,-5.446222E-2,-3.003219E-3,3.9945025E-2],"categories":[],"categories_nodes":[],"categories_segments":[],"categories_sizes":[],"default_left":[0,0,0,0,0,0,0,0,0,0,0,0,0,0,0,0,0,0,0,0,0,0,0,0,0,0,0,0,0,0,0,0,0,0,0,0,0,0,0,0,0],"id":26,"left_children":[1,3,5,7,9,11,13,15,17,19,-1,21,-1,23,25,-1,-1,-1,-1,27,-1,29,31,-1,-1,-1,-1,-1,-1,33,35,37,39,-1,-1,-1,-1,-1,-1,-1,-1],"loss_changes":[1.077622E1,2.9121323E0,8.173943E0,9.0183926E-1,2.5441675E0,4.837055E0,1.2152009E0,1.2426958E0,1.9628921E-1,1.8547273E0,0E0,3.9739285E0,0E0,4.2963457E-1,5.703444E-1,0E0,0E0,0E0,0E0,5.5730534E-1,0E0,2.856389E0,3.9906793E0,0E0,0E0,0E0,0E0,0E0,0E0,3.7569437E0,1.4443257E0,1.7297173E0,1.739694E0,0E0,0E0,0E0,0E0,0E0,0E0,0E0,0E0],"parents":[2147483647,0,0,1,1,2,2,3,3,4,4,5,5,6,6,7,7,8,8,9,9,11,11,13,13,14,14,19,19,21,21,22,22,29,29,30,30,31,31,32,32],"right_children":[2,4,6,8,10,12,14,16,18,20,-1,22,-1,24,26,-1,-1,-1,-1,28,-1,30,32,-1,-1,-1,-1,-1,-1,34,36,38,40,-1,-1,-1,-1,-1,-1,-1,-1],"split_conditions":[1E0,1E0,1E0,1E0,1E0,1E0,1E0,1E0,1E0,1E0,3.3377662E-2,1E0,-4.5950007E-2,1E0,1E0,-6.153826E-2,-1.0375521E-2,-2.0593096E-2,3.1517365E-3,1E0,1.8364936E-2,1E0,1E0,-5.5566717E-2,-9.992101E-3,1.4635074E-2,-2.057824E-2,-8.998496E-3,-5.497206E-2,1E0,1E0,1E0,1E0,3.9197613E-2,-5.1747463E-3,1.3064633E-2,-4.1369755E-2,8.217755E-3,-5.446222E-2,-3.003219E-3,3.9945025E-2],"split_indices":[145,108,882,38,113,1461,2137,66,104,134,0,89,0,754,517,0,0,0,0,137,0,540,129,0,0,0,0,0,0,124,132,97,93,0,0,0,0,0,0,0,0],"split_type":[0,0,0,0,0,0,0,0,0,0,0,0,0,0,0,0,0,0,0,0,0,0,0,0,0,0,0,0,0,0,0,0,0,0,0,0,0,0,0,0,0],"sum_hessian":[7.7728836E1,1.8495327E1,5.9233505E1,1.2131694E1,6.3636336E0,5.1477886E1,7.7556205E0,9.833105E0,2.2985885E0,4.459421E0,1.9042126E0,4.944689E1,2.030995E0,5.025883E0,2.7297368E0,7.9338818E0,1.8992234E0,1.2604988E0,1.0380896E0,3.252656E0,1.2067649E0,3.6859592E1,1.2587297E1,3.8795702E0,1.1463131E0,1.1414416E0,1.5882953E0,1.4719906E0,1.7806654E0,3.3714817E1,3.1447754E0,4.2622547E0,8.325043E0,2.8274635E1,5.440183E0,1.8370134E0,1.3077619E0,1.1846185E0,3.0776365E0,5.191112E0,3.1339302E0],"tree_param":{"num_deleted":"0","num_feature":"2215","num_nodes":"41","size_leaf_vector":"1"}},{"base_weights":[-4.66389E-2,-5.592493E-1,1.8501611E-1,-7.1317524E-1,4.6103144E-1,-3.038494E-1,4.834325E-1,-8.1388056E-1,3.3492908E-2,2.1600395E-3,3.491134E-2,-6.7243063E-1,2.2052518E-1,5.652449E-1,-4.5769706E-2,-9.565287E-1,1.316162E-1,-8.3456916E-1,2.1782232E-2,5.956508E-1,-4.9096936E-1,6.350455E-1,-3.610997E-2,-1.0625463E0,-2.0998268E-1,3.0209372E-2,-2.2514937E-2,-9.729325E-1,6.765926E-3,-1.7477637E-3,7.7783114E-1,-3.9105903E-2,2.0390952E-3,-4.576469E-2,7.740311E-1,-5.8204632E-2,-2.6787368E-3,1.4702036E-2,-3.634117E-2,-5.488568E-2,2.6341924E-3,6.251374E-3,4.7720376E-2,1.7452247E-2,-4.853092E-2,4.2596634E-2,-1.1307759E-2],"categories":[],"categories_nodes":[],"categories_segments":[],"categories_sizes":[],"default_left":[0,0,0,0,0,0,0,0,0,0,0,0,0,0,0,0,0,0,0,0,0,0,0,0,0,0,0,0,0,0,0,0,0,0,0,0,0,0,0,0,0,0,0,0,0,0,0],"id":27,"left_children":[1,3,5,7,9,11,13,15,-1,-1,-1,17,19,21,-1,23,25,27,-1,29,31,33,-1,35,37,-1,-1,39,-1,-1,41,-1,-1,43,45,-1,-1,-1,-1,-1,-1,-1,-1,-1,-1,-1,-1],"loss_changes":[9.378307E0,4.185718E0,8.104326E0,3.5720139E0,3.490985E-1,4.2629952E0,4.437764E0,2.918933E0,0E0,0E0,0E0,2.654056E0,2.8388255E0,3.4225159E0,0E0,1.2106152E0,1.2603457E0,1.6701527E0,0E0,7.967732E-1,6.266772E-1,3.0460997E0,0E0,1.5375977E0,1.1251777E0,0E0,0E0,1.3574762E0,0E0,0E0,4.847219E-1,0E0,0E0,2.6532156E0,2.255828E0,0E0,0E0,0E0,0E0,0E0,0E0,0E0,0E0,0E0,0E0,0E0,0E0],"parents":[2147483647,0,0,1,1,2,2,3,3,4,4,5,5,6,6,7,7,11,11,12,12,13,13,15,15,16,16,17,17,19,19,20,20,21,21,23,23,24,24,27,27,30,30,33,33,34,34],"right_children":[2,4,6,8,10,12,14,16,-1,-1,-1,18,20,22,-1,24,26,28,-1,30,32,34,-1,36,38,-1,-1,40,-1,-1,42,-1,-1,44,46,-1,-1,-1,-1,-1,-1,-1,-1,-1,-1,-1,-1],"split_conditions":[1E0,1E0,1E0,1E0,1E0,1E0,1E0,1E0,3.3492908E-2,2.1600395E-3,3.491134E-2,1E0,1E0,1E0,-4.5769706E-2,1E0,1E0,1E0,2.1782232E-2,1E0,1E0,1E0,-3.610997E-2,1E0,1E0,3.0209372E-2,-2.2514937E-2,1E0,6.765926E-3,-1.7477637E-3,1E0,-3.9105903E-2,2.0390952E-3,1E0,1E0,-5.8204632E-2,-2.6787368E-3,1.4702036E-2,-3.634117E-2,-5.488568E-2,2.6341924E-3,6.251374E-3,4.7720376E-2,1.7452247E-2,-4.853092E-2,4.2596634E-2,-1.1307759E-2],"split_indices":[147,129,125,911,125,126,744,630,0,0,0,283,136,623,0,1619,450,173,0,155,965,122,0,1643,1338,0,0,22,0,0,85,0,0,89,719,0,0,0,0,0,0,0,0,0,0,0,0],"split_type":[0,0,0,0,0,0,0,0,0,0,0,0,0,0,0,0,0,0,0,0,0,0,0,0,0,0,0,0,0,0,0,0,0,0,0,0,0,0,0,0,0,0,0,0,0,0,0],"sum_hessian":[7.71047E1,2.355893E1,5.3545773E1,2.073215E1,2.8267803E0,2.0289434E1,3.325634E1,1.9708595E1,1.023553E0,1.4516907E0,1.3750896E0,1.1748854E1,8.540581E0,3.1981756E1,1.2745839E0,1.7114798E1,2.593797E0,1.0464475E1,1.2843782E0,5.69879E0,2.8417902E0,3.081767E1,1.1640844E0,1.4615902E1,2.4988968E0,1.4102573E0,1.1835396E0,9.155254E0,1.3092204E0,1.45848E0,4.24031E0,1.5320925E0,1.3096979E0,5.3384423E0,2.5479229E1,1.3139731E1,1.4761703E0,1.4833825E0,1.0155145E0,8.099532E0,1.0557225E0,1.2664186E0,2.9738915E0,4.1776466E0,1.1607959E0,2.3775639E1,1.7035892E0],"tree_param":{"num_deleted":"0","num_feature":"2215","num_nodes":"47","size_leaf_vector":"1"}},{"base_weights":[4.2123646E-3,-3.995983E-1,3.08544E-1,-4.811247E-1,3.3571843E-2,3.831402E-1,-5.183476E-2,-5.533064E-1,3.60097E-2,5.565327E-1,-1.5700369E-1,-6.260267E-1,2.4852103E-2,6.272921E-1,-1.7410943E-2,-6.8352956E-1,5.19666E-1,-1.0067838E0,-3.4699002E-1,6.8022734E-1,-1.9707505E-2,-1.0535333E0,1.6355498E-2,-1.9370873E-3,4.3738447E-2,-5.7465583E-2,-2.2685591E-2,1.1397242E-2,-3.5152595E-2,3.8811363E-2,-1.8309506E-3,-6.4279005E-2,-1.1947767E-2],"categories":[],"categories_nodes":[],"categories_segments":[],"categories_sizes":[],"default_left":[0,0,0,0,0,0,0,0,0,0,0,0,0,0,0,0,0,0,0,0,0,0,0,0,0,0,0,0,0,0,0,0,0],"id":28,"left_children":[1,3,5,7,-1,9,-1,11,-1,13,15,17,-1,19,-1,21,23,25,27,29,-1,31,-1,-1,-1,-1,-1,-1,-1,-1,-1,-1,-1],"loss_changes":[9.301749E0,3.1637688E0,4.727665E0,3.0705166E0,0E0,3.9850626E0,0E0,2.5746155E0,0E0,2.2493734E0,4.236207E0,2.642229E0,0E0,1.8783007E0,0E0,2.7969441E0,1.0917665E0,3.7578392E-1,3.7990286E0,2.00204E0,0E0,6.449857E-1,0E0,0E0,0E0,0E0,0E0,0E0,0E0,0E0,0E0,0E0,0E0],"parents":[2147483647,0,0,1,1,2,2,3,3,5,5,7,7,9,9,10,10,11,11,13,13,15,15,16,16,17,17,18,18,19,19,21,21],"right_children":[2,4,6,8,-1,10,-1,12,-1,14,16,18,-1,20,-1,22,24,26,28,30,-1,32,-1,-1,-1,-1,-1,-1,-1,-1,-1,-1,-1],"split_conditions":[1E0,1E0,1E0,1E0,3.3571843E-2,1E0,-5.183476E-2,1E0,3.60097E-2,1E0,1E0,1E0,2.4852103E-2,1E0,-1.7410943E-2,1E0,1E0,1E0,1E0,1E0,-1.9707505E-2,1E0,1.6355498E-2,-1.9370873E-3,4.3738447E-2,-5.7465583E-2,-2.2685591E-2,1.1397242E-2,-3.5152595E-2,3.8811363E-2,-1.8309506E-3,-6.4279005E-2,-1.1947767E-2],"split_indices":[138,1620,1148,1057,0,123,0,937,0,175,126,149,0,1391,0,477,132,1186,146,541,0,149,0,0,0,0,0,0,0,0,0,0,0],"split_type":[0,0,0,0,0,0,0,0,0,0,0,0,0,0,0,0,0,0,0,0,0,0,0,0,0,0,0,0,0,0,0,0,0],"sum_hessian":[7.368695E1,3.1533215E1,4.2153736E1,2.9814539E1,1.7186755E0,4.061665E1,1.5370864E0,2.8633501E1,1.1810378E0,3.0723656E1,9.892993E0,2.7157267E1,1.4762352E0,2.8779518E1,1.9441382E0,5.5580564E0,4.334936E0,1.0382222E1,1.6775045E1,2.7679125E1,1.1003923E0,4.0374637E0,1.5205925E0,2.0314043E0,2.3035321E0,7.397754E0,2.984468E0,6.5532675E0,1.0221777E1,2.4337074E1,3.3420513E0,2.6922996E0,1.3451643E0],"tree_param":{"num_deleted":"0","num_feature":"2215","num_nodes":"33","size_leaf_vector":"1"}},{"base_weights":[-2.8686007E-2,-5.941958E-1,1.3796139E-1,-6.8921417E-1,2.4490595E-2,-2.2895966E-1,3.2039312E-1,-7.7817976E-1,1.4094219E-2,1.9285573E-1,-7.6592904E-1,9.294402E-2,6.492235E-1,-9.093339E-1,5.194056E-2,-4.4607032E-2,5.2202123E-1,-8.939732E-1,6.019072E-3,-8.22928E-2,7.559279E-1,8.260069E-1,2.336505E-3,-9.9774724E-1,-2.6681907E-3,3.8652954E-4,3.5838818E-3,1.3847621E-1,4.2440202E-2,-5.2289564E-2,3.9892974E-3,6.63419E-2,-8.7222785E-1,4.7881335E-2,-2.6375155E-3,9.248792E-1,-6.3597085E-3,-3.8613018E-1,3.230874E-2,-5.220272E-3,-5.5236053E-2,-2.6940534E-2,2.1093048E-2,1.2493509E-2,-3.661818E-2,-3.0660483E-3,-6.0543366E-2,4.9860604E-2,4.4495165E-3,1.638137E-2,-5.0346434E-2],"categories":[],"categories_nodes":[],"categories_segments":[],"categories_sizes":[],"default_left":[0,0,0,0,0,0,0,0,0,0,0,0,0,0,0,0,0,0,0,0,0,0,0,0,0,0,0,0,0,0,0,0,0,0,0,0,0,0,0,0,0,0,0,0,0,0,0,0,0,0,0],"id":29,"left_children":[1,3,5,7,-1,9,11,13,-1,15,17,19,21,23,25,-1,27,29,-1,31,33,35,37,39,-1,-1,-1,41,-1,-1,-1,43,45,-1,-1,47,-1,49,-1,-1,-1,-1,-1,-1,-1,-1,-1,-1,-1,-1,-1],"loss_changes":[7.332366E0,2.1606636E0,4.105377E0,1.6611643E0,0E0,4.8105707E0,2.9798646E0,1.740655E0,0E0,4.868687E0,1.158289E0,2.9894044E0,1.8796391E0,9.6735764E-1,2.123056E-3,0E0,1.1470478E0,1.2968774E0,0E0,2.5035558E0,9.256799E-1,1.3351955E0,1.3835464E0,1.0473728E0,0E0,0E0,0E0,1.3475399E0,0E0,0E0,0E0,2.8890495E0,8.509996E-1,0E0,0E0,6.2627125E-1,0E0,1.8603046E0,0E0,0E0,0E0,0E0,0E0,0E0,0E0,0E0,0E0,0E0,0E0,0E0,0E0],"parents":[2147483647,0,0,1,1,2,2,3,3,5,5,6,6,7,7,9,9,10,10,11,11,12,12,13,13,14,14,16,16,17,17,19,19,20,20,21,21,22,22,23,23,27,27,31,31,32,32,35,35,37,37],"right_children":[2,4,6,8,-1,10,12,14,-1,16,18,20,22,24,26,-1,28,30,-1,32,34,36,38,40,-1,-1,-1,42,-1,-1,-1,44,46,-1,-1,48,-1,50,-1,-1,-1,-1,-1,-1,-1,-1,-1,-1,-1,-1,-1],"split_conditions":[1E0,1E0,1E0,1E0,2.4490595E-2,1E0,1E0,1E0,1.4094219E-2,1E0,1E0,1E0,1E0,1E0,1E0,-4.4607032E-2,1E0,1E0,6.019072E-3,1E0,1E0,1E0,1E0,1E0,-2.6681907E-3,3.8652954E-4,3.5838818E-3,1E0,4.2440202E-2,-5.2289564E-2,3.9892974E-3,1E0,1E0,4.7881335E-2,-2.6375155E-3,1E0,-6.3597085E-3,1E0,3.230874E-2,-5.220272E-3,-5.5236053E-2,-2.6940534E-2,2.1093048E-2,1.2493509E-2,-3.661818E-2,-3.0660483E-3,-6.0543366E-2,4.9860604E-2,4.4495165E-3,1.638137E-2,-5.0346434E-2],"split_indices":[1917,1684,129,103,0,154,107,78,0,145,52,1008,1194,965,115,0,155,1830,0,1769,1206,364,42,164,0,0,0,151,0,0,0,38,140,0,0,1967,0,1857,0,0,0,0,0,0,0,0,0,0,0,0,0],"split_type":[0,0,0,0,0,0,0,0,0,0,0,0,0,0,0,0,0,0,0,0,0,0,0,0,0,0,0,0,0,0,0,0,0,0,0,0,0,0,0,0,0,0,0,0,0,0,0,0,0,0,0],"sum_hessian":[7.5934784E1,1.6699675E1,5.923511E1,1.5688684E1,1.0109894E0,1.9586386E1,3.9648724E1,1.4554004E1,1.1346805E0,1.1328301E1,8.258084E0,2.4195536E1,1.5453189E1,1.2485883E1,2.0681207E0,2.238719E0,9.089583E0,7.208095E0,1.0499897E0,1.983003E1,4.365506E0,1.19190235E1,3.5341651E0,1.1166825E1,1.3190575E0,1.0678573E0,1.0002635E0,4.8366094E0,4.2529736E0,6.1718698E0,1.0362251E0,1.746064E1,2.3693895E0,3.3466134E0,1.0188929E0,1.0825811E1,1.0932122E0,2.4538667E0,1.0802984E0,1.405493E0,9.7613325E0,1.1608499E0,3.6757596E0,1.4756919E1,2.703721E0,1.0459162E0,1.3234733E0,9.785995E0,1.0398175E0,1.3611476E0,1.092719E0],"tree_param":{"num_deleted":"0","num_feature":"2215","num_nodes":"51","size_leaf_vector":"1"}},{"base_weights":[-3.2929637E-2,-4.4073406E-1,2.5466284E-1,-8.798098E-1,-1.6269705E-1,-2.1712676E-1,5.708082E-1,-1.0211958E0,-4.1264384E-3,3.7716708E-1,-3.4296393E-1,-6.4855665E-1,1.77783E-1,7.3373E-1,-9.475658E-2,-7.590572E-3,-1.1607059E0,6.435908E-1,-8.496436E-3,-7.223923E-1,1.06102034E-1,-9.160658E-1,1.1853632E-2,-9.094405E-2,4.3514196E-2,8.303841E-1,-1.6393837E-2,5.619199E-1,-7.0747966E-1,-6.5716445E-2,-5.85339E-3,4.2512592E-2,9.218599E-3,-5.2731343E-2,-2.8768945E-1,-5.8385885E-1,4.6777946E-1,-1.2751923E0,-5.6587793E-2,-3.805424E-1,3.0317966E-2,9.079771E-1,-5.1324693E-3,5.3041917E-3,3.509651E-2,-5.5335492E-2,7.1039917E-3,-3.246999E-2,1.1386344E-2,-6.487737E-3,-3.769594E-2,-6.1364053E-3,3.5416286E-2,-1.8625634E-2,-7.165577E-2,1.8676525E-2,-2.2214329E-2,-4.74718E-2,1.5877793E-3,5.121222E-2,4.3366957E-3],"categories":[],"categories_nodes":[],"categories_segments":[],"categories_sizes":[],"default_left":[0,0,0,0,0,0,0,0,0,0,0,0,0,0,0,0,0,0,0,0,0,0,0,0,0,0,0,0,0,0,0,0,0,0,0,0,0,0,0,0,0,0,0,0,0,0,0,0,0,0,0,0,0,0,0,0,0,0,0,0,0],"id":30,"left_children":[1,3,5,7,9,11,13,15,-1,17,19,21,23,25,27,-1,29,31,-1,33,35,37,-1,39,-1,41,-1,43,45,-1,-1,-1,-1,-1,47,49,51,53,55,57,-1,59,-1,-1,-1,-1,-1,-1,-1,-1,-1,-1,-1,-1,-1,-1,-1,-1,-1,-1,-1],"loss_changes":[8.849579E0,3.6628528E0,6.7348156E0,1.252718E0,2.1064668E0,3.26863E0,2.9771461E0,1.0350122E0,0E0,9.200446E-1,2.7609262E0,2.3636603E0,2.02343E0,2.4943275E0,2.8755586E0,0E0,1.2016859E0,2.1802688E-1,0E0,9.4832516E-1,2.2911224E0,2.1390805E0,0E0,1.9335635E0,0E0,1.5506763E0,0E0,1.5083063E-1,1.3879627E0,0E0,0E0,0E0,0E0,0E0,1.1042173E0,1.5130353E-1,9.1942346E-1,1.7981339E-1,6.9251764E-1,1.5717249E0,0E0,1.6955242E0,0E0,0E0,0E0,0E0,0E0,0E0,0E0,0E0,0E0,0E0,0E0,0E0,0E0,0E0,0E0,0E0,0E0,0E0,0E0],"parents":[2147483647,0,0,1,1,2,2,3,3,4,4,5,5,6,6,7,7,9,9,10,10,11,11,12,12,13,13,14,14,16,16,17,17,19,19,20,20,21,21,23,23,25,25,27,27,28,28,34,34,35,35,36,36,37,37,38,38,39,39,41,41],"right_children":[2,4,6,8,10,12,14,16,-1,18,20,22,24,26,28,-1,30,32,-1,34,36,38,-1,40,-1,42,-1,44,46,-1,-1,-1,-1,-1,48,50,52,54,56,58,-1,60,-1,-1,-1,-1,-1,-1,-1,-1,-1,-1,-1,-1,-1,-1,-1,-1,-1,-1,-1],"split_conditions":[1E0,1E0,1E0,1E0,1E0,1E0,1E0,1E0,-4.1264384E-3,1E0,1E0,1E0,1E0,1E0,1E0,-7.590572E-3,1E0,1E0,-8.496436E-3,1E0,1E0,1E0,1.1853632E-2,1E0,4.3514196E-2,1E0,-1.6393837E-2,1E0,1E0,-6.5716445E-2,-5.85339E-3,4.2512592E-2,9.218599E-3,-5.2731343E-2,1E0,1E0,1E0,1E0,1E0,1E0,3.0317966E-2,1E0,-5.1324693E-3,5.3041917E-3,3.509651E-2,-5.5335492E-2,7.1039917E-3,-3.246999E-2,1.1386344E-2,-6.487737E-3,-3.769594E-2,-6.1364053E-3,3.5416286E-2,-1.8625634E-2,-7.165577E-2,1.8676525E-2,-2.2214329E-2,-4.74718E-2,1.5877793E-3,5.121222E-2,4.3366957E-3],"split_indices":[125,149,86,126,156,95,123,164,0,26,144,108,1524,169,150,0,135,93,0,118,155,62,0,87,0,69,0,1255,1428,0,0,0,0,0,132,1647,974,142,140,160,0,540,0,0,0,0,0,0,0,0,0,0,0,0,0,0,0,0,0,0,0],"split_type":[0,0,0,0,0,0,0,0,0,0,0,0,0,0,0,0,0,0,0,0,0,0,0,0,0,0,0,0,0,0,0,0,0,0,0,0,0,0,0,0,0,0,0,0,0,0,0,0,0,0,0,0,0,0,0,0,0,0,0,0,0],"sum_hessian":[7.349889E1,3.0176416E1,4.3322475E1,1.0860758E1,1.9315659E1,1.7508066E1,2.581441E1,8.98632E0,1.8744385E0,4.561772E0,1.4753886E1,8.060196E0,9.44787E0,2.0655731E1,5.1586795E0,1.5313836E0,7.454936E0,2.9491992E0,1.6125727E0,7.6670914E0,7.086795E0,6.1639686E0,1.8962275E0,7.4323845E0,2.015486E0,1.913169E1,1.5240414E0,2.5300505E0,2.628629E0,6.272287E0,1.1826494E0,1.4466494E0,1.5025498E0,3.5374234E0,4.129668E0,2.2260053E0,4.8607893E0,4.0062885E0,2.15768E0,5.5723763E0,1.8600084E0,1.7687605E1,1.4440844E0,1.0075202E0,1.5225304E0,1.5823532E0,1.0462759E0,2.2739186E0,1.8557494E0,1.0868443E0,1.1391609E0,1.5487115E0,3.312078E0,1.0966612E0,2.9096272E0,1.040206E0,1.1174741E0,1.7940855E0,3.7782907E0,1.5277509E1,2.4100962E0],"tree_param":{"num_deleted":"0","num_feature":"2215","num_nodes":"61","size_leaf_vector":"1"}},{"base_weights":[-5.977843E-2,-4.187044E-1,2.1331486E-1,-2.1401945E-1,-8.755608E-1,7.53063E-2,7.522111E-1,1.3495211E-1,-5.3913313E-1,-1.0688456E0,1.7479999E-2,-2.0133673E-1,3.8983956E-1,4.7351323E-2,-7.942311E-3,2.7574193E-1,-2.8241087E-2,-7.465027E-1,1.9761355E-1,-5.836433E-2,-1.12758E-2,1.4318915E-1,-9.674907E-1,5.3173727E-1,-2.3484107E-2,-1.1028201E-1,6.6947883E-1,-8.6813784E-1,8.8783335E-3,2.5365597E-2,-1.2618701E-2,3.0338812E-1,-4.9987316E-2,-1.5962312E-2,-1.1969177E0,-8.6470895E-2,7.036799E-1,1.8401315E-2,-2.7216548E-2,4.9821693E-2,-9.393462E-3,-2.3102848E-2,-5.4347225E-2,2.31041E-2,-3.5651717E-2,-1.922454E-2,-6.786988E-2,-2.871249E-2,2.1567637E-2,4.660692E-2,-6.352439E-3],"categories":[],"categories_nodes":[],"categories_segments":[],"categories_sizes":[],"default_left":[0,0,0,0,0,0,0,0,0,0,0,0,0,0,0,0,0,0,0,0,0,0,0,0,0,0,0,0,0,0,0,0,0,0,0,0,0,0,0,0,0,0,0,0,0,0,0,0,0,0,0],"id":31,"left_children":[1,3,5,7,9,11,13,15,17,19,-1,21,23,-1,-1,25,-1,27,29,-1,-1,31,33,35,-1,37,39,41,-1,-1,-1,43,-1,-1,45,47,49,-1,-1,-1,-1,-1,-1,-1,-1,-1,-1,-1,-1,-1,-1],"loss_changes":[7.518951E0,2.9068294E0,3.1940053E0,2.8155024E0,2.7214608E0,3.2029548E0,1.7123227E0,1.3832499E0,2.0901523E0,4.6814156E-1,0E0,5.355457E0,