{"learner":{"attributes":{"scikit_learn":"{\"_estimator_type\": \"classifier\"}"},"feature_names":[],"feature_types":[],"gradient_booster":{"model":{"cats":{"enc":[],"feature_segments":[],"sorted_idx":[]},"gbtree_model_param":{"num_parallel_tree":"1","num_trees":"500"},"iteration_indptr":[0,1,2,3,4,5,6,7,8,9,10,11,12,13,14,15,16,17,18,19,20,21,22,23,24,25,26,27,28,29,30,31,32,33,34,35,36,37,38,39,40,41,42,43,44,45,46,47,48,49,50,51,52,53,54,55,56,57,58,59,60,61,62,63,64,65,66,67,68,69,70,71,72,73,74,75,76,77,78,79,80,81,82,83,84,85,86,87,88,89,90,91,92,93,94,95,96,97,98,99,100,101,102,103,104,105,106,107,108,109,110,111,112,113,114,115,116,117,118,119,120,121,122,123,124,125,126,127,128,129,130,131,132,133,134,135,136,137,138,139,140,141,142,143,144,145,146,147,148,149,150,151,152,153,154,155,156,157,158,159,160,161,162,163,164,165,166,167,168,169,170,171,172,173,174,175,176,177,178,179,180,181,182,183,184,185,186,187,188,189,190,191,192,193,194,195,196,197,198,199,200,201,202,203,204,205,206,207,208,209,210,211,212,213,214,215,216,217,218,219,220,221,222,223,224,225,226,227,228,229,230,231,232,233,234,235,236,237,238,239,240,241,242,243,244,245,246,247,248,249,250,251,252,253,254,255,256,257,258,259,260,261,262,263,264,265,266,267,268,269,270,271,272,273,274,275,276,277,278,279,280,281,282,283,284,285,286,287,288,289,290,291,292,293,294,295,296,297,298,299,300,301,302,303,304,305,306,307,308,309,310,311,312,313,314,315,316,317,318,319,320,321,322,323,324,325,326,327,328,329,330,331,332,333,334,335,336,337,338,339,340,341,342,343,344,345,346,347,348,349,350,351,352,353,354,355,356,357,358,359,360,361,362,363,364,365,366,367,368,369,370,371,372,373,374,375,376,377,378,379,380,381,382,383,384,385,386,387,388,389,390,391,392,393,394,395,396,397,398,399,400,401,402,403,404,405,406,407,408,409,410,411,412,413,414,415,416,417,418,419,420,421,422,423,424,425,426,427,428,429,430,431,432,433,434,435,436,437,438,439,440,441,442,443,444,445,446,447,448,449,450,451,452,453,454,455,456,457,458,459,460,461,462,463,464,465,466,467,468,469,470,471,472,473,474,475,476,477,478,479,480,481,482,483,484,485,486,487,488,489,490,491,492,493,494,495,496,497,498,499,500],"tree_info":[0,0,0,0,0,0,0,0,0,0,0,0,0,0,0,0,0,0,0,0,0,0,0,0,0,0,0,0,0,0,0,0,0,0,0,0,0,0,0,0,0,0,0,0,0,0,0,0,0,0,0,0,0,0,0,0,0,0,0,0,0,0,0,0,0,0,0,0,0,0,0,0,0,0,0,0,0,0,0,0,0,0,0,0,0,0,0,0,0,0,0,0,0,0,0,0,0,0,0,0,0,0,0,0,0,0,0,0,0,0,0,0,0,0,0,0,0,0,0,0,0,0,0,0,0,0,0,0,0,0,0,0,0,0,0,0,0,0,0,0,0,0,0,0,0,0,0,0,0,0,0,0,0,0,0,0,0,0,0,0,0,0,0,0,0,0,0,0,0,0,0,0,0,0,0,0,0,0,0,0,0,0,0,0,0,0,0,0,0,0,0,0,0,0,0,0,0,0,0,0,0,0,0,0,0,0,0,0,0,0,0,0,0,0,0,0,0,0,0,0,0,0,0,0,0,0,0,0,0,0,0,0,0,0,0,0,0,0,0,0,0,0,0,0,0,0,0,0,0,0,0,0,0,0,0,0,0,0,0,0,0,0,0,0,0,0,0,0,0,0,0,0,0,0,0,0,0,0,0,0,0,0,0,0,0,0,0,0,0,0,0,0,0,0,0,0,0,0,0,0,0,0,0,0,0,0,0,0,0,0,0,0,0,0,0,0,0,0,0,0,0,0,0,0,0,0,0,0,0,0,0,0,0,0,0,0,0,0,0,0,0,0,0,0,0,0,0,0,0,0,0,0,0,0,0,0,0,0,0,0,0,0,0,0,0,0,0,0,0,0,0,0,0,0,0,0,0,0,0,0,0,0,0,0,0,0,0,0,0,0,0,0,0,0,0,0,0,0,0,0,0,0,0,0,0,0,0,0,0,0,0,0,0,0,0,0,0,0,0,0,0,0,0,0,0,0,0,0,0,0,0,0,0,0,0,0,0,0,0,0,0,0,0,0,0,0,0,0,0,0,0,0,0,0,0,0,0,0,0,0,0,0,0,0,0,0,0,0,0,0,0,0,0,0,0,0,0,0,0,0,0,0,0,0,0,0,0,0,0,0,0,0,0,0,0,0,0,0,0,0],"trees":[{"base_weights":[-1.1769996E-2,-1.3847687E0,5.410784E-1,-1.6438662E0,1.0995002E0,-2.9610325E-2,1.626876E0,-1.9058886E0,-5.8457214E-1,-4.890873E-3,7.389433E-2,-1.0382887E0,4.5719203E-1,1.6785138E0,-4.890873E-3,-9.809691E-2,-2.8829489E-2,-9.089651E-1,5.534739E-2,-1.6110414E0,1.090637E0,-1.4825364E0,6.792257E-1,4.6641028E-1,1.7496802E0,-1.1529864E0,2.8928606E-2,-1.8627217E0,-1.3059615E-1,-1.4317745E-2,7.699027E-2,-1.4317745E-2,-8.9804925E-2,7.945797E-2,1.2398105E0,-2.4970293E-2,5.8715906E-2,5.5024487E-1,9.046679E-2,-1.4317745E-2,-6.5087885E-2,-9.870871E-2,-2.8829489E-2,4.4784006E-2,-5.5657413E-2,-4.119134E-2,4.5582376E-2,7.46296E-2,-6.8033854E-3,-1.5679209E-2,5.534739E-2],"categories":[],"categories_nodes":[],"categories_segments":[],"categories_sizes":[],"default_left":[0,0,0,0,0,0,0,0,0,0,0,0,0,0,0,0,0,0,0,0,0,0,0,0,0,0,0,0,0,0,0,0,0,0,0,0,0,0,0,0,0,0,0,0,0,0,0,0,0,0,0],"id":0,"left_children":[1,3,5,7,9,11,13,15,17,-1,-1,19,21,23,-1,-1,-1,25,-1,27,29,31,33,35,37,39,-1,41,43,-1,-1,-1,-1,45,47,-1,-1,49,-1,-1,-1,-1,-1,-1,-1,-1,-1,-1,-1,-1,-1],"loss_changes":[1.6419597E2,4.1775703E1,9.5619125E1,1.4604248E1,3.0729537E0,5.0598366E1,4.8980255E0,2.2184753E0,7.9598174E0,0E0,0E0,4.26468E1,3.0959024E1,3.640503E0,0E0,0E0,0E0,4.726206E0,0E0,9.753044E0,5.206794E0,2.2826862E0,2.111297E1,3.4775755E0,2.470108E0,9.0888405E-1,0E0,2.1378098E0,6.0122848E0,0E0,0E0,0E0,0E0,2.4465267E1,1.1520634E1,0E0,0E0,2.1417634E0,0E0,0E0,0E0,0E0,0E0,0E0,0E0,0E0,0E0,0E0,0E0,0E0,0E0],"parents":[2147483647,0,0,1,1,2,2,3,3,4,4,5,5,6,6,7,7,8,8,11,11,12,12,13,13,17,17,19,19,20,20,21,21,22,22,23,23,24,24,25,25,27,27,28,28,33,33,34,34,37,37],"right_children":[2,4,6,8,10,12,14,16,18,-1,-1,20,22,24,-1,-1,-1,26,-1,28,30,32,34,36,38,40,-1,42,44,-1,-1,-1,-1,46,48,-1,-1,50,-1,-1,-1,-1,-1,-1,-1,-1,-1,-1,-1,-1,-1],"split_conditions":[1E0,1E0,1E0,1E0,1E0,1E0,1E0,1E0,1E0,-4.890873E-3,7.389433E-2,1E0,1E0,1E0,-4.890873E-3,-9.809691E-2,-2.8829489E-2,1E0,5.534739E-2,1E0,1E0,1E0,1E0,1E0,1E0,1E0,2.8928606E-2,1E0,1E0,-1.4317745E-2,7.699027E-2,-1.4317745E-2,-8.9804925E-2,1E0,1E0,-2.4970293E-2,5.8715906E-2,1E0,9.046679E-2,-1.4317745E-2,-6.5087885E-2,-9.870871E-2,-2.8829489E-2,4.4784006E-2,-5.5657413E-2,-4.119134E-2,4.5582376E-2,7.46296E-2,-6.8033854E-3,-1.5679209E-2,5.534739E-2],"split_indices":[125,1137,1410,50,75,85,88,1484,106,0,0,1327,1917,158,0,0,0,1731,0,116,862,133,133,149,144,146,0,394,139,0,0,0,0,113,90,0,0,72,0,0,0,0,0,0,0,0,0,0,0,0,0],"split_type":[0,0,0,0,0,0,0,0,0,0,0,0,0,0,0,0,0,0,0,0,0,0,0,0,0,0,0,0,0,0,0,0,0,0,0,0,0,0,0,0,0,0,0,0,0,0,0,0,0,0,0],"sum_hessian":[2.1432774E2,6.109458E1,1.5323315E2,5.563084E1,5.463743E0,1.0107925E2,5.215391E1,4.3958298E1,1.1672543E1,1.4901118E0,3.9736314E0,3.2534107E1,6.854514E1,5.06638E1,1.4901118E0,4.172313E1,2.2351677E0,1.018243E1,1.4901118E0,2.5828604E1,6.705503E0,6.457151E0,6.208799E1,3.2285755E0,4.7435226E1,8.940671E0,1.2417598E0,2.1854973E1,3.9736314E0,1.7384638E0,4.967039E0,1.7384638E0,4.718687E0,3.054729E1,3.1540699E1,1.4901118E0,1.7384638E0,2.7318716E0,4.4703354E1,1.7384638E0,7.202207E0,1.9619804E1,2.2351677E0,1.9868157E0,1.9868157E0,1.4652765E1,1.5894526E1,2.657366E1,4.967039E0,1.2417598E0,1.4901118E0],"tree_param":{"num_deleted":"0","num_feature":"2215","num_nodes":"51","size_leaf_vector":"1"}},{"base_weights":[-1.4629049E-2,-5.0203186E-1,1.4463215E0,-7.2557974E-1,1.3670728E0,-6.1977517E-2,1.5456791E0,-1.261025E0,-6.312089E-2,-2.3002647E-2,1.5629451E0,6.174346E-1,1.677539E0,-1.4395852E0,8.5030043E-1,-1.2675859E0,4.9798763E-1,8.328677E-2,2.2223888E-2,-3.859291E-2,1.1886955E0,8.583909E-2,7.6984644E-1,-1.4948306E0,5.1129516E-2,7.347598E-2,-4.1949283E-2,-1.5223491E0,3.2054495E-2,-2.758513E-1,1.0703574E0,7.1554855E-2,6.1033615E-3,5.2947875E-2,5.257239E-3,-7.681689E-2,1.5511666E-2,-8.784252E-2,-2.8071597E-2,-4.0173274E-2,2.2743555E-2,6.11582E-2,-4.544313E-2],"categories":[],"categories_nodes":[],"categories_segments":[],"categories_sizes":[],"default_left":[0,0,0,0,0,0,0,0,0,0,0,0,0,0,0,0,0,0,0,0,0,0,0,0,0,0,0,0,0,0,0,0,0,0,0,0,0,0,0,0,0,0,0],"id":1,"left_children":[1,3,5,7,9,-1,11,13,15,-1,17,19,21,23,25,27,29,-1,-1,-1,31,-1,33,35,-1,-1,-1,37,-1,39,41,-1,-1,-1,-1,-1,-1,-1,-1,-1,-1,-1,-1],"loss_changes":[1.55068E2,6.921187E1,1.6454659E1,5.1879158E1,7.0850983E0,0E0,5.449112E0,3.1743698E1,4.5593258E1,0E0,1.1328125E0,7.4036136E0,3.100891E-1,1.1732132E1,8.493771E0,1.13941E1,2.0715305E1,0E0,0E0,0E0,1.4244375E0,0E0,6.018889E-1,6.0039215E0,0E0,0E0,0E0,3.339737E0,0E0,8.22924E0,9.188656E0,0E0,0E0,0E0,0E0,0E0,0E0,0E0,0E0,0E0,0E0,0E0,0E0],"parents":[2147483647,0,0,1,1,2,2,3,3,4,4,6,6,7,7,8,8,10,10,11,11,12,12,13,13,14,14,15,15,16,16,20,20,22,22,23,23,27,27,29,29,30,30],"right_children":[2,4,6,8,10,-1,12,14,16,-1,18,20,22,24,26,28,30,-1,-1,-1,32,-1,34,36,-1,-1,-1,38,-1,40,42,-1,-1,-1,-1,-1,-1,-1,-1,-1,-1,-1,-1],"split_conditions":[1E0,1E0,1E0,1E0,1E0,-6.1977517E-2,1E0,1E0,1E0,-2.3002647E-2,1E0,1E0,1E0,1E0,1E0,1E0,1E0,8.328677E-2,2.2223888E-2,-3.859291E-2,1E0,8.583909E-2,1E0,1E0,5.1129516E-2,7.347598E-2,-4.1949283E-2,1E0,3.2054495E-2,1E0,1E0,7.1554855E-2,6.1033615E-3,5.2947875E-2,5.257239E-3,-7.681689E-2,1.5511666E-2,-8.784252E-2,-2.8071597E-2,-4.0173274E-2,2.2743555E-2,6.11582E-2,-4.544313E-2],"split_indices":[1410,1045,145,75,120,0,138,1970,1255,0,112,149,130,1935,398,1864,113,0,0,0,91,0,62,1644,0,0,0,107,0,80,54,0,0,0,0,0,0,0,0,0,0,0,0],"split_type":[0,0,0,0,0,0,0,0,0,0,0,0,0,0,0,0,0,0,0,0,0,0,0,0,0,0,0,0,0,0,0,0,0,0,0,0,0,0,0,0,0,0,0],"sum_hessian":[2.157506E2,1.622703E2,5.348031E1,1.454822E2,1.6788097E1,1.498434E0,5.1981873E1,7.9954155E1,6.552804E1,1.494882E0,1.5293216E1,7.1725187E0,4.4809353E1,7.4012856E1,5.9412985E0,2.0425014E1,4.5103027E1,1.3557906E1,1.7353095E0,1.9875928E0,5.1849256E0,4.2097935E1,2.7114196E0,7.277289E1,1.23997E0,4.44284E0,1.4984585E0,1.8198366E1,2.226648E0,1.939679E1,2.5706236E1,3.946373E0,1.2385527E0,1.4762115E0,1.235208E0,7.128262E1,1.4902586E0,1.3962636E1,4.235731E0,1.1206006E1,8.190784E0,2.421844E1,1.4877975E0],"tree_param":{"num_deleted":"0","num_feature":"2215","num_nodes":"43","size_leaf_vector":"1"}},{"base_weights":[2.6208272E-2,-1.2513535E0,5.3100246E-1,-1.493447E0,6.409385E-2,-6.036483E-1,9.637782E-1,-1.7567528E0,-5.219204E-1,-8.846763E-1,7.177839E-2,-7.921458E-2,1.1218555E0,-1.8118979E0,-2.5350196E-2,-9.960689E-1,2.3935753E-1,-1.1792659E0,5.8283085E-1,7.3440164E-1,1.5986964E0,-1.8934222E0,-1.045839E0,-7.34533E-2,-1.760998E-1,-2.960959E-2,7.23163E-1,-1.4027935E0,1.9619785E-1,6.2346548E-2,-4.6800625E-2,-9.7373736E-1,8.880954E-1,6.990145E-1,1.6536969E0,-9.7173445E-2,-4.3302443E-2,-7.69384E-2,4.5471163E-5,-3.507408E-2,3.0224843E-2,6.3496246E-3,5.451254E-2,-7.566264E-2,1.7153066E-2,-3.7243422E-2,4.779217E-2,-6.588974E-2,-1.696096E-3,5.1071163E-2,-3.435412E-2,-1.6440583E-2,5.9959818E-2,8.374127E-2,2.530182E-2],"categories":[],"categories_nodes":[],"categories_segments":[],"categories_sizes":[],"default_left":[0,0,0,0,0,0,0,0,0,0,0,0,0,0,0,0,0,0,0,0,0,0,0,0,0,0,0,0,0,0,0,0,0,0,0,0,0,0,0,0,0,0,0,0,0,0,0,0,0,0,0,0,0,0,0],"id":2,"left_children":[1,3,5,7,-1,9,11,13,15,17,-1,-1,19,21,-1,23,25,27,29,31,33,35,37,-1,39,-1,41,43,45,-1,-1,47,49,51,53,-1,-1,-1,-1,-1,-1,-1,-1,-1,-1,-1,-1,-1,-1,-1,-1,-1,-1,-1,-1],"loss_changes":[1.3963156E2,3.9524834E1,7.677175E1,1.3520721E1,0E0,2.6172943E1,4.717312E1,2.1124878E0,5.095946E0,1.7465458E1,0E0,0E0,1.8540009E1,6.2620544E-1,0E0,3.0326195E0,2.8304636E0,1.0314423E1,8.386743E0,1.6805573E1,1.1689911E0,1.928711E-1,3.2252636E0,0E0,2.163184E0,0E0,7.8618526E-1,5.9594727E0,4.6022716E0,0E0,0E0,1.7303004E0,1.2511044E1,2.6764295E0,2.0840454E-1,0E0,0E0,0E0,0E0,0E0,0E0,0E0,0E0,0E0,0E0,0E0,0E0,0E0,0E0,0E0,0E0,0E0,0E0,0E0,0E0],"parents":[2147483647,0,0,1,1,2,2,3,3,5,5,6,6,7,7,8,8,9,9,12,12,13,13,15,15,16,16,17,17,18,18,19,19,20,20,21,21,22,22,24,24,26,26,27,27,28,28,31,31,32,32,33,33,34,34],"right_children":[2,4,6,8,-1,10,12,14,16,18,-1,-1,20,22,-1,24,26,28,30,32,34,36,38,-1,40,-1,42,44,46,-1,-1,48,50,52,54,-1,-1,-1,-1,-1,-1,-1,-1,-1,-1,-1,-1,-1,-1,-1,-1,-1,-1,-1,-1],"split_conditions":[1E0,1E0,1E0,1E0,6.409385E-2,1E0,1E0,1E0,1E0,1E0,7.177839E-2,-7.921458E-2,1E0,1E0,-2.5350196E-2,1E0,1E0,1E0,1E0,1E0,1E0,1E0,1E0,-7.34533E-2,1E0,-2.960959E-2,1E0,1E0,1E0,6.2346548E-2,-4.6800625E-2,1E0,1E0,1E0,1E0,-9.7173445E-2,-4.3302443E-2,-7.69384E-2,4.5471163E-5,-3.507408E-2,3.0224843E-2,6.3496246E-3,5.451254E-2,-7.566264E-2,1.7153066E-2,-3.7243422E-2,4.779217E-2,-6.588974E-2,-1.696096E-3,5.1071163E-2,-3.435412E-2,-1.6440583E-2,5.9959818E-2,8.374127E-2,2.530182E-2],"split_indices":[125,1623,138,50,0,1385,1917,1484,126,1970,0,0,1410,103,0,696,481,1410,398,137,144,1597,139,0,141,0,1293,283,149,0,0,128,54,113,374,0,0,0,0,0,0,0,0,0,0,0,0,0,0,0,0,0,0,0,0],"split_type":[0,0,0,0,0,0,0,0,0,0,0,0,0,0,0,0,0,0,0,0,0,0,0,0,0,0,0,0,0,0,0,0,0,0,0,0,0,0,0,0,0,0,0,0,0,0,0,0,0,0,0,0,0,0,0],"sum_hessian":[2.1448431E2,6.0326824E1,1.5415749E2,5.543913E1,4.887697E0,4.245478E1,1.1170271E2,4.2981834E1,1.2457295E1,3.781025E1,4.6445293E0,5.997994E0,1.0570472E2,4.073461E1,2.2472205E0,7.4862194E0,4.971076E0,3.1652662E1,6.1575875E0,5.9719864E1,4.598485E1,3.5486485E1,5.2481294E0,4.2455645E0,3.2406552E0,1.7460289E0,3.2250473E0,2.7210754E1,4.441909E0,4.408874E0,1.7487133E0,4.489408E0,5.5230457E1,3.439058E0,4.2545795E1,3.2987854E1,2.498628E0,3.2483764E0,1.999753E0,1.9975517E0,1.2431035E0,1.7419584E0,1.4830891E0,2.571689E1,1.4938633E0,1.9927266E0,2.4491825E0,2.9919128E0,1.4974953E0,5.124452E1,3.985939E0,1.2379024E0,2.2011557E0,4.1325645E1,1.2201478E0],"tree_param":{"num_deleted":"0","num_feature":"2215","num_nodes":"55","size_leaf_vector":"1"}},{"base_weights":[-1.752412E-3,-1.2048553E0,4.9622586E-1,-1.4506792E0,1.0832325E0,1.7235654E-3,1.4753704E0,-1.5994322E0,-3.005791E-1,-9.624305E-3,7.00862E-2,-7.935581E-1,4.889051E-1,1.5260798E0,-8.674821E-3,-1.6441981E0,-2.6146253E-3,-6.856122E-1,5.0017186E-2,-1.1938936E0,1.0177622E0,-1.3452073E0,6.788109E-1,1.5594771E0,4.8474167E-3,-1.6899251E0,-4.038496E-3,-8.660735E-1,-1.5700869E-3,-1.3447545E0,3.1818874E-2,6.424938E-2,-3.6362342E-3,-1.1768746E-2,-7.8230746E-2,1.6086109E-1,1.228629E0,1.5941995E0,1.25545515E-2,-8.699869E-2,-1.6971702E-2,-1.7835993E-2,-5.3475063E-2,-7.503239E-2,-4.0412704E-3,-4.6479832E-2,3.194359E-2,6.945848E-2,4.6366765E-3,8.0533795E-2,2.6329E-2],"categories":[],"categories_nodes":[],"categories_segments":[],"categories_sizes":[],"default_left":[0,0,0,0,0,0,0,0,0,0,0,0,0,0,0,0,0,0,0,0,0,0,0,0,0,0,0,0,0,0,0,0,0,0,0,0,0,0,0,0,0,0,0,0,0,0,0,0,0,0,0],"id":3,"left_children":[1,3,5,7,9,11,13,15,17,-1,-1,19,21,23,-1,25,-1,27,-1,29,31,33,35,37,-1,39,-1,41,-1,43,-1,-1,-1,-1,-1,45,47,49,-1,-1,-1,-1,-1,-1,-1,-1,-1,-1,-1,-1,-1],"loss_changes":[1.3236943E2,3.7950684E1,7.5658844E1,9.584091E0,3.0518513E0,4.1003494E1,4.6490555E0,3.50589E0,4.6775637E0,0E0,0E0,3.0368097E1,2.3770962E1,2.2817078E0,0E0,3.4645538E0,0E0,7.688203E-1,0E0,1.0074295E1,2.3714046E0,1.2127447E0,1.6926777E1,1.8595505E0,0E0,2.7138062E0,0E0,1.6217494E-1,0E0,6.019459E0,0E0,0E0,0E0,0E0,0E0,1.7333454E1,5.162861E0,9.3078613E-4,0E0,0E0,0E0,0E0,0E0,0E0,0E0,0E0,0E0,0E0,0E0,0E0,0E0],"parents":[2147483647,0,0,1,1,2,2,3,3,4,4,5,5,6,6,7,7,8,8,11,11,12,12,13,13,15,15,17,17,19,19,20,20,21,21,22,22,23,23,25,25,27,27,29,29,35,35,36,36,37,37],"right_children":[2,4,6,8,10,12,14,16,18,-1,-1,20,22,24,-1,26,-1,28,-1,30,32,34,36,38,-1,40,-1,42,-1,44,-1,-1,-1,-1,-1,46,48,50,-1,-1,-1,-1,-1,-1,-1,-1,-1,-1,-1,-1,-1],"split_conditions":[1E0,1E0,1E0,1E0,1E0,1E0,1E0,1E0,1E0,-9.624305E-3,7.00862E-2,1E0,1E0,1E0,-8.674821E-3,1E0,-2.6146253E-3,1E0,5.0017186E-2,1E0,1E0,1E0,1E0,1E0,4.8474167E-3,1E0,-4.038496E-3,1E0,-1.5700869E-3,1E0,3.1818874E-2,6.424938E-2,-3.6362342E-3,-1.1768746E-2,-7.8230746E-2,1E0,1E0,1E0,1.25545515E-2,-8.699869E-2,-1.6971702E-2,-1.7835993E-2,-5.3475063E-2,-7.503239E-2,-4.0412704E-3,-4.6479832E-2,3.194359E-2,6.945848E-2,4.6366765E-3,8.0533795E-2,2.6329E-2],"split_indices":[125,758,1410,251,1137,86,1674,202,142,0,0,1970,1917,2171,0,1045,0,126,0,753,91,62,62,88,0,369,0,846,0,66,0,0,0,0,0,101,57,1770,0,0,0,0,0,0,0,0,0,0,0,0,0],"split_type":[0,0,0,0,0,0,0,0,0,0,0,0,0,0,0,0,0,0,0,0,0,0,0,0,0,0,0,0,0,0,0,0,0,0,0,0,0,0,0,0,0,0,0,0,0,0,0,0,0,0,0],"sum_hessian":[2.1894215E2,6.3678066E1,1.552641E2,5.783091E1,5.8471575E0,1.0382871E2,5.143538E1,5.0861794E1,6.9691133E0,1.2471855E0,4.599972E0,3.9203506E1,6.4625206E1,4.9972973E1,1.4624035E0,4.937055E1,1.4912478E0,5.7424927E0,1.226621E0,3.2386387E1,6.8171225E0,5.4927363E0,5.913247E1,4.87427E1,1.2302756E0,4.788898E1,1.481566E0,4.247102E0,1.4953907E0,3.016527E1,2.2211144E0,5.332118E0,1.4850043E0,1.2487812E0,4.2439556E0,3.1114235E1,2.8018236E1,4.7269787E1,1.4729105E0,4.589956E1,1.9894223E0,1.9979845E0,2.2491171E0,2.6686466E1,3.4788039E0,9.194544E0,2.1919691E1,2.4353315E1,3.6649203E0,4.605044E1,1.2193481E0],"tree_param":{"num_deleted":"0","num_feature":"2215","num_nodes":"51","size_leaf_vector":"1"}},{"base_weights":[-7.887831E-3,-1.1502881E0,4.581034E-1,-1.3457202E0,6.5886624E-2,-8.527262E-3,1.4167247E0,-1.5743712E0,-4.7228596E-1,-3.71939E-1,1.1581087E0,1.4857105E0,4.6743467E-2,-1.6246381E0,-5.7714915E-1,-1.0043458E0,3.091448E-1,-7.062229E-1,1.1746876E0,-2.881363E-1,1.4246044E0,3.7003946E-1,1.5379012E0,-3.978453E-2,4.4238053E-2,-1.6616882E0,-2.393988E-2,-5.4816227E-2,1.2768661E-2,-6.215427E-2,9.481112E-3,-3.310875E-2,9.274251E-1,-1.2850811E0,-2.3527282E-1,-3.241646E-2,1.3955036E0,-5.8278866E-2,4.9578417E-2,7.9554066E-2,3.6918044E-1,4.771938E-3,2.3966393E-2,7.779051E-2,2.4366671E-2,-8.510847E-2,-2.8891379E-2,5.8949735E-2,9.122442E-3,-7.0757866E-2,-3.8822283E-4,-5.1775392E-2,1.5451229E-2,9.687289E-3,7.634538E-2,-4.0421776E-2,5.681731E-2],"categories":[],"categories_nodes":[],"categories_segments":[],"categories_sizes":[],"default_left":[0,0,0,0,0,0,0,0,0,0,0,0,0,0,0,0,0,0,0,0,0,0,0,0,0,0,0,0,0,0,0,0,0,0,0,0,0,0,0,0,0,0,0,0,0,0,0,0,0,0,0,0,0,0,0,0,0],"id":4,"left_children":[1,3,5,7,-1,9,11,13,15,17,19,21,23,25,27,29,31,33,35,37,39,41,43,-1,-1,45,-1,-1,-1,-1,-1,-1,47,49,51,-1,53,-1,-1,-1,55,-1,-1,-1,-1,-1,-1,-1,-1,-1,-1,-1,-1,-1,-1,-1,-1],"loss_changes":[1.1377439E2,3.1638504E1,6.792151E1,1.0813751E1,0E0,4.4143356E1,4.628601E0,1.3398895E0,5.8962884E0,4.1865604E1,9.942577E0,2.1847534E0,3.1153514E0,1.0173035E0,1.8927424E0,2.5811262E0,4.3415713E0,1.7660076E1,6.7343826E0,6.410697E0,3.1115036E0,5.7201892E-2,8.590698E-2,0E0,0E0,8.1365204E-1,0E0,0E0,0E0,0E0,0E0,0E0,5.737512E-1,4.862873E0,1.667781E1,0E0,1.7940769E0,0E0,0E0,0E0,4.686253E0,0E0,0E0,0E0,0E0,0E0,0E0,0E0,0E0,0E0,0E0,0E0,0E0,0E0,0E0,0E0,0E0],"parents":[2147483647,0,0,1,1,2,2,3,3,5,5,6,6,7,7,8,8,9,9,10,10,11,11,12,12,13,13,14,14,15,15,16,16,17,17,18,18,19,19,20,20,21,21,22,22,25,25,32,32,33,33,34,34,36,36,40,40],"right_children":[2,4,6,8,-1,10,12,14,16,18,20,22,24,26,28,30,32,34,36,38,40,42,44,-1,-1,46,-1,-1,-1,-1,-1,-1,48,50,52,-1,54,-1,-1,-1,56,-1,-1,-1,-1,-1,-1,-1,-1,-1,-1,-1,-1,-1,-1,-1,-1],"split_conditions":[1E0,1E0,1E0,1E0,6.5886624E-2,1E0,1E0,1E0,1E0,1E0,1E0,1E0,1E0,1E0,1E0,1E0,1E0,1E0,1E0,1E0,1E0,1E0,1E0,-3.978453E-2,4.4238053E-2,1E0,-2.393988E-2,-5.4816227E-2,1.2768661E-2,-6.215427E-2,9.481112E-3,-3.310875E-2,1E0,1E0,1E0,-3.241646E-2,1E0,-5.8278866E-2,4.9578417E-2,7.9554066E-2,1E0,4.771938E-3,2.3966393E-2,7.779051E-2,2.4366671E-2,-8.510847E-2,-2.8891379E-2,5.8949735E-2,9.122442E-3,-7.0757866E-2,-3.8822283E-4,-5.1775392E-2,1.5451229E-2,9.687289E-3,7.634538E-2,-4.0421776E-2,5.681731E-2],"split_indices":[125,625,1410,50,0,1958,130,906,126,1063,152,158,92,2033,140,162,481,1366,120,62,90,271,1674,0,0,486,0,0,0,0,0,0,846,2147,101,0,150,0,0,0,1321,0,0,0,0,0,0,0,0,0,0,0,0,0,0,0,0],"split_type":[0,0,0,0,0,0,0,0,0,0,0,0,0,0,0,0,0,0,0,0,0,0,0,0,0,0,0,0,0,0,0,0,0,0,0,0,0,0,0,0,0,0,0,0,0,0,0,0,0,0,0,0,0,0,0,0,0],"sum_hessian":[2.1173178E2,6.091854E1,1.5081325E2,5.6869984E1,4.048557E0,1.0210327E2,4.8709976E1,4.4435085E1,1.2434898E1,7.837144E1,2.373183E1,4.629434E1,2.415641E0,4.1703762E1,2.7313204E0,7.2281423E0,5.206756E0,6.4889725E1,1.3481719E1,3.6799443E0,2.0051886E1,2.4303913E0,4.3863945E1,1.2298341E0,1.185807E0,3.996144E1,1.7423218E0,1.4870803E0,1.24424E0,5.9893966E0,1.2387459E0,1.9975718E0,3.2091844E0,2.8334398E1,3.6555325E1,1.2473955E0,1.22343235E1,2.235996E0,1.4439483E0,1.6881552E1,3.1703339E0,1.2251995E0,1.2051919E0,4.2655865E1,1.2080791E0,3.7972733E1,1.9887106E0,1.9635303E0,1.2456541E0,2.5617695E1,2.7167034E0,1.443309E1,2.2122232E1,1.4497762E0,1.0784547E1,1.2293934E0,1.9409404E0],"tree_param":{"num_deleted":"0","num_feature":"2215","num_nodes":"57","size_leaf_vector":"1"}},{"base_weights":[-4.5633228E-3,-1.0984217E0,4.6424273E-1,-1.298463E0,6.548136E-2,4.3034635E-2,1.3543348E0,-1.5227036E0,-4.6086335E-1,-7.0462453E-1,5.137453E-1,1.4036554E0,1.1626482E-4,-1.5761545E0,1.2341584E-2,-6.6459954E-1,4.7011685E-2,-1.0929346E0,1.0880419E0,-1.1962552E0,6.7728335E-1,2.9963914E-1,1.470492E0,-1.6081973E0,-2.8983047E-2,-8.4293336E-1,2.8394213E-2,-1.3762004E0,-1.5163153E-1,6.0967017E-2,1.5809393E-2,-7.155274E-2,-8.531018E-3,1.6620731E-1,1.2419732E0,-2.3461524E-2,4.8303917E-2,1.5110521E0,2.2698823E-2,-8.213256E-2,-3.3383258E-2,-4.9012776E-2,8.756052E-3,-7.557223E-2,-1.2492832E-2,3.157099E-2,-5.3583343E-2,-3.5926703E-2,2.901843E-2,7.049679E-2,8.158135E-3,7.659038E-2,2.151537E-2],"categories":[],"categories_nodes":[],"categories_segments":[],"categories_sizes":[],"default_left":[0,0,0,0,0,0,0,0,0,0,0,0,0,0,0,0,0,0,0,0,0,0,0,0,0,0,0,0,0,0,0,0,0,0,0,0,0,0,0,0,0,0,0,0,0,0,0,0,0,0,0,0,0],"id":5,"left_children":[1,3,5,7,-1,9,11,13,15,17,19,21,-1,23,-1,25,-1,27,29,31,33,35,37,39,-1,41,-1,43,45,-1,-1,-1,-1,47,49,-1,-1,51,-1,-1,-1,-1,-1,-1,-1,-1,-1,-1,-1,-1,-1,-1,-1],"loss_changes":[1.1054389E2,3.285241E1,5.6517067E1,1.0607391E1,0E0,3.6773888E1,3.2267456E0,4.840317E0,4.663928E0,2.9307905E1,1.8727116E1,3.0077133E0,0E0,5.307617E-1,0E0,3.3226247E0,0E0,8.777332E0,3.9409828E-1,1.189662E0,1.6854149E1,2.4637759E0,1.1202698E0,3.2346344E-1,0E0,1.8081884E0,0E0,3.5496902E0,7.1025944E0,0E0,0E0,0E0,0E0,1.221046E1,4.830845E0,0E0,0E0,2.762146E-1,0E0,0E0,0E0,0E0,0E0,0E0,0E0,0E0,0E0,0E0,0E0,0E0,0E0,0E0,0E0],"parents":[2147483647,0,0,1,1,2,2,3,3,5,5,6,6,7,7,8,8,9,9,10,10,11,11,13,13,15,15,17,17,18,18,19,19,20,20,21,21,22,22,23,23,25,25,27,27,28,28,33,33,34,34,37,37],"right_children":[2,4,6,8,-1,10,12,14,16,18,20,22,-1,24,-1,26,-1,28,30,32,34,36,38,40,-1,42,-1,44,46,-1,-1,-1,-1,48,50,-1,-1,52,-1,-1,-1,-1,-1,-1,-1,-1,-1,-1,-1,-1,-1,-1,-1],"split_conditions":[1E0,1E0,1E0,1E0,6.548136E-2,1E0,1E0,1E0,1E0,1E0,1E0,1E0,1.1626482E-4,1E0,1.2341584E-2,1E0,4.7011685E-2,1E0,1E0,1E0,1E0,1E0,1E0,1E0,-2.8983047E-2,1E0,2.8394213E-2,1E0,1E0,6.0967017E-2,1.5809393E-2,-7.155274E-2,-8.531018E-3,1E0,1E0,-2.3461524E-2,4.8303917E-2,1E0,2.2698823E-2,-8.213256E-2,-3.3383258E-2,-4.9012776E-2,8.756052E-3,-7.557223E-2,-1.2492832E-2,3.157099E-2,-5.3583343E-2,-3.5926703E-2,2.901843E-2,7.049679E-2,8.158135E-3,7.659038E-2,2.151537E-2],"split_indices":[125,625,1410,50,0,86,88,284,106,1970,1917,158,0,1484,0,1731,0,138,1093,1412,62,149,123,2033,0,1085,0,141,72,0,0,0,0,101,823,0,0,500,0,0,0,0,0,0,0,0,0,0,0,0,0,0,0],"split_type":[0,0,0,0,0,0,0,0,0,0,0,0,0,0,0,0,0,0,0,0,0,0,0,0,0,0,0,0,0,0,0,0,0,0,0,0,0,0,0,0,0,0,0,0,0,0,0,0,0,0,0,0,0],"sum_hessian":[2.1357172E2,6.3669525E1,1.499022E2,5.921149E1,4.458032E0,1.02463104E2,4.743909E1,4.606194E1,1.3149554E1,3.9394085E1,6.3069023E1,4.573259E1,1.7065006E0,4.481746E1,1.2444799E0,1.1939122E1,1.2104325E0,3.270103E1,6.693052E0,4.953978E0,5.8115044E1,2.9235816E0,4.280901E1,4.2826492E1,1.9909669E0,1.0706079E1,1.2330428E0,2.4781527E1,7.9195056E0,5.2245584E0,1.4684931E0,3.709477E0,1.2445009E0,3.1185106E1,2.692994E1,1.4948686E0,1.428713E0,4.069859E1,2.110422E0,4.059296E1,2.233529E0,9.466325E0,1.2397542E0,2.1819656E1,2.9618695E0,4.447713E0,3.4717925E0,9.7091875E0,2.1475918E1,2.3036411E1,3.893528E0,3.9522205E1,1.1763823E0],"tree_param":{"num_deleted":"0","num_feature":"2215","num_nodes":"53","size_leaf_vector":"1"}},{"base_weights":[-1.1035874E-2,-1.1093761E0,4.2566463E-1,-1.3183596E0,8.5390943E-1,4.5536333E-3,1.3201925E0,-1.515617E0,-4.7573605E-1,-1.5292796E-2,6.318306E-2,-6.3622564E-1,5.6142616E-1,1.3707949E0,2.0989059E-3,-1.5883635E0,-6.5800434E-1,-7.658816E-1,3.9291922E-2,-7.94108E-1,6.406831E-2,-9.3085134E-1,7.7223694E-1,1.4059513E0,4.8208443E-4,-1.6292803E0,-2.6575238E-2,5.6914636E-3,-5.861491E-2,-9.221856E-1,1.0242882E-2,-9.960363E-1,1.6886073E-1,-1.2136248E0,1.3069927E-2,9.455432E-1,-1.0114812E0,1.4595717E0,3.768145E-1,-8.267793E-2,-2.4537962E-2,-6.793576E-2,-1.2349679E-2,-5.828462E-2,1.463762E-3,4.308309E-2,-3.4852732E-2,-7.1079135E-2,-1.678294E-2,5.353398E-2,-5.2027345E-2,-6.973902E-2,5.168648E-3,7.395446E-2,2.535739E-2,-1.8221973E-2,4.5473516E-2],"categories":[],"categories_nodes":[],"categories_segments":[],"categories_sizes":[],"default_left":[0,0,0,0,0,0,0,0,0,0,0,0,0,0,0,0,0,0,0,0,0,0,0,0,0,0,0,0,0,0,0,0,0,0,0,0,0,0,0,0,0,0,0,0,0,0,0,0,0,0,0,0,0,0,0,0,0],"id":6,"left_children":[1,3,5,7,9,11,13,15,17,-1,-1,19,21,23,-1,25,27,29,-1,31,-1,33,35,37,-1,39,-1,-1,-1,41,-1,43,45,47,-1,49,51,53,55,-1,-1,-1,-1,-1,-1,-1,-1,-1,-1,-1,-1,-1,-1,-1,-1,-1,-1],"loss_changes":[1.01925385E2,2.5928574E1,5.727642E1,8.425484E0,3.4386349E0,3.7608974E1,3.090454E0,1.7082214E0,4.956275E0,0E0,0E0,1.5855417E1,1.845722E1,2.2252502E0,0E0,8.6265564E-1,2.1809351E0,1.7332411E0,0E0,9.093258E0,0E0,2.8231707E0,1.6398369E1,1.9663544E0,0E0,2.388916E-1,0E0,0E0,0E0,2.3018384E0,0E0,6.6594696E0,5.8866205E0,6.52133E-1,0E0,1.2558056E1,2.2409687E0,4.9087524E-2,1.7553036E0,0E0,0E0,0E0,0E0,0E0,0E0,0E0,0E0,0E0,0E0,0E0,0E0,0E0,0E0,0E0,0E0,0E0,0E0],"parents":[2147483647,0,0,1,1,2,2,3,3,4,4,5,5,6,6,7,7,8,8,11,11,12,12,13,13,15,15,16,16,17,17,19,19,21,21,22,22,23,23,25,25,29,29,31,31,32,32,33,33,35,35,36,36,37,37,38,38],"right_children":[2,4,6,8,10,12,14,16,18,-1,-1,20,22,24,-1,26,28,30,-1,32,-1,34,36,38,-1,40,-1,-1,-1,42,-1,44,46,48,-1,50,52,54,56,-1,-1,-1,-1,-1,-1,-1,-1,-1,-1,-1,-1,-1,-1,-1,-1,-1,-1],"split_conditions":[1E0,1E0,1E0,1E0,1E0,1E0,1E0,1E0,1E0,-1.5292796E-2,6.318306E-2,1E0,1E0,1E0,2.0989059E-3,1E0,1E0,1E0,3.9291922E-2,1E0,6.406831E-2,1E0,1E0,1E0,4.8208443E-4,1E0,-2.6575238E-2,5.6914636E-3,-5.861491E-2,1E0,1.0242882E-2,1E0,1E0,1E0,1.3069927E-2,1E0,1E0,1E0,1E0,-8.267793E-2,-2.4537962E-2,-6.793576E-2,-1.2349679E-2,-5.828462E-2,1.463762E-3,4.308309E-2,-3.4852732E-2,-7.1079135E-2,-1.678294E-2,5.353398E-2,-5.2027345E-2,-6.973902E-2,5.168648E-3,7.395446E-2,2.535739E-2,-1.8221973E-2,4.5473516E-2],"split_indices":[125,758,1410,50,1137,862,123,1889,135,0,0,1787,137,1210,0,2148,133,1656,0,74,0,97,84,130,0,799,0,0,0,1905,0,1195,168,141,0,54,1281,674,154,0,0,0,0,0,0,0,0,0,0,0,0,0,0,0,0,0,0],"split_type":[0,0,0,0,0,0,0,0,0,0,0,0,0,0,0,0,0,0,0,0,0,0,0,0,0,0,0,0,0,0,0,0,0,0,0,0,0,0,0,0,0,0,0,0,0,0,0,0,0,0,0,0,0,0,0,0,0],"sum_hessian":[2.1051688E2,5.9451286E1,1.5106558E2,5.4028656E1,5.42263E0,1.03395744E2,4.766984E1,4.3132652E1,1.0896003E1,1.4818752E0,3.9407547E0,4.8009693E1,5.538605E1,4.5784863E1,1.8849785E0,3.897458E1,4.158073E0,9.178081E0,1.7179219E0,4.4898888E1,3.1108065E0,6.432982E0,4.8953068E1,4.4600006E1,1.1848572E0,3.7000465E1,1.974116E0,1.9740934E0,2.1839795E0,7.9482994E0,1.2297817E0,3.7087532E1,7.811355E0,5.1852374E0,1.2477442E0,4.504627E1,3.9067984E0,4.1993782E1,2.6062233E0,3.5784996E1,1.2154667E0,4.2124805E0,3.7358189E0,3.1704533E1,5.3829985E0,4.3421793E0,3.469176E0,3.6916459E0,1.4935918E0,4.2809887E1,2.2363834E0,2.720405E0,1.1863935E0,4.0608635E1,1.3851463E0,1.2217792E0,1.3844442E0],"tree_param":{"num_deleted":"0","num_feature":"2215","num_nodes":"57","size_leaf_vector":"1"}},{"base_weights":[1.37562165E-2,-3.6569375E-1,1.1326085E0,-5.439796E-1,1.1728148E0,-6.0238477E-2,1.2668673E0,-7.973235E-1,5.713377E-1,8.828515E-2,7.1827814E-2,4.7589254E-1,1.3800259E0,-9.191555E-1,5.7978696E-1,-5.849824E-1,9.988297E-1,-5.222064E-2,5.1930923E-2,-3.8375095E-2,1.0239923E0,4.7746566E-1,1.4343387E0,-9.7624695E-1,8.456658E-1,1.1836361E0,-5.2905004E-2,-1.1104034E0,3.1410152E-1,1.178112E0,8.675102E-2,6.2587805E-2,3.5981163E-3,-1.8859908E-2,4.8878912E-2,7.273596E-2,2.4357935E-2,-5.3432625E-2,3.9637485E-3,8.597093E-3,5.4111768E-2,6.2913722E-3,6.786967E-2,-6.84044E-2,-8.151527E-3,3.3929776E-2,-1.1177814E-2,-4.6690027E-3,6.518404E-2,-2.3571491E-2,4.320408E-2],"categories":[],"categories_nodes":[],"categories_segments":[],"categories_sizes":[],"default_left":[0,0,0,0,0,0,0,0,0,0,0,0,0,0,0,0,0,0,0,0,0,0,0,0,0,0,0,0,0,0,0,0,0,0,0,0,0,0,0,0,0,0,0,0,0,0,0,0,0,0,0],"id":7,"left_children":[1,3,5,7,9,-1,11,13,15,17,-1,19,21,23,25,27,29,-1,-1,-1,31,33,35,37,39,41,-1,43,45,47,49,-1,-1,-1,-1,-1,-1,-1,-1,-1,-1,-1,-1,-1,-1,-1,-1,-1,-1,-1,-1],"loss_changes":[8.935997E1,4.3758263E1,1.8253273E1,4.0455196E1,4.63344E0,0E0,3.8985977E0,1.9957344E1,1.3825195E1,5.7359834E0,0E0,6.1671705E0,1.471962E0,1.1581589E1,1.1165829E1,4.062111E0,3.156023E0,0E0,0E0,0E0,1.1911664E0,2.0768974E0,8.282471E-2,1.021595E1,4.324882E-1,1.2620077E0,0E0,1.0419483E0,8.726585E-1,2.7677574E0,2.2959723E0,0E0,0E0,0E0,0E0,0E0,0E0,0E0,0E0,0E0,0E0,0E0,0E0,0E0,0E0,0E0,0E0,0E0,0E0,0E0,0E0],"parents":[2147483647,0,0,1,1,2,2,3,3,4,4,6,6,7,7,8,8,9,9,11,11,12,12,13,13,14,14,15,15,16,16,20,20,21,21,22,22,23,23,24,24,25,25,27,27,28,28,29,29,30,30],"right_children":[2,4,6,8,10,-1,12,14,16,18,-1,20,22,24,26,28,30,-1,-1,-1,32,34,36,38,40,42,-1,44,46,48,50,-1,-1,-1,-1,-1,-1,-1,-1,-1,-1,-1,-1,-1,-1,-1,-1,-1,-1,-1,-1],"split_conditions":[1E0,1E0,1E0,1E0,1E0,-6.0238477E-2,1E0,1E0,1E0,1E0,7.1827814E-2,1E0,1E0,1E0,1E0,1E0,1E0,-5.222064E-2,5.1930923E-2,-3.8375095E-2,1E0,1E0,1E0,1E0,1E0,1E0,-5.2905004E-2,1E0,1E0,1E0,1E0,6.2587805E-2,3.5981163E-3,-1.8859908E-2,4.8878912E-2,7.273596E-2,2.4357935E-2,-5.3432625E-2,3.9637485E-3,8.597093E-3,5.4111768E-2,6.2913722E-3,6.786967E-2,-6.84044E-2,-8.151527E-3,3.3929776E-2,-1.1177814E-2,-4.6690027E-3,6.518404E-2,-2.3571491E-2,4.320408E-2],"split_indices":[1410,1045,145,1958,155,0,138,1970,113,79,0,149,144,1787,398,95,57,0,0,0,394,168,374,398,93,481,0,228,146,97,692,0,0,0,0,0,0,0,0,0,0,0,0,0,0,0,0,0,0,0,0],"split_type":[0,0,0,0,0,0,0,0,0,0,0,0,0,0,0,0,0,0,0,0,0,0,0,0,0,0,0,0,0,0,0,0,0,0,0,0,0,0,0,0,0,0,0,0,0,0,0,0,0,0,0],"sum_hessian":[2.0850679E2,1.5620444E2,5.230235E1,1.405622E2,1.5642239E1,2.407933E0,4.9894417E1,1.1477598E2,2.5786213E1,3.3209426E0,1.2321296E1,6.8961444E0,4.2998272E1,1.0575267E2,9.023313E0,6.8606057E0,1.8925608E1,1.4699361E0,1.8510065E0,1.9873761E0,4.908768E0,2.9963598E0,4.0001915E1,1.0287163E2,2.8810375E0,6.795366E0,2.2279463E0,4.1817617E0,2.678844E0,1.5572859E1,3.3527489E0,3.7070615E0,1.2017066E0,1.1968261E0,1.7995338E0,3.863477E1,1.3671424E0,9.4579254E1,8.292375E0,1.1975006E0,1.6835369E0,1.2019897E0,5.593376E0,2.9384272E0,1.2433347E0,1.4402937E0,1.2385502E0,1.4227402E0,1.4150119E1,2.180509E0,1.1722397E0],"tree_param":{"num_deleted":"0","num_feature":"2215","num_nodes":"51","size_leaf_vector":"1"}},{"base_weights":[7.3156697E-3,-1.0099795E0,4.0771386E-1,-1.1946287E0,6.0165714E-2,1.1578896E-2,1.2372957E0,-1.403806E0,-4.042515E-1,-6.6682094E-1,4.386107E-1,1.2857711E0,-9.633118E-3,-1.4554521E0,-1.586858E-2,-6.22874E-1,4.6438403E-2,-9.6101403E-1,8.437339E-1,-1.1381744E0,5.975559E-1,1.3365476E0,7.086412E-3,-1.4900694E0,-2.9340938E-2,-3.4251767E-1,-6.231902E-2,-1.0741695E0,2.8842373E-2,5.5297166E-2,-1.0779285E-2,-9.225401E-3,-6.7246966E-2,2.0327725E-1,1.0705897E0,4.704324E-1,1.3841933E0,-7.5591914E-2,-2.2129059E-2,9.974918E-3,-4.9404066E-2,-6.1428826E-2,-4.717402E-3,-2.2044795E-2,3.74068E-2,6.1546713E-2,-1.00407204E-4,-1.4053725E-2,4.7039777E-2,7.013589E-2,1.96692E-2],"categories":[],"categories_nodes":[],"categories_segments":[],"categories_sizes":[],"default_left":[0,0,0,0,0,0,0,0,0,0,0,0,0,0,0,0,0,0,0,0,0,0,0,0,0,0,0,0,0,0,0,0,0,0,0,0,0,0,0,0,0,0,0,0,0,0,0,0,0,0,0],"id":8,"left_children":[1,3,5,7,-1,9,11,13,15,17,19,21,-1,23,-1,25,-1,27,29,31,33,35,-1,37,-1,39,-1,41,-1,-1,-1,-1,-1,43,45,47,49,-1,-1,-1,-1,-1,-1,-1,-1,-1,-1,-1,-1,-1,-1],"loss_changes":[8.4344215E1,2.5339169E1,4.8811012E1,8.440109E0,0E0,2.9716078E1,3.575508E0,1.9326859E0,4.3105617E0,1.8423183E1,1.6452831E1,2.5154953E0,0E0,3.4225464E-1,0E0,1.6008744E0,0E0,6.473442E0,2.1808157E0,9.561157E-1,1.0567495E1,1.1837997E0,0E0,2.0334625E-1,0E0,3.4796329E0,0E0,4.6774635E0,0E0,0E0,0E0,0E0,0E0,1.1832718E1,4.4833107E0,1.6194738E0,2.1234894E-1,0E0,0E0,0E0,0E0,0E0,0E0,0E0,0E0,0E0,0E0,0E0,0E0,0E0,0E0],"parents":[2147483647,0,0,1,1,2,2,3,3,5,5,6,6,7,7,8,8,9,9,10,10,11,11,13,13,15,15,17,17,18,18,19,19,20,20,21,21,23,23,25,25,27,27,33,33,34,34,35,35,36,36],"right_children":[2,4,6,8,-1,10,12,14,16,18,20,22,-1,24,-1,26,-1,28,30,32,34,36,-1,38,-1,40,-1,42,-1,-1,-1,-1,-1,44,46,48,50,-1,-1,-1,-1,-1,-1,-1,-1,-1,-1,-1,-1,-1,-1],"split_conditions":[1E0,1E0,1E0,1E0,6.0165714E-2,1E0,1E0,1E0,1E0,1E0,1E0,1E0,-9.633118E-3,1E0,-1.586858E-2,1E0,4.6438403E-2,1E0,1E0,1E0,1E0,1E0,7.086412E-3,1E0,-2.9340938E-2,1E0,-6.231902E-2,1E0,2.8842373E-2,5.5297166E-2,-1.0779285E-2,-9.225401E-3,-6.7246966E-2,1E0,1E0,1E0,1E0,-7.5591914E-2,-2.2129059E-2,9.974918E-3,-4.9404066E-2,-6.1428826E-2,-4.717402E-3,-2.2044795E-2,3.74068E-2,6.1546713E-2,-1.00407204E-4,-1.4053725E-2,4.7039777E-2,7.013589E-2,1.96692E-2],"split_indices":[125,625,1410,50,0,86,88,1484,106,1970,1917,123,0,2033,0,915,0,969,1093,62,62,158,0,1000,0,156,0,1010,0,0,0,0,0,113,57,146,1674,0,0,0,0,0,0,0,0,0,0,0,0,0,0],"split_type":[0,0,0,0,0,0,0,0,0,0,0,0,0,0,0,0,0,0,0,0,0,0,0,0,0,0,0,0,0,0,0,0,0,0,0,0,0,0,0,0,0,0,0,0,0,0,0,0,0,0,0],"sum_hessian":[2.050586E2,5.7484585E1,1.4757402E2,5.3482895E1,4.001687E0,1.0056637E2,4.700765E1,4.1676804E1,1.1806094E1,3.8632195E1,6.1934174E1,4.5563873E1,1.4437766E0,3.946126E1,2.2155411E0,1.0600318E1,1.205776E0,3.2639233E1,5.9929614E0,5.1073065E0,5.6826866E1,4.346642E1,2.0974522E0,3.7260902E1,2.20036E0,8.381129E0,2.2191887E0,3.0683096E1,1.9561374E0,4.7685957E0,1.2243657E0,1.2471954E0,3.8601112E0,3.1773256E1,2.5053608E1,2.833416E0,4.0633003E1,3.606804E1,1.1928624E0,4.9315577E0,3.4495716E0,2.6286766E1,4.396329E0,1.4647125E1,1.7126131E1,2.1666956E1,3.3866522E0,1.2456505E0,1.5877655E0,3.9479156E1,1.1538458E0],"tree_param":{"num_deleted":"0","num_feature":"2215","num_nodes":"51","size_leaf_vector":"1"}},{"base_weights":[-2.2767768E-3,-9.493999E-1,3.8839555E-1,-1.1554176E0,9.3667626E-1,-5.597341E-5,1.2029519E0,-1.3424908E0,-4.310827E-1,-4.9737147E-3,6.0050566E-2,-2.72988E-1,9.1690063E-1,1.2529913E0,-4.8512667E-3,-1.3780563E0,-1.50567135E-2,-7.0164347E-1,4.8921145E-2,-5.586049E-1,8.0659115E-1,1.1732005E0,-3.4831747E-1,3.6853096E-1,1.3142864E0,-1.412577E0,-1.7224098E-2,-9.182546E-1,2.8690165E-2,-1.2790908E0,-2.740592E-1,1.170953E0,-7.7036273E-1,8.617205E-2,1.3750665E0,-5.8977377E-2,4.6234827E-2,-2.2399671E-2,4.8376795E-2,1.3713573E0,3.6941424E-1,-7.3668025E-2,-2.931046E-2,-5.5921327E-2,-1.4312466E-2,-7.4188136E-2,1.916397E-2,-5.5885453E-2,-4.4948137E-3,2.560376E-3,6.850134E-2,-6.29374E-2,6.2505803E-3,-4.134544E-2,4.6692617E-2,7.105232E-2,2.046973E-2,6.970324E-2,2.0359194E-2,-1.9335687E-2,4.425355E-2],"categories":[],"categories_nodes":[],"categories_segments":[],"categories_sizes":[],"default_left":[0,0,0,0,0,0,0,0,0,0,0,0,0,0,0,0,0,0,0,0,0,0,0,0,0,0,0,0,0,0,0,0,0,0,0,0,0,0,0,0,0,0,0,0,0,0,0,0,0,0,0,0,0,0,0,0,0,0,0,0,0],"id":9,"left_children":[1,3,5,7,9,11,13,15,17,-1,-1,19,21,23,-1,25,-1,27,-1,29,31,33,35,37,39,41,-1,43,-1,45,47,49,51,53,55,-1,-1,-1,-1,57,59,-1,-1,-1,-1,-1,-1,-1,-1,-1,-1,-1,-1,-1,-1,-1,-1,-1,-1,-1,-1],"loss_changes":[7.494983E1,2.4066654E1,4.5377384E1,6.7079544E0,1.8661366E0,2.4802265E1,3.133873E0,1.150322E0,5.4575257E0,0E0,0E0,2.3999321E1,7.7800503E0,1.936943E0,0E0,9.615936E-1,0E0,3.5875602E0,0E0,1.2151888E1,1.0317751E1,4.079647E0,5.9585795E0,2.5289056E0,1.7247238E0,1.0929642E0,0E0,9.26548E-1,0E0,6.350477E0,6.8897223E0,2.9855652E0,1.7660637E0,3.9171689E0,1.3169289E-1,0E0,0E0,0E0,0E0,2.7861786E-1,1.7949009E0,0E0,0E0,0E0,0E0,0E0,0E0,0E0,0E0,0E0,0E0,0E0,0E0,0E0,0E0,0E0,0E0,0E0,0E0,0E0,0E0],"parents":[2147483647,0,0,1,1,2,2,3,3,4,4,5,5,6,6,7,7,8,8,11,11,12,12,13,13,15,15,17,17,19,19,20,20,21,21,22,22,23,23,24,24,25,25,27,27,29,29,30,30,31,31,32,32,33,33,34,34,39,39,40,40],"right_children":[2,4,6,8,10,12,14,16,18,-1,-1,20,22,24,-1,26,-1,28,-1,30,32,34,36,38,40,42,-1,44,-1,46,48,50,52,54,56,-1,-1,-1,-1,58,60,-1,-1,-1,-1,-1,-1,-1,-1,-1,-1,-1,-1,-1,-1,-1,-1,-1,-1,-1,-1],"split_conditions":[1E0,1E0,1E0,1E0,1E0,1E0,1E0,1E0,1E0,-4.9737147E-3,6.0050566E-2,1E0,1E0,1E0,-4.8512667E-3,1E0,-1.50567135E-2,1E0,4.8921145E-2,1E0,1E0,1E0,1E0,1E0,1E0,1E0,-1.7224098E-2,1E0,2.8690165E-2,1E0,1E0,1E0,1E0,1E0,1E0,-5.8977377E-2,4.6234827E-2,-2.2399671E-2,4.8376795E-2,1E0,1E0,-7.3668025E-2,-2.931046E-2,-5.5921327E-2,-1.4312466E-2,-7.4188136E-2,1.916397E-2,-5.5885453E-2,-4.4948137E-3,2.560376E-3,6.850134E-2,-6.29374E-2,6.2505803E-3,-4.134544E-2,4.6692617E-2,7.105232E-2,2.046973E-2,6.970324E-2,2.0359194E-2,-1.9335687E-2,4.425355E-2],"split_indices":[125,758,1410,50,101,1958,1674,486,106,0,0,1327,90,158,0,961,0,1731,0,153,80,152,1321,149,130,1889,0,1008,0,1970,1917,120,146,62,1338,0,0,0,0,844,154,0,0,0,0,0,0,0,0,0,0,0,0,0,0,0,0,0,0,0,0],"split_type":[0,0,0,0,0,0,0,0,0,0,0,0,0,0,0,0,0,0,0,0,0,0,0,0,0,0,0,0,0,0,0,0,0,0,0,0,0,0,0,0,0,0,0,0,0,0,0,0,0,0,0,0,0,0,0,0,0,0,0,0,0],"sum_hessian":[2.0056245E2,5.8151997E1,1.4241046E2,5.2774757E1,5.3772364E0,9.710314E1,4.530732E1,4.126411E1,1.1510647E1,1.2197387E0,4.157498E0,7.53712E1,2.173194E1,4.366277E1,1.6445487E0,3.9588707E1,1.6754051E0,1.0078282E1,1.4323647E0,5.998417E1,1.5387032E1,1.813167E1,3.6002698E0,3.2842913E0,4.037848E1,3.7954365E1,1.6343427E0,8.854552E0,1.2237301E0,1.599322E1,4.399095E1,1.2708205E1,2.678826E0,3.0632503E0,1.506842E1,2.2224896E0,1.3777802E0,1.4964848E0,1.7878065E0,3.765285E1,2.725628E0,3.4624615E1,3.3297508E0,6.140161E0,2.7143908E0,1.4335649E1,1.6575712E0,6.973991E0,3.701696E1,2.1080604E0,1.0600145E1,1.4707601E0,1.208066E0,1.4865323E0,1.5767179E0,1.3933426E1,1.1349939E0,3.6350876E1,1.3019725E0,1.2065182E0,1.5191097E0],"tree_param":{"num_deleted":"0","num_feature":"2215","num_nodes":"61","size_leaf_vector":"1"}},{"base_weights":[5.0291058E-2,-9.0201366E-1,4.2517886E-1,-1.0809525E0,5.2430987E-2,6.11803E-2,1.1983423E0,-1.2936391E0,-3.4337717E-1,-1.9891183E-1,9.163383E-1,1.2491684E0,-1.9458918E-2,-1.3488194E0,-1.0126235E-2,-7.787731E-1,3.792701E-1,-4.370944E-1,1.0007274E0,-2.1548429E-1,1.1453503E0,1.3012024E0,5.4300693E-3,-1.386808E0,-2.0386817E-2,-5.9878137E-2,-1.20899744E-1,-1.5764952E-2,7.03591E-1,-7.9615307E-1,4.3322135E-2,-2.5846336E-2,1.1999974E0,-5.2048445E-2,4.5691825E-2,1.262976E0,-1.7984686E-2,1.3384299E0,-1.9396918E-3,-7.154083E-2,-2.5810672E-2,-3.1219272E-2,3.3184994E-2,1.5977217E-2,4.5051005E-2,-4.766615E-2,4.905653E-2,-5.1201638E-2,2.6566902E-2,3.3766956E-3,6.7032635E-2,6.7534484E-2,-1.1656232E-3,6.7788444E-2,1.9312955E-2],"categories":[],"categories_nodes":[],"categories_segments":[],"categories_sizes":[],"default_left":[0,0,0,0,0,0,0,0,0,0,0,0,0,0,0,0,0,0,0,0,0,0,0,0,0,0,0,0,0,0,0,0,0,0,0,0,0,0,0,0,0,0,0,0,0,0,0,0,0,0,0,0,0,0,0],"id":10,"left_children":[1,3,5,7,-1,9,11,13,15,17,19,21,-1,23,-1,25,27,29,31,33,35,37,-1,39,-1,-1,41,-1,43,45,47,-1,49,-1,-1,51,-1,53,-1,-1,-1,-1,-1,-1,-1,-1,-1,-1,-1,-1,-1,-1,-1,-1,-1],"loss_changes":[7.224269E1,2.1090408E1,4.0763973E1,7.848694E0,0E0,2.2360287E1,4.229561E0,2.1755295E0,4.4464793E0,2.2518782E1,6.3205814E0,2.5407562E0,0E0,8.122406E-1,0E0,2.2137117E0,1.4907167E0,1.1276841E1,4.5837975E0,5.412114E0,3.932541E0,2.2034225E0,0E0,6.646042E-1,0E0,0E0,2.1691697E0,0E0,2.669406E-2,1.1368372E1,1.5558365E1,0E0,1.8027077E0,0E0,0E0,2.1125488E0,0E0,1.6957855E-1,0E0,0E0,0E0,0E0,0E0,0E0,0E0,0E0,0E0,0E0,0E0,0E0,0E0,0E0,0E0,0E0,0E0],"parents":[2147483647,0,0,1,1,2,2,3,3,5,5,6,6,7,7,8,8,9,9,10,10,11,11,13,13,15,15,16,16,17,17,18,18,19,19,20,20,21,21,23,23,26,26,28,28,29,29,30,30,32,32,35,35,37,37],"right_children":[2,4,6,8,-1,10,12,14,16,18,20,22,-1,24,-1,26,28,30,32,34,36,38,-1,40,-1,-1,42,-1,44,46,48,-1,50,-1,-1,52,-1,54,-1,-1,-1,-1,-1,-1,-1,-1,-1,-1,-1,-1,-1,-1,-1,-1,-1],"split_conditions":[1E0,1E0,1E0,1E0,5.2430987E-2,1E0,1E0,1E0,1E0,1E0,1E0,1E0,-1.9458918E-2,1E0,-1.0126235E-2,1E0,1E0,1E0,1E0,1E0,1E0,1E0,5.4300693E-3,1E0,-2.0386817E-2,-5.9878137E-2,1E0,-1.5764952E-2,1E0,1E0,1E0,-2.5846336E-2,1E0,-5.2048445E-2,4.5691825E-2,1E0,-1.7984686E-2,1E0,-1.9396918E-3,-7.154083E-2,-2.5810672E-2,-3.1219272E-2,3.3184994E-2,1.5977217E-2,4.5051005E-2,-4.766615E-2,4.905653E-2,-5.1201638E-2,2.6566902E-2,3.3766956E-3,6.7032635E-2,6.7534484E-2,-1.1656232E-3,6.7788444E-2,1.9312955E-2],"split_indices":[125,1623,1410,50,0,1958,88,906,126,1063,152,123,0,486,0,696,481,75,120,62,1428,1210,0,314,0,0,141,0,1293,1975,1255,0,150,0,0,1702,0,1674,0,0,0,0,0,0,0,0,0,0,0,0,0,0,0,0,0],"split_type":[0,0,0,0,0,0,0,0,0,0,0,0,0,0,0,0,0,0,0,0,0,0,0,0,0,0,0,0,0,0,0,0,0,0,0,0,0,0,0,0,0,0,0,0,0,0,0,0,0,0,0,0,0,0,0],"sum_hessian":[2.0028203E2,5.617585E1,1.4410619E2,5.1864014E1,4.3118334E0,9.871239E1,4.5393795E1,3.96707E1,1.2193313E1,7.6279686E1,2.2432697E1,4.419207E1,1.201723E0,3.7536217E1,2.1344857E0,7.5604596E0,4.6328535E0,6.417391E1,1.2105775E1,3.7850919E0,1.8647606E1,4.212925E1,2.062822E0,3.562453E1,1.9116853E0,4.1184063E0,3.4420533E0,1.4835291E0,3.1493244E0,3.6349464E1,2.7824451E1,1.2200077E0,1.0885767E1,2.2319024E0,1.5531894E0,1.7445038E1,1.2025682E0,4.0991596E1,1.1376531E0,3.3297832E1,2.3266966E0,2.221008E0,1.2210451E0,1.9583645E0,1.1909599E0,3.382209E1,2.5273716E0,8.385626E0,1.9438824E1,1.3661956E0,9.519571E0,1.628451E1,1.1605282E0,3.98422E1,1.1493958E0],"tree_param":{"num_deleted":"0","num_feature":"2215","num_nodes":"55","size_leaf_vector":"1"}},{"base_weights":[-2.4069725E-2,-3.4895113E-1,1.0192422E0,-4.9573836E-1,1.0957586E0,-5.427713E-2,1.1507734E0,-7.213131E-1,4.4245356E-1,-9.507661E-3,6.363267E-2,1.2172709E0,-4.979512E-2,-8.3926564E-1,5.6764704E-1,-6.8087655E-1,9.1633743E-1,1.2712904E0,1.7463923E-1,-2.3092534E-2,1.9762194E-2,-8.8618404E-1,4.66063E-2,1.1023484E0,-3.7670273E-2,-9.892806E-1,2.121419E-2,-6.3901377E-1,1.162409E0,1.3105769E0,-1.8876462E-3,-2.3534594E-2,3.809193E-2,-4.6549708E-2,4.7074426E-2,6.321761E-2,1.538401E-2,-6.9411196E-2,-4.316103E-3,-6.609039E-3,-4.2443953E-2,6.531805E-2,-2.3432553E-3,6.654046E-2,2.0070737E-2],"categories":[],"categories_nodes":[],"categories_segments":[],"categories_sizes":[],"default_left":[0,0,0,0,0,0,0,0,0,0,0,0,0,0,0,0,0,0,0,0,0,0,0,0,0,0,0,0,0,0,0,0,0,0,0,0,0,0,0,0,0,0,0,0,0],"id":11,"left_children":[1,3,5,7,9,-1,11,13,15,-1,-1,17,19,21,23,25,27,29,31,-1,-1,33,-1,35,-1,37,-1,39,41,43,-1,-1,-1,-1,-1,-1,-1,-1,-1,-1,-1,-1,-1,-1,-1],"loss_changes":[6.6841644E1,3.2420715E1,1.4214317E1,2.9343204E1,3.4665794E0,0E0,3.6182785E0,1.7343464E1,1.5104616E1,0E0,0E0,2.1583405E0,7.8759336E-1,9.306969E0,7.821866E0,3.3661113E0,8.228197E0,2.107727E0,1.5867581E0,0E0,0E0,9.060043E0,0E0,5.7031727E-1,0E0,2.4229112E0,0E0,2.405988E-1,3.062523E0,1.8104553E-1,0E0,0E0,0E0,0E0,0E0,0E0,0E0,0E0,0E0,0E0,0E0,0E0,0E0,0E0,0E0],"parents":[2147483647,0,0,1,1,2,2,3,3,4,4,6,6,7,7,8,8,11,11,12,12,13,13,14,14,15,15,16,16,17,17,18,18,21,21,23,23,25,25,27,27,28,28,29,29],"right_children":[2,4,6,8,10,-1,12,14,16,-1,-1,18,20,22,24,26,28,30,32,-1,-1,34,-1,36,-1,38,-1,40,42,44,-1,-1,-1,-1,-1,-1,-1,-1,-1,-1,-1,-1,-1,-1,-1],"split_conditions":[1E0,1E0,1E0,1E0,1E0,-5.427713E-2,1E0,1E0,1E0,-9.507661E-3,6.363267E-2,1E0,1E0,1E0,1E0,1E0,1E0,1E0,1E0,-2.3092534E-2,1.9762194E-2,1E0,4.66063E-2,1E0,-3.7670273E-2,1E0,2.121419E-2,1E0,1E0,1E0,-1.8876462E-3,-2.3534594E-2,3.809193E-2,-4.6549708E-2,4.7074426E-2,6.321761E-2,1.538401E-2,-6.9411196E-2,-4.316103E-3,-6.609039E-3,-4.2443953E-2,6.531805E-2,-2.3432553E-3,6.654046E-2,2.0070737E-2],"split_indices":[1410,1045,145,1958,149,0,123,1970,113,0,0,130,168,2013,398,62,125,1210,1441,0,0,1678,0,83,0,126,0,690,90,674,0,0,0,0,0,0,0,0,0,0,0,0,0,0,0],"split_type":[0,0,0,0,0,0,0,0,0,0,0,0,0,0,0,0,0,0,0,0,0,0,0,0,0,0,0,0,0,0,0,0,0,0,0,0,0,0,0,0,0,0,0,0,0],"sum_hessian":[1.9515123E2,1.4931952E2,4.583171E1,1.3614372E2,1.3175789E1,2.2690382E0,4.3562675E1,1.0994113E2,2.6202597E1,1.5842621E0,1.1591527E1,4.1263256E1,2.2994175E0,1.0104353E2,8.8975935E0,7.644558E0,1.8558039E1,3.9022182E1,2.241076E0,1.174338E0,1.1250795E0,9.89231E1,2.1204283E0,6.451767E0,2.4458265E0,6.058686E0,1.5858724E0,2.3168702E0,1.6241169E1,3.788405E1,1.1381333E0,1.1622155E0,1.0788605E0,9.703466E1,1.8884431E0,4.8682632E0,1.583504E0,3.8293798E0,2.2293057E0,1.1556838E0,1.1611865E0,1.4441738E1,1.7994305E0,3.660566E1,1.2783879E0],"tree_param":{"num_deleted":"0","num_feature":"2215","num_nodes":"45","size_leaf_vector":"1"}},{"base_weights":[8.725181E-3,-2.9593292E-1,9.8578167E-1,-4.570555E-1,1.1071526E0,-6.1213547E-1,1.1707671E0,-6.598961E-1,4.3178472E-1,6.311506E-2,2.280575E-3,-9.204608E-1,1.8721601E-2,4.7671017E-1,1.2796087E0,-7.507136E-1,4.5866436E-1,-6.9772655E-1,8.524429E-1,-1.8484501E-2,-5.493563E-2,-3.140935E-2,9.3870145E-1,6.5849476E-2,2.5313934E-2,-7.949904E-1,4.4558864E-2,8.691345E-1,-3.1721935E-2,-1.0211567E0,1.1604902E-2,-6.7997384E-1,1.1290108E0,5.6148518E-2,6.333551E-3,-4.198221E-2,4.390304E-2,3.5372862E-4,5.657226E-2,-6.3657515E-2,-1.21567575E-2,-5.7722786E-3,-4.5170538E-2,6.090036E-2,-1.9320808E-3],"categories":[],"categories_nodes":[],"categories_segments":[],"categories_sizes":[],"default_left":[0,0,0,0,0,0,0,0,0,0,0,0,0,0,0,0,0,0,0,0,0,0,0,0,0,0,0,0,0,0,0,0,0,0,0,0,0,0,0,0,0,0,0,0,0],"id":12,"left_children":[1,3,5,7,9,11,13,15,17,-1,-1,19,-1,21,23,25,27,29,31,-1,-1,-1,33,-1,-1,35,-1,37,-1,39,-1,41,43,-1,-1,-1,-1,-1,-1,-1,-1,-1,-1,-1,-1],"loss_changes":[5.7835503E1,3.399453E1,1.436739E1,2.4369034E1,2.503601E0,2.0019007E0,2.5426025E0,1.1433155E1,1.2675165E1,0E0,0E0,2.9726505E-2,0E0,4.2910185E0,3.5892868E-1,8.075684E0,4.5078883E0,2.477261E0,8.809933E0,0E0,0E0,0E0,6.8282986E-1,0E0,0E0,8.148872E0,0E0,1.5370374E0,0E0,8.1033564E-1,0E0,3.403648E-1,1.7565498E0,0E0,0E0,0E0,0E0,0E0,0E0,0E0,0E0,0E0,0E0,0E0,0E0],"parents":[2147483647,0,0,1,1,2,2,3,3,4,4,5,5,6,6,7,7,8,8,11,11,13,13,14,14,15,15,16,16,17,17,18,18,22,22,25,25,27,27,29,29,31,31,32,32],"right_children":[2,4,6,8,10,12,14,16,18,-1,-1,20,-1,22,24,26,28,30,32,-1,-1,-1,34,-1,-1,36,-1,38,-1,40,-1,42,44,-1,-1,-1,-1,-1,-1,-1,-1,-1,-1,-1,-1],"split_conditions":[1E0,1E0,1E0,1E0,1E0,1E0,1E0,1E0,1E0,6.311506E-2,2.280575E-3,1E0,1.8721601E-2,1E0,1E0,1E0,1E0,1E0,1E0,-1.8484501E-2,-5.493563E-2,-3.140935E-2,1E0,6.5849476E-2,2.5313934E-2,1E0,4.4558864E-2,1E0,-3.1721935E-2,1E0,1.1604902E-2,1E0,1E0,5.6148518E-2,6.333551E-3,-4.198221E-2,4.390304E-2,3.5372862E-4,5.657226E-2,-6.3657515E-2,-1.21567575E-2,-5.7722786E-3,-4.5170538E-2,6.090036E-2,-1.9320808E-3],"split_indices":[1410,1045,144,1958,112,1552,138,2151,113,0,0,104,0,149,307,1935,104,126,125,0,0,0,104,0,0,1787,0,155,0,95,0,57,1338,0,0,0,0,0,0,0,0,0,0,0,0],"split_type":[0,0,0,0,0,0,0,0,0,0,0,0,0,0,0,0,0,0,0,0,0,0,0,0,0,0,0,0,0,0,0,0,0,0,0,0,0,0,0,0,0,0,0,0,0],"sum_hessian":[1.9231519E2,1.4713411E2,4.5181084E1,1.3258322E2,1.4550876E1,4.4481897E0,4.0732895E1,1.0815822E2,2.442501E1,1.2530386E1,2.0204895E0,3.4400883E0,1.0081012E0,6.2510896E0,3.4481804E1,1.003403E2,7.8179154E0,6.4493027E0,1.7975708E1,1.5927403E0,1.8473481E0,1.7370435E0,4.514046E0,3.2221302E1,2.2605047E0,9.820775E1,2.1325572E0,5.83261E0,1.9853055E0,4.712042E0,1.7372612E0,2.5252275E0,1.545048E1,3.3670635E0,1.1469824E0,9.613991E1,2.0678387E0,1.6003098E0,4.2323003E0,3.0785384E0,1.6335034E0,1.146131E0,1.3790965E0,1.4316199E1,1.1342807E0],"tree_param":{"num_deleted":"0","num_feature":"2215","num_nodes":"45","size_leaf_vector":"1"}},{"base_weights":[3.6254276E-2,-2.7045715E-1,1.0073047E0,-5.614338E-1,3.8768494E-1,-5.0386388E-2,1.1198467E0,-6.8397486E-1,6.383339E-2,-2.7524507E-1,8.9404976E-1,6.9278084E-2,1.2004753E0,-8.7273806E-1,2.8902084E-1,1.3376373E-1,-9.0109307E-1,1.021878E0,-4.8430216E-2,-2.7383823E-2,3.9346214E-2,4.0703034E-1,1.2614172E0,-9.481587E-1,3.947299E-1,-6.422853E-2,7.366549E-1,-7.644821E-1,4.7665334E-1,-1.0496373E0,-9.8293265E-3,1.1244947E0,-2.7989341E-2,-2.271375E-2,5.003659E-2,6.511637E-2,1.6501144E-2,-4.960275E-2,3.9240304E-2,5.0055593E-2,-4.597592E-2,-1.7305521E-2,5.8350075E-2,-5.1471233E-2,-3.6953483E-3,-3.0041367E-2,3.704396E-2,-3.8402937E-3,-6.542189E-2,5.8956053E-2,8.537536E-3],"categories":[],"categories_nodes":[],"categories_segments":[],"categories_sizes":[],"default_left":[0,0,0,0,0,0,0,0,0,0,0,0,0,0,0,0,0,0,0,0,0,0,0,0,0,0,0,0,0,0,0,0,0,0,0,0,0,0,0,0,0,0,0,0,0,0,0,0,0,0,0],"id":13,"left_children":[1,3,5,7,9,-1,11,13,-1,15,17,19,21,23,25,27,29,31,-1,-1,-1,33,35,37,39,-1,41,43,45,47,-1,49,-1,-1,-1,-1,-1,-1,-1,-1,-1,-1,-1,-1,-1,-1,-1,-1,-1,-1,-1],"loss_changes":[5.767944E1,2.8420567E1,1.1668785E1,2.396725E1,1.5600662E1,0E0,3.6857262E0,1.8026047E1,0E0,5.3867197E0,7.2204475E0,2.3050046E0,1.48172E0,8.145763E0,1.2551069E1,4.464645E0,6.581006E-1,4.6829395E0,0E0,0E0,0E0,2.7145529E0,1.0120926E0,6.6379776E0,5.12197E0,0E0,6.6766205E0,6.6709733E-1,3.3634765E0,1.5590324E0,0E0,1.0378628E0,0E0,0E0,0E0,0E0,0E0,0E0,0E0,0E0,0E0,0E0,0E0,0E0,0E0,0E0,0E0,0E0,0E0,0E0,0E0],"parents":[2147483647,0,0,1,1,2,2,3,3,4,4,6,6,7,7,9,9,10,10,11,11,12,12,13,13,14,14,15,15,16,16,17,17,21,21,22,22,23,23,24,24,26,26,27,27,28,28,29,29,31,31],"right_children":[2,4,6,8,10,-1,12,14,-1,16,18,20,22,24,26,28,30,32,-1,-1,-1,34,36,38,40,-1,42,44,46,48,-1,50,-1,-1,-1,-1,-1,-1,-1,-1,-1,-1,-1,-1,-1,-1,-1,-1,-1,-1,-1],"split_conditions":[1E0,1E0,1E0,1E0,1E0,-5.0386388E-2,1E0,1E0,6.383339E-2,1E0,1E0,1E0,1E0,1E0,1E0,1E0,1E0,1E0,-4.8430216E-2,-2.7383823E-2,3.9346214E-2,1E0,1E0,1E0,1E0,-6.422853E-2,1E0,1E0,1E0,1E0,-9.8293265E-3,1E0,-2.7989341E-2,-2.271375E-2,5.003659E-2,6.511637E-2,1.6501144E-2,-4.960275E-2,3.9240304E-2,5.0055593E-2,-4.597592E-2,-1.7305521E-2,5.8350075E-2,-5.1471233E-2,-3.6953483E-3,-3.0041367E-2,3.704396E-2,-3.8402937E-3,-6.542189E-2,5.8956053E-2,8.537536E-3],"split_indices":[1410,62,145,2013,126,0,144,653,0,146,1423,72,158,1293,155,85,1970,1424,0,0,0,149,102,183,1366,0,136,107,125,101,0,347,0,0,0,0,0,0,0,0,0,0,0,0,0,0,0,0,0,0,0],"split_type":[0,0,0,0,0,0,0,0,0,0,0,0,0,0,0,0,0,0,0,0,0,0,0,0,0,0,0,0,0,0,0,0,0,0,0,0,0,0,0,0,0,0,0,0,0,0,0,0,0,0,0],"sum_hessian":[1.9174948E2,1.4627061E2,4.5478867E1,1.015295E2,4.4741108E1,1.9849359E0,4.349393E1,9.577251E1,5.756993E0,1.9572859E1,2.5168247E1,3.2326443E0,4.0261288E1,8.029764E1,1.5474871E1,1.2312543E1,7.260316E0,2.3974348E1,1.1939003E0,1.8656253E0,1.3670192E0,3.4194958E0,3.684179E1,7.6025665E1,4.271976E0,3.0130942E0,1.2461777E1,3.0619144E0,9.250628E0,5.5914717E0,1.668844E0,2.278512E1,1.1892283E0,1.4911175E0,1.9283782E0,3.491016E1,1.931632E0,7.456447E1,1.4611943E0,3.086265E0,1.1857111E0,3.5999453E0,8.861832E0,1.8582937E0,1.2036209E0,1.5708753E0,7.679753E0,1.4474143E0,4.1440578E0,2.1327274E1,1.4578444E0],"tree_param":{"num_deleted":"0","num_feature":"2215","num_nodes":"51","size_leaf_vector":"1"}},{"base_weights":[1.641526E-2,-8.3911145E-1,3.6101875E-1,-9.9107134E-1,7.8347784E-1,-7.879903E-1,5.7283556E-1,-1.1319966E0,-9.993457E-2,-3.5678882E-3,5.2814532E-2,-1.0208688E0,4.751141E-2,-1.0546694E0,6.7182946E-1,-1.1760991E0,4.366702E-3,3.8400087E-1,-4.3354332E-2,-1.2322357E0,2.5960082E-2,-6.400776E-2,1.2063185E-3,4.0630373E-1,1.1092064E0,-1.2178911E0,8.011328E-3,4.3967396E-2,-1.3784045E-2,-1.3330497E0,5.2101975E-3,5.4248196E-1,-6.333496E-1,1.1649781E0,-7.510699E-3,-6.3466005E-2,1.0635558E-3,-7.2098464E-2,1.8272111E-3,-2.708864E-2,3.3207443E-2,-5.444286E-2,8.375983E-3,1.25362305E-2,6.1078597E-2],"categories":[],"categories_nodes":[],"categories_segments":[],"categories_sizes":[],"default_left":[0,0,0,0,0,0,0,0,0,0,0,0,0,0,0,0,0,0,0,0,0,0,0,0,0,0,0,0,0,0,0,0,0,0,0,0,0,0,0,0,0,0,0,0,0],"id":14,"left_children":[1,3,5,7,9,11,13,15,17,-1,-1,19,-1,21,23,25,-1,27,-1,29,-1,-1,-1,31,33,35,-1,-1,-1,37,-1,39,41,43,-1,-1,-1,-1,-1,-1,-1,-1,-1,-1,-1],"loss_changes":[5.5577553E1,1.4124641E1,3.314988E1,6.158703E0,1.2867358E0,9.6056185E0,1.9078442E1,2.4164124E0,3.2718673E0,0E0,0E0,6.9206448E0,0E0,1.7158327E0,1.2102566E1,2.51799E0,0E0,2.0550814E0,0E0,2.464754E0,0E0,0E0,0E0,1.008948E1,3.0024643E0,2.6046638E0,0E0,0E0,0E0,2.4580612E0,0E0,8.460079E0,3.2590516E0,1.6941109E0,0E0,0E0,0E0,0E0,0E0,0E0,0E0,0E0,0E0,0E0,0E0],"parents":[2147483647,0,0,1,1,2,2,3,3,4,4,5,5,6,6,7,7,8,8,11,11,13,13,14,14,15,15,17,17,19,19,23,23,24,24,25,25,29,29,31,31,32,32,33,33],"right_children":[2,4,6,8,10,12,14,16,18,-1,-1,20,-1,22,24,26,-1,28,-1,30,-1,-1,-1,32,34,36,-1,-1,-1,38,-1,40,42,44,-1,-1,-1,-1,-1,-1,-1,-1,-1,-1,-1],"split_conditions":[1E0,1E0,1E0,1E0,1E0,1E0,1E0,1E0,1E0,-3.5678882E-3,5.2814532E-2,1E0,4.751141E-2,1E0,1E0,1E0,4.366702E-3,1E0,-4.3354332E-2,1E0,2.5960082E-2,-6.400776E-2,1.2063185E-3,1E0,1E0,1E0,8.011328E-3,4.3967396E-2,-1.3784045E-2,1E0,5.2101975E-3,1E0,1E0,1E0,-7.510699E-3,-6.3466005E-2,1.0635558E-3,-7.2098464E-2,1.8272111E-3,-2.708864E-2,3.3207443E-2,-5.444286E-2,8.375983E-3,1.25362305E-2,6.1078597E-2],"split_indices":[125,758,153,251,398,322,1917,202,915,0,0,1970,0,1516,1410,1045,0,89,0,1427,0,0,0,54,1674,369,0,0,0,1010,0,137,128,144,0,0,0,0,0,0,0,0,0,0,0],"split_type":[0,0,0,0,0,0,0,0,0,0,0,0,0,0,0,0,0,0,0,0,0,0,0,0,0,0,0,0,0,0,0,0,0,0,0,0,0,0,0,0,0,0,0,0,0],"sum_hessian":[1.864876E2,5.3135704E1,1.3335188E2,4.8941414E1,4.1942916E0,2.033324E1,1.1301865E2,4.2025215E1,6.9161983E0,1.1933784E0,3.0009131E0,1.829487E1,2.0383701E0,5.9267225E0,1.0709193E2,4.059247E1,1.4327483E0,4.5471854E0,2.3690128E0,1.626277E1,2.0320992E0,4.74772E0,1.1790024E0,6.783759E1,3.9254333E1,3.9447422E1,1.1450456E0,2.4068916E0,2.140294E0,1.5124402E1,1.1383686E0,6.0403847E1,7.4337444E0,3.7661533E1,1.5928018E0,3.7852108E1,1.5953156E0,1.3961261E1,1.1631416E0,5.7458444E0,5.4658E1,4.5093713E0,2.9243731E0,2.5119548E0,3.514958E1],"tree_param":{"num_deleted":"0","num_feature":"2215","num_nodes":"45","size_leaf_vector":"1"}},{"base_weights":[-8.977062E-3,-8.371854E-1,3.3793014E-1,-1.0126214E0,7.5967234E-1,-1.2405949E-2,1.0703778E0,-1.0760647E0,1.5106792E-2,-1.7080324E-2,5.6385975E-2,-3.0985042E-1,6.141788E-1,1.1330081E0,-6.194047E-3,-1.1838808E0,-2.609245E-1,-5.796872E-1,6.290113E-1,1.07160114E-1,1.0734859E0,4.6227223E-1,1.2499111E0,-1.2215545E0,5.943903E-3,-6.772619E-1,3.9405786E-2,-6.944118E-1,5.980632E-1,-2.8856626E-1,8.688738E-1,-4.9397964E-2,3.6401087E-1,1.2617314E0,-1.7491933E-2,-5.8332247E-1,5.429709E-2,2.2664225E-2,6.42684E-2,-6.287506E-2,5.4923637E-4,-2.8588346E-3,-4.6715535E-2,-6.2817186E-2,-1.8390082E-2,-2.6196634E-2,5.9498426E-2,-5.252651E-2,3.2032914E-2,2.7262478E-3,5.2832928E-2,-1.4392725E-2,4.8189346E-2,6.772324E-2,1.1947732E-2,5.717811E-3,-5.1981237E-2],"categories":[],"categories_nodes":[],"categories_segments":[],"categories_sizes":[],"default_left":[0,0,0,0,0,0,0,0,0,0,0,0,0,0,0,0,0,0,0,0,0,0,0,0,0,0,0,0,0,0,0,0,0,0,0,0,0,0,0,0,0,0,0,0,0,0,0,0,0,0,0,0,0,0,0,0,0],"id":15,"left_children":[1,3,5,7,9,11,13,15,-1,-1,-1,17,19,21,-1,23,25,27,29,31,33,35,37,39,-1,41,-1,43,45,47,49,-1,51,53,-1,55,-1,-1,-1,-1,-1,-1,-1,-1,-1,-1,-1,-1,-1,-1,-1,-1,-1,-1,-1,-1,-1],"loss_changes":[5.391573E1,1.6287987E1,3.3955765E1,4.5241203E0,2.8393888E0,1.705096E1,3.3423767E0,3.9308739E0,0E0,0E0,0E0,1.6074253E1,6.7447166E0,2.6194115E0,0E0,2.2224617E0,3.5553005E0,6.9937534E0,3.4031353E0,4.610352E0,4.5527363E0,5.614771E0,3.8157272E-1,1.8402367E0,0E0,8.217099E-1,0E0,7.7653484E0,3.8503394E0,3.3061726E0,1.7169209E0,0E0,5.349018E0,9.822979E-1,0E0,1.2345731E0,0E0,0E0,0E0,0E0,0E0,0E0,0E0,0E0,0E0,0E0,0E0,0E0,0E0,0E0,0E0,0E0,0E0,0E0,0E0,0E0,0E0],"parents":[2147483647,0,0,1,1,2,2,3,3,4,4,5,5,6,6,7,7,11,11,12,12,13,13,15,15,16,16,17,17,18,18,19,19,20,20,21,21,22,22,23,23,25,25,27,27,28,28,29,29,30,30,32,32,33,33,35,35],"right_children":[2,4,6,8,10,12,14,16,-1,-1,-1,18,20,22,-1,24,26,28,30,32,34,36,38,40,-1,42,-1,44,46,48,50,-1,52,54,-1,56,-1,-1,-1,-1,-1,-1,-1,-1,-1,-1,-1,-1,-1,-1,-1,-1,-1,-1,-1,-1,-1],"split_conditions":[1E0,1E0,1E0,1E0,1E0,1E0,1E0,1E0,1.5106792E-2,-1.7080324E-2,5.6385975E-2,1E0,1E0,1E0,-6.194047E-3,1E0,1E0,1E0,1E0,1E0,1E0,1E0,1E0,1E0,5.943903E-3,1E0,3.9405786E-2,1E0,1E0,1E0,1E0,-4.9397964E-2,1E0,1E0,-1.7491933E-2,1E0,5.429709E-2,2.2664225E-2,6.42684E-2,-6.287506E-2,5.4923637E-4,-2.8588346E-3,-4.6715535E-2,-6.2817186E-2,-1.8390082E-2,-2.6196634E-2,5.9498426E-2,-5.252651E-2,3.2032914E-2,2.7262478E-3,5.2832928E-2,-1.4392725E-2,4.8189346E-2,6.772324E-2,1.1947732E-2,5.717811E-3,-5.1981237E-2],"split_indices":[125,1137,1958,1731,128,141,1428,251,0,0,0,1233,133,152,0,2022,162,861,159,152,54,62,113,1777,0,846,0,1255,138,129,1619,0,1255,23,0,160,0,0,0,0,0,0,0,0,0,0,0,0,0,0,0,0,0,0,0,0,0],"split_type":[0,0,0,0,0,0,0,0,0,0,0,0,0,0,0,0,0,0,0,0,0,0,0,0,0,0,0,0,0,0,0,0,0,0,0,0,0,0,0,0,0,0,0,0,0,0,0,0,0,0,0,0,0,0,0,0,0],"sum_hessian":[1.8567139E2,5.4395046E1,1.3127634E2,4.9340233E1,5.0548143E0,8.94667E1,4.1809635E1,4.7242126E1,2.0981083E0,1.2841607E0,3.7706537E0,6.1010193E1,2.8456507E1,3.9775013E1,2.0346231E0,4.1323963E1,5.9181623E0,4.7687088E1,1.3323107E1,1.4111953E1,1.4344554E1,6.6388197E0,3.3136192E1,4.022311E1,1.1008525E0,4.490425E0,1.4277372E0,4.382818E1,3.8589096E0,2.71894E0,1.0604166E1,2.1402524E0,1.19717E1,1.2769255E1,1.5752994E0,2.5045626E0,4.134257E0,1.9993776E0,3.1136814E1,3.9063576E1,1.159535E0,1.6741841E0,2.816241E0,1.5063995E1,2.8764183E1,1.3723555E0,2.4865541E0,1.4221952E0,1.2967448E0,2.228855E0,8.375312E0,5.985948E0,5.985752E0,1.1410393E1,1.3588623E0,1.2866621E0,1.2179005E0],"tree_param":{"num_deleted":"0","num_feature":"2215","num_nodes":"57","size_leaf_vector":"1"}},{"base_weights":[9.093326E-3,-8.6630553E-1,3.6904606E-1,-1.0262593E0,5.2120358E-2,-2.079031E-1,7.5507885E-1,-1.093813E0,2.8109351E-2,-6.045527E-1,5.3207934E-1,-4.9930286E-2,8.6404634E-1,-1.1438749E0,1.5720291E-2,-7.2326934E-1,4.1362654E-2,8.8312274E-1,-7.5504297E-1,9.362644E-1,-4.4955054E-1,-1.201567E0,-1.6508506E-1,-8.327719E-1,3.7797328E-2,-2.9650593E-1,1.1182975E0,-6.13383E-2,1.7343186E-2,9.869186E-1,-2.0915154E-1,1.1978445E-2,-5.4871827E-2,-6.184715E-2,3.8823732E-3,2.6889568E-2,-4.1494012E-2,-5.920582E-2,-1.4180191E-2,-3.0807514E-2,7.6874816E-3,-1.7513197E-3,6.1789777E-2,5.170555E-2,-1.3823866E-2,-3.980329E-2,3.332938E-2],"categories":[],"categories_nodes":[],"categories_segments":[],"categories_sizes":[],"default_left":[0,0,0,0,0,0,0,0,0,0,0,0,0,0,0,0,0,0,0,0,0,0,0,0,0,0,0,0,0,0,0,0,0,0,0,0,0,0,0,0,0,0,0,0,0,0,0],"id":16,"left_children":[1,3,5,7,-1,9,11,13,-1,15,17,-1,19,21,-1,23,-1,25,27,29,31,33,35,37,-1,39,41,-1,-1,43,45,-1,-1,-1,-1,-1,-1,-1,-1,-1,-1,-1,-1,-1,-1,-1,-1],"loss_changes":[5.662102E1,1.7055859E1,2.8512854E1,5.853153E0,0E0,1.5531949E1,1.548045E1,3.6846313E0,0E0,6.412533E0,9.078144E0,0E0,7.303879E0,2.385685E0,0E0,5.832262E0,0E0,4.517172E0,2.7793136E0,4.215538E0,2.252668E0,2.044407E0,2.1781824E0,5.526293E0,0E0,5.6943774E-1,1.7764025E0,0E0,0E0,4.241699E0,2.458857E0,0E0,0E0,0E0,0E0,0E0,0E0,0E0,0E0,0E0,0E0,0E0,0E0,0E0,0E0,0E0,0E0],"parents":[2147483647,0,0,1,1,2,2,3,3,5,5,6,6,7,7,9,9,10,10,12,12,13,13,15,15,17,17,18,18,19,19,20,20,21,21,22,22,23,23,25,25,26,26,29,29,30,30],"right_children":[2,4,6,8,-1,10,12,14,-1,16,18,-1,20,22,-1,24,-1,26,28,30,32,34,36,38,-1,40,42,-1,-1,44,46,-1,-1,-1,-1,-1,-1,-1,-1,-1,-1,-1,-1,-1,-1,-1,-1],"split_conditions":[1E0,1E0,1E0,1E0,5.2120358E-2,1E0,1E0,1E0,2.8109351E-2,1E0,1E0,-4.9930286E-2,1E0,1E0,1.5720291E-2,1E0,4.1362654E-2,1E0,1E0,1E0,1E0,1E0,1E0,1E0,3.7797328E-2,1E0,1E0,-6.13383E-2,1.7343186E-2,1E0,1E0,1.1978445E-2,-5.4871827E-2,-6.184715E-2,3.8823732E-3,2.6889568E-2,-4.1494012E-2,-5.920582E-2,-1.4180191E-2,-3.0807514E-2,7.6874816E-3,-1.7513197E-3,6.1789777E-2,5.170555E-2,-1.3823866E-2,-3.980329E-2,3.332938E-2],"split_indices":[125,625,128,1644,0,141,1917,1085,0,773,90,0,528,1656,0,288,0,150,1410,1769,104,1263,120,85,0,74,137,0,0,84,1410,0,0,0,0,0,0,0,0,0,0,0,0,0,0,0,0],"split_type":[0,0,0,0,0,0,0,0,0,0,0,0,0,0,0,0,0,0,0,0,0,0,0,0,0,0,0,0,0,0,0,0,0,0,0,0,0,0,0,0,0,0,0,0,0,0,0],"sum_hessian":[1.7767636E2,5.1360878E1,1.2631548E2,4.7816124E1,3.5447533E0,5.0821354E1,7.5494125E1,4.6164238E1,1.6518836E0,3.3205414E1,1.7615938E1,3.938881E0,7.1555244E1,4.476072E1,1.4035212E0,3.1119991E1,2.0854247E0,1.4087626E1,3.5283117E0,6.809862E1,3.456631E0,4.205433E1,2.7063887E0,2.9381939E1,1.7380521E0,2.2983565E0,1.178927E1,2.3912938E0,1.1370178E0,6.5347115E1,2.7514997E0,1.9804108E0,1.4762201E0,4.0954792E1,1.0995361E0,1.4083776E0,1.2980112E0,1.7213167E1,1.216877E1,1.1286573E0,1.1696993E0,1.1549127E0,1.0634357E1,6.3169006E1,2.1781087E0,1.7018859E0,1.0496137E0],"tree_param":{"num_deleted":"0","num_feature":"2215","num_nodes":"47","size_leaf_vector":"1"}},{"base_weights":[-3.5616323E-2,-3.4930187E-1,7.43658E-1,-8.9848953E-1,-4.7103483E-2,-2.8951862E-1,9.3054795E-1,-1.1280074E0,-2.3316719E-1,-5.297291E-1,3.9683416E-1,-5.9482723E-1,3.7719246E-2,2.4856519E-2,1.1626335E0,-1.1901312E0,-4.530987E-1,-4.530731E-1,4.6257388E-2,-6.516297E-1,5.2180715E-2,-1.1358577E-2,8.44161E-1,-8.764214E-1,2.356421E-2,-5.496307E-1,5.164745E-2,1.2092162E0,-9.799752E-3,-1.2409441E0,-1.166869E-2,1.372883E-2,-4.668393E-2,-6.336603E-1,2.9306432E-2,-8.145075E-1,2.5959644E-1,-6.467824E-1,4.2085293E-1,-4.145631E-2,9.818555E-1,7.113585E-3,-5.6175172E-2,-5.0909467E-2,4.068004E-2,6.151518E-2,1.3475279E-2,-6.4830475E-2,-1.40436655E-2,-4.2476766E-2,-5.0992216E-3,-1.4488372E-2,-6.0104813E-2,-3.672646E-2,3.7558783E-2,-4.1589737E-2,1.621525E-2,3.5371244E-2,-3.1610753E-2,5.3510554E-2,-1.253914E-3],"categories":[],"categories_nodes":[],"categories_segments":[],"categories_sizes":[],"default_left":[0,0,0,0,0,0,0,0,0,0,0,0,0,0,0,0,0,0,0,0,0,0,0,0,0,0,0,0,0,0,0,0,0,0,0,0,0,0,0,0,0,0,0,0,0,0,0,0,0,0,0,0,0,0,0,0,0,0,0,0,0],"id":17,"left_children":[1,3,5,7,9,11,13,15,17,19,21,23,-1,25,27,29,31,33,-1,35,-1,37,39,41,-1,43,-1,45,-1,47,-1,-1,-1,49,-1,51,53,55,57,-1,59,-1,-1,-1,-1,-1,-1,-1,-1,-1,-1,-1,-1,-1,-1,-1,-1,-1,-1,-1,-1],"loss_changes":[4.3491573E1,2.0998116E1,1.0132099E1,6.600113E0,1.7957712E1,3.1854682E0,9.112865E0,8.509064E-1,3.6766021E0,8.373876E0,7.99224E0,2.5754297E0,0E0,6.297287E0,2.4266624E0,1.1565361E0,1.7983732E0,2.5143886E0,0E0,5.828579E0,0E0,6.8210535E0,5.6230946E0,1.6820259E0,0E0,5.2707024E0,0E0,3.3404922E-1,0E0,1.1329956E0,0E0,0E0,0E0,1.0851083E0,0E0,6.230961E0,3.726983E0,2.074932E0,4.9129477E0,0E0,1.7833424E0,0E0,0E0,0E0,0E0,0E0,0E0,0E0,0E0,0E0,0E0,0E0,0E0,0E0,0E0,0E0,0E0,0E0,0E0,0E0,0E0],"parents":[2147483647,0,0,1,1,2,2,3,3,4,4,5,5,6,6,7,7,8,8,9,9,10,10,11,11,13,13,14,14,15,15,16,16,17,17,19,19,21,21,22,22,23,23,25,25,27,27,29,29,33,33,35,35,36,36,37,37,38,38,40,40],"right_children":[2,4,6,8,10,12,14,16,18,20,22,24,-1,26,28,30,32,34,-1,36,-1,38,40,42,-1,44,-1,46,-1,48,-1,-1,-1,50,-1,52,54,56,58,-1,60,-1,-1,-1,-1,-1,-1,-1,-1,-1,-1,-1,-1,-1,-1,-1,-1,-1,-1,-1,-1],"split_conditions":[1E0,1E0,1E0,1E0,1E0,1E0,1E0,1E0,1E0,1E0,1E0,1E0,3.7719246E-2,1E0,1E0,1E0,1E0,1E0,4.6257388E-2,1E0,5.2180715E-2,1E0,1E0,1E0,2.356421E-2,1E0,5.164745E-2,1E0,-9.799752E-3,1E0,-1.166869E-2,1.372883E-2,-4.668393E-2,1E0,2.9306432E-2,1E0,1E0,1E0,1E0,-4.145631E-2,1E0,7.113585E-3,-5.6175172E-2,-5.0909467E-2,4.068004E-2,6.151518E-2,1.3475279E-2,-6.4830475E-2,-1.40436655E-2,-4.2476766E-2,-5.0992216E-3,-1.4488372E-2,-6.0104813E-2,-3.672646E-2,3.7558783E-2,-4.1589737E-2,1.621525E-2,3.5371244E-2,-3.1610753E-2,5.3510554E-2,-1.253914E-3],"split_indices":[1921,125,1255,50,126,1958,150,1889,106,1787,62,66,0,144,1624,906,146,1731,0,141,0,128,1917,127,0,285,0,1753,0,1484,0,0,0,1008,0,159,133,416,1982,0,1914,0,0,0,0,0,0,0,0,0,0,0,0,0,0,0,0,0,0,0,0],"split_type":[0,0,0,0,0,0,0,0,0,0,0,0,0,0,0,0,0,0,0,0,0,0,0,0,0,0,0,0,0,0,0,0,0,0,0,0,0,0,0,0,0,0,0,0,0,0,0,0,0,0,0,0,0,0,0,0,0,0,0,0,0],"sum_hessian":[1.7585551E2,1.25777405E2,5.0078106E1,4.3944153E1,8.183325E1,7.5868535E0,4.2491253E1,3.215584E1,1.178831E1,3.911559E1,4.2717663E1,6.2028937E0,1.3839598E0,8.893261E0,3.3597992E1,2.8746407E1,3.4094365E0,1.0419097E1,1.3692126E0,3.6846596E1,2.2689931E0,2.2845446E1,1.987222E1,5.0475903E0,1.1553032E0,5.9546394E0,2.9386218E0,3.2590546E1,1.0074445E0,2.701464E1,1.7317659E0,1.5265896E0,1.8828468E0,9.209041E0,1.2100569E0,3.13492E1,5.4973965E0,9.04756E0,1.3797887E1,1.1291468E0,1.874307E1,1.0681041E0,3.9794862E0,4.619849E0,1.3347901E0,3.157281E1,1.0177364E0,2.5202835E1,1.8118047E0,6.124487E0,3.0845535E0,1.4060667E1,1.7288532E1,1.6554133E0,3.8419828E0,7.72015E0,1.3274096E0,1.1104295E1,2.6935925E0,1.717332E1,1.569751E0],"tree_param":{"num_deleted":"0","num_feature":"2215","num_nodes":"61","size_leaf_vector":"1"}},{"base_weights":[-4.9468162E-3,-2.570601E-1,8.9623964E-1,-3.8375017E-1,9.9237525E-1,-3.9122835E-1,1.066625E0,-5.57153E-1,4.1700765E-1,-1.1138093E-2,5.734951E-2,-8.1074214E-1,3.3304777E-2,2.790203E-1,5.9927233E-2,-6.529733E-1,4.6780875E-1,-3.8480282E-1,7.5754136E-1,-9.694296E-3,-5.3875595E-2,-4.5067713E-2,8.28217E-1,-7.0545036E-1,8.060327E-1,-5.2957964E-1,8.690643E-1,-6.488358E-1,2.1215264E-2,-2.1500714E-2,9.39244E-1,5.2341353E-2,3.3175894E-3,-3.7628423E-2,4.888148E-2,1.12657705E-2,4.750242E-2,1.1807247E-2,-5.2096665E-2,5.7297718E-2,1.7073734E-3,-5.8802117E-2,5.2083065E-3,5.4663528E-2,-5.217773E-3],"categories":[],"categories_nodes":[],"categories_segments":[],"categories_sizes":[],"default_left":[0,0,0,0,0,0,0,0,0,0,0,0,0,0,0,0,0,0,0,0,0,0,0,0,0,0,0,0,0,0,0,0,0,0,0,0,0,0,0,0,0,0,0,0,0],"id":18,"left_children":[1,3,5,7,9,11,13,15,17,-1,-1,19,-1,21,-1,23,25,27,29,-1,-1,-1,31,33,35,37,39,41,-1,-1,43,-1,-1,-1,-1,-1,-1,-1,-1,-1,-1,-1,-1,-1,-1],"loss_changes":[4.071535E1,2.2543858E1,9.011065E0,1.798415E1,2.7296753E0,2.8954556E0,3.2881012E0,1.0668495E1,6.661258E0,0E0,0E0,4.9092627E-1,0E0,4.8340364E0,0E0,7.988701E0,4.303701E0,1.902631E0,4.009877E0,0E0,0E0,0E0,7.340455E-1,8.196739E0,1.0637188E-1,1.5707414E0,1.6316357E0,2.5594761E0,0E0,0E0,2.4943085E0,0E0,0E0,0E0,0E0,0E0,0E0,0E0,0E0,0E0,0E0,0E0,0E0,0E0,0E0],"parents":[2147483647,0,0,1,1,2,2,3,3,4,4,5,5,6,6,7,7,8,8,11,11,13,13,15,15,16,16,17,17,18,18,22,22,23,23,24,24,25,25,26,26,27,27,30,30],"right_children":[2,4,6,8,10,12,14,16,18,-1,-1,20,-1,22,-1,24,26,28,30,-1,-1,-1,32,34,36,38,40,42,-1,-1,44,-1,-1,-1,-1,-1,-1,-1,-1,-1,-1,-1,-1,-1,-1],"split_conditions":[1E0,1E0,1E0,1E0,1E0,1E0,1E0,1E0,1E0,-1.1138093E-2,5.734951E-2,1E0,3.3304777E-2,1E0,5.9927233E-2,1E0,1E0,1E0,1E0,-9.694296E-3,-5.3875595E-2,-4.5067713E-2,1E0,1E0,1E0,1E0,1E0,1E0,2.1215264E-2,-2.1500714E-2,1E0,5.2341353E-2,3.3175894E-3,-3.7628423E-2,4.888148E-2,1.12657705E-2,4.750242E-2,1.1807247E-2,-5.2096665E-2,5.7297718E-2,1.7073734E-3,-5.8802117E-2,5.2083065E-3,5.4663528E-2,-5.217773E-3],"split_indices":[1410,1045,144,1958,120,948,138,1970,113,0,0,159,0,149,0,1787,154,62,125,0,0,0,82,1678,212,139,91,126,0,0,90,0,0,0,0,0,0,0,0,0,0,0,0,0,0],"split_type":[0,0,0,0,0,0,0,0,0,0,0,0,0,0,0,0,0,0,0,0,0,0,0,0,0,0,0,0,0,0,0,0,0,0,0,0,0,0,0,0,0,0,0,0,0],"sum_hessian":[1.7719E2,1.3901448E2,3.8175533E1,1.26845474E2,1.2168997E1,4.3102474E0,3.3865284E1,1.0451676E2,2.2328718E1,1.3238612E0,1.0845135E1,3.2528348E0,1.0574126E0,5.3053913E0,2.8559895E1,9.5913086E1,8.603672E0,6.617456E0,1.5711263E1,1.5033664E0,1.7494686E0,1.4810294E0,3.824362E0,9.308164E1,2.8314424E0,2.3765497E0,6.2271223E0,5.138662E0,1.4787939E0,1.9035603E0,1.3807703E1,2.6810331E0,1.1433289E0,9.108458E1,1.9970673E0,1.0722612E0,1.7591813E0,1.1688194E0,1.2077303E0,4.3965297E0,1.8305929E0,2.6920476E0,2.4466145E0,1.1990421E1,1.8172817E0],"tree_param":{"num_deleted":"0","num_feature":"2215","num_nodes":"45","size_leaf_vector":"1"}},{"base_weights":[-7.2874073E-3,-7.4887013E-1,2.929076E-1,-8.8485134E-1,7.2238886E-1,-7.488523E-1,4.8501283E-1,-1.093308E0,-3.0542094E-1,-3.3893716E-3,4.866992E-2,-9.1648877E-1,3.9322793E-2,2.3092574E-1,1.0002674E0,-1.1534221E0,-3.2012138E-1,-4.9866855E-1,3.6051538E-2,-1.1111681E0,3.4209695E-1,3.3530036E-1,-1.0945914E0,1.0623301E0,-1.54134855E-2,-1.2022455E0,-4.1519153E-1,-4.162396E-2,1.7074814E-2,-8.3811146E-1,5.8565248E-2,-1.2195027E0,9.382829E-3,3.566557E-2,-8.263534E-3,-7.3169667E-1,4.3211225E-1,-6.1952032E-2,-1.226266E-2,7.933404E-2,1.1292162E0,-6.155411E-2,-1.1131319E-2,-3.897846E-2,9.9775605E-3,-5.6220837E-2,-1.4767808E-2,2.8939286E-2,-3.192929E-2,-6.6337235E-2,-1.3354992E-2,-5.594675E-2,1.5788311E-2,6.941562E-3,4.126186E-2,1.2687966E-2,-6.9268118E-3,9.551107E-3,6.007834E-2],"categories":[],"categories_nodes":[],"categories_segments":[],"categories_sizes":[],"default_left":[0,0,0,0,0,0,0,0,0,0,0,0,0,0,0,0,0,0,0,0,0,0,0,0,0,0,0,0,0,0,0,0,0,0,0,0,0,0,0,0,0,0,0,0,0,0,0,0,0,0,0,0,0,0,0,0,0,0,0],"id":19,"left_children":[1,3,5,7,9,11,13,15,17,-1,-1,19,-1,21,23,25,27,29,-1,31,33,35,37,39,-1,41,43,-1,-1,45,47,49,-1,-1,-1,51,53,-1,-1,55,57,-1,-1,-1,-1,-1,-1,-1,-1,-1,-1,-1,-1,-1,-1,-1,-1,-1,-1],"loss_changes":[3.829891E1,1.0556551E1,2.4875076E1,5.2012825E0,1.007019E0,5.7299557E0,1.3387083E1,1.1791916E0,3.03984E0,0E0,0E0,4.7926073E0,0E0,1.018505E1,3.0930252E0,6.0111237E-1,1.5681739E0,2.311791E0,0E0,2.4564686E0,7.1625876E-1,7.1907034E0,3.6041498E-1,2.0628014E0,0E0,5.198822E-1,9.219067E-1,0E0,0E0,8.3325005E-1,2.3509524E0,1.1517544E0,0E0,0E0,0E0,2.749434E0,6.9926405E0,0E0,0E0,1.5528506E-1,1.8458939E0,0E0,0E0,0E0,0E0,0E0,0E0,0E0,0E0,0E0,0E0,0E0,0E0,0E0,0E0,0E0,0E0,0E0,0E0],"parents":[2147483647,0,0,1,1,2,2,3,3,4,4,5,5,6,6,7,7,8,8,11,11,13,13,14,14,15,15,16,16,17,17,19,19,20,20,21,21,22,22,23,23,25,25,26,26,29,29,30,30,31,31,35,35,36,36,39,39,40,40],"right_children":[2,4,6,8,10,12,14,16,18,-1,-1,20,-1,22,24,26,28,30,-1,32,34,36,38,40,-1,42,44,-1,-1,46,48,50,-1,-1,-1,52,54,-1,-1,56,58,-1,-1,-1,-1,-1,-1,-1,-1,-1,-1,-1,-1,-1,-1,-1,-1,-1,-1],"split_conditions":[1E0,1E0,1E0,1E0,1E0,1E0,1E0,1E0,1E0,-3.3893716E-3,4.866992E-2,1E0,3.9322793E-2,1E0,1E0,1E0,1E0,1E0,3.6051538E-2,1E0,1E0,1E0,1E0,1E0,-1.54134855E-2,1E0,1E0,-4.162396E-2,1.7074814E-2,1E0,1E0,1E0,9.382829E-3,3.566557E-2,-8.263534E-3,1E0,1E0,-6.1952032E-2,-1.226266E-2,1E0,1E0,-6.155411E-2,-1.1131319E-2,-3.897846E-2,9.9775605E-3,-5.6220837E-2,-1.4767808E-2,2.8939286E-2,-3.192929E-2,-6.6337235E-2,-1.3354992E-2,-5.594675E-2,1.5788311E-2,6.941562E-3,4.126186E-2,1.2687966E-2,-6.9268118E-3,9.551107E-3,6.007834E-2],"split_indices":[125,1137,153,76,758,322,1410,653,106,0,0,1970,0,84,88,38,140,1905,0,1584,1704,1917,141,144,0,2148,149,0,0,109,389,1008,0,0,0,1312,62,0,0,156,158,0,0,0,0,0,0,0,0,0,0,0,0,0,0,0,0,0,0],"split_type":[0,0,0,0,0,0,0,0,0,0,0,0,0,0,0,0,0,0,0,0,0,0,0,0,0,0,0,0,0,0,0,0,0,0,0,0,0,0,0,0,0,0,0,0,0,0,0,0,0,0,0,0,0,0,0,0,0,0,0],"sum_hessian":[1.7005226E2,4.857098E1,1.2148128E2,4.482647E1,3.7445135E0,1.8462667E1,1.03018616E2,3.23142E1,1.2512267E1,1.0787032E0,2.6658103E0,1.70086E1,1.4540677E0,6.9965004E1,3.3053608E1,2.952676E1,2.7874398E0,1.0962556E1,1.5497121E0,1.4831566E1,2.177033E0,6.555044E1,4.414568E0,3.1736528E1,1.3170807E0,2.7105566E1,2.4211953E0,1.425377E0,1.3620627E0,6.4993644E0,4.463191E0,1.3746083E1,1.0854831E0,1.0227983E0,1.1542348E0,4.9073157E0,6.064312E1,3.3807619E0,1.0338061E0,2.1611483E0,2.957538E1,2.6081131E1,1.0244353E0,1.3518109E0,1.0693843E0,3.5533032E0,2.9460611E0,2.6531618E0,1.8100294E0,1.2001631E1,1.7444528E0,3.5329719E0,1.3743441E0,3.550709E1,2.513603E1,1.1087581E0,1.0523901E0,2.3780923E0,2.7197289E1],"tree_param":{"num_deleted":"0","num_feature":"2215","num_nodes":"59","size_leaf_vector":"1"}},{"base_weights":[-9.502017E-3,-2.5354114E-1,8.817948E-1,-3.670427E-1,9.0915394E-1,-4.4326615E-2,9.932428E-1,-5.178906E-1,3.2749748E-1,1.1697754E-2,5.791088E-2,3.0332989E-1,1.1338464E0,-6.0811424E-1,4.374245E-1,-4.8240992E-1,6.722324E-1,-4.1212272E-2,3.9892774E-2,-3.787647E-2,8.282743E-1,5.92857E-2,4.4097158E-1,-6.589187E-1,7.901513E-1,8.7043136E-1,-3.0793881E-2,-7.115556E-1,2.2556279E-2,-3.9654426E-2,9.222051E-1,5.1164098E-2,1.0070218E-3,-1.0476799E-2,3.8766008E-2,-3.496319E-2,4.5558993E-2,1.1208584E-2,4.6349388E-2,5.5943485E-2,3.9454135E-3,5.4564015E-3,-5.0553918E-2,-3.6221053E-2,4.1618586E-2,5.51708E-2,-2.7099118E-2],"categories":[],"categories_nodes":[],"categories_segments":[],"categories_sizes":[],"default_left":[0,0,0,0,0,0,0,0,0,0,0,0,0,0,0,0,0,0,0,0,0,0,0,0,0,0,0,0,0,0,0,0,0,0,0,0,0,0,0,0,0,0,0,0,0,0,0],"id":20,"left_children":[1,3,5,7,9,-1,11,13,15,17,-1,19,21,23,25,27,29,-1,-1,-1,31,-1,33,35,37,39,-1,41,-1,43,45,-1,-1,-1,-1,-1,-1,-1,-1,-1,-1,-1,-1,-1,-1,-1,-1],"loss_changes":[3.790868E1,1.838575E1,8.263908E0,1.3301252E1,2.7700977E0,0E0,3.1205673E0,9.174856E0,6.7396693E0,3.0994105E0,0E0,4.754927E0,5.3022766E-1,7.259285E0,4.869368E0,1.9130551E0,2.9790092E0,0E0,0E0,0E0,8.360431E-1,0E0,9.5260763E-1,6.4699745E0,8.498263E-2,1.3172193E0,0E0,1.6746104E0,0E0,3.7415075E0,3.8559866E0,0E0,0E0,0E0,0E0,0E0,0E0,0E0,0E0,0E0,0E0,0E0,0E0,0E0,0E0,0E0,0E0],"parents":[2147483647,0,0,1,1,2,2,3,3,4,4,6,6,7,7,8,8,9,9,11,11,12,12,13,13,14,14,15,15,16,16,20,20,22,22,23,23,24,24,25,25,27,27,29,29,30,30],"right_children":[2,4,6,8,10,-1,12,14,16,18,-1,20,22,24,26,28,30,-1,-1,-1,32,-1,34,36,38,40,-1,42,-1,44,46,-1,-1,-1,-1,-1,-1,-1,-1,-1,-1,-1,-1,-1,-1,-1,-1],"split_conditions":[1E0,1E0,1E0,1E0,1E0,-4.4326615E-2,1E0,1E0,1E0,1E0,5.791088E-2,1E0,1E0,1E0,1E0,1E0,1E0,-4.1212272E-2,3.9892774E-2,-3.787647E-2,1E0,5.92857E-2,1E0,1E0,1E0,1E0,-3.0793881E-2,1E0,2.2556279E-2,1E0,1E0,5.1164098E-2,1.0070218E-3,-1.0476799E-2,3.8766008E-2,-3.496319E-2,4.5558993E-2,1.1208584E-2,4.6349388E-2,5.5943485E-2,3.9454135E-3,5.4564015E-3,-5.0553918E-2,-3.6221053E-2,4.1618586E-2,5.51708E-2,-2.7099118E-2],"split_indices":[1410,1045,145,1958,155,0,138,1970,97,79,0,149,124,1787,398,57,91,0,0,0,394,0,154,1678,212,100,0,2084,0,212,57,0,0,0,0,0,0,0,0,0,0,0,0,0,0,0,0],"split_type":[0,0,0,0,0,0,0,0,0,0,0,0,0,0,0,0,0,0,0,0,0,0,0,0,0,0,0,0,0,0,0,0,0,0,0,0,0,0,0,0,0,0,0,0,0,0,0],"sum_hessian":[1.7225589E2,1.3579141E2,3.6464466E1,1.24337944E2,1.1453474E1,1.749575E0,3.471489E1,1.02360504E2,2.197744E1,2.7155268E0,8.737947E0,6.4116406E0,2.8303251E1,9.385949E1,8.501013E0,6.442441E0,1.5534998E1,1.2926105E0,1.4229162E0,1.9757617E0,4.4358788E0,2.5670315E1,2.6329365E0,9.1078995E1,2.7804976E0,6.147447E0,2.353566E0,5.363661E0,1.0787804E0,4.2559686E0,1.127903E1,3.359084E0,1.0767951E0,1.0205868E0,1.6123496E0,8.933801E1,1.740984E0,1.055015E0,1.7254827E0,4.3641043E0,1.783343E0,1.604109E0,3.7595518E0,2.4787633E0,1.7772052E0,1.0256109E1,1.0229201E0],"tree_param":{"num_deleted":"0","num_feature":"2215","num_nodes":"47","size_leaf_vector":"1"}},{"base_weights":[2.51445E-2,-2.042588E-1,8.8387775E-1,-3.1300983E-1,9.354308E-1,-2.0166641E-1,1.0311824E0,-6.0342044E-1,5.5868205E-2,1.519729E-1,5.6937426E-2,-7.2352725E-1,3.6320746E-2,1.0752919E0,-6.200196E-3,-6.999756E-1,5.889378E-1,-5.1717E-1,4.704932E-1,-3.702696E-2,4.0601622E-2,-8.708695E-3,-4.9612906E-2,1.1226928E0,-2.6883166E-3,-7.521671E-1,4.6203237E-2,5.247314E-2,-2.5119921E-2,-7.0956504E-1,5.1163757E-1,-4.9383633E-2,8.6874354E-1,5.8230788E-2,1.3942582E-2,-4.159319E-2,1.999945E-2,-4.2156976E-2,4.1673336E-2,5.5042196E-2,-8.426507E-3,-3.4792453E-2,3.4217976E-2,5.174705E-2,-6.403147E-3],"categories":[],"categories_nodes":[],"categories_segments":[],"categories_sizes":[],"default_left":[0,0,0,0,0,0,0,0,0,0,0,0,0,0,0,0,0,0,0,0,0,0,0,0,0,0,0,0,0,0,0,0,0,0,0,0,0,0,0,0,0,0,0,0,0],"id":21,"left_children":[1,3,5,7,9,11,13,15,17,19,-1,21,-1,23,-1,25,27,29,31,-1,-1,-1,-1,33,-1,35,-1,-1,-1,37,39,41,43,-1,-1,-1,-1,-1,-1,-1,-1,-1,-1,-1,-1],"loss_changes":[3.3410114E1,1.6892632E1,5.9244957E0,1.3211762E1,1.7252827E0,2.9994767E0,1.7456284E0,8.3460045E0,1.3335328E1,2.7277448E0,0E0,3.8380015E-1,0E0,1.6970253E0,0E0,6.137308E0,3.394733E0,5.0360255E0,6.770407E0,0E0,0E0,0E0,0E0,7.151222E-1,0E0,6.095459E0,0E0,0E0,0E0,4.8883963E0,1.9089645E0,7.6106315E0,3.1895533E0,0E0,0E0,0E0,0E0,0E0,0E0,0E0,0E0,0E0,0E0,0E0,0E0],"parents":[2147483647,0,0,1,1,2,2,3,3,4,4,5,5,6,6,7,7,8,8,9,9,11,11,13,13,15,15,16,16,17,17,18,18,23,23,25,25,29,29,30,30,31,31,32,32],"right_children":[2,4,6,8,10,12,14,16,18,20,-1,22,-1,24,-1,26,28,30,32,-1,-1,-1,-1,34,-1,36,-1,-1,-1,38,40,42,44,-1,-1,-1,-1,-1,-1,-1,-1,-1,-1,-1,-1],"split_conditions":[1E0,1E0,1E0,1E0,1E0,1E0,1E0,1E0,1E0,1E0,5.6937426E-2,1E0,3.6320746E-2,1E0,-6.200196E-3,1E0,1E0,1E0,1E0,-3.702696E-2,4.0601622E-2,-8.708695E-3,-4.9612906E-2,1E0,-2.6883166E-3,1E0,4.6203237E-2,5.247314E-2,-2.5119921E-2,1E0,1E0,1E0,1E0,5.8230788E-2,1.3942582E-2,-4.159319E-2,1.999945E-2,-4.2156976E-2,4.1673336E-2,5.5042196E-2,-8.426507E-3,-3.4792453E-2,3.4217976E-2,5.174705E-2,-6.403147E-3],"split_indices":[1410,1045,144,75,155,948,1674,1970,1366,79,0,159,0,1210,0,1887,398,519,113,0,0,0,0,307,0,1293,0,0,0,342,80,80,90,0,0,0,0,0,0,0,0,0,0,0,0],"split_type":[0,0,0,0,0,0,0,0,0,0,0,0,0,0,0,0,0,0,0,0,0,0,0,0,0,0,0,0,0,0,0,0,0,0,0,0,0,0,0,0,0,0,0,0,0],"sum_hessian":[1.6768127E2,1.3293181E2,3.4749466E1,1.2201436E2,1.0917451E1,4.1078796E0,3.0641584E1,6.791239E1,5.4101963E1,2.6095111E0,8.30794E0,2.7704558E0,1.337424E0,2.958122E1,1.0603628E0,6.320695E1,4.705442E0,2.2608395E1,3.1493567E1,1.05757E0,1.5519413E0,1.4514544E0,1.3190014E0,2.8394766E1,1.1864552E0,6.1759064E1,1.4478878E0,3.3360538E0,1.369388E0,1.930796E1,3.300436E0,1.4040747E1,1.745282E1,2.6688707E1,1.7060586E0,5.8023476E1,3.735591E0,1.818715E1,1.1208107E0,1.4370655E0,1.8633704E0,7.491763E0,6.548983E0,1.492596E1,2.526861E0],"tree_param":{"num_deleted":"0","num_feature":"2215","num_nodes":"45","size_leaf_vector":"1"}},{"base_weights":[1.1768831E-3,-6.921413E-1,2.9369983E-1,-8.475383E-1,7.0162106E-1,3.9098766E-2,9.4038606E-1,-9.161786E-1,2.9744238E-2,-1.5653577E-2,5.216203E-2,-4.9833927E-1,2.8639156E-1,1.0222422E0,-9.875246E-2,-9.699232E-1,3.3264175E-2,-7.883059E-1,5.9309787E-1,-7.219472E-1,3.9604935E-1,1.0943856E0,-4.772993E-3,-4.2316735E-2,3.427755E-2,-1.0227846E0,2.5165394E-2,-9.2568344E-1,4.3735385E-2,-1.9309811E-2,4.6282686E-2,-5.3577084E-2,4.7233216E-3,6.985437E-1,-6.0567826E-2,1.1429353E0,-4.0007588E-3,-5.41614E-2,-4.171307E-3,-5.431437E-2,1.050569E-3,4.3911662E-2,3.7033637E-3,-2.357755E-2,3.197441E-2,5.8450516E-2,1.2308168E-2],"categories":[],"categories_nodes":[],"categories_segments":[],"categories_sizes":[],"default_left":[0,0,0,0,0,0,0,0,0,0,0,0,0,0,0,0,0,0,0,0,0,0,0,0,0,0,0,0,0,0,0,0,0,0,0,0,0,0,0,0,0,0,0,0,0,0,0],"id":22,"left_children":[1,3,5,7,9,11,13,15,-1,-1,-1,17,19,21,23,25,-1,27,29,31,33,35,-1,-1,-1,37,-1,39,-1,-1,-1,-1,-1,41,43,45,-1,-1,-1,-1,-1,-1,-1,-1,-1,-1,-1],"loss_changes":[3.3567314E1,1.1231495E1,1.9127537E1,4.9645424E0,2.223929E0,1.1381044E1,2.8940544E0,4.300392E0,0E0,0E0,0E0,9.016372E0,6.759614E0,2.5660324E0,2.5207827E0,3.7853966E0,0E0,5.783637E0,2.3898964E0,1.8413348E0,7.425091E0,1.7310562E0,0E0,0E0,0E0,2.2302818E0,0E0,3.1543121E0,0E0,0E0,0E0,0E0,0E0,3.551652E0,6.6943107E0,3.5949326E-1,0E0,0E0,0E0,0E0,0E0,0E0,0E0,0E0,0E0,0E0,0E0],"parents":[2147483647,0,0,1,1,2,2,3,3,4,4,5,5,6,6,7,7,11,11,12,12,13,13,14,14,15,15,17,17,18,18,19,19,20,20,21,21,25,25,27,27,33,33,34,34,35,35],"right_children":[2,4,6,8,10,12,14,16,-1,-1,-1,18,20,22,24,26,-1,28,30,32,34,36,-1,-1,-1,38,-1,40,-1,-1,-1,-1,-1,42,44,46,-1,-1,-1,-1,-1,-1,-1,-1,-1,-1,-1],"split_conditions":[1E0,1E0,1E0,1E0,1E0,1E0,1E0,1E0,2.9744238E-2,-1.5653577E-2,5.216203E-2,1E0,1E0,1E0,1E0,1E0,3.3264175E-2,1E0,1E0,1E0,1E0,1E0,-4.772993E-3,-4.2316735E-2,3.427755E-2,1E0,2.5165394E-2,1E0,4.3735385E-2,-1.9309811E-2,4.6282686E-2,-5.3577084E-2,4.7233216E-3,1E0,1E0,1E0,-4.0007588E-3,-5.41614E-2,-4.171307E-3,-5.431437E-2,1.050569E-3,4.3911662E-2,3.7033637E-3,-2.357755E-2,3.197441E-2,5.8450516E-2,1.2308168E-2],"split_indices":[125,1137,1410,1644,128,85,130,1790,0,0,0,1327,1917,123,49,284,0,1620,157,115,116,1770,0,0,0,1656,0,116,0,0,0,0,0,90,133,2209,0,0,0,0,0,0,0,0,0,0,0],"split_type":[0,0,0,0,0,0,0,0,0,0,0,0,0,0,0,0,0,0,0,0,0,0,0,0,0,0,0,0,0,0,0,0,0,0,0,0,0,0,0,0,0,0,0,0,0,0,0],"sum_hessian":[1.6350763E2,4.8111317E1,1.1539631E2,4.363784E1,4.473478E0,8.355936E1,3.1836948E1,4.2003845E1,1.6339947E0,1.1478003E0,3.3256776E0,2.6012205E1,5.754715E1,2.9527256E1,2.309694E0,4.099728E1,1.0065653E0,2.0771494E1,5.240712E0,5.0968003E0,5.245035E1,2.7756538E1,1.7707161E0,1.1420368E0,1.1676573E0,3.9872364E1,1.124916E0,1.9596077E1,1.1754155E0,1.287639E0,3.953073E0,3.3498645E0,1.7469356E0,3.123099E1,2.1219362E1,2.6680367E1,1.076172E0,3.7317966E1,2.5543966E0,1.6627773E1,2.9683044E0,2.3936928E1,7.294062E0,1.3575801E1,7.643561E0,2.5631516E1,1.0488521E0],"tree_param":{"num_deleted":"0","num_feature":"2215","num_nodes":"47","size_leaf_vector":"1"}},{"base_weights":[2.0596221E-2,-1.8753946E-1,7.953805E-1,-2.908313E-1,9.563349E-1,-4.1569233E-2,9.014848E-1,-6.2079006E-1,9.696536E-2,5.8138706E-2,3.5636595E-1,1.9975944E-1,1.0443226E0,-7.6982886E-1,-1.8038861E-2,-7.677813E-1,4.6124968E-1,-2.7139386E-2,4.5675345E-2,-3.762208E-2,7.464899E-1,1.0990921E0,5.4990537E-3,-8.3656967E-1,4.5344304E-2,-4.5692485E-2,3.7385085E-1,-1.0659212E0,-1.1122173E-2,7.006589E-1,-1.6120985E-1,4.7576364E-2,7.208301E-5,5.64872E-2,9.545282E-3,-4.511978E-2,3.8760576E-2,4.251333E-2,-1.8563977E-2,-5.7520993E-2,-6.0293768E-3,3.390489E-2,-3.5894554E-2,-1.4996968E-2,4.440364E-2,-2.213691E-2,4.3785006E-2],"categories":[],"categories_nodes":[],"categories_segments":[],"categories_sizes":[],"default_left":[0,0,0,0,0,0,0,0,0,0,0,0,0,0,0,0,0,0,0,0,0,0,0,0,0,0,0,0,0,0,0,0,0,0,0,0,0,0,0,0,0,0,0,0,0,0,0],"id":23,"left_children":[1,3,5,7,9,-1,11,13,15,-1,17,19,21,23,25,27,29,-1,-1,-1,31,33,-1,35,-1,-1,37,39,41,43,45,-1,-1,-1,-1,-1,-1,-1,-1,-1,-1,-1,-1,-1,-1,-1,-1],"loss_changes":[2.6216177E1,1.5428399E1,6.690544E0,1.520683E1,9.298506E-1,0E0,3.0782146E0,5.7436085E0,1.7768732E1,0E0,2.6100094E0,4.0926385E0,1.261282E0,6.5062656E0,5.1615825E0,3.7692337E0,6.0024977E0,0E0,0E0,0E0,7.335067E-1,4.9147224E-1,0E0,5.9953995E0,0E0,0E0,3.958251E0,8.208542E-1,3.2867703E0,5.6539974E0,3.8297615E0,0E0,0E0,0E0,0E0,0E0,0E0,0E0,0E0,0E0,0E0,0E0,0E0,0E0,0E0,0E0,0E0],"parents":[2147483647,0,0,1,1,2,2,3,3,4,4,6,6,7,7,8,8,10,10,11,11,12,12,13,13,14,14,15,15,16,16,20,20,21,21,23,23,26,26,27,27,28,28,29,29,30,30],"right_children":[2,4,6,8,10,-1,12,14,16,-1,18,20,22,24,26,28,30,-1,-1,-1,32,34,-1,36,-1,-1,38,40,42,44,46,-1,-1,-1,-1,-1,-1,-1,-1,-1,-1,-1,-1,-1,-1,-1,-1],"split_conditions":[1E0,1E0,1E0,1E0,1E0,-4.1569233E-2,1E0,1E0,1E0,5.8138706E-2,1E0,1E0,1E0,1E0,1E0,1E0,1E0,-2.7139386E-2,4.5675345E-2,-3.762208E-2,1E0,1E0,5.4990537E-3,1E0,4.5344304E-2,-4.5692485E-2,1E0,1E0,1E0,1E0,1E0,4.7576364E-2,7.208301E-5,5.64872E-2,9.545282E-3,-4.511978E-2,3.8760576E-2,4.251333E-2,-1.8563977E-2,-5.7520993E-2,-6.0293768E-3,3.390489E-2,-3.5894554E-2,-1.4996968E-2,4.440364E-2,-2.213691E-2,4.3785006E-2],"split_indices":[1410,1063,145,75,101,0,138,50,1255,0,1186,149,844,1887,116,107,90,0,0,0,140,1271,0,1032,0,0,1321,1412,136,125,2014,0,0,0,0,0,0,0,0,0,0,0,0,0,0,0,0],"split_type":[0,0,0,0,0,0,0,0,0,0,0,0,0,0,0,0,0,0,0,0,0,0,0,0,0,0,0,0,0,0,0,0,0,0,0,0,0,0,0,0,0,0,0,0,0,0,0],"sum_hessian":[1.6064561E2,1.2722596E2,3.3419647E1,1.1737294E2,9.8530245E0,1.6277561E0,3.1791891E1,6.3090904E1,5.4282036E1,6.63275E0,3.2202747E0,5.782495E0,2.6009396E1,5.0361195E1,1.272971E1,1.5760869E1,3.8521164E1,1.2418504E0,1.9784243E0,1.9719081E0,3.810587E0,2.440263E1,1.6067667E0,4.8915215E1,1.4459807E0,3.4687276E0,9.2609825E0,1.1012851E1,4.7480183E0,2.7730053E1,1.0791112E1,2.7708998E0,1.0396872E0,2.3369925E1,1.0327052E0,4.7418736E1,1.4964786E0,5.5630345E0,3.6979477E0,9.910091E0,1.1027595E0,2.424391E0,2.3236275E0,4.279813E0,2.3450241E1,8.9375305E0,1.8535808E0],"tree_param":{"num_deleted":"0","num_feature":"2215","num_nodes":"47","size_leaf_vector":"1"}},{"base_weights":[-3.0408748E-3,-6.382455E-1,2.5250524E-1,-7.781665E-1,6.522463E-1,-7.1945035E-1,4.298548E-1,-9.3959206E-1,2.4300115E-1,-1.4942171E-2,5.004887E-2,-8.8084716E-1,2.4305E-2,1.8018615E-1,8.8255244E-1,-1.0408261E0,-2.4916154E-1,8.4651375E-1,-3.4073822E-2,-1.0165033E0,1.3044287E-2,-7.50548E-1,2.8365055E-1,5.573859E-1,5.70615E-2,-1.0877982E0,7.725589E-3,-4.3918718E-2,3.5127681E-1,1.0265583E-2,5.6649055E-2,-1.1284087E0,1.0848722E-2,-5.3757675E-2,5.525744E-3,3.542024E-1,-4.6620365E-2,1.469437E-1,5.2645124E-2,-5.650937E-2,7.8224385E-4,5.281205E-2,-2.1458862E-2,-6.229986E-2,-7.823389E-3,2.1327956E-2,-3.7179112E-2,-1.4142699E-2,4.6547912E-2],"categories":[],"categories_nodes":[],"categories_segments":[],"categories_sizes":[],"default_left":[0,0,0,0,0,0,0,0,0,0,0,0,0,0,0,0,0,0,0,0,0,0,0,0,0,0,0,0,0,0,0,0,0,0,0,0,0,0,0,0,0,0,0,0,0,0,0,0,0],"id":24,"left_children":[1,3,5,7,9,11,13,15,17,-1,-1,19,-1,21,23,25,27,29,-1,31,-1,33,35,37,-1,39,-1,-1,41,-1,-1,43,-1,-1,-1,45,-1,47,-1,-1,-1,-1,-1,-1,-1,-1,-1,-1,-1],"loss_changes":[2.5978802E1,8.7979355E0,1.998371E1,7.131586E0,1.9691725E0,3.9278507E0,1.0821342E1,2.2825394E0,4.2095366E0,0E0,0E0,2.777153E0,0E0,6.363735E0,2.2470703E0,1.9312172E0,2.5622094E0,5.728891E-1,0E0,2.2739582E0,0E0,1.981539E0,5.3242865E0,3.3315496E0,0E0,1.4367561E0,0E0,0E0,2.525724E0,0E0,0E0,1.3638134E0,0E0,0E0,0E0,4.7448497E0,0E0,3.8142288E0,0E0,0E0,0E0,0E0,0E0,0E0,0E0,0E0,0E0,0E0,0E0],"parents":[2147483647,0,0,1,1,2,2,3,3,4,4,5,5,6,6,7,7,8,8,11,11,13,13,14,14,15,15,16,16,17,17,19,19,21,21,22,22,23,23,25,25,28,28,31,31,35,35,37,37],"right_children":[2,4,6,8,10,12,14,16,18,-1,-1,20,-1,22,24,26,28,30,-1,32,-1,34,36,38,-1,40,-1,-1,42,-1,-1,44,-1,-1,-1,46,-1,48,-1,-1,-1,-1,-1,-1,-1,-1,-1,-1,-1],"split_conditions":[1E0,1E0,1E0,1E0,1E0,1E0,1E0,1E0,1E0,-1.4942171E-2,5.004887E-2,1E0,2.4305E-2,1E0,1E0,1E0,1E0,1E0,-3.4073822E-2,1E0,1.3044287E-2,1E0,1E0,1E0,5.70615E-2,1E0,7.725589E-3,-4.3918718E-2,1E0,1.0265583E-2,5.6649055E-2,1E0,1.0848722E-2,-5.3757675E-2,5.525744E-3,1E0,-4.6620365E-2,1E0,5.2645124E-2,-5.650937E-2,7.8224385E-4,5.281205E-2,-2.1458862E-2,-6.229986E-2,-7.823389E-3,2.1327956E-2,-3.7179112E-2,-1.4142699E-2,4.6547912E-2],"split_indices":[125,1137,153,251,128,1776,1958,1769,915,0,0,1970,0,1917,1619,1777,149,141,0,1584,0,115,84,1905,0,202,0,0,74,0,0,1008,0,0,0,2020,0,1740,0,0,0,0,0,0,0,0,0,0,0],"split_type":[0,0,0,0,0,0,0,0,0,0,0,0,0,0,0,0,0,0,0,0,0,0,0,0,0,0,0,0,0,0,0,0,0,0,0,0,0,0,0,0,0,0,0,0,0,0,0,0,0],"sum_hessian":[1.5804997E2,4.491308E1,1.13136894E2,4.087791E1,4.035167E0,1.6986507E1,9.615039E1,3.5367E1,5.51091E0,1.1209824E0,2.9141848E0,1.5218431E1,1.7680751E0,6.287309E1,3.32773E1,3.0401842E1,4.965157E0,3.385281E0,2.125629E0,1.37003E1,1.5181313E0,5.664331E0,5.720876E1,1.6141562E1,1.713574E1,2.9338902E1,1.0629406E0,2.1984568E0,2.7667005E0,1.5755087E0,1.8097725E0,1.2638843E1,1.0614581E0,3.9330177E0,1.7313131E0,5.4741554E1,2.4672027E0,9.537819E0,6.603742E0,2.8230192E1,1.1087105E0,1.26799E0,1.4987104E0,1.1023247E1,1.6155956E0,5.193019E1,2.8113637E0,6.5734625E0,2.964356E0],"tree_param":{"num_deleted":"0","num_feature":"2215","num_nodes":"49","size_leaf_vector":"1"}},{"base_weights":[2.8105516E-2,-6.3152766E-1,2.8632715E-1,-7.7116567E-1,7.2330827E-1,-6.5469176E-1,4.4346341E-1,-9.644177E-1,-1.4791241E-1,2.9265725E-3,4.5428284E-2,-8.613723E-1,3.9256096E-2,-7.544333E-1,5.2702415E-1,-1.0320265E0,2.4783649E-3,-5.099499E-1,4.0802434E-1,-1.0370098E0,1.9495895E-2,-5.3673573E-2,5.465822E-3,5.7763964E-1,-6.1125584E-2,-1.0856395E0,-1.2565319E-3,-8.030591E-1,1.08456E-2,-5.7247527E-2,4.6593368E-2,-1.1425139E0,-8.789322E-3,6.3161784E-1,-5.2823174E-1,-5.719472E-2,-1.9155882E-2,-5.263525E-2,-2.3100355E-3,1.6101412E-2,-1.9734727E-2,-5.9908975E-2,-1.4547288E-2,3.344757E-2,-4.7411088E-2,-4.6661004E-2,2.2586688E-2],"categories":[],"categories_nodes":[],"categories_segments":[],"categories_sizes":[],"default_left":[0,0,0,0,0,0,0,0,0,0,0,0,0,0,0,0,0,0,0,0,0,0,0,0,0,0,0,0,0,0,0,0,0,0,0,0,0,0,0,0,0,0,0,0,0,0,0],"id":25,"left_children":[1,3,5,7,9,11,13,15,17,-1,-1,19,-1,21,23,25,-1,27,29,31,-1,-1,-1,33,-1,35,-1,37,-1,39,-1,41,-1,43,45,-1,-1,-1,-1,-1,-1,-1,-1,-1,-1,-1,-1],"loss_changes":[2.6781933E1,8.928961E0,1.6988243E1,4.747156E0,5.195391E-1,5.6049123E0,1.0143261E1,2.1631718E0,2.37976E0,0E0,0E0,3.6921854E0,0E0,1.9801979E0,8.817858E0,1.5343266E0,0E0,1.6610678E0,1.2259121E0,1.0159883E0,0E0,0E0,0E0,5.688429E0,0E0,6.8481827E-1,0E0,9.3126106E-1,0E0,5.7377565E-1,0E0,2.083149E-1,0E0,5.705868E0,2.2945647E0,0E0,0E0,0E0,0E0,0E0,0E0,0E0,0E0,0E0,0E0,0E0,0E0],"parents":[2147483647,0,0,1,1,2,2,3,3,4,4,5,5,6,6,7,7,8,8,11,11,13,13,14,14,15,15,17,17,18,18,19,19,23,23,25,25,27,27,29,29,31,31,33,33,34,34],"right_children":[2,4,6,8,10,12,14,16,18,-1,-1,20,-1,22,24,26,-1,28,30,32,-1,-1,-1,34,-1,36,-1,38,-1,40,-1,42,-1,44,46,-1,-1,-1,-1,-1,-1,-1,-1,-1,-1,-1,-1],"split_conditions":[1E0,1E0,1E0,1E0,1E0,1E0,1E0,1E0,1E0,2.9265725E-3,4.5428284E-2,1E0,3.9256096E-2,1E0,1E0,1E0,2.4783649E-3,1E0,1E0,1E0,1.9495895E-2,-5.3673573E-2,5.465822E-3,1E0,-6.1125584E-2,1E0,-1.2565319E-3,1E0,1.08456E-2,1E0,4.6593368E-2,1E0,-8.789322E-3,1E0,1E0,-5.719472E-2,-1.9155882E-2,-5.263525E-2,-2.3100355E-3,1.6101412E-2,-1.9734727E-2,-5.9908975E-2,-1.4547288E-2,3.344757E-2,-4.7411088E-2,-4.6661004E-2,2.2586688E-2],"split_indices":[125,758,153,50,1137,322,1917,1484,1008,0,0,1970,0,1312,1904,961,0,1958,142,1008,0,0,0,84,0,728,0,1329,0,153,0,281,0,2099,1055,0,0,0,0,0,0,0,0,0,0,0,0],"split_type":[0,0,0,0,0,0,0,0,0,0,0,0,0,0,0,0,0,0,0,0,0,0,0,0,0,0,0,0,0,0,0,0,0,0,0,0,0,0,0,0,0,0,0,0,0,0,0],"sum_hessian":[1.5517252E2,4.324823E1,1.11924286E2,3.959783E1,3.6503997E0,1.556229E1,9.6362E1,2.9807907E1,9.789925E0,1.0823709E0,2.568029E0,1.396011E1,1.6021806E0,5.7600093E0,9.060199E1,2.7927977E1,1.8799292E0,5.978997E0,3.8109276E0,1.2391957E1,1.5681522E0,4.0290275E0,1.7309822E0,8.87055E1,1.8964888E0,2.6441856E1,1.4861212E0,4.186107E0,1.7928901E0,2.4900277E0,1.3209001E0,1.0748587E1,1.6433704E0,8.498613E1,3.719369E0,2.3836964E1,2.6048932E0,2.8538818E0,1.3322254E0,1.1938663E0,1.2961613E0,9.707027E0,1.0415593E0,8.3587425E1,1.3987048E0,2.665503E0,1.0538658E0],"tree_param":{"num_deleted":"0","num_feature":"2215","num_nodes":"47","size_leaf_vector":"1"}},{"base_weights":[2.5078839E-2,-1.8063734E-1,8.101172E-1,-2.7889144E-1,8.538018E-1,-3.856617E-2,9.0740955E-1,-3.6582386E-1,8.068472E-1,6.9838755E-2,5.4333042E-2,9.754347E-1,-5.9985435E-3,-7.8042156E-1,-1.0683533E-1,4.2987805E-2,1.3013552E-2,-3.6078747E-2,3.7552875E-2,1.0635866E0,-1.315198E-2,-8.921513E-1,3.3439073E-1,-1.9983459E-1,5.447754E-2,5.5614125E-2,1.6926214E-2,-2.1311158E-2,2.1624539E-2,-4.759407E-2,2.6082277E-2,-4.006111E-2,5.550167E-2,-1.4766404E-2,4.651003E-2],"categories":[],"categories_nodes":[],"categories_segments":[],"categories_sizes":[],"default_left":[0,0,0,0,0,0,0,0,0,0,0,0,0,0,0,0,0,0,0,0,0,0,0,0,0,0,0,0,0,0,0,0,0,0,0],"id":26,"left_children":[1,3,5,7,9,-1,11,13,15,17,-1,19,-1,21,23,-1,-1,-1,-1,25,27,29,31,33,-1,-1,-1,-1,-1,-1,-1,-1,-1,-1,-1],"loss_changes":[2.474732E1,1.2589218E1,5.594576E0,1.08412075E1,1.8933754E0,0E0,2.2435532E0,1.1098582E1,2.4785519E-2,2.4499454E0,0E0,2.5105228E0,0E0,5.2659035E0,7.4783697E0,0E0,0E0,0E0,0E0,5.5257034E-1,7.9791266E-1,3.580639E0,4.7300916E0,6.8998923E0,0E0,0E0,0E0,0E0,0E0,0E0,0E0,0E0,0E0,0E0,0E0],"parents":[2147483647,0,0,1,1,2,2,3,3,4,4,6,6,7,7,8,8,9,9,11,11,13,13,14,14,19,19,20,20,21,21,22,22,23,23],"right_children":[2,4,6,8,10,-1,12,14,16,18,-1,20,-1,22,24,-1,-1,-1,-1,26,28,30,32,34,-1,-1,-1,-1,-1,-1,-1,-1,-1,-1,-1],"split_conditions":[1E0,1E0,1E0,1E0,1E0,-3.856617E-2,1E0,1E0,1E0,1E0,5.4333042E-2,1E0,-5.9985435E-3,1E0,1E0,4.2987805E-2,1.3013552E-2,-3.6078747E-2,3.7552875E-2,1E0,1E0,1E0,1E0,1E0,5.447754E-2,5.5614125E-2,1.6926214E-2,-2.1311158E-2,2.1624539E-2,-4.759407E-2,2.6082277E-2,-4.006111E-2,5.550167E-2,-1.4766404E-2,4.651003E-2],"split_indices":[1410,1045,145,1794,155,0,130,105,784,79,0,123,0,961,2013,0,0,0,0,274,168,2201,85,383,0,0,0,0,0,0,0,0,0,0,0],"split_type":[0,0,0,0,0,0,0,0,0,0,0,0,0,0,0,0,0,0,0,0,0,0,0,0,0,0,0,0,0,0,0,0,0,0,0],"sum_hessian":[1.5133269E2,1.2052064E2,3.0812056E1,1.1073325E2,9.787379E0,1.3842267E0,2.9427828E1,1.0313829E2,7.594965E0,2.5390651E0,7.248314E0,2.764777E1,1.7800589E0,3.8881737E1,6.425655E1,6.4022408E0,1.192724E0,1.1471311E0,1.391934E0,2.531461E1,2.3331587E0,3.5521408E1,3.3603292E0,6.0394825E1,3.8617318E0,2.3221012E1,2.0935981E0,1.2334433E0,1.0997156E0,3.4395008E1,1.1264018E0,1.3503349E0,2.009994E0,5.636994E1,4.0248804E0],"tree_param":{"num_deleted":"0","num_feature":"2215","num_nodes":"35","size_leaf_vector":"1"}},{"base_weights":[-9.275822E-3,-2.1240713E-1,8.0447775E-1,-3.1572822E-1,9.279972E-1,-3.8903527E-2,9.12547E-1,-7.6701355E-1,-8.494976E-2,5.837347E-4,5.2119624E-2,9.783177E-1,-3.343346E-3,-8.3131045E-1,3.366113E-2,-2.1155967E-1,8.9672923E-1,1.029313E0,-5.8751362E-3,-8.850354E-1,2.6147882E-2,-7.3982143E-1,4.487592E-2,6.003637E-2,-1.3547103E-2,2.574512E-1,5.5006344E-2,-4.764097E-2,2.229424E-4,-4.2660926E-2,2.2758124E-2,-2.1922639E-2,2.2343734E-2,-8.231117E-3,2.5120825E-2],"categories":[],"categories_nodes":[],"categories_segments":[],"categories_sizes":[],"default_left":[0,0,0,0,0,0,0,0,0,0,0,0,0,0,0,0,0,0,0,0,0,0,0,0,0,0,0,0,0,0,0,0,0,0,0],"id":27,"left_children":[1,3,5,7,9,-1,11,13,15,-1,-1,17,-1,19,-1,21,23,25,-1,27,-1,29,31,-1,-1,33,-1,-1,-1,-1,-1,-1,-1,-1,-1],"loss_changes":[2.516071E1,1.4641057E1,5.9106007E0,1.1641119E1,1.074831E0,0E0,1.9286537E0,4.069935E0,9.572967E0,0E0,0E0,1.6391697E0,0E0,3.1355572E0,0E0,9.20139E0,3.454504E0,1.1413345E0,0E0,2.1569748E0,0E0,3.3931684E0,9.2317095E0,0E0,0E0,4.4414175E-1,0E0,0E0,0E0,0E0,0E0,0E0,0E0,0E0,0E0],"parents":[2147483647,0,0,1,1,2,2,3,3,4,4,6,6,7,7,8,8,11,11,13,13,15,15,16,16,17,17,19,19,21,21,22,22,25,25],"right_children":[2,4,6,8,10,-1,12,14,16,-1,-1,18,-1,20,-1,22,24,26,-1,28,-1,30,32,-1,-1,34,-1,-1,-1,-1,-1,-1,-1,-1,-1],"split_conditions":[1E0,1E0,1E0,1E0,1E0,-3.8903527E-2,1E0,1E0,1E0,5.837347E-4,5.2119624E-2,1E0,-3.343346E-3,1E0,3.366113E-2,1E0,1E0,1E0,-5.8751362E-3,1E0,2.6147882E-2,1E0,1E0,6.003637E-2,-1.3547103E-2,1E0,5.5006344E-2,-4.764097E-2,2.229424E-4,-4.2660926E-2,2.2758124E-2,-2.1922639E-2,2.2343734E-2,-8.231117E-3,2.5120825E-2],"split_indices":[1410,1045,145,125,149,0,844,1644,285,0,0,949,0,1935,0,105,54,158,0,1624,0,1794,1366,0,0,89,0,0,0,0,0,0,0,0,0],"split_type":[0,0,0,0,0,0,0,0,0,0,0,0,0,0,0,0,0,0,0,0,0,0,0,0,0,0,0,0,0,0,0,0,0,0,0],"sum_hessian":[1.5017973E2,1.2077143E2,2.9408302E1,1.1140154E2,9.369882E0,1.48356E0,2.7924744E1,3.690687E1,7.4494675E1,1.1622388E0,8.2076435E0,2.6168562E1,1.7561809E0,3.5734367E1,1.1725035E0,6.6679344E1,7.8153315E0,2.5062923E1,1.1056393E0,3.470411E1,1.0302577E0,2.1174496E1,4.550485E1,6.1784816E0,1.6368499E0,2.4957054E0,2.2567217E1,3.218059E1,2.523518E0,1.960052E1,1.5739753E0,2.0621115E1,2.4883734E1,1.0369773E0,1.4587282E0],"tree_param":{"num_deleted":"0","num_feature":"2215","num_nodes":"35","size_leaf_vector":"1"}},{"base_weights":[1.8551238E-2,-5.8001727E-1,2.6334444E-1,-7.237837E-1,7.2273517E-1,-6.516883E-1,4.2796668E-1,-8.805126E-1,1.5158251E-1,3.6949172E-4,4.7594607E-2,-8.394027E-1,3.7114542E-2,5.969977E-1,-2.1567662E-1,-9.888138E-1,-1.429826E-1,4.677835E-1,-2.6074657E-2,-1.0137545E0,1.6508002E-2,2.1295166E-1,8.01054E-1,-5.9753525E-1,6.004198E-1,-1.0557507E0,4.9448023E-3,-6.816296E-1,3.8654342E-2,-1.019806E-1,4.598966E-2,-1.1287838E0,4.1841725E-3,-2.5893387E-1,7.003144E-1,8.6811215E-1,-2.502272E-2,-8.204882E-1,2.3692561E-2,5.6204826E-2,4.45008E-2,-5.845618E-2,-7.356863E-3,-4.1229468E-2,-7.5509935E-3,1.0870851E-2,-1.8209504E-2,-6.0098182E-2,-9.42189E-3,9.947276E-3,-4.043616E-2,4.5763265E-2,-2.4751227E-2,4.5646742E-2,-1.7879492E-2,-5.2445676E-2,1.53764505E-2,3.9399207E-2,-3.0688912E-2],"categories":[],"categories_nodes":[],"categories_segments":[],"categories_sizes":[],"default_left":[0,0,0,0,0,0,0,0,0,0,0,0,0,0,0,0,0,0,0,0,0,0,0,0,0,0,0,0,0,0,0,0,0,0,0,0,0,0,0,0,0,0,0,0,0,0,0,0,0,0,0,0,0,0,0,0,0,0,0],"id":28,"left_children":[1,3,5,7,9,11,13,15,17,-1,-1,19,-1,21,23,25,27,29,-1,31,-1,33,35,37,39,41,-1,43,-1,45,-1,47,-1,49,51,53,-1,55,-1,57,-1,-1,-1,-1,-1,-1,-1,-1,-1,-1,-1,-1,-1,-1,-1,-1,-1,-1,-1],"loss_changes":[2.1706366E1,8.578307E0,1.6109005E1,5.5161667E0,7.756994E-1,4.91972E0,9.884384E0,2.528286E0,1.6935108E0,0E0,0E0,3.3813286E0,0E0,5.4157295E0,6.3998585E0,2.2139702E0,3.215481E0,1.4229987E0,0E0,1.7668543E0,0E0,6.1828365E0,4.465605E0,3.6630173E0,1.0024483E0,2.6484756E0,0E0,1.7605042E-1,0E0,3.4578547E-1,0E0,6.0341835E-1,0E0,3.6823168E0,3.8208613E0,2.759758E0,0E0,3.3404293E0,0E0,2.1441212E0,0E0,0E0,0E0,0E0,0E0,0E0,0E0,0E0,0E0,0E0,0E0,0E0,0E0,0E0,0E0,0E0,0E0,0E0,0E0],"parents":[2147483647,0,0,1,1,2,2,3,3,4,4,5,5,6,6,7,7,8,8,11,11,13,13,14,14,15,15,16,16,17,17,19,19,21,21,22,22,23,23,24,24,25,25,27,27,29,29,31,31,33,33,34,34,35,35,37,37,39,39],"right_children":[2,4,6,8,10,12,14,16,18,-1,-1,20,-1,22,24,26,28,30,-1,32,-1,34,36,38,40,42,-1,44,-1,46,-1,48,-1,50,52,54,-1,56,-1,58,-1,-1,-1,-1,-1,-1,-1,-1,-1,-1,-1,-1,-1,-1,-1,-1,-1,-1,-1],"split_conditions":[1E0,1E0,1E0,1E0,1E0,1E0,1E0,1E0,1E0,3.6949172E-4,4.7594607E-2,1E0,3.7114542E-2,1E0,1E0,1E0,1E0,1E0,-2.6074657E-2,1E0,1.6508002E-2,1E0,1E0,1E0,1E0,1E0,4.9448023E-3,1E0,3.8654342E-2,1E0,4.598966E-2,1E0,4.1841725E-3,1E0,1E0,1E0,-2.502272E-2,1E0,2.3692561E-2,1E0,4.45008E-2,-5.845618E-2,-7.356863E-3,-4.1229468E-2,-7.5509935E-3,1.0870851E-2,-1.8209504E-2,-6.0098182E-2,-9.42189E-3,9.947276E-3,-4.043616E-2,4.5763265E-2,-2.4751227E-2,4.5646742E-2,-1.7879492E-2,-5.2445676E-2,1.53764505E-2,3.9399207E-2,-3.0688912E-2],"split_indices":[125,1137,153,251,118,322,123,1769,915,0,0,1970,0,113,141,1731,1889,141,0,1010,0,83,1912,1195,1255,314,0,82,0,149,0,2131,0,132,54,84,0,1327,0,109,0,0,0,0,0,0,0,0,0,0,0,0,0,0,0,0,0,0,0],"split_type":[0,0,0,0,0,0,0,0,0,0,0,0,0,0,0,0,0,0,0,0,0,0,0,0,0,0,0,0,0,0,0,0,0,0,0,0,0,0,0,0,0,0,0,0,0,0,0,0,0,0,0,0,0,0,0,0,0,0,0],"sum_hessian":[1.460981E2,4.200878E1,1.0408932E2,3.8233868E1,3.774913E0,1.5420069E1,8.866925E1,3.2422874E1,5.8109946E0,1.1663225E0,2.6085906E0,1.3940646E1,1.4794226E0,7.028402E1,1.8385231E1,2.7974325E1,4.4485497E0,4.161153E0,1.6498421E0,1.2248002E1,1.6926441E0,2.5095814E1,4.5188206E1,1.2707223E1,5.6780076E0,2.6380283E1,1.594042E0,2.9625156E0,1.486034E0,2.18337E0,1.9777826E0,1.1060156E1,1.1878462E0,1.2988498E1,1.2107317E1,4.3290718E1,1.8974891E0,1.0712217E1,1.9950061E0,2.3867884E0,3.2912195E0,2.3198912E1,3.1813712E0,1.897295E0,1.0652206E0,1.0613571E0,1.122013E0,1.000345E1,1.0567055E0,7.434766E0,5.553732E0,1.046056E1,1.6467569E0,4.200964E1,1.2810769E0,8.966595E0,1.7456229E0,1.0566032E0,1.3301852E0],"tree_param":{"num_deleted":"0","num_feature":"2215","num_nodes":"59","size_leaf_vector":"1"}},{"base_weights":[1.1893985E-2,-1.6763423E-1,7.47146E-1,-4.8413184E-1,1.5000509E-1,-4.1266772E-1,9.4789153E-1,-5.885085E-1,5.157207E-1,-1.2886332E-1,7.2436905E-1,-4.3784313E-2,1.0281985E-2,1.0263106E0,8.840421E-2,-6.5847766E-1,6.1102855E-1,-1.6105424E-1,4.9094934E-2,-5.127302E-1,2.2926597E-1,9.1034484E-1,-5.694496E-1,5.4621488E-2,2.681501E-3,-7.986854E-3,1.4641858E-2,-7.219052E-1,3.497946E-2,4.611781E-2,3.5962889E-3,-4.223631E-2,2.8039742E-2,-6.363284E-1,3.5404548E-2,-1.6345894E-1,7.2642624E-1,9.9747264E-1,-1.1369002E-2,3.832046E-3,-4.6934962E-2,-4.090148E-2,3.6477533E-3,-3.686015E-2,2.0407146E-2,-2.248977E-2,4.7852702E-2,-1.569257E-3,4.554538E-2,5.2701484E-2,6.2300204E-3],"categories":[],"categories_nodes":[],"categories_segments":[],"categories_sizes":[],"default_left":[0,0,0,0,0,0,0,0,0,0,0,0,0,0,0,0,0,0,0,0,0,0,0,0,0,0,0,0,0,0,0,0,0,0,0,0,0,0,0,0,0,0,0,0,0,0,0,0,0,0,0],"id":29,"left_children":[1,3,5,7,9,11,13,15,17,19,21,-1,-1,23,25,27,29,31,-1,33,35,37,39,-1,-1,-1,-1,41,-1,-1,-1,-1,-1,43,-1,45,47,49,-1,-1,-1,-1,-1,-1,-1,-1,-1,-1,-1,-1,-1],"loss_changes":[1.9302137E1,1.1893791E1,7.0721645E0,6.4749556E0,9.615666E0,1.5916312E0,1.5784054E0,4.935667E0,2.0898366E0,5.7359595E0,5.2301292E0,0E0,0E0,1.3948631E0,2.0732361E-1,4.9426613E0,5.2035403E-1,2.1301107E0,0E0,3.4736295E0,4.381821E0,1.9620905E0,8.0581623E-1,0E0,0E0,0E0,0E0,3.8578339E0,0E0,0E0,0E0,0E0,0E0,2.2731767E0,0E0,4.6061516E0,1.4013901E0,6.8055534E-1,0E0,0E0,0E0,0E0,0E0,0E0,0E0,0E0,0E0,0E0,0E0,0E0,0E0],"parents":[2147483647,0,0,1,1,2,2,3,3,4,4,5,5,6,6,7,7,8,8,9,9,10,10,13,13,14,14,15,15,16,16,17,17,19,19,20,20,21,21,22,22,27,27,33,33,35,35,36,36,37,37],"right_children":[2,4,6,8,10,12,14,16,18,20,22,-1,-1,24,26,28,30,32,-1,34,36,38,40,-1,-1,-1,-1,42,-1,-1,-1,-1,-1,44,-1,46,48,50,-1,-1,-1,-1,-1,-1,-1,-1,-1,-1,-1,-1,-1],"split_conditions":[1E0,1E0,1E0,1E0,1E0,1E0,1E0,1E0,1E0,1E0,1E0,-4.3784313E-2,1.0281985E-2,1E0,1E0,1E0,1E0,1E0,4.9094934E-2,1E0,1E0,1E0,1E0,5.4621488E-2,2.681501E-3,-7.986854E-3,1.4641858E-2,1E0,3.497946E-2,4.611781E-2,3.5962889E-3,-4.223631E-2,2.8039742E-2,1E0,3.5404548E-2,1E0,1E0,1E0,-1.1369002E-2,3.832046E-3,-4.6934962E-2,-4.090148E-2,3.6477533E-3,-3.686015E-2,2.0407146E-2,-2.248977E-2,4.7852702E-2,-1.569257E-3,4.554538E-2,5.2701484E-2,6.2300204E-3],"split_indices":[1410,862,144,2078,62,1233,274,2046,481,101,90,0,0,102,2209,283,92,115,0,961,136,1624,110,0,0,0,0,1921,0,0,0,0,0,169,0,2013,118,53,0,0,0,0,0,0,0,0,0,0,0,0,0],"split_type":[0,0,0,0,0,0,0,0,0,0,0,0,0,0,0,0,0,0,0,0,0,0,0,0,0,0,0,0,0,0,0,0,0,0,0,0,0,0,0,0,0,0,0,0,0,0,0,0,0,0,0],"sum_hessian":[1.4428113E2,1.16586044E2,2.7695084E1,5.813542E1,5.845062E1,3.9305475E0,2.3764538E1,5.3012722E1,5.122702E0,3.9868893E1,1.8581726E1,2.0094845E0,1.9210628E0,2.1599699E1,2.1648376E0,5.051711E1,2.4956129E0,2.356365E0,2.7663372E0,1.9034624E1,2.0834269E1,1.6505575E1,2.0761516E0,2.0109612E1,1.4900885E0,1.0766411E0,1.0881966E0,4.871055E1,1.8065593E0,1.1313548E0,1.3642582E0,1.12276E0,1.2336049E0,1.7719444E1,1.3151796E0,1.2014665E1,8.819604E0,1.5445984E1,1.0595905E0,1.0432237E0,1.032928E0,4.3429382E1,5.281166E0,1.6427107E1,1.2923363E0,1.0046068E1,1.9685965E0,1.8891675E0,6.930436E0,1.4311163E1,1.134821E0],"tree_param":{"num_deleted":"0","num_feature":"2215","num_nodes":"51","size_leaf_vector":"1"}},{"base_weights":[-2.521723E-2,-6.5570337E-1,2.1732952E-1,-9.894893E-1,-7.107047E-2,-6.2525E-1,3.6682165E-1,-1.1064913E0,3.315299E-2,-3.6118624E-1,4.7178693E-2,-8.421173E-1,2.7907819E-2,-7.843623E-1,4.433118E-1,-1.1462363E0,-1.0129105E-2,-3.4827363E-2,3.6007643E-2,-4.8580188E-1,2.8060028E-2,-9.604746E-1,8.629656E-3,-5.098162E-2,3.3263096E-3,4.9191537E-1,-5.6276698E-2,-5.907288E-2,-1.4786909E-2,-5.076508E-2,-3.8827587E-2,-1.090659E0,8.586974E-3,3.741948E-1,1.0766354E0,2.4581408E-2,-1.9952063E-2,-5.786428E-2,-1.535683E-2,7.32501E-3,3.6854334E-2,5.6096166E-2,1.7346438E-2],"categories":[],"categories_nodes":[],"categories_segments":[],